tree
version=v3
num_class=1
num_tree_per_iteration=1
label_index=0
max_feature_idx=18
objective=binary sigmoid:1
feature_names=Column_0 Column_1 Column_2 Column_3 Column_4 Column_5 Column_6 Column_7 Column_8 Column_9 Column_10 Column_11 Column_12 Column_13 Column_14 Column_15 Column_16 Column_17 Column_18
feature_infos=[0:1] [0:255] [0:1] [0:1] [0:1] [0:1] [0:1] [0:1] [0:1] [0:69] [0:10] [0:1] [0:1] [0:511] [0:255] [0:1] [0:1] [0:1] [0:1]
tree_sizes=1745 1743 1738 1742 1760 1744 1762 1759 1744 1758 1750 1728 1755 1737 1744 1743 1748 1735 1757 1734 1745 1753 1756 1744 1741 1746 1759 1741 1742 1752 1749 1738 1738 1737 1749 1755 1754 1753 1767 1756 1750 1755 1742 1752 1738 1757 1754 1750 1758 1751 1757 1741 1748 1751 1752 1741 1758 1747 1751 1748 1755 1755 1722 1747 1753 1768 1745 1752 1756 1755 1748 1757 1758 1750 1750 1746 1735 1746 1753 1754 1751 1753 1750 1744 1757 1753 1762 1747 1756 1753 1755 1756 1758 1743 1744 1754 1765 1757 1756 1774 1751 1748 1754 1751 1750 1765 1760 1755 1768 1761 1761 1749 1754 1743 1758 1751 1750 1755 1745 1758 1763 1767 1754 1761 1765 1752 1749 1734 1760 1754 1747 1734 1744 1736 1751 1750 1769 1743 1773 1760 1754 1755 1744 1754 1754 1751 1755 1760 1748 1768 1761 1740 1753 1749 1749 1751 1763 1747 1750 1753 1757 1752 1764 1739 1755 1760 1748 1746 1743 1754 1734 1736 1752 1756 1732 1720 1723 1751 1739 1766 1740 1740 1727 1736 1746 1751 1731 1734 1764 1750 1738 1743 1747 1747 1753 1728 1740 1754 1742 1757 1724 1751 1757 1744 1741 1760 1750 1746 1723 1744 1747 1756 1727 1723 1759 1748 1748 1745 1734 1740 1740 1739 1732 1749 1748 1748 1749 1731 1722 1752 1743 1751 1747 1749 1757 1770 1743 1769 1761 1773 1748 1757 1761 1711 1754 1748 1745 1757 1753 1738 1740 1743 1755 1739 1745 1754 1736 1740 1738 1751 1739 1743 1745 1754 1722 1749 1763 1724 1750 1737 1754 1758 1734 1768 1737 1755 1731 1738 1733 1751 1733 1748 1750 1751 1737 1748 1750 1762 1760 1750 1764 1733 1777 1747 1718 1748 1741 1739 1743 1756 1745 1741 1748 1759 1747 1752 1737 1757 1764 1744 1730 1746 1746 1755 1740 1749 1754 1751 1735 1732 1755 1727 1753 1759 1731 1753 1743 1764 1748 1737 1711 1725 1741 1745 1756 1757 1743 1738 1729 1732 1748 1729 1728 1733 1755 1741 1741 1760 1755 1752 1743 1719 1743 1749 1746 1729 1745 1726 1763 1737 1751 1738 1745 1743 1751 1749 1747 1727 1764 1734 1755 1732 1751 1747 1735 1754 1742 1750 1747 1737 1766 1750 1749 1743 1742 1753 1726 1746 1726 1742 1754 1754 1745 1762 1727 1749 1751 1739 1749 1757 1749 1743 1732 1762 1753 1741 1761 1760 1769 1738 1739 1753 1740 1753 1738 1759 1736 1755 1737 1761 1737 1768 1735 1744 1738 1744 1749 1766 1745 1742 1750 1724 1767 1738 1751 1750 1759 1750 1751 1757 1753 1765 1761 1754 1735 1745 1756 1745 1747 1743 1744 1754 1744 1767 1760 1736 1751 1742 1727 1746 1758 1742 1765 1741 1764 1732 1752 1749 1745 1728 1750 1763 1739 1748 1738 1758 1732 1723 1733 1755 1770 1777 1748 1765 1773 1772 1747 1771 1749 1755 1754 1741 1770 1741 1771 1746 1731 1748 1743 1728 1746 1740 1766 1741 1739 1741 1766 1741 1725 1722 1725 1751 1717 1737 1711 1771 1738 1742 1706 1747 1764 1745 1770 1748 1755 1743 1742 1738 1725 1754 1769 1730 1742 1735 1743 1753 1769 1755 1757 1749 1716 1751 1772 1771 1727 1725 1747 1740 1741 1770 1767 1733 1734 1743 1726 1776 1777 1718 1750 1756 1762 1735 1738 1760 1747 1740 1725 1751 1768 1723 1736 1743 1738 1759 1723 1748 1755 1735 1748 1758 1747 1766 1721 1771 1735 1762 1729 1738 1756 1753 1746 1718 1750 1744 1736 1751 1737 1724 1769 1759 1763 1743 1754 1739 1725 1740 1749 1751 1724 1765 1734 1752 1760 1740 1763 1771 1741 1761 1731 1764 1741 1736 1735 1749 1761 1744 1741 1737 1764 1737 1743 1750 1746 1748 1756 1764 1739 1748 1745 1775 1755 1782 1765 1755 1746 1758 1737 1748 1780 1725 1748 1754 1742 1775 1743 1738 1770 1752 1757 1748 1770 1749 1755 1752 1739 1736 1745 1756 1767 1742 1736 1731 1761 1752 1731 1735 1743 1756 1742 1755 1752 1740 1757 1745 1745 1754 1763 1739 1762 1773 1752 1743 1757 1716 1743 1731 1756 1754 1775 1744 1760 1760 1773 1724 1740 1745 1732 1748 1773 1737 1749 1753 1768 1779 1744 1749 1776 1760 1763 1745 1733 1749 1721 1742 1731 1762 1761 1756 1751 1757 1761 1732 1748 1758 1727 1738 1730 1744 1758 1756 1767 1769 1742 1757 1763 1764 1749 1762 1727 1746 1761 1760 1743 1768 1763 1760 1717 1766 1735 1743 1756 1748 1757 1766 1737 1784 1749 1739 1768 1768 1764 1743 1757 1755 1758 1765 1751 1724 1748 1750 1771 1780 1743 1753 1748 1747 1757 1773 1766 1750 1769 1751 1769 1758 1746 1760 1771 1736 1749 1769 1776 1743 1749 1751 1736 1751 1765 1747 1763 1720 1738 1774 1759 1750 1741 1776 1748 1770 1768 1740 1762 1746 1747 1762 1745 1751 1760 1745 1753 1786 1755 1735 1741 1740 1763 1769 1781 1762 1765 1757 1737 1742 1751 1736 1766 1738 1739 1734 1760 1733 1751 1759 1750 1725 1762 1763 1753 1717 1778 1750 1756 1796 1749 1774 1758 1748 1745 1737 1767 1778 1774 1761 1745 1746 1759 1757 1761 1753 1763 1754 1752 1751 1742 1757 1770 1769 1772 1761 1758 1752 1763 1739 1758 1756 1738 1740 1754 1746 1736 1748 1736 1745 1744 1749 1759 1756 1771 1752 1750 1750 1744 1760 1761 1748 1744 1766 1740 1768 1766 1716 1752 1761 1753 1768 1762 1770 1768 1748 1759 1756 1723 1751 1738 1759 1732 1752 1748 1755 1749 1745 1743 1743 1763 1765 1740 1768 1755 1768 1764 1772 1743 1755 1756 1763 1753 1754 1770 1773 1749 1757 1768 1758 1750 1752 1770 1766 1741 1745 1775 1760 1725 1770 1774 1750 1752 1730 1740 1756 1763 1765 1748 1767 1760 1744 1741 1772 1731 1766 1756 1782 1747 1738 1741 1765 1747 1776 1780 1753 1773 1746 1746 1767 1771 1758 1761 1749 1765 1763 1741 1762 1754 1769 1750 1752 1757 1761 1776 1767 1759 1757 1752 1768 1749 1772 1759 1767 1758 1780 1755 1768 1765 1745 1738 1769 1747 1774 1761 1766 1760 1748 1742 1773 1746 1773 1766 1748 1784 1769 1750 1776 1769 1768 1786 1768 1752 1758 1771 1739 1771 1758 1748 1748 1749 1780 1762 1757 1782 1764 1764 1760 1755 1748 1763 1770 1751 1764 1736 1768 1764 1770 1776 1749 1766 1753 1758 1789 1755 1761 1774 1743 1762 1768 1745 1744 1774 1769 1765 1750 1762 1757 1757 1726 1747 1787 1745 1747 1762 1766 1750 1773 1769 1748 1766 1749 1766 1758 1781 1766 1747 1755 1753 1777 1769 1792 1768 1773 1758 1764 1772 1770 1751 1768 1739 1763 1771 1744 1780 1738 1761 1760 1785 1760 1771 1752 1748 1781 1772 1765 1743 1778 1755 1779 1740 1761 1753 1777 1747 1753 1752 1743 1739 1777 1764 1769 1747 1779 1759 1753 1770 1756 1767 1757 1774 1738 1764 1757 1758 1760 1778 1760 1765 1783 1752 1760 1757 1769 1778 1765 1758 1759 1734 1771 1763 1769 1719 1773 1796 1763 1761 1787 1755 1766 1775 1761 1767 1747 1775 1780 1775 1737 1756 1760 1744 1770 1760 1769 1726 1783 1751 1766 1777 1773 1723 1754 1757 1792 1742 1783 1755 1754 1746 1736 1772 1754 1756 1756 1747 1773 1759 1767 1772 1775 1765 1787 1751 1756 1770 1769 1760 1755 1787 1765 1730 1759 1774 1777 1778 1779 1780 1791 1758 1754 1757 1751 1767 1776 1745 1757 1805 1761 1753 1772 1807 1734 1765 1757 1765 1746 1764 1796 1774 1765 1756 1771 1764 1756 1796 1779 1761 1770 1765 1758 1784 1788 1752 1778 1780 1764 1737 1758 1785 1780 1771 1772 1756 1772 1748 1749 1790 1797 1758 1772 1750 1796 1778 1727 1756 1775

Tree=0
num_leaves=15
num_cat=0
split_feature=0 1 14 18 13 13 12 13 9 1 13 9 4 9
split_gain=56224.6 6971.13 2957.21 3754.96 2787.71 2634.39 2475.6 1770.92 1425.93 1231.76 954.606 877.261 621.581 441.672
threshold=0.49500000000000005 163.50000000000003 4.5000000000000009 0.055000000000000007 10.500000000000002 24.500000000000004 0.59500000000000008 326.50000000000006 23.500000000000004 2.5000000000000004 2.5000000000000004 14.500000000000002 0.025000000000000005 19.500000000000004
decision_type=2 2 2 2 2 2 2 2 2 2 2 2 2 2
left_child=4 2 8 5 12 6 -4 13 -2 -5 -11 -7 -1 -3
right_child=1 7 3 9 -6 11 -8 -9 -10 10 -12 -13 -14 -15
leaf_value=-0.2121071824643897 -0.045819441432252167 -0.20170473587535681 -0.21335136516002862 -0.034127225310662548 -0.033434095000021258 -0.23207623433506125 -0.054163597083373274 -0.065944560045691866 -0.21020505439474715 -0.20816638727221293 -0.057688349722927038 -0.040262160714789039 -0.038235632935484237 -0.22901280024126505
leaf_weight=275.42619627714157 805.87664836645126 1825.7248674631119 3511.3729973435402 580.95769494771957 8710.1357536315918 71.406791627407074 262.48838037252426 180.88061851263046 157.74183237552643 253.03382259607315 180.63181436061859 360.76602041721344 63.19625461101532 7834.3451385498047
leaf_count=1107 3239 7338 14113 2335 35008 287 1055 727 634 1017 726 1450 254 31488
internal_value=-0.138545 -0.194807 -0.153207 -0.168061 -0.0389061 -0.188888 -0.202279 -0.220949 -0.0727289 -0.0817249 -0.145489 -0.0719551 -0.179658 -0.223852
internal_weight=0 16025.2 6184.28 5220.66 9048.76 4206.03 3773.86 9840.95 963.618 1014.62 433.666 432.173 338.622 9660.07
internal_count=100778 64409 24856 20983 36369 16905 15168 39553 3873 4078 1743 1737 1361 38826
is_linear=0
shrinkage=1


Tree=1
num_leaves=15
num_cat=0
split_feature=10 2 11 9 9 9 6 18 0 9 18 3 9 2
split_gain=52796.3 7337.5 5977.35 6048.26 4490.66 1970.04 1237.31 562.406 476.003 405.54 367.256 334.703 316.955 791.49
threshold=5.5000000000000009 0.59500000000000008 1.0000000180025095e-35 12.500000000000002 17.500000000000004 44.500000000000007 0.015000000000000001 1.0000000180025095e-35 0.99500000000000011 1.5000000000000002 0.10500000000000002 0.03500000000000001 23.500000000000004 0.99500000000000011
decision_type=2 2 2 2 2 2 2 2 2 2 2 2 2 2
left_child=1 9 3 -2 8 10 -7 12 -5 -1 -6 -3 13 -4
right_child=2 11 7 4 5 6 -8 -9 -10 -11 -12 -13 -14 -15
leaf_value=-0.081944387990132497 -0.090162449849757742 -0.082328603484509599 -0.078875176753409965 -0.076987277354972156 -0.082844172250725157 -0.047603666209746723 0.074388358824970205 -0.044958736252563108 0.091682512249899345 0.10076992656827535 0.07683345049800519 0.050440754709161421 -0.089433248140928429 0.045991864360604352
leaf_weight=30.467988282442093 1796.5979408025742 610.99327336251736 784.28329268097878 43.043073251843452 956.73093931376934 343.5513449460268 526.22002957761288 911.45347318053246 1482.6946300268173 9334.4885577112436 37.418152302503586 51.466750785708427 7960.7097052037716 151.40822276473045
leaf_count=123 7261 2474 3172 174 3867 1387 2113 3688 5950 37352 150 207 32251 609
internal_value=0 0.0887998 -0.0594089 -0.0159955 0.0233148 -0.0287535 0.0262027 -0.0823653 0.0869241 0.100175 -0.0768342 -0.0720137 -0.0861977 -0.0586699
internal_weight=0 10027.4 14994.1 5186.26 3389.66 1863.92 869.771 9807.85 1525.74 9364.96 994.149 662.46 8896.4 935.692
internal_count=100778 40156 60622 20902 13641 7517 3500 39720 6124 37475 4017 2681 36032 3781
is_linear=0
shrinkage=0.05


Tree=2
num_leaves=15
num_cat=0
split_feature=10 2 11 9 9 9 6 7 15 9 14 9 2 0
split_gain=47872.5 6623.26 5490.94 5517.8 4047.71 1795.77 1115.63 432.282 384.437 366.054 312.742 310.139 690.121 281.705
threshold=5.5000000000000009 0.59500000000000008 1.0000000180025095e-35 12.500000000000002 17.500000000000004 44.500000000000007 0.015000000000000001 0.055000000000000007 0.15500000000000005 1.5000000000000002 201.50000000000003 23.500000000000004 0.99500000000000011 0.19500000000000003
decision_type=2 2 2 2 2 2 2 2 2 2 2 2 2 2
left_child=1 9 3 -2 7 13 -7 -5 11 -1 -8 12 -4 -6
right_child=2 -3 8 4 5 6 10 -9 -10 -11 -12 -13 -14 -15
leaf_value=-0.078573395338015037 -0.086635200568375037 -0.069093890701884861 -0.071084495534712883 0.086896124612631687 0.034823742462640465 -0.0454450004442528 0.012690123489746985 -0.075931359046175984 0.02731258251384637 0.095803944125440868 0.096152515121594978 -0.083257924471563632 0.043378155085311475 -0.080294966664763268
leaf_weight=30.193125486373901 1776.7436030507088 656.11752571165562 927.1227879524231 1486.4257777929306 56.369106158614159 341.91786259412766 162.01118765771389 41.910941123962402 84.087803855538368 9327.4015235304832 365.34569397568703 8536.2089687585831 153.48607650399208 928.41296394169331
leaf_count=123 7261 2681 3783 5953 227 1387 650 171 343 37352 1463 34978 616 3790
internal_value=0 0.0844737 -0.0569676 -0.0152901 0.0221869 -0.0274735 0.0249017 0.082431 -0.0791325 0.0952413 0.0705117 -0.0800632 -0.0548266 -0.0737056
internal_weight=0 10013.7 14860 5159.14 3382.39 1854.06 869.275 1528.34 9700.91 9357.59 527.357 9616.82 1080.61 984.782
internal_count=100778 40156 60622 20902 13641 7517 3500 6124 39720 37475 2113 39377 4399 4017
is_linear=0
shrinkage=0.05


Tree=3
num_leaves=15
num_cat=0
split_feature=10 2 11 9 9 9 6 18 15 9 18 3 2 14
split_gain=43584.1 6009.66 5056.86 5051.6 3663.21 1641.31 1009.31 529.725 344.507 332.214 325.742 323.712 316.167 283.773
threshold=5.5000000000000009 0.57500000000000007 1.0000000180025095e-35 12.500000000000002 17.500000000000004 44.500000000000007 0.015000000000000001 1.0000000180025095e-35 0.13000000000000003 1.5000000000000002 0.10500000000000002 0.03500000000000001 0.03500000000000001 201.50000000000003
decision_type=2 2 2 2 2 2 2 2 2 2 2 2 2 2
left_child=1 9 3 -2 12 10 -7 -4 -9 -1 -6 -3 -5 -8
right_child=2 11 7 4 5 6 13 8 -10 -11 -12 -13 -14 -15
leaf_value=-0.075551505847026537 -0.083529474428600606 -0.076417556769469208 -0.080028301986070041 -0.030952030132791648 -0.076667112408589255 -0.043420921920561323 0.012050267759827394 -0.047487139179023224 0.083061780769438084 0.091549891390082017 0.073825702596264239 0.052615021821984187 0.083221961399376848 0.091571096896469251
leaf_weight=29.839562222361565 1751.2983893752098 599.61518703401089 8671.5816326886415 63.258944019675255 935.70903353393078 340.01205007731915 162.08119678497314 842.99232409894466 53.75750707089901 9273.4673167616129 37.393895089626312 52.895029336214066 1461.6877638846636 364.45911434292793
leaf_count=123 7261 2482 36032 257 3867 1387 650 3470 218 37338 150 213 5867 1463
internal_value=0 0.0807259 -0.0547901 -0.0146626 0.021183 -0.0263169 0.0237301 -0.0762451 -0.0396611 0.0910139 -0.0708841 -0.0659577 0.0784857 0.0670928
internal_weight=0 9955.82 14684.2 5115.9 3364.6 1839.66 866.552 9568.33 896.75 9303.31 973.103 652.51 1524.95 526.54
internal_count=100778 40156 60622 20902 13641 7517 3500 39720 3688 37461 4017 2695 6124 2113
is_linear=0
shrinkage=0.05


Tree=4
num_leaves=15
num_cat=0
split_feature=10 2 11 14 13 18 10 18 8 13 2 15 3 11
split_gain=39818.2 5476.83 4665.49 4050.93 2115.29 1792.9 528.63 499.934 319.469 510.649 662.527 311.864 284.545 235.265
threshold=5.5000000000000009 0.59500000000000008 1.0000000180025095e-35 4.5000000000000009 326.50000000000006 0.14500000000000005 9.5000000000000018 1.0000000180025095e-35 1.0000000180025095e-35 8.5000000000000018 0.6150000000000001 0.13000000000000003 0.03500000000000001 1.0000000180025095e-35
decision_type=2 2 2 2 2 2 2 2 2 2 2 2 2 2
left_child=1 13 3 -2 5 6 8 -4 9 -5 -11 -9 -3 -1
right_child=2 12 7 4 -6 -7 -8 11 -10 10 -12 -13 -14 -15
leaf_value=0.087685828883890454 0.083905698941025508 -0.073844331870942442 -0.077351596475531595 -0.069147269254538915 0.076588008999121007 0.079476101400753396 0.096799997201025223 -0.045505962642713164 -0.080918154816754656 0.032300496889128061 -0.04963981518036218 0.078289592888700521 0.048652717438470945 -0.068656044539422076
leaf_weight=9195.0925886034966 872.55676540732384 588.48675800859928 8526.7177290469408 1304.817729011178 388.59369134902954 265.27392442524433 56.214990749955177 835.89029115438461 1042.7625097334385 364.04420574009418 765.23914359509945 54.170848771929741 51.560178190469742 24.126014322042465
leaf_count=37376 3527 2474 36032 5424 1573 1074 226 3470 4398 1483 3197 218 207 99
internal_value=0 0.0774576 -0.0528232 -0.0140986 -0.0345226 -0.0458899 -0.0553027 -0.0736294 -0.057762 -0.0478419 -0.0232249 -0.0379715 -0.0639764 0.0872767
internal_weight=0 9859.27 14476.3 5059.5 4186.95 3798.35 3533.08 9416.78 3476.86 2434.1 1129.28 890.061 640.047 9219.22
internal_count=100778 40156 60622 20902 17375 15802 14728 39720 14502 10104 4680 3688 2681 37475
is_linear=0
shrinkage=0.05


Tree=5
num_leaves=15
num_cat=0
split_feature=10 1 11 9 9 9 9 1 18 14 7 9 14 15
split_gain=36476.8 4544.72 4323.58 4352.27 3102.28 1443.87 788.614 746.857 474.815 418.885 349.926 296.338 488.51 282.834
threshold=5.5000000000000009 76.500000000000014 1.0000000180025095e-35 12.500000000000002 17.500000000000004 44.500000000000007 49.500000000000007 210.50000000000003 1.0000000180025095e-35 30.500000000000004 0.055000000000000007 23.500000000000004 14.500000000000002 0.13000000000000003
decision_type=2 2 2 2 2 2 2 2 2 2 2 2 2 2
left_child=1 9 3 -2 10 -6 7 -7 11 -1 -5 12 -4 -10
right_child=2 -3 8 4 5 6 -8 -9 13 -11 -12 -13 -14 -15
leaf_value=0.0059865039176528467 -0.078758648587410496 -0.065370262476963301 0.021196959715528752 0.076833646898594538 -0.066938302761543542 0.066869581835357517 -0.077063226954544164 -0.081403751768675092 -0.043637251993465784 0.084399377065876122 -0.071342147144080062 -0.078195540300684777 -0.067564654885369141 0.074062765260172567
leaf_weight=173.59927280247211 1693.1465951800346 547.50315417349339 199.64881533384323 1464.2395539283752 947.70413486659527 596.04204547405243 161.00899837911129 99.039924055337906 828.2966221421957 9010.3652194291353 40.958461776375771 7471.9365566670895 693.31510807573795 54.392717465758324
leaf_count=717 7261 2336 819 5953 4017 2426 660 414 3470 37103 171 32251 2962 218
internal_value=0 0.0745744 -0.0510059 -0.0135582 0.0198036 -0.0244211 0.0226459 0.0457426 -0.0712618 0.0829172 0.0728016 -0.0749422 -0.0477193 -0.0363844
internal_weight=0 9731.47 14249.7 5002.14 3308.99 1803.8 856.091 695.082 9247.59 9183.96 1505.2 8364.9 892.964 882.689
internal_count=100778 40156 60622 20902 13641 7517 3500 2840 39720 37820 6124 36032 3781 3688
is_linear=0
shrinkage=0.05


Tree=6
num_leaves=15
num_cat=0
split_feature=10 6 11 14 13 18 10 18 8 13 6 3 1 6
split_gain=33506.5 4434.49 4011.59 3419.08 1789.68 1552.97 459.244 454.123 279.234 466.286 465.989 248.933 236.459 443.578
threshold=5.5000000000000009 0.015000000000000001 1.0000000180025095e-35 4.5000000000000009 326.50000000000006 0.14500000000000005 9.5000000000000018 1.0000000180025095e-35 1.0000000180025095e-35 8.5000000000000018 0.03500000000000001 0.16500000000000004 49.500000000000007 1.0000000180025095e-35
decision_type=2 2 2 2 2 2 2 2 2 2 2 2 2 2
left_child=1 11 3 -2 5 6 8 12 9 -5 -11 -1 13 -4
right_child=2 -3 7 4 -6 -7 -8 -9 -10 10 -12 -13 -14 -15
leaf_value=-0.067429839527649124 0.077807490466682602 0.08075086852367902 0.0090039192671931331 -0.065431912635418685 0.071011176198142456 0.074782508810991716 0.09074899394811009 -0.034888140410478573 -0.076260287789278736 -0.035474330338961101 0.051883596094092814 0.080341037246289784 -0.075614238750732143 -0.071438151875154968
leaf_weight=566.7732352912426 855.17961651086807 8984.5879380851984 245.17067903280258 1270.5949279665947 381.02492965757847 260.95546537637711 55.629560545086861 874.7683727145195 999.80728387832642 923.6906154602766 182.87848818302155 30.008950844407082 7371.8363915830851 569.33916264772415
leaf_count=2455 3527 37580 1031 5424 1573 1074 226 3688 4398 3930 750 121 32524 2477
internal_value=0 0.0719842 -0.0493823 -0.0130843 -0.0321608 -0.0428039 -0.0517432 -0.0691306 -0.0540905 -0.0447661 -0.021037 -0.0599992 -0.0727896 -0.0472248
internal_weight=0 9581.37 13990.9 4929.76 4074.58 3693.56 3432.6 9061.11 3376.97 2377.16 1106.57 596.782 8186.35 814.51
internal_count=100778 40156 60622 20902 17375 15802 14728 39720 14502 10104 4680 2576 36032 3508
is_linear=0
shrinkage=0.05


Tree=7
num_leaves=15
num_cat=0
split_feature=10 6 11 14 13 18 18 10 8 13 6 14 15 10
split_gain=30839.9 4079.31 3735.57 3131.74 1638.91 1422.51 438.43 420.494 269.209 434.016 436.562 266.654 258.359 236.103
threshold=5.5000000000000009 0.015000000000000001 1.0000000180025095e-35 4.5000000000000009 326.50000000000006 0.14500000000000005 1.0000000180025095e-35 9.5000000000000018 1.0000000180025095e-35 8.5000000000000018 0.015000000000000001 254.50000000000003 0.13000000000000003 1.5000000000000002
decision_type=2 2 2 2 2 2 2 2 2 2 2 2 2 2
left_child=1 13 3 -2 5 7 -4 8 9 -5 -11 -12 -8 -1
right_child=2 -3 6 4 -6 -7 12 -9 -10 10 11 -13 -14 -15
leaf_value=-0.074875765788229284 0.074957072553843609 0.078156001949550788 -0.070828338188799314 -0.06317625916835333 0.06829240694645336 0.071870997969091896 -0.04046981659520027 0.087102194500139535 -0.074270067429405909 -0.040251974632547691 -0.029847456180909032 0.064583314051913421 0.072038171379298743 0.0019748172627468618
leaf_weight=457.90952563285828 843.60530185699463 8822.815262183547 7997.3477698266506 1250.6691200584173 376.49810214340687 258.02391691505909 813.4676843136549 55.074261844158173 975.87500619888306 780.70930099487305 119.61428418755531 199.35501010715961 54.441686660051346 127.84484367072582
leaf_count=2027 3527 37580 36032 5424 1573 1074 3470 226 4398 3358 503 819 218 549
internal_value=0 0.0696729 -0.0478526 -0.0126195 -0.0310168 -0.0412906 -0.0671653 -0.0499258 -0.0521947 -0.0430289 -0.0201152 0.0291715 -0.0334125 -0.0581026
internal_weight=0 9408.57 13724.7 4859.42 4015.82 3639.32 8865.26 3381.3 3326.22 2350.35 1099.68 318.969 867.909 585.754
internal_count=100778 40156 60622 20902 17375 15802 39720 14728 14502 10104 4680 1322 3688 2576
is_linear=0
shrinkage=0.05


Tree=8
num_leaves=15
num_cat=0
split_feature=10 2 11 9 9 9 9 2 18 9 9 2 7 18
split_gain=28442 3991.88 3481.47 3597.05 2483.46 1240.99 667.993 931.261 422.687 301.777 297.676 639.958 280.886 246.572
threshold=5.5000000000000009 0.57500000000000007 1.0000000180025095e-35 12.500000000000002 17.500000000000004 44.500000000000007 49.500000000000007 0.8650000000000001 1.0000000180025095e-35 1.5000000000000002 23.500000000000004 0.99500000000000011 0.055000000000000007 0.10500000000000002
decision_type=2 2 2 2 2 2 2 2 2 2 2 2 2 2
left_child=1 9 3 -2 12 13 7 -7 10 -1 11 -4 -5 -6
right_child=2 -3 8 4 5 6 -8 -9 -10 -11 -12 -13 -14 -15
leaf_value=-0.081167529780119929 -0.073554396855908671 -0.056693555956071909 -0.061150190316007859 0.070356327357425225 -0.067821743587643146 0.075094305043855808 -0.071172774794738061 -0.065944577164621265 -0.032064479104688022 0.076854532516790211 -0.072419190267379363 0.052803470053016756 -0.065522247819913532 0.064180390971750767
leaf_weight=30.319520264863968 1592.7730752378702 603.78990519046783 697.92674696445465 1413.4069527685642 867.60077610611916 525.50663365423679 155.75850088894367 150.57578499615192 859.44097732007504 8584.535824611783 6955.0639127194881 149.61952292919159 39.085364282131195 36.880876928567886
leaf_count=123 7261 2695 3172 5953 3867 2193 660 647 3688 37338 32251 609 171 150
internal_value=0 0.0675879 -0.0464396 -0.0121931 0.0184561 -0.0219015 0.0221763 0.0436824 -0.0653443 0.0762984 -0.06901 -0.0410337 0.0666999 -0.0624393
internal_weight=0 9218.65 13443.6 4781.59 3188.81 1736.32 831.841 676.082 8662.05 8614.86 7802.61 847.546 1452.49 904.482
internal_count=100778 40156 60622 20902 13641 7517 3500 2840 39720 37461 36032 3781 6124 4017
is_linear=0
shrinkage=0.05


Tree=9
num_leaves=15
num_cat=0
split_feature=10 2 11 14 4 8 1 2 3 16 11 6 6 14
split_gain=26296.5 3692.3 3243.67 2676.24 869.375 568.441 327.831 726.445 243.667 218.716 214.864 192.371 344.56 269.261
threshold=5.5000000000000009 0.57500000000000007 1.0000000180025095e-35 4.5000000000000009 1.0000000180025095e-35 1.0000000180025095e-35 103.50000000000001 0.99500000000000011 0.32500000000000007 1.0000000180025095e-35 1.0000000180025095e-35 0.39500000000000007 0.14500000000000005 254.50000000000003
decision_type=2 2 2 2 2 2 2 2 2 2 2 2 2 2
left_child=1 10 3 -2 5 11 7 -4 -3 -9 -1 12 -5 -14
right_child=2 8 6 4 -6 -7 -8 9 -10 -11 -12 -13 13 -15
leaf_value=0.07464504100954987 0.070481002501298323 -0.062187446455111955 -0.061985505954644082 -0.025937950741868755 0.039039505876629466 -0.07122828051493639 -0.06853503794424709 -0.0027957223311353926 0.085051384935762975 0.090190694218375653 -0.075297065836525567 -0.059980098469134151 -0.074884834410990142 0.073328871271437349
leaf_weight=8394.5164760202169 815.7539766728878 563.61196291446686 1263.894062563777 2005.2094514518976 416.92758347094059 913.27774518728256 6800.7879059314728 304.54727439582348 29.573482915759087 79.811146527528763 23.960440680384636 344.50011628866196 38.202942088246346 154.85852019488811
leaf_count=37362 3527 2576 5811 8796 1820 4344 32241 1325 119 343 99 1582 170 663
internal_value=0 0.0657227 -0.0451787 -0.0118281 -0.0291646 -0.0373926 -0.0636864 -0.0436804 -0.0548468 0.0165127 0.0742183 -0.0252399 -0.0197957 0.0440004
internal_weight=0 9011.66 13137.8 4688.73 3872.98 3456.05 8449.04 1648.25 593.185 384.358 8418.48 2542.77 2198.27 193.061
internal_count=100778 40156 60622 20902 17375 15555 39720 7479 2695 1668 37461 11211 9629 833
is_linear=0
shrinkage=0.05


Tree=10
num_leaves=15
num_cat=0
split_feature=10 2 11 9 9 9 6 18 9 2 9 7 15 3
split_gain=24323.8 3421.49 3048.62 3187.91 2176.12 1124.12 605.035 421.885 289.576 569.693 273.84 249.508 235.368 230.931
threshold=5.5000000000000009 0.57500000000000007 1.0000000180025095e-35 12.500000000000002 17.500000000000004 44.500000000000007 0.015000000000000001 1.0000000180025095e-35 23.500000000000004 0.99500000000000011 1.5000000000000002 0.055000000000000007 0.13000000000000003 0.03500000000000001
decision_type=2 2 2 2 2 2 2 2 2 2 2 2 2 2
left_child=1 10 3 -2 11 -6 -7 8 9 -4 -1 -5 -9 -3
right_child=2 13 7 4 5 6 -8 12 -10 -11 -12 -13 -14 -15
leaf_value=-0.078602028724293074 -0.070754357379116548 -0.063199716717221938 -0.057692186572037021 0.066901420102036341 -0.059969911721553873 -0.032207696453657224 0.055985286316900855 -0.035487908799034393 -0.069417291266589312 0.050031768243798486 0.072881627103264776 -0.06293602963590654 0.072119551071982577 0.046845237902877333
leaf_weight=29.942773818969727 1519.1514915376902 528.18665692210197 666.42837730050087 1376.1251737177372 875.84698660671711 318.96584492921829 498.24376501142979 784.73128192126751 6579.0310663282871 150.43633551895618 8181.7468743175268 38.024315372109413 54.334754973649979 52.403920516371727
leaf_count=123 7261 2482 3172 5953 4017 1387 2113 3470 32251 609 37338 171 218 213
internal_value=0 0.0640356 -0.0438732 -0.0113952 0.0176262 -0.0206156 0.0215626 -0.0621192 -0.0659311 -0.0378534 0.0723293 0.0634103 -0.0285197 -0.0532671
internal_weight=0 8792.28 12861.3 4626.36 3107.21 1693.06 817.21 8234.96 7395.9 816.865 8211.69 1414.15 839.066 580.591
internal_count=100778 40156 60622 20902 13641 7517 3500 39720 36032 3781 37461 6124 3688 2695
is_linear=0
shrinkage=0.05


Tree=11
num_leaves=15
num_cat=0
split_feature=10 2 14 9 13 18 10 14 9 9 10 13 9 13
split_gain=22559.5 3176.89 2413.6 1953.05 1904.39 1189.32 407.253 397.497 253.946 248.893 226.106 189.152 1027.01 398.067
threshold=5.5000000000000009 0.57500000000000007 4.5000000000000009 23.500000000000004 326.50000000000006 0.03500000000000001 9.5000000000000018 254.50000000000003 1.5000000000000002 43.500000000000007 1.5000000000000002 32.500000000000007 14.500000000000002 54.500000000000007
decision_type=2 2 2 2 2 2 2 2 2 2 2 2 2 2
left_child=1 8 3 -2 5 6 11 -7 -1 -6 -3 -4 -13 -14
right_child=2 10 4 -5 9 7 -8 -9 -10 -11 -12 12 13 -15
leaf_value=-0.0756017756500377 0.065797205398968037 -0.069094219103600626 -0.061736763376749271 -0.065307733389695838 0.0764365377931574 -0.024359486469292566 0.08114288454177121 0.052468232467836023 0.07116280167879975 -0.063975944254657302 0.0057936970341680473 -0.070077207611982273 -0.033623381949817011 0.059260981046545091
leaf_weight=29.583476558327675 855.63547194004059 436.5019823461771 8649.8893454223871 425.2399405837059 325.9498016089201 375.42266272008419 52.196532264351845 305.250458791852 7965.8687748610973 34.943818390369415 131.05434694886208 1050.9412149190903 204.07139213383198 265.31142130494118
leaf_count=123 3817 2111 42606 2121 1442 1676 225 1338 37338 144 584 5157 978 1118
internal_value=0 0.0625057 -0.0427658 0.0222715 -0.0501614 -0.0539018 -0.0581631 0.0100942 0.0706198 0.062841 -0.0518019 -0.058878 -0.0426133 0.0188781
internal_weight=0 8563.01 12544.9 1280.88 11264 10903.1 10222.4 680.673 7995.45 360.894 567.556 10170.2 1520.32 469.383
internal_count=100778 40156 60622 5938 54684 53098 50084 3014 37461 1586 2695 49859 7253 2096
is_linear=0
shrinkage=0.05


Tree=12
num_leaves=15
num_cat=0
split_feature=10 2 11 14 13 18 18 10 1 2 10 15 11 1
split_gain=20937.6 2955.28 2714.47 2107.46 1169.2 1052.27 412.05 306.687 227.628 364.737 214.454 211.066 188.121 167.145
threshold=5.5000000000000009 0.57500000000000007 1.0000000180025095e-35 4.5000000000000009 326.50000000000006 0.14500000000000005 1.0000000180025095e-35 9.5000000000000018 49.500000000000007 0.99500000000000011 1.5000000000000002 0.13000000000000003 1.0000000180025095e-35 244.50000000000003
decision_type=2 2 2 2 2 2 2 2 2 2 2 2 2 2
left_child=1 12 3 -2 5 7 8 -5 9 -4 -3 13 -1 -8
right_child=2 10 6 4 -6 -7 11 -9 -10 -11 -12 -13 -14 -15
leaf_value=0.069486047311652616 0.064959000376442796 -0.067650788374051404 -0.061326020278130458 -0.045307831320585523 0.060782003595203415 0.064949459935112835 -0.013274408200238778 0.07787432227347911 -0.066433940607399503 0.014423498360831495 0.0054966606282600789 0.069340924830409698 -0.073284731405730039 -0.060800283822401102
leaf_weight=7749.6499817818403 766.65745195746422 423.8458331823349 492.31111826002598 3025.7826500833035 349.60880322754383 242.40434029698372 453.72918866574764 51.387082412838936 6257.2917471081018 234.65849457681179 131.22514064610004 54.321120709180832 23.14165860414505 312.35887745022774
leaf_count=37362 3527 2111 2477 14502 1573 1074 2039 226 32524 1031 584 218 99 1431
internal_value=0 0.0611014 -0.0416687 -0.0104365 -0.02619 -0.0353497 -0.0594197 -0.0432508 -0.0633572 -0.0368748 -0.0503579 -0.025899 0.069061 -0.0326522
internal_weight=0 8327.86 12240.5 4435.84 3669.18 3319.57 7804.67 3077.17 6984.26 726.97 555.071 820.409 7772.79 766.088
internal_count=100778 40156 60622 20902 17375 15802 39720 14728 36032 3508 2695 3688 37461 3470
is_linear=0
shrinkage=0.05


Tree=13
num_leaves=15
num_cat=0
split_feature=10 2 11 9 9 9 9 2 18 3 9 2 7 0
split_gain=19450 2759.41 2557.88 2706.04 1733.6 999.211 561.25 755.189 402.228 393.423 286.697 483.539 204.574 202.485
threshold=5.5000000000000009 0.31500000000000006 1.0000000180025095e-35 12.500000000000002 17.500000000000004 44.500000000000007 49.500000000000007 0.8650000000000001 1.0000000180025095e-35 0.10500000000000002 23.500000000000004 0.93500000000000016 0.055000000000000007 0.19500000000000003
decision_type=2 2 2 2 2 2 2 2 2 2 2 2 2 2
left_child=1 -1 3 -2 12 13 7 -7 10 -3 11 -4 -5 -6
right_child=2 9 8 4 5 6 -8 -9 -10 -11 -12 -13 -14 -15
leaf_value=0.068154636680396535 -0.067262318194037163 -0.057599097217262543 -0.053111772154769178 0.062391708710336814 0.03815450010785585 0.071264690547722179 -0.065628382578449621 -0.059643129927178899 -0.02489155485328445 0.063059665597107545 -0.065820787709763864 0.046475710249085471 -0.058746761142750986 -0.062716731602471126
leaf_weight=7477.8275023400784 1403.3804578185081 533.95757034420967 613.88177959620953 1302.5207902938128 53.171741262078285 502.32846982777119 147.34363965690136 141.1208623200655 811.37387600541115 77.344816133379936 6004.1292638331652 152.08546152710915 35.810042753815651 773.22793364524841
leaf_count=37145 7261 2669 3164 5953 227 2193 660 647 3688 342 32251 617 171 3790
internal_value=0 0.059805 -0.0406114 -0.0100911 0.0170557 -0.0177803 0.0223971 0.0425541 -0.0581588 -0.0423328 -0.0621457 -0.0333383 0.0591504 -0.0562265
internal_weight=0 8089.13 11940.4 4358.9 2955.52 1617.19 790.793 643.449 7581.47 611.302 6770.1 765.967 1338.33 826.4
internal_count=100778 40156 60622 20902 13641 7517 3500 2840 39720 3011 36032 3781 6124 4017
is_linear=0
shrinkage=0.05


Tree=14
num_leaves=15
num_cat=0
split_feature=0 1 9 9 14 13 13 18 3 9 13 6 2 9
split_gain=17798.9 2780.34 1423.73 1221.07 1344.56 978.019 892.456 479.929 519.158 449.602 354.675 309.641 266.72 256.296
threshold=0.49500000000000005 210.50000000000003 53.500000000000007 47.500000000000007 4.5000000000000009 10.500000000000002 315.50000000000006 1.0000000180025095e-35 0.91500000000000015 23.500000000000004 326.50000000000006 0.015000000000000001 0.89500000000000013 20.500000000000004
decision_type=2 2 2 2 2 2 2 2 2 2 2 2 2 2
left_child=5 2 3 4 9 -1 7 8 -6 -2 -3 -7 -5 -9
right_child=1 10 -4 12 6 11 -8 13 -10 -11 -12 -13 -14 -15
leaf_value=-0.030089194810937372 0.05953058082187071 -0.059907836806414844 -0.057103459875386398 0.068574595042511524 -0.051839954250817014 -0.066692191024433009 0.070857710009273558 -0.031052992198557866 0.067789059855559816 -0.057839349289144221 0.029856158749653083 0.06739497705138206 -0.052792185003285579 0.032576143434936311
leaf_weight=272.22107914090157 741.48965907096863 6525.7933449745178 1284.7080103158951 703.10645973682404 1873.3143126517534 43.328938275575638 220.83021675050259 288.72662632167339 95.305429711937904 91.68186055123806 111.9316084086895 6810.1504092663527 48.38357324898243 350.23054233193398
leaf_count=1361 3530 35449 6756 3307 9613 193 1055 1349 472 466 507 34815 213 1692
internal_value=0 -0.0364012 -0.0107801 0.00270525 -0.00920983 0.0628555 -0.0256544 -0.0338278 -0.0460484 0.0466152 -0.0583942 0.0665473 0.0607606 0.00382394
internal_weight=0 12335.5 5697.78 4413.07 3661.58 7125.7 2828.41 2607.58 1968.62 833.172 6637.72 6853.48 751.49 638.957
internal_count=100778 64409 28453 21697 18177 36369 14181 13126 10085 3996 35956 35008 3520 3041
is_linear=0
shrinkage=0.05


Tree=15
num_leaves=15
num_cat=0
split_feature=10 2 11 9 9 9 9 2 13 16 9 2 15 9
split_gain=16874.9 2434.96 2272.3 2400.73 1557.17 871.437 479.067 646.538 368.652 314.805 362.077 382.687 208.687 204.173
threshold=5.5000000000000009 0.31500000000000006 1.0000000180025095e-35 12.500000000000002 17.500000000000004 44.500000000000007 49.500000000000007 0.87500000000000011 2.5000000000000004 1.0000000180025095e-35 23.500000000000004 0.99500000000000011 0.13000000000000003 19.500000000000004
decision_type=2 2 2 2 2 2 2 2 2 2 2 2 2 2
left_child=1 -1 3 -2 -5 -6 7 -7 -3 10 11 13 -11 -4
right_child=2 8 9 4 5 6 -8 -9 -10 12 -12 -13 -14 -15
leaf_value=0.065669759674100311 -0.065170612545317322 -0.059887133398287579 0.00052888791173349222 0.057041798566621872 -0.054068510791520655 0.06581950136172908 -0.062167852213662812 -0.059022407293565476 0.03937608036915994 -0.031291430854766343 -0.063730073144258631 0.04409744223529502 0.071985572597778005 -0.06113171807909229
leaf_weight=7027.2619219869375 1319.8162787407637 471.82938754558563 184.67859402298927 1289.8166276365519 790.72630986571312 493.45926006138325 141.97028739750385 131.30368180572987 116.66374051570892 605.81469042599201 5665.928703263402 149.51584854722023 53.209667652845383 491.67979222536087
leaf_count=37145 7261 2451 975 6124 4017 2214 660 626 560 2976 32331 606 215 2617
internal_value=0 0.0574882 -0.0387768 -0.00942858 0.0164099 -0.0172396 0.0207418 0.039582 -0.040209 -0.0558792 -0.0592218 -0.0282928 -0.0229528 -0.0442954
internal_weight=0 7615.76 11317.9 4167.09 2847.28 1557.46 766.733 624.763 588.493 7150.83 6491.8 825.874 659.024 676.358
internal_count=100778 40156 60622 20902 13641 7517 3500 2840 3011 39720 36529 4198 3191 3592
is_linear=0
shrinkage=0.05


Tree=16
num_leaves=15
num_cat=0
split_feature=0 11 9 9 9 13 3 18 9 2 6 2 9 2
split_gain=15484.5 2630.76 2356.4 1394.88 1507.13 878.145 478.537 429.336 277.291 395.508 273.629 258.42 329.342 224.072
threshold=0.49500000000000005 1.0000000180025095e-35 12.500000000000002 17.500000000000004 45.500000000000007 10.500000000000002 0.29500000000000004 1.0000000180025095e-35 23.500000000000004 0.93500000000000016 0.015000000000000001 0.87500000000000011 53.500000000000007 0.99500000000000011
decision_type=2 2 2 2 2 2 2 2 2 2 2 2 2 2
left_child=5 2 -2 -4 6 -1 -5 8 9 -3 -7 12 -6 -9
right_child=1 7 3 4 11 10 -8 13 -10 -11 -12 -13 -14 -15
leaf_value=-0.02868814816923897 -0.063761110881610836 -0.049127887557457582 0.057546071133654619 -0.052737138063430999 0.064100763615415626 -0.063398433025038739 0.064684118305753505 -0.051355215244747413 -0.062929078187019885 0.041894954033512066 0.06510703750480698 -0.030366208718905875 -0.016155483146609386 0.0017348502587125317
leaf_weight=264.49622347950935 1295.4929581433535 559.42772023379803 1248.6926425695419 1178.3029288947582 675.55584393441677 41.695256382226944 93.665929958224297 341.4924997985363 5387.0542539209127 151.70563639700413 6384.1659597754478 117.24879585206509 157.66202652454376 475.46841970086098
leaf_count=1361 7343 3110 6047 6292 3319 193 485 1612 32033 616 34815 550 757 2245
internal_value=0 -0.0347955 -0.00621619 0.0152607 -0.00849765 0.0605981 -0.0440904 -0.0544952 -0.0590553 -0.02971 0.0642732 0.0391346 0.0489146 -0.020457
internal_weight=0 11681.8 4766.62 3471.13 2222.44 6690.36 1271.97 6915.15 6098.19 711.133 6425.86 950.467 833.218 816.961
internal_count=100778 64409 24793 17450 11403 36369 6777 39616 35759 3726 35008 4626 4076 3857
is_linear=0
shrinkage=0.05


Tree=17
num_leaves=15
num_cat=0
split_feature=0 11 1 13 14 18 13 18 3 2 13 1 2 4
split_gain=14443.1 2470.33 1158.59 830.716 437.129 569.894 897.971 423.337 393.68 387.075 281.679 234.738 283.207 231.627
threshold=0.49500000000000005 1.0000000180025095e-35 189.50000000000003 12.500000000000002 4.5000000000000009 0.115 4.5000000000000009 1.0000000180025095e-35 0.94500000000000006 0.69500000000000006 326.50000000000006 49.500000000000007 0.99500000000000011 0.025000000000000005
decision_type=2 2 2 2 2 2 2 2 2 2 2 2 2 2
left_child=3 2 4 13 -2 6 8 11 -6 -7 -4 12 -3 -1
right_child=1 7 10 -5 5 9 -8 -9 -10 -11 -12 -13 -14 -15
leaf_value=-0.044368737174683433 0.049501451749618341 -0.054736030102655292 -0.044454408628309794 0.063489390207892613 -0.053116995391699562 0.059469236736432375 0.031006050391522041 -0.019599039990338008 0.064712105563779584 -0.046674248396275153 0.033295637580492234 -0.061526939171854048 0.016040594106200332 0.062704046881298436
leaf_weight=237.00164283812046 640.87809532880783 384.51470120251179 1587.043940231204 6174.0131434053183 891.28572806715965 542.9137472063303 686.65645678341389 810.52558575570583 77.014199614524841 102.03312627971172 125.71904140710831 5281.9884414374828 223.49060550332069 64.188991710543633
leaf_count=1219 3361 2229 8896 34815 4659 2897 3459 3857 394 524 603 32501 1029 335
internal_value=0 -0.0340421 -0.00605659 0.0595338 0.0129831 0.00280715 -0.0127303 -0.0534782 -0.0437454 0.0426769 -0.0387475 -0.0581404 -0.02872 -0.0215497
internal_weight=0 11354.1 4653.54 6475.2 2940.78 2299.9 1654.96 6700.52 968.3 644.947 1712.76 5889.99 608.005 301.191
internal_count=100778 64409 24793 36369 15294 11933 8512 39616 5053 3421 9499 35759 3258 1554
is_linear=0
shrinkage=0.05


Tree=18
num_leaves=15
num_cat=0
split_feature=10 2 11 14 13 18 18 5 10 1 2 15 1 2
split_gain=13759.5 2042.47 1889.68 1448.52 786.003 723.181 392.165 329.483 215.603 204.722 296.616 170.844 168.543 608.901
threshold=5.5000000000000009 0.31500000000000006 1.0000000180025095e-35 4.5000000000000009 349.50000000000006 0.14500000000000005 1.0000000180025095e-35 0.66500000000000015 9.5000000000000018 52.500000000000007 0.99500000000000011 0.13000000000000003 244.50000000000003 0.99500000000000011
decision_type=2 2 2 2 2 2 2 2 2 2 2 2 2 2
left_child=1 -1 3 -2 5 8 9 -3 -5 10 -4 12 13 -8
right_child=2 7 6 4 -6 -7 11 -9 -10 -11 -12 -13 -14 -15
leaf_value=0.062644598560752926 0.058082097153391021 -0.052429210330214297 -0.055220443148595116 -0.039372794160939771 0.054589728623443461 0.058069642843789564 -0.042584684992925538 0.061315895332032536 0.070996951653600246 -0.060796334473696839 0.014903366506444785 0.066350238623247612 -0.055369597036151109 0.091224187311959151
leaf_weight=6359.645082205534 669.55774213373661 481.43962703645229 444.75057208538055 2673.7020867168903 298.37935665249825 213.26754832267761 309.97695741057396 73.368326961994171 44.992687731981277 5067.3494202643633 228.16402763128281 54.077877283096313 288.14188598096371 117.1508527547121
leaf_count=37145 3527 2666 2618 14551 1524 1074 1508 345 226 32365 1049 218 1431 531
internal_value=0 0.0546181 -0.0363734 -0.00885014 -0.0227233 -0.0305913 -0.0528626 -0.0373875 -0.0375462 -0.0573554 -0.0314437 -0.0193404 -0.025819 -0.00588414
internal_weight=0 6914.45 10409.5 3899.9 3230.34 2931.96 6509.61 554.808 2718.69 5740.26 672.915 769.348 715.27 427.128
internal_count=100778 40156 60622 20902 17375 15851 39720 3011 14777 36032 3667 3688 3470 2039
is_linear=0
shrinkage=0.05


Tree=19
num_leaves=15
num_cat=0
split_feature=10 2 1 2 13 9 13 8 18 9 9 9 6 9
split_gain=12844.3 1917.16 1569.43 1169.3 1149.97 803.421 315.854 315.27 447.157 271.383 266.359 1344.98 233.464 172.113
threshold=5.5000000000000009 0.31500000000000006 221.50000000000003 0.99500000000000011 20.500000000000004 12.500000000000002 2.5000000000000004 0.85500000000000009 1.0000000180025095e-35 23.500000000000004 23.500000000000004 13.500000000000002 0.89500000000000013 53.500000000000007
decision_type=2 2 2 2 2 2 2 2 2 2 2 2 2 2
left_child=1 -1 3 4 12 -6 -3 8 9 -5 11 -4 -2 -7
right_child=2 6 10 7 5 13 -8 -9 -10 -11 -12 -13 -14 -15
leaf_value=0.06172943017992974 -0.046098222718819165 -0.055838983663870606 -0.06269518740094987 0.018171044946400393 -0.061452397483348298 0.064506388576369936 0.038731528663609419 0.058207527099937179 0.0945912218134497 -0.047846159210462057 -0.059790954507131025 0.070940910415613928 0.049442889609679685 -0.063493184701302149
leaf_weight=6136.8838678002357 2756.5310058891773 430.21126542985439 813.76728507876396 363.32251572608948 191.13682632148266 509.54195679724216 111.08917292952538 488.30120240151882 121.44579461216927 272.37395238876343 4271.405069604516 244.95860323309898 65.459446519613266 27.689769461750984
leaf_count=37145 16020 2451 5064 1684 1150 2535 560 2734 524 1583 27771 1100 332 125
internal_value=0 0.0537731 -0.0355545 -0.0148024 -0.0294252 0.0265865 -0.0364306 0.0268823 0.00667987 -0.010115 -0.0542263 -0.0317757 -0.043882 0.0579091
internal_weight=0 6678.18 10125.9 4795.8 3550.36 728.369 541.3 1245.44 757.142 635.696 5330.13 1058.73 2821.99 537.232
internal_count=100778 40156 60622 26687 20162 3810 3011 6525 3791 3267 33935 6164 16352 2660
is_linear=0
shrinkage=0.05


Tree=20
num_leaves=15
num_cat=0
split_feature=10 1 1 9 9 6 13 13 13 1 9 9 18 8
split_gain=12001.4 1707.97 1500.26 1095.86 674.858 1182.72 731.802 318.753 263.032 340.413 252.482 1255.61 176.098 302.79
threshold=5.5000000000000009 77.500000000000014 221.50000000000003 49.500000000000007 47.500000000000007 1.0000000180025095e-35 320.50000000000006 5.5000000000000009 1.5000000000000002 2.5000000000000004 23.500000000000004 13.500000000000002 1.0000000180025095e-35 0.85500000000000009
decision_type=2 2 2 2 2 2 2 2 2 2 2 2 2 2
left_child=1 8 3 4 5 7 -7 12 9 -1 11 -4 13 -2
right_child=2 -3 10 -5 -6 6 -8 -9 -10 -11 -12 -13 -14 -15
leaf_value=0.051444021117636296 0.0029559488628456737 -0.048319234682975609 -0.061926007929452902 -0.059266893677910409 0.051784703322527409 -0.042796737074759422 0.065913057849156007 -0.034937561773106939 0.061940086747524437 -0.059409411051206999 -0.058999565616309507 0.068701987276176976 0.10032191999143654 0.061784355483532019
leaf_weight=210.07597182691097 422.39581674337387 390.97790250182152 783.44931474328041 1054.2480329871178 512.8672884106636 1810.8302824795246 169.28091146051884 161.03670629858971 5742.5727255344391 103.31292961537838 4116.2017229199409 240.41008035838604 110.796431645751 453.63489273190498
leaf_count=1256 2088 2324 5064 6619 2461 10578 944 917 36052 524 27771 1100 469 2611
internal_value=0 0.0529667 -0.0348089 -0.0143763 -0.00137768 -0.0100943 -0.0335031 0.0302869 0.0595058 0.0148997 -0.0534728 -0.0312535 0.0409306 0.0334191
internal_weight=0 6446.94 9835.15 4695.09 3640.84 3127.98 1980.11 1147.86 6055.96 313.389 5140.06 1023.86 986.827 876.031
internal_count=100778 40156 60622 26687 20068 17607 11522 6085 37832 1780 33935 6164 5168 4699
is_linear=0
shrinkage=0.05


Tree=21
num_leaves=15
num_cat=0
split_feature=0 11 9 9 9 6 18 3 13 9 6 13 18 11
split_gain=11087.6 1926.59 1839.68 1071.81 1200.94 678.316 409.375 369.476 329.589 282.68 326.65 195.278 376.036 191.151
threshold=0.49500000000000005 1.0000000180025095e-35 12.500000000000002 17.500000000000004 45.500000000000007 0.015000000000000001 1.0000000180025095e-35 0.29500000000000004 7.5000000000000009 23.500000000000004 0.025000000000000005 6.5000000000000009 0.055000000000000007 1.0000000180025095e-35
decision_type=2 2 2 2 2 2 2 2 2 2 2 2 2 2
left_child=5 2 -2 -4 7 -1 9 -5 -7 10 -3 12 -6 -10
right_child=1 6 3 4 11 8 -8 -9 13 -11 -12 -13 -14 -15
leaf_value=-0.063565222467022994 -0.060622174525761567 0.017552039835909746 0.05302033545360705 -0.049770098933245958 -0.015953169371979402 -0.020698007811212737 -0.015774345554250294 0.060318396189494375 0.061482044226268739 -0.059337842686933498 -0.054865060927542758 0.073187434600907153 0.062660605899002672 -0.041251210381435768
leaf_weight=115.76623605191708 1119.905187189579 273.36625334620476 1128.3558979779482 1051.5029171854258 322.91168507933617 127.5863376557827 768.15822203457355 82.171384617686272 5340.1229348629713 4485.8553632199764 361.82852548360825 254.85797823965549 287.59183920919895 45.666037678718567
leaf_count=618 7343 1404 6047 6292 1583 744 3857 485 34783 32033 2322 1242 1801 224
internal_value=0 -0.0313 -0.00563196 0.0140598 -0.00793149 0.0562143 -0.0498118 -0.0417906 0.0587294 -0.0549174 -0.0236992 0.036426 0.0210797 0.060611
internal_weight=0 10136.5 4247.3 3127.39 1999.04 5629.14 5889.21 1133.67 5513.38 5121.05 635.195 865.362 610.504 5385.79
internal_count=100778 64409 24793 17450 11403 36369 39616 6777 35751 35759 3726 4626 3384 35007
is_linear=0
shrinkage=0.05


Tree=22
num_leaves=15
num_cat=0
split_feature=10 1 11 14 13 4 1 6 13 1 8 13 6 14
split_gain=10530.5 1516.5 1503.63 1111.3 605.066 337.769 300.514 480.116 244.307 300.429 242.424 400.205 272.039 173.53
threshold=5.5000000000000009 77.500000000000014 1.0000000180025095e-35 4.5000000000000009 434.50000000000006 0.015000000000000001 110.50000000000001 1.0000000180025095e-35 1.5000000000000002 2.5000000000000004 1.0000000180025095e-35 7.5000000000000009 0.015000000000000001 254.50000000000003
decision_type=2 2 2 2 2 2 2 2 2 2 2 2 2 2
left_child=1 8 3 -2 5 10 7 -4 9 -1 11 -5 -13 -14
right_child=2 -3 6 4 -6 -7 -8 -9 -10 -11 -12 12 13 -15
leaf_value=0.049703331811389792 0.054059209429821155 -0.046319947873201907 0.02127592405291787 -0.04710716768626802 0.057793452210258757 0.033027226343512392 -0.055641714214654171 -0.046742119169738187 0.060485438197191134 -0.056211523869597983 -0.059604767236867834 -0.020074449127493215 -0.017798015929804969 0.060147643590530465
leaf_weight=199.2853921353817 600.81795704364777 371.26817858219147 355.06559939682484 917.82309158146381 227.42636032402515 215.07734836637974 4394.2249954938889 963.32694998383522 5327.4180399626493 100.82699877023697 612.58095268905163 642.65021048486233 104.06263616681099 227.53162407875061
leaf_count=1256 3527 2324 1704 5166 1313 1207 31898 6118 36052 524 4379 3657 536 1117
internal_value=0 0.0515556 -0.0334822 -0.00791702 -0.0205517 -0.027103 -0.0493602 -0.0284237 0.0580128 0.0141197 -0.0322665 -0.0234154 -0.00109569 0.0356863
internal_weight=0 5998.8 9260.59 3547.97 2947.15 2719.73 5712.62 1318.39 5627.53 300.112 2504.65 1892.07 974.244 331.594
internal_count=100778 40156 60622 20902 17375 16062 39720 7822 37832 1780 14855 10476 5310 1653
is_linear=0
shrinkage=0.05


Tree=23
num_leaves=15
num_cat=0
split_feature=10 2 11 9 9 9 9 2 1 2 5 9 1 16
split_gain=9850.76 1515.13 1420.21 1583.13 958.248 606.716 346.812 444.965 298.993 461.034 268.498 224.412 398.516 189.677
threshold=5.5000000000000009 0.30500000000000005 1.0000000180025095e-35 12.500000000000002 17.500000000000004 44.500000000000007 49.500000000000007 0.87500000000000011 140.50000000000003 0.99500000000000011 0.66500000000000015 19.500000000000004 70.500000000000014 1.0000000180025095e-35
decision_type=2 2 2 2 2 2 2 2 2 2 2 2 2 2
left_child=1 -1 3 -2 -5 -6 7 -7 9 11 -3 12 -4 -11
right_child=2 10 8 4 5 6 -8 -9 -10 13 -12 -13 -14 -15
leaf_value=0.058738532271831435 -0.059714363828635743 -0.047504154011955395 -0.020444946790650002 0.049025800427830529 -0.04770527015999082 0.059209510702212434 -0.055740101199085915 -0.05176536492951405 -0.055693931711966849 -0.0032534386592975558 0.057957988498424408 -0.055693056872737415 0.22078595303149653 0.076631426672737202
leaf_weight=5282.7701570540667 1028.9564901590347 426.60630062222481 162.89497722685337 1092.8490561395884 670.31850489974022 439.25584398210049 125.29642069339752 113.70961584150791 3999.1545536518097 297.6569459438324 70.296068787574768 950.14970479905605 19.131391599774361 99.026860699057579
leaf_count=37125 7261 2673 1001 6124 4017 2214 660 626 30235 1518 358 6423 114 429
internal_value=0 0.0508871 -0.0327655 -0.00769526 0.0142285 -0.0139701 0.0193699 0.0363891 -0.0485042 -0.0296973 -0.0325846 -0.0459497 0.00490898 0.0166888
internal_weight=0 5779.67 8998.4 3470.39 2441.43 1348.58 678.262 552.965 5528.01 1528.86 496.902 1132.18 182.026 396.684
internal_count=100778 40156 60622 20902 13641 7517 3500 2840 39720 9485 3031 7538 1115 1947
is_linear=0
shrinkage=0.05


Tree=24
num_leaves=15
num_cat=0
split_feature=10 2 1 9 14 9 13 13 9 9 2 9 13 2
split_gain=9226.74 1427.96 1255.28 898.539 603.756 838.315 591.399 271.183 221.325 1033.69 178.547 248.944 350.37 158.481
threshold=5.5000000000000009 0.30500000000000005 221.50000000000003 49.500000000000007 5.5000000000000009 47.500000000000007 320.50000000000006 2.5000000000000004 23.500000000000004 13.500000000000002 0.99500000000000011 19.500000000000004 5.5000000000000009 0.89500000000000013
decision_type=2 2 2 2 2 2 2 2 2 2 2 2 2 2
left_child=1 -1 3 4 -2 6 10 -3 9 -4 -6 -12 -13 -7
right_child=2 7 8 -5 5 13 -8 -9 -10 -11 11 12 -14 -15
leaf_value=0.058067703488998347 0.042390853273055543 -0.051489298010374822 -0.059560585429958651 -0.056398858730156681 -0.039250597752544983 0.0580401235054019 0.063264162131348362 0.039216080712894702 -0.056357521742697383 0.063890561092018669 -0.086882394878460514 0.049532461115087641 -0.057431419828776753 -0.044056411184667847
leaf_weight=5081.7060165852308 653.1449471116066 379.14310903847218 676.81945966184139 925.49979681521654 1620.6500348746777 433.4901959002018 178.22034822404385 105.28354342281818 3546.6334517523646 226.24948787689209 72.737353786826134 235.75780655443668 113.37494331598282 41.662856265902519
leaf_count=37125 3897 2456 5064 6619 10438 2223 1110 575 27771 1100 332 1155 702 211
internal_value=0 0.0502485 -0.0321416 -0.0127909 -0.000739931 -0.0111894 -0.0240864 -0.0317757 -0.0507306 -0.0286319 -0.0317082 -0.00273358 0.0147978 0.049088
internal_weight=0 5566.13 8724.24 4274.54 3349.04 2695.89 2220.74 484.427 4449.7 903.069 2042.52 421.87 349.133 475.153
internal_count=100778 40156 60622 26687 20068 16171 13737 3031 33935 6164 12627 2189 1857 2434
is_linear=0
shrinkage=0.05


Tree=25
num_leaves=15
num_cat=0
split_feature=10 2 11 9 9 9 18 9 2 9 6 3 18 13
split_gain=8642.64 1347.63 1262.87 1411.2 845.096 524.536 415.098 294.746 381.111 271.799 279.111 254.267 170.153 162.408
threshold=5.5000000000000009 0.30500000000000005 1.0000000180025095e-35 12.500000000000002 17.500000000000004 44.500000000000007 1.0000000180025095e-35 49.500000000000007 0.87500000000000011 23.500000000000004 0.025000000000000005 0.03500000000000001 0.10500000000000002 2.5000000000000004
decision_type=2 2 2 2 2 2 2 2 2 2 2 2 2 2
left_child=1 -1 3 -2 -5 12 9 8 -7 10 13 -3 -6 -4
right_child=2 11 6 4 5 7 -8 -9 -10 -11 -12 -13 -14 -15
leaf_value=0.0574326957853468 -0.058543034683417955 -0.048363876677733404 0.035264152530794311 0.047036455946595779 -0.051720492023299251 0.055585935099539255 -0.010682218950300922 -0.052863625362027426 -0.049635183778989941 -0.057295700350365963 -0.052176846379312691 0.046033684249063477 0.062170597993241122 -0.06367845020942299
leaf_weight=4885.9590285271406 954.19968575239182 385.94369249045849 219.07756021618843 1045.3600038588047 605.89145344495773 422.60350108146667 684.9091212451458 119.14888253808022 108.06215961277485 3887.8707602992654 326.22678358852863 87.511143133044243 34.671110257506371 51.159719169139862
leaf_count=37125 7261 2588 1116 6124 3867 2214 3688 660 626 32251 2351 443 150 314
internal_value=0 0.0496279 -0.0315247 -0.00730856 0.0136218 -0.013448 -0.0469369 0.0182029 0.0341592 -0.0524742 -0.0210468 -0.0309159 -0.045556 0.0165329
internal_weight=0 5359.41 8459.18 3289.94 2335.74 1290.38 5169.24 649.815 530.666 4484.33 596.464 473.455 640.563 270.237
internal_count=100778 40156 60622 20902 13641 7517 39720 3500 2840 36032 3781 3031 4017 1430
is_linear=0
shrinkage=0.05


Tree=26
num_leaves=15
num_cat=0
split_feature=10 2 11 14 13 18 18 13 1 14 8 13 10 2
split_gain=8102.27 1271.91 1187.49 871.476 471.919 491.441 408.735 246.797 199.278 225.194 179.85 258.002 196.935 190.647
threshold=5.5000000000000009 0.30500000000000005 1.0000000180025095e-35 4.5000000000000009 434.50000000000006 0.14500000000000005 1.0000000180025095e-35 2.5000000000000004 52.500000000000007 14.500000000000002 1.0000000180025095e-35 8.5000000000000018 9.5000000000000018 0.6150000000000001
decision_type=2 2 2 2 2 2 2 2 2 2 2 2 2 2
left_child=1 -1 3 -2 5 10 8 -3 9 -4 11 12 -5 -13
right_child=2 7 6 4 -6 -7 -8 -9 -10 -11 -12 13 -14 -15
leaf_value=0.056830072421099831 0.050838908994102518 -0.049733230658104283 0.016756068464542695 -0.046620220573723239 0.054746317353986357 0.054160789016908621 -0.010197846544173739 0.038100699130557782 -0.056061735349895218 -0.048304142447556979 -0.056920079845921449 0.028970121251801872 0.06827380424803324 -0.021114914919318023
leaf_weight=4695.7024272531271 538.61125241219997 358.69506603479385 210.38451112806797 882.57049472630024 201.04340268671513 181.87428502738476 681.65376016497612 102.9229648411274 3743.1838208958507 361.61948930472136 524.96108724921942 294.63422572612762 38.942091017961502 535.01450434327126
leaf_count=37125 3527 2456 1048 5424 1313 1092 3688 575 32365 2619 4399 1483 225 3439
internal_value=0 0.0490447 -0.0309516 -0.00715828 -0.0189061 -0.0249303 -0.0461778 -0.0301497 -0.0518614 -0.0243748 -0.03125 -0.0235547 -0.0417649 -0.00332815
internal_weight=0 5157.32 8194.49 3197.65 2659.04 2458 4996.84 461.618 4315.19 572.004 2276.12 1751.16 921.513 829.649
internal_count=100778 40156 60622 20902 17375 16062 39720 3031 36032 3667 14970 10571 5649 4922
is_linear=0
shrinkage=0.05


Tree=27
num_leaves=15
num_cat=0
split_feature=0 1 9 10 9 14 13 9 6 9 9 9 6 10
split_gain=7606.75 1424.91 703.086 585.255 575.323 547.37 404.92 246.047 223.943 213.774 945.634 209.328 203.913 330.105
threshold=0.49500000000000005 210.50000000000003 52.500000000000007 5.5000000000000009 47.500000000000007 5.5000000000000009 315.50000000000006 23.500000000000004 0.045000000000000005 23.500000000000004 13.500000000000002 14.500000000000002 0.025000000000000005 5.5000000000000009
decision_type=2 2 2 2 2 2 2 2 2 2 2 2 2 2
left_child=3 2 4 -1 5 7 11 -2 -5 10 -3 -7 -13 -14
right_child=1 9 -4 8 -6 6 -8 -9 -10 -11 -12 12 13 -15
leaf_value=0.057999323450008612 0.045705405480675594 -0.058218009343064092 -0.047192272099905147 -0.060843858806244711 0.049376286594995836 -0.05922950661751393 0.060184760324154943 -0.047743823296768954 0.021043633666875061 -0.054118102891804 0.058265611513497406 0.0027808340438108562 0.039341758542800476 -0.046078057054880148
leaf_weight=4114.1484587565064 565.81455117464066 638.23799038678408 874.31458339840174 129.75405434519053 560.74438396841288 357.23510278016329 151.64747549593449 80.453628584742546 234.17279182374477 3372.236599214375 239.6594160348177 722.1748975738883 133.37921213358641 744.01615585386753
leaf_count=34156 3630 5337 6765 791 3511 2430 1054 523 1422 29390 1229 4275 922 5343
internal_value=0 -0.0279985 -0.00730659 0.0526233 0.00321159 -0.00618559 -0.018525 0.034072 -0.00815244 -0.0483966 -0.0264189 -0.0246249 -0.0168965 -0.0330928
internal_weight=0 8439.91 4189.78 4478.08 3315.47 2754.72 2108.45 646.268 363.927 4250.13 877.897 1956.81 1599.57 877.395
internal_count=100778 64409 28453 36369 21688 18177 14024 4153 2213 35956 6566 12970 10540 6265
is_linear=0
shrinkage=0.05


Tree=28
num_leaves=15
num_cat=0
split_feature=0 1 9 10 9 14 13 18 18 10 9 12 9 4
split_gain=7134.15 1359.77 653.217 563.66 530.387 505.406 376.596 331.565 314.337 271.212 333.254 244.784 227.74 205.213
threshold=0.49500000000000005 210.50000000000003 52.500000000000007 5.5000000000000009 47.500000000000007 5.5000000000000009 315.50000000000006 1.0000000180025095e-35 0.015000000000000001 2.5000000000000004 20.500000000000004 0.66000000000000014 23.500000000000004 0.94500000000000006
decision_type=2 2 2 2 2 2 2 2 2 2 2 2 2 2
left_child=3 2 4 -1 5 12 7 11 -5 -9 -11 -7 -2 -4
right_child=1 -3 13 8 -6 6 -8 9 -10 10 -12 -13 -14 -15
leaf_value=0.057528237944741226 0.044476220480280222 -0.047849318620569764 -0.05217325044355367 -0.036518646915984533 0.047885954658789129 -0.04147111399521515 0.05952402615180126 -0.061036755426080794 0.068361712253320994 -0.014882890227437391 0.074148577360506562 0.053422768861062668 -0.046632776799639328 0.053155056519530022
leaf_weight=3944.7327238246799 552.71596087515354 4088.1420541331172 801.82994903624058 261.39002125710249 549.57412907481194 1323.2721012532711 145.81211107969284 107.3314955085516 98.310147762298584 218.21216879785061 202.7789298966527 71.637901775538921 78.306933805346489 49.074107341468334
leaf_count=34156 3630 35956 6481 1605 3511 9441 1054 690 608 1261 1055 523 523 284
internal_value=0 -0.0274435 -0.00709949 0.0520646 0.00311227 -0.00600101 -0.0179475 -0.0238211 -0.00785365 0.00991246 0.0280009 -0.0365977 0.03317 -0.0460987
internal_weight=0 8188.69 4100.55 4304.43 3249.64 2700.07 2069.04 1923.23 359.7 528.323 420.991 1394.91 631.023 850.904
internal_count=100778 64409 28453 36369 21688 18177 14024 12970 2213 3006 2316 9964 4153 6765
is_linear=0
shrinkage=0.05


Tree=29
num_leaves=15
num_cat=0
split_feature=0 1 9 10 9 14 13 18 18 10 9 3 9 9
split_gain=6690.73 1278.26 608.702 539.512 488.334 473.139 352.652 293.488 291.661 257.769 309.028 225.575 214.713 898.521
threshold=0.49500000000000005 212.50000000000003 52.500000000000007 5.5000000000000009 47.500000000000007 4.5000000000000009 315.50000000000006 1.0000000180025095e-35 0.015000000000000001 2.5000000000000004 20.500000000000004 0.9900000000000001 23.500000000000004 13.500000000000002
decision_type=2 2 2 2 2 2 2 2 2 2 2 2 2 2
left_child=3 2 4 -1 5 -2 7 11 -5 -9 -11 -7 13 -3
right_child=1 12 -4 8 -6 6 -8 9 -10 10 -12 -13 -14 -15
leaf_value=0.057085714905557777 0.033549606341477335 -0.057377506871013541 -0.045297776973926285 -0.035280513747458123 0.046227120633713856 -0.039094058813914659 0.058929260693518851 -0.05925210580911569 0.067213455026883417 -0.014425615717387336 0.071328806318507049 0.061258865986266842 -0.053045867612650545 0.058680636084076601
leaf_weight=3780.6964371055365 590.17982666194439 584.5798701941967 824.77593272924423 257.14490432292223 539.98560954630375 1334.0976489186287 141.63704421371222 110.27336163073778 95.072486415505409 219.4722166582942 201.52124834060669 58.451298713684082 3123.2322454750538 233.33620375394821
leaf_count=34156 4013 5286 6776 1605 3517 9697 1064 731 608 1277 1059 447 29342 1200
internal_value=0 -0.0268385 -0.00700229 0.0515718 0.00288161 -0.00593209 -0.0172135 -0.0228194 -0.00761477 0.00879844 0.0266233 -0.0348818 -0.0470736 -0.0242683
internal_weight=0 7961.54 4020.39 4132.91 3195.62 2655.63 2065.45 1923.82 352.217 531.267 420.993 1392.55 3941.15 817.916
internal_count=100778 64409 28581 36369 21805 18288 14275 13211 2213 3067 2336 10144 35828 6486
is_linear=0
shrinkage=0.05


Tree=30
num_leaves=15
num_cat=0
split_feature=0 1 9 9 6 9 9 13 18 9 9 12 5 6
split_gain=6281.45 1220.84 565.315 470.158 468.077 427.95 615.36 225.91 211.529 203.07 843.177 184.647 179.895 169.936
threshold=0.49500000000000005 212.50000000000003 53.500000000000007 12.500000000000002 0.015000000000000001 17.500000000000004 47.500000000000007 7.5000000000000009 1.0000000180025095e-35 23.500000000000004 13.500000000000002 0.57000000000000017 0.66500000000000015 0.025000000000000005
decision_type=2 2 2 2 2 2 2 2 2 2 2 2 2 2
left_child=4 2 3 -2 -1 -5 8 -6 11 10 -3 13 -4 -7
right_child=1 9 12 5 7 6 -8 -9 -10 -11 -12 -13 -14 -15
leaf_value=-0.058439864498549259 -0.057232886669957572 -0.056968184029130675 -0.051416862121831636 0.043026051816576226 -0.018915021930211759 -0.012971521271091939 0.044616601516347304 0.055799286208157578 0.010584397940469691 -0.052490684726649077 0.057107652134051605 0.051077007834502877 0.034286770555335647 -0.052943194906268379
leaf_weight=95.184160895645618 295.57415834069252 559.96366397291422 734.68962820619345 698.06244079768658 103.96562252193689 499.85659891366959 531.05894275009632 3767.8403301537037 474.49668851494789 3001.5399757549167 227.91370986402035 67.430315375328064 66.796389684081078 568.10818179696798
leaf_count=618 2288 5286 6380 4847 744 3151 3526 35007 2844 29342 1200 505 387 4653
internal_value=0 -0.0263032 -0.00680064 0.00278103 0.0511001 0.00902918 -0.00205559 0.0537931 -0.0174515 -0.0465606 -0.0239688 -0.029168 -0.0442743 -0.0342346
internal_weight=0 7725.49 3936.07 3134.59 3966.99 2839.01 2140.95 3871.81 1609.89 3789.42 787.877 1135.4 801.486 1067.96
internal_count=100778 64409 28581 21814 36369 19526 14679 35751 11153 35828 6486 8309 6767 7804
is_linear=0
shrinkage=0.05


Tree=31
num_leaves=15
num_cat=0
split_feature=10 2 1 9 9 9 9 18 10 9 9 9 9 16
split_gain=5916.54 963.196 916.874 639.527 395.051 427.594 452.741 372.551 239.335 210.244 190.179 188.229 764.184 168.188
threshold=5.5000000000000009 0.29500000000000004 223.50000000000003 49.500000000000007 12.500000000000002 17.500000000000004 47.500000000000007 1.0000000180025095e-35 1.5000000000000002 20.500000000000004 19.500000000000004 23.500000000000004 13.500000000000002 1.0000000180025095e-35
decision_type=2 2 2 2 2 2 2 2 2 2 2 2 2 2
left_child=1 -1 3 4 -2 -6 7 -7 -3 10 13 12 -4 -9
right_child=2 8 11 -5 5 6 -8 9 -10 -11 -12 -13 -14 -15
leaf_value=0.054428379408343969 -0.05579433523441038 -0.055356813301637664 -0.056576512472756003 -0.052372668626045893 0.038844799572419889 -0.032328758186510362 0.038662112830906009 0.1170823803021329 0.02311209298830566 0.0689202303094478 -0.061842760762513022 -0.052749271623605959 0.058505514654958152 -0.064800219372090725
leaf_weight=3831.527417100966 287.66356530785561 258.34905176609755 506.29247798025608 734.46958657354116 717.11028901487589 1175.3960895985365 430.90837238729 37.933803543448448 155.76203553378582 161.16311340034008 85.115481778979301 2702.0439659655094 201.72866198420525 19.114902690052986
leaf_count=37106 2478 2144 4992 6625 5045 8673 2468 204 906 701 521 27726 1080 109
internal_value=0 0.046599 -0.0280957 -0.0106754 -0.000167069 0.00592486 -0.00643732 -0.0195796 -0.0258418 0.0298237 -0.0144976 -0.046736 -0.0237875 0.0561403
internal_weight=0 4245.64 7058.94 3648.88 2914.41 2626.74 1909.63 1478.72 414.111 303.327 142.164 3410.07 708.021 57.0487
internal_count=100778 40156 60622 26824 20199 17721 12676 10208 3050 1535 834 33798 6072 313
is_linear=0
shrinkage=0.05


Tree=32
num_leaves=15
num_cat=0
split_feature=0 9 9 18 10 12 2 13 18 14 14 13 13 2
split_gain=5556.42 538.95 1561.38 656.364 489.221 451.273 366.078 297.247 250.425 203.391 433.571 240.375 200.525 222.07
threshold=0.49500000000000005 19.500000000000004 12.500000000000002 0.015000000000000001 5.5000000000000009 0.57000000000000017 0.065000000000000016 1.5000000000000002 0.015000000000000001 254.50000000000003 4.5000000000000009 3.5000000000000004 6.5000000000000009 0.99500000000000011
decision_type=2 2 2 2 2 2 2 2 2 2 2 2 2 2
left_child=4 2 -2 5 -1 -3 -5 -8 -6 10 -4 -12 13 -9
right_child=1 3 9 6 8 -7 7 12 -10 -11 11 -13 -14 -15
leaf_value=0.055949292575310644 -0.056172214252744795 -0.045021859077764535 0.052457948394429979 0.050944606937362705 -0.033581295452788665 0.042889636381809149 -0.0483752385799575 -0.05576346849720383 0.065102450538893686 0.066200830407275299 -0.048468361134364014 0.061292634615310093 -0.031165925361756049 0.067563425848211289
leaf_weight=3329.2873794659972 789.90626747906208 4189.8831824660301 438.23659566789865 282.85745725035667 244.99767441302538 151.24789966642857 361.29048063606024 45.269994474947453 87.157650768756866 368.20354843139648 238.0505309253931 63.10347144305706 145.03051044791937 188.4595325961709
leaf_count=34156 7574 40534 3437 2448 1605 1117 2845 290 608 2277 1433 455 997 1002
internal_value=0 -0.0253672 -0.00246459 -0.0334689 0.0501764 -0.041959 0.0025624 -0.0159299 -0.00768665 0.0358382 0.0207182 -0.0254692 0.0150189 0.0436768
internal_weight=0 7261.54 1897.5 5364.04 3661.44 4341.13 1022.91 740.051 332.155 1107.59 739.391 301.154 378.76 233.73
internal_count=100778 64409 15176 49233 36369 41651 7582 5134 2213 7602 5325 1888 2289 1292
is_linear=0
shrinkage=0.05


Tree=33
num_leaves=15
num_cat=0
split_feature=10 1 2 9 9 13 2 9 13 10 9 1 2 9
split_gain=5205.47 873.049 870.586 590.746 356.737 449.487 500.596 268.053 225.818 221.862 203.113 238.487 172.548 170.755
threshold=5.5000000000000009 223.50000000000003 0.28500000000000009 49.500000000000007 12.500000000000002 24.500000000000004 0.99500000000000011 48.500000000000007 5.5000000000000009 1.5000000000000002 19.500000000000004 90.500000000000014 0.33500000000000008 23.500000000000004
decision_type=2 2 2 2 2 2 2 2 2 2 2 2 2 2
left_child=2 3 -1 4 -2 6 7 10 -8 -4 11 -6 -9 -3
right_child=1 13 9 -5 5 -7 8 12 -10 -11 -12 -13 -14 -15
leaf_value=0.053627214483455733 -0.05456155605715423 -0.023257851174719787 -0.054369636907612706 -0.051295723509837715 -0.0094335686417614893 0.057211386925516985 0.034759926294126019 0.063898286605627852 -0.053081813983692439 0.021675179407044415 -0.047041295393488704 0.1763194320104379 -0.019252083455527008 -0.051924261988835166
leaf_weight=3517.4864576607943 266.2628917247057 655.05028329789639 241.48801276087761 685.78423777967691 260.43538653105497 369.8990830257535 796.08539919555187 130.4412703961134 80.56860226392746 159.1093929335475 754.68418740481138 18.507515147328377 119.59286341816187 2509.9896841794252
leaf_count=37059 2478 6072 2146 6625 1708 2564 5174 839 599 951 6206 101 530 27726
internal_value=0 -0.0269846 0.0456734 -0.00970929 0.000489009 0.00628216 -0.00243817 -0.0223286 0.0266869 -0.0241661 -0.0335662 0.00289091 0.024127 -0.0459913
internal_weight=0 6647.3 3918.08 3482.26 2796.48 2530.21 2160.32 1283.66 876.654 400.597 1033.63 278.943 250.034 3165.04
internal_count=100778 60622 40156 26824 20199 17721 15157 9384 5773 3097 8015 1809 1369 33798
is_linear=0
shrinkage=0.05


Tree=34
num_leaves=15
num_cat=0
split_feature=0 1 9 10 9 9 9 6 10 11 13 9 9 4
split_gain=4923.68 1024.07 456.79 446.203 375.294 304.239 482.332 184.631 226.266 204.824 257.698 177.463 706.521 171.331
threshold=0.49500000000000005 210.50000000000003 52.500000000000007 5.5000000000000009 12.500000000000002 17.500000000000004 47.500000000000007 0.025000000000000005 5.5000000000000009 1.0000000180025095e-35 5.5000000000000009 23.500000000000004 13.500000000000002 0.94500000000000006
decision_type=2 2 2 2 2 2 2 2 2 2 2 2 2 2
left_child=3 2 4 -1 -2 -6 7 9 -9 -7 -11 12 -3 -4
right_child=1 11 13 -5 5 6 -8 8 -10 10 -12 -13 -14 -15
leaf_value=0.055291178862485191 -0.054949447534688327 -0.055757106733272291 -0.048391320111447117 -0.0070420585271519474 0.039089334677125227 -0.040194570323009625 0.042204121963246737 0.032878146841259136 -0.045345719987833079 0.033605682681607685 -0.053643168820613034 -0.050567994016367537 0.052609573380511289 0.052139549181736959
leaf_weight=3053.8619339987636 253.9228747189045 486.50212177634239 657.74445422738791 316.89197121560574 626.69060718268156 210.78498803079128 488.82781887799501 109.12917506694794 604.6476434469223 460.51014570891857 103.68647638708353 2584.1471562460065 217.72020117938519 45.300556354224682
leaf_count=34156 2237 5337 6481 2213 4818 1607 3511 910 5288 2523 794 29390 1229 284
internal_value=0 -0.0243851 -0.0058074 0.0494311 0.00307382 0.00873122 -0.000889162 -0.0150387 -0.0333861 0.00185975 0.0175713 -0.0445044 -0.022254 -0.0419136
internal_weight=0 6849.61 3561.24 3370.75 2858.2 2604.28 1977.59 1488.76 713.777 774.982 564.197 3288.37 704.222 703.045
internal_count=100778 64409 28453 36369 21688 19451 14633 11122 6198 4924 3317 35956 6566 6765
is_linear=0
shrinkage=0.05


Tree=35
num_leaves=15
num_cat=0
split_feature=0 1 10 11 2 18 18 8 13 18 2 12 1 2
split_gain=4622.68 976.709 434.428 298.161 385.845 223.956 223.353 170.991 210.839 342.237 234.634 182.095 159.681 151.954
threshold=0.49500000000000005 210.50000000000003 5.5000000000000009 1.0000000180025095e-35 0.99500000000000011 0.015000000000000001 1.0000000180025095e-35 0.85500000000000009 4.5000000000000009 0.095000000000000015 0.12500000000000003 0.57000000000000017 53.500000000000007 0.64500000000000013
decision_type=2 2 2 2 2 2 2 2 2 2 2 2 2 2
left_child=2 3 -1 7 -5 -4 12 8 9 11 -11 -2 -6 -10
right_child=1 -3 5 4 6 -7 -8 -9 13 10 -12 -13 -14 -15
leaf_value=0.054977870133999455 -0.038550187377193096 -0.044042737348820971 -0.031603692378858309 -0.040648106091368694 0.018608034892767505 0.064352442066283447 0.071041006003967525 0.03970190692048 0.041743939699708688 0.055332577389206251 -0.033161717067065409 0.048697475215752767 -0.055881394979274718 -0.011907859124959039
leaf_weight=2921.0591504573822 705.86287346482277 3160.1458525061607 234.29877455532551 984.88678178191185 208.66534376889467 82.120113000273705 128.39857278764248 327.25586557388306 403.90090956538916 245.07406163215637 107.87321838736534 65.339868322014809 109.8056171014905 196.02081993222237
leaf_count=34156 5096 35956 1605 9642 1056 608 539 2969 2961 2325 780 467 925 1693
internal_value=0 -0.0239152 0.0489497 -0.00565375 -0.0231642 -0.00670022 0.0153699 0.00656793 0.000278576 -0.0124947 0.0282856 -0.0311582 -0.00707518 0.0242135
internal_weight=0 6643.23 3237.48 3483.08 1431.76 316.419 446.87 2051.33 1724.07 1124.15 352.947 771.203 318.471 599.922
internal_count=100778 64409 36369 28453 12162 2213 2520 16291 13322 8668 3105 5563 1981 4654
is_linear=0
shrinkage=0.05


Tree=36
num_leaves=15
num_cat=0
split_feature=0 1 10 14 14 4 6 6 6 13 16 10 10 13
split_gain=4337.41 919.538 417.657 283.765 317.527 197.361 196.649 181.289 165.631 149.825 143.019 217.24 138.667 233.568
threshold=0.49500000000000005 212.50000000000003 5.5000000000000009 6.5000000000000009 254.50000000000003 0.45500000000000007 0.015000000000000001 0.99500000000000011 0.045000000000000005 214.50000000000003 1.0000000180025095e-35 1.5000000000000002 5.5000000000000009 24.500000000000004
decision_type=2 2 2 2 2 2 2 2 2 2 2 2 2 2
left_child=2 3 -1 -2 5 6 10 -8 -4 -3 -5 -12 -6 -14
right_child=1 9 8 4 12 -7 7 -9 -10 -11 11 -13 13 -15
leaf_value=0.054681070490438466 0.025147965571889721 -0.04626423564207801 -0.056852391043162066 -0.021789468052236281 0.046872250505579444 0.056878963816358374 -0.042272742134318878 0.068688516826201557 0.020032179476537768 -0.0017256678555552154 -0.058102420776775111 0.06286799418736938 -0.018012768949901756 0.041575352135856877
leaf_weight=2793.2976169809699 616.84122025221586 2844.9135020002723 106.94151620566845 351.39136880636215 209.78831298649311 71.675498865544796 1190.5074938312173 37.984766863286495 203.05628671497107 202.24541712552309 49.996947050094604 144.01381392031908 517.01706776022911 241.15570323914289
leaf_count=34156 4702 34178 791 2415 2102 518 11215 342 1422 1650 432 636 4289 1930
internal_value=0 -0.02332 0.0485704 -0.00556471 -0.0122982 -0.0244628 -0.0277495 -0.0388418 -0.00649108 -0.0433081 -0.00276441 0.0316937 0.0108956 0.000940715
internal_weight=0 6477.53 3103.3 3430.37 2813.53 1845.57 1773.89 1228.49 309.998 3047.16 545.402 194.011 967.961 758.173
internal_count=100778 64409 36369 28581 23879 15558 15040 11557 2213 35828 3483 1068 8321 6219
is_linear=0
shrinkage=0.05


Tree=37
num_leaves=15
num_cat=0
split_feature=0 11 9 9 9 18 13 9 6 3 6 13 9 16
split_gain=4066.73 736.341 838.874 493.341 581.64 438.609 376.422 307.447 212.804 189.462 168.485 281.964 152.256 312.063
threshold=0.49500000000000005 1.0000000180025095e-35 12.500000000000002 17.500000000000004 45.500000000000007 1.0000000180025095e-35 12.500000000000002 23.500000000000004 0.025000000000000005 0.36500000000000005 1.0000000180025095e-35 6.5000000000000009 19.500000000000004 1.0000000180025095e-35
decision_type=2 2 2 2 2 2 2 2 2 2 2 2 2 2
left_child=6 2 -2 -4 9 7 -1 8 -3 -5 11 -7 13 -12
right_child=1 5 3 4 -6 10 -8 -9 -10 -11 12 -13 -14 -15
leaf_value=-0.01941759673754901 -0.053980900974640603 0.023499590354175551 0.041810823525834782 -0.043937516997271435 0.028217647201267262 0.050396801147432758 0.052836636440741297 -0.053196021785968821 -0.044348483192652943 0.054734276605554091 0.17046020675671011 -0.049331722754577832 -0.054187706737867339 -0.066939636220164328
leaf_weight=192.7342116907239 643.37107444554567 243.04108932614326 814.12730543315411 696.52726055681705 627.44886054843664 257.33664850890636 2784.0123312920332 2435.493922688067 220.3496875539422 52.302172265946865 25.260434404015541 97.815518565475941 178.77130032330751 30.625497370958328
leaf_count=1554 7343 1404 6047 6299 4626 1482 34815 32033 2322 478 132 763 1298 182
internal_value=0 -0.0227179 -0.00378514 0.0109585 -0.007292 -0.0380966 0.0481584 -0.0460934 -0.00876325 -0.0370458 0.00120745 0.0229297 -0.031669 0.0403651
internal_weight=0 6322.47 2833.78 2190.41 1376.28 3488.69 2976.75 2898.88 463.391 748.829 589.809 355.152 234.657 55.8859
internal_count=100778 64409 24793 17450 11403 39616 36369 35759 3726 6777 3857 2245 1612 314
is_linear=0
shrinkage=0.05


Tree=38
num_leaves=15
num_cat=0
split_feature=0 1 10 11 6 18 18 8 18 13 3 6 13 16
split_gain=3815.62 836.469 407.386 242.152 328.496 199.361 152.913 147.598 191.17 306.598 150.429 146.668 143.262 136.255
threshold=0.49500000000000005 210.50000000000003 5.5000000000000009 1.0000000180025095e-35 0.025000000000000005 0.015000000000000001 1.0000000180025095e-35 0.85500000000000009 0.19500000000000003 4.5000000000000009 0.94500000000000006 0.13500000000000004 204.50000000000003 0.015000000000000001
decision_type=2 2 2 2 2 2 2 2 2 2 2 2 2 2
left_child=2 3 -1 7 6 -4 -5 8 9 10 -2 -10 13 -3
right_child=1 12 5 4 -6 -7 -8 -9 11 -11 -12 -13 -14 -15
leaf_value=0.054149866007321357 -0.035069783601244763 -0.049111415607623582 -0.030619696653173524 -0.012070359262025269 -0.047035237641335971 0.062715623845005897 0.040399398852821032 0.038170156916817653 -0.012927151709081869 0.02111624678066697 0.055876652307954661 0.053055984566769902 -0.002581341739458494 -0.011901269494619053
leaf_weight=2557.6702645123005 708.17687609046698 2366.6447622925043 227.13336079567671 498.75044612586498 647.00293927639723 76.475237771868706 192.43049545586109 304.53370922803879 125.64395350217819 503.62564930319786 48.586939208209515 255.43834060430527 212.62465504556894 274.56045874208212
leaf_count=34156 5291 31575 1605 3990 7232 608 940 2969 1024 4089 404 2514 1818 2563
internal_value=0 -0.0222641 0.0476497 -0.00505805 -0.0214305 -0.00710969 0.00253766 0.00620058 0.000269431 -0.0091131 -0.0292307 0.0313012 -0.0420648 -0.0452433
internal_weight=0 6138.02 2861.28 3284.19 1338.18 303.609 691.181 1946.01 1641.47 1260.39 756.764 381.082 2853.83 2641.21
internal_count=100778 64409 36369 28453 12162 2213 4930 16291 13322 9784 5695 3538 35956 34138
is_linear=0
shrinkage=0.05


Tree=39
num_leaves=15
num_cat=0
split_feature=0 11 9 9 9 18 10 9 6 18 3 6 14 9
split_gain=3580.12 661.227 774.945 457.967 531.683 413.832 391.964 308.958 192.815 185.248 171.605 151.086 194.784 140.921
threshold=0.49500000000000005 1.0000000180025095e-35 12.500000000000002 17.500000000000004 45.500000000000007 1.0000000180025095e-35 5.5000000000000009 23.500000000000004 0.025000000000000005 0.015000000000000001 0.36500000000000005 1.0000000180025095e-35 198.50000000000003 19.500000000000004
decision_type=2 2 2 2 2 2 2 2 2 2 2 2 2 2
left_child=6 2 -2 -4 10 7 -1 8 -3 -8 -5 12 -7 -13
right_child=1 5 3 4 -6 11 9 -9 -10 -11 -12 13 -14 -15
leaf_value=0.053894899727428613 -0.053395824662137131 0.022866528695423317 0.04089996305153723 -0.042951349630600204 0.027131707547427358 -0.0013900420624361105 -0.029536409051724218 -0.052646131009127586 -0.042933781107011848 0.061834726811351583 0.053438361617455347 0.038285160870160678 0.081123820882421177 -0.053016537259872126
leaf_weight=2444.1500990241766 605.11451952159405 243.68772057443857 790.32171033322811 669.36623597145081 611.11328831315041 251.20485663414001 223.77765125781298 2243.7820795401931 204.98445148020983 73.755620121955872 49.59652704000473 56.261669099330902 99.991254039108753 169.85299242287874
leaf_count=34156 7343 1404 6047 6299 4626 1566 1605 32033 2322 608 478 314 679 1298
internal_value=0 -0.0216753 -0.00348769 0.010755 -0.00715694 -0.0368355 0.0472988 -0.0450722 -0.0071956 -0.00688639 -0.0363021 0.0015788 0.022103 -0.0302989
internal_weight=0 5995.28 2725.51 2120.4 1330.08 3269.77 2741.68 2692.45 448.672 297.533 718.963 577.311 351.196 226.115
internal_count=100778 64409 24793 17450 11403 39616 36369 35759 3726 2213 6777 3857 2245 1612
is_linear=0
shrinkage=0.05


Tree=40
num_leaves=15
num_cat=0
split_feature=0 11 9 9 9 18 13 9 6 3 13 2 14 13
split_gain=3365.86 621.707 728.126 423.472 489.783 400.141 338.066 302.851 178.648 159.165 149.33 243.068 243.318 131.43
threshold=0.49500000000000005 1.0000000180025095e-35 12.500000000000002 17.500000000000004 45.500000000000007 1.0000000180025095e-35 12.500000000000002 23.500000000000004 0.025000000000000005 0.36500000000000005 6.5000000000000009 0.99500000000000011 212.50000000000003 5.5000000000000009
decision_type=2 2 2 2 2 2 2 2 2 2 2 2 2 2
left_child=6 2 -2 -4 9 7 -1 8 -3 -5 11 -7 -13 -6
right_child=1 5 3 4 13 10 -8 -9 -10 -11 -12 12 -14 -15
leaf_value=-0.01864968466912429 -0.052896905030679148 0.021606881700602647 0.039761659094591312 -0.041837557311932352 0.010531808529579214 -0.026894120803324019 0.051858642448899261 -0.052349603612834597 -0.042255678336115682 0.052484881053842615 -0.050460621223372339 0.017943023618817885 0.12927281864855092 0.061054165684640796
leaf_weight=182.71341705322266 580.8953467682004 244.9656935557723 772.75218299031258 653.24213796854019 420.83318935334682 204.38114224374294 2444.1698788329959 2146.1366010978818 198.03746593743563 48.013123720884323 111.63915172219276 195.23166549950838 65.559062644839287 185.45273610949516
leaf_count=1554 7343 1404 6047 6299 3346 1491 34815 32033 2322 478 884 1097 385 1280
internal_value=0 -0.0212169 -0.00340335 0.0104171 -0.00692544 -0.0361903 0.0469544 -0.0445803 -0.00694185 -0.0353795 0.00147019 0.0139333 0.0459297 0.0259858
internal_weight=0 5827.14 2661.19 2080.29 1307.54 3165.95 2626.88 2589.14 443.003 701.255 576.811 465.172 260.791 606.286
internal_count=100778 64409 24793 17450 11403 39616 36369 35759 3726 6777 3857 2973 1482 4626
is_linear=0
shrinkage=0.05


Tree=41
num_leaves=15
num_cat=0
split_feature=10 14 1 9 9 9 18 14 9 14 9 9 9 16
split_gain=3171.28 633.122 603.681 428.445 304.263 267.453 193.144 320.023 280.216 181.472 249.419 179.077 572.283 184.111
threshold=5.5000000000000009 196.50000000000003 223.50000000000003 49.500000000000007 28.500000000000004 12.500000000000002 1.0000000180025095e-35 8.5000000000000018 48.500000000000007 250.50000000000003 19.500000000000004 23.500000000000004 13.500000000000002 0.015000000000000001
decision_type=2 2 2 2 2 2 2 2 2 2 2 2 2 2
left_child=1 4 3 5 -1 -2 7 -7 9 -9 -11 12 -4 -13
right_child=2 -3 11 -5 -6 6 -8 8 -10 10 -12 13 -14 -15
leaf_value=-0.043337226487068371 -0.052076182712156395 0.052889298526087938 -0.054116848121706453 -0.048230962766265435 0.0394498059259265 0.03332347734210804 0.037616787414285854 -0.043309776009736435 0.030153379596880348 0.047181477027283536 -0.032524414659583271 -0.053654712862522561 0.054684922416187512 0.003650584051388689
leaf_weight=282.83088605105877 214.41589608043432 2388.9480603933334 344.6421639546752 534.42462673038244 182.66345207393169 501.55397605150938 404.98008724302053 607.38435983657837 284.49525757879019 165.23978460580111 241.73675496503711 1694.3678864091635 186.13165447115898 152.80236949771643
leaf_count=2779 2478 35510 4992 6625 1867 4163 2785 5639 1558 1245 2331 26549 1080 1177
internal_value=0 0.0424947 -0.0228074 -0.00771351 -0.010851 0.00123495 0.00641805 -0.000599727 -0.0136992 -0.0259984 -0.000162391 -0.0415592 -0.0159623 -0.0489143
internal_weight=0 2854.44 5332.17 2954.23 465.494 2419.81 2205.39 1800.41 1298.86 1014.36 406.977 2377.94 530.774 1847.17
internal_count=100778 40156 60622 26824 4646 20199 17721 14936 10773 9215 3576 33798 6072 27726
is_linear=0
shrinkage=0.05


Tree=42
num_leaves=15
num_cat=0
split_feature=0 1 10 9 9 9 9 2 10 9 9 16 14 16
split_gain=2980.36 705.841 363.966 320.86 277.939 174.342 305.146 186.296 210.735 170.145 553.768 160.668 430.367 153.257
threshold=0.49500000000000005 210.50000000000003 5.5000000000000009 52.500000000000007 12.500000000000002 47.500000000000007 19.500000000000004 0.99500000000000011 5.5000000000000009 23.500000000000004 13.500000000000002 0.015000000000000001 212.50000000000003 0.50500000000000012
decision_type=2 2 2 2 2 2 2 2 2 2 2 2 2 2
left_child=2 3 -1 4 -2 6 -6 8 -8 10 -3 -11 -13 -9
right_child=1 9 -4 -5 5 -7 7 13 -10 11 -12 12 -14 -15
leaf_value=0.053229154922034276 -0.051189340559292786 -0.053915827984110126 -0.0070657336332069333 -0.038599413421652636 0.026825520696881985 0.037328632245188141 0.03279904368562344 0.02071868773296888 -0.046137646480438783 -0.05317475459568155 0.049589587830370548 -0.056238434529143989 0.078789241987794148 -0.055759409053466116
leaf_weight=2138.226617269218 212.5658186301589 352.06727895140648 283.46862068027258 554.80249569937587 735.26972751319408 428.39115208387375 101.27436991035938 406.14938931167126 512.03642091155052 1644.8447366505861 204.15799435228109 177.18769676238298 88.477985344827175 78.103791445493698
leaf_count=34156 2237 5337 2213 6765 6373 3511 983 2375 5469 26827 1229 1998 565 740
internal_value=0 -0.0204063 0.0461714 -0.00423414 0.00347303 0.00861155 0.00189946 -0.0147988 -0.033103 -0.040262 -0.015925 -0.0473475 -0.0112685 0.00838376
internal_weight=0 5495.33 2421.7 3028.59 2473.79 2261.22 1832.83 1097.56 613.311 2466.74 556.225 1910.51 265.666 484.253
internal_count=100778 64409 36369 28453 21688 19451 15940 9567 6452 35956 6566 29390 2563 3115
is_linear=0
shrinkage=0.05


Tree=43
num_leaves=15
num_cat=0
split_feature=10 14 11 9 13 14 18 9 9 18 6 9 13 9
split_gain=2811.46 573.572 470.854 586.632 366.487 491.467 346.562 284.391 272.888 160.943 153.1 121.895 117.086 135.76
threshold=5.5000000000000009 196.50000000000003 1.0000000180025095e-35 12.500000000000002 24.500000000000004 4.5000000000000009 1.0000000180025095e-35 23.500000000000004 28.500000000000004 0.065000000000000016 0.025000000000000005 17.500000000000004 6.5000000000000009 43.500000000000007
decision_type=2 2 2 2 2 2 2 2 2 2 2 2 2 2
left_child=1 8 3 -2 5 11 7 10 -1 -7 -4 -5 13 -8
right_child=2 -3 6 4 -6 9 12 -9 -10 -11 -12 -13 -14 -15
leaf_value=-0.041773430718706615 -0.052374848926648523 0.05233646960448915 0.019131865073201356 0.054309685731667494 0.048257896222610563 -0.031217828633598704 0.028300550343448395 -0.051699626431286949 0.038499178991287963 0.046386958563664538 -0.041068909185261626 -0.054426154893803251 -0.043515492167943842 -0.04126017513786117
leaf_weight=267.91399668902159 489.83195490390062 2188.796995036304 245.72529920935631 321.43488050252199 452.76105971634388 791.87196438759565 329.35792252421379 1914.5499509982765 175.0498920455575 72.965116441249847 185.21718536317348 28.020800799131393 114.80162680149078 89.123054035007954
leaf_count=2779 7261 35510 1430 3359 3519 6078 1947 32251 1867 565 2351 120 924 817
internal_value=0 0.0418357 -0.0219332 -0.00426982 0.00986493 -0.00445027 -0.0351673 -0.0434395 -0.0100514 -0.0246704 -0.00674216 0.0455908 0.00121536 0.0134863
internal_weight=0 2631.76 5035.66 2156.89 1667.05 1214.29 2878.78 2345.49 442.964 864.837 430.942 349.456 533.283 418.481
internal_count=100778 40156 60622 20902 13641 10122 39720 36032 4646 6643 3781 3479 3688 2764
is_linear=0
shrinkage=0.05


Tree=44
num_leaves=15
num_cat=0
split_feature=10 14 9 9 18 9 13 8 9 14 14 9 14 13
split_gain=2638.68 548.885 376.629 846.29 379.58 252.69 167.68 278.734 125.082 176.786 151.861 110.311 122.589 108.871
threshold=5.5000000000000009 196.50000000000003 19.500000000000004 12.500000000000002 0.015000000000000001 48.500000000000007 9.5000000000000018 0.48500000000000004 18.500000000000004 172.50000000000003 5.5000000000000009 20.500000000000004 175.50000000000003 39.500000000000007
decision_type=2 2 2 2 2 2 2 2 2 2 2 2 2 2
left_child=1 5 3 -2 13 -1 7 8 10 -10 -5 -6 -13 -4
right_child=2 -3 4 6 11 -7 -8 -9 9 -11 -12 12 -14 -15
leaf_value=-0.039283018823304289 -0.052356386109585866 0.052038134960221499 -0.038921099199286789 0.034491706062737978 -0.056998946671710377 0.039558414095075413 0.062272967750073516 0.055390574015680483 -0.047113759549477878 0.071689328884933609 -0.056027760296256127 -0.0089338579814755171 0.045069220050869309 0.0059321981338698168
leaf_weight=271.35435596108437 491.5043673440814 2093.6848179139197 2874.8201075866818 61.936985559761524 52.584174387156963 162.48424930870533 268.63780120760202 256.72956791520119 50.251418240368366 83.089928038418293 183.92962171137333 197.5157780200243 224.57226347923279 141.97111292555928
leaf_count=2860 7470 35510 40890 538 408 1786 2132 2876 443 531 1043 1346 1829 1116
internal_value=0 0.0414316 -0.0214941 0.000455672 -0.0302708 -0.00975478 0.0291513 0.0151598 -0.0120771 0.0269168 -0.0332247 0.0112909 0.0197985 -0.0368103
internal_weight=0 2527.52 4887.54 1396.08 3491.46 433.839 904.575 635.938 379.208 133.341 245.867 474.672 422.088 3016.79
internal_count=100778 40156 60622 15033 45589 4646 7563 5431 2555 974 1581 3583 3175 42006
is_linear=0
shrinkage=0.05


Tree=45
num_leaves=15
num_cat=0
split_feature=0 1 10 13 6 16 3 6 13 1 16 14 11 14
split_gain=2495.47 643.462 322.94 171.3 246.832 246.449 208.485 136.278 132.962 116.871 104.575 340.235 113.499 182.094
threshold=0.49500000000000005 165.50000000000003 5.5000000000000009 25.500000000000004 1.0000000180025095e-35 0.99500000000000011 0.92500000000000016 0.045000000000000005 193.50000000000003 2.5000000000000004 0.015000000000000001 188.50000000000003 1.0000000180025095e-35 4.5000000000000009
decision_type=2 2 2 2 2 2 2 2 2 2 2 2 2 2
left_child=2 3 -1 4 -2 6 -6 -4 10 -7 12 -12 13 -3
right_child=1 8 7 -5 5 9 -8 -9 -10 -11 11 -13 -14 -15
leaf_value=0.052645745468218201 0.018195955816036165 0.047218804153369348 -0.054962326399916245 0.041948305908565797 -0.029235132540814203 0.046461085966652528 0.053717583056558174 0.01977303389772532 -8.9914539047367066e-05 -0.077109136787920335 -0.053742866964773886 0.057364217771170928 -0.051792278025129826 -0.036911658623300474
leaf_weight=1866.8769550174475 753.99292289093137 75.494598794728518 92.59812718629837 208.78025637194514 1284.5270942673087 188.21120495349169 80.491221345961094 178.74096765369177 221.01633583754301 21.299988903105259 187.89272128045559 108.80133230984211 1487.0107533708215 434.42545145004988
leaf_count=34156 6026 674 791 2043 13674 2284 860 1422 2372 129 2232 662 27717 5736
internal_value=0 -0.019203 0.0452377 -0.00143848 -0.00532863 -0.0165938 -0.0243436 -0.00573142 -0.0371277 0.0338983 -0.0406967 -0.0129985 -0.0448119 -0.024456
internal_weight=0 5051.94 2138.22 2537.3 2328.52 1574.53 1365.02 271.339 2514.64 209.511 2293.62 296.694 1996.93 509.92
internal_count=100778 64409 36369 25016 22973 16947 14534 2213 39393 2413 37021 2894 34127 6410
is_linear=0
shrinkage=0.05


Tree=46
num_leaves=15
num_cat=0
split_feature=0 1 6 9 9 13 9 9 16 14 8 18 13 18
split_gain=2341.67 612.502 287.982 275.809 236.318 176.751 148.592 463.823 152.623 332.849 147.509 214.831 142.655 119.287
threshold=0.49500000000000005 210.50000000000003 0.015000000000000001 49.500000000000007 12.500000000000002 25.500000000000004 23.500000000000004 13.500000000000002 0.015000000000000001 215.50000000000003 0.85500000000000009 1.0000000180025095e-35 7.5000000000000009 0.82500000000000007
decision_type=2 2 2 2 2 2 2 2 2 2 2 2 2 2
left_child=2 3 -1 4 -2 10 7 -3 -8 -10 11 -6 -4 -5
right_child=1 6 12 13 5 -7 8 -9 9 -11 -12 -13 -14 -15
leaf_value=-0.054145719040780672 -0.049365788713280047 -0.053265091968069216 -0.017752929376290621 -0.042597786935577475 -0.013400157115720377 0.050935143251703063 -0.052495754735360195 0.046873940523483953 -0.05522117614376415 0.062952364629290367 0.041084386828814615 0.025762384775016207 0.051144765871600141 0.066376122535361404
leaf_weight=70.887332737445831 189.91123058646917 299.59101395308971 78.222088679671288 476.0088365226984 1142.0558640435338 223.2499180957675 1396.5466568768024 188.32091704756021 156.67608106508851 96.156107492744923 233.34874943271279 505.04248920083046 1901.0012856163085 26.510903049260378
leaf_count=618 2237 5337 744 6614 10016 2099 26827 1229 2003 560 2814 4495 35007 178
internal_value=0 -0.0187027 0.0448753 -0.00329982 0.00405061 0.00887277 -0.0388537 -0.0146141 -0.0460242 -0.0102779 0.00387906 -0.00139192 0.0484218 -0.0368488
internal_weight=0 4933.42 2050.11 2796.13 2293.61 2103.7 2137.29 487.912 1649.38 252.832 1880.45 1647.1 1979.22 502.52
internal_count=100778 64409 36369 28453 21661 19424 35956 6566 29390 2563 17325 14511 35751 6792
is_linear=0
shrinkage=0.05


Tree=47
num_leaves=15
num_cat=0
split_feature=0 1 10 9 9 6 9 9 18 4 18 14 16 4
split_gain=2197.53 617.205 245.234 206.336 220.334 179.601 161.26 498.435 143.091 143.802 137.772 280.739 131.311 129.134
threshold=0.32500000000000007 165.50000000000003 5.5000000000000009 49.500000000000007 47.500000000000007 0.025000000000000005 19.500000000000004 13.500000000000002 0.87500000000000011 1.0000000180025095e-35 1.0000000180025095e-35 165.50000000000003 0.47500000000000003 0.94500000000000006
decision_type=2 2 2 2 2 2 2 2 2 2 2 2 2 2
left_child=2 3 -1 4 5 12 7 -3 9 -7 -8 -12 -2 -5
right_child=1 6 -4 13 -6 8 10 -9 -10 -11 11 -13 -14 -15
leaf_value=0.052524575227784823 0.016435411277106397 -0.053250172736359569 -0.0046668351827889622 -0.04129783372047513 0.039996183872707716 -0.04117157727029544 -0.050930689187666772 0.039972320932831686 0.053648598893459479 0.01187203497851904 -0.056431436231433443 0.031508247532567563 -0.055877956714786896 0.050357376000333791
leaf_weight=1659.632636141032 954.9233118519187 335.93687923997641 211.30309798568487 388.22247749939561 384.16899326443672 494.29760873317719 1390.8745713308454 250.16076700389385 59.206997487694025 172.31477608531713 199.64088968932629 166.39958871155977 67.19474583119154 42.65170519053936
leaf_count=33373 8037 6084 1693 5243 3662 5887 27983 1820 562 1894 2442 1090 624 384
internal_value=0 -0.0176232 0.0460654 -0.000666679 0.00571089 -0.00182447 -0.0361716 -0.0134605 -0.0208439 -0.0274602 -0.0437479 -0.0164546 0.0116815 -0.032225
internal_weight=0 4905.99 1870.94 2562.98 2132.11 1747.94 2343.01 586.098 725.819 666.612 1756.92 366.04 1022.12 430.874
internal_count=100778 65712 35066 26293 20666 17004 39419 7904 8343 7781 31515 3532 8661 5627
is_linear=0
shrinkage=0.05


Tree=48
num_leaves=15
num_cat=0
split_feature=10 13 1 9 6 9 13 8 18 9 9 18 14 14
split_gain=2051.59 482.395 477.426 319.848 195.136 193.929 244.748 231.511 215.124 139.07 406.521 144.044 187.699 116.55
threshold=5.5000000000000009 1.5000000000000002 223.50000000000003 49.500000000000007 0.29500000000000004 12.500000000000002 25.500000000000004 0.85500000000000009 1.0000000180025095e-35 23.500000000000004 13.500000000000002 0.015000000000000001 223.50000000000003 14.500000000000002
decision_type=2 2 2 2 2 2 2 2 2 2 2 2 2 2
left_child=1 4 3 5 -1 -2 7 8 13 10 -4 -11 -13 -7
right_child=2 -3 9 -5 -6 6 -8 -9 -10 11 -12 12 -14 -15
leaf_value=-0.044631354156647311 -0.049225399926548057 0.049321061225622277 -0.052923130158834958 -0.045216478829843483 0.046908301735521817 0.0097290812257194194 0.051117245359833897 0.048651166336019486 0.030256492632186844 -0.052446973358723392 0.048864932727624967 -0.057484451921055793 0.050865448512717119 -0.025715530037866471
leaf_weight=213.35370654985309 170.30413453280926 1863.1853930801153 254.83460661768913 429.77134455740452 80.066077128052711 311.47736547142267 264.93287990242243 210.68804411590099 305.49069527536631 1244.8028039969504 159.47672804445028 78.118315562605858 81.852758020162582 908.1187484562397
leaf_count=2464 2478 36681 4992 6625 1011 2051 2525 2691 1944 26533 1080 734 459 8510
internal_value=0 0.0399367 -0.0195503 -0.00580689 -0.0196527 0.00199459 0.00635454 -0.000477637 -0.00726469 -0.0391994 -0.0137429 -0.0467073 -0.00204482 -0.0166632
internal_weight=0 2156.61 4419.87 2600.78 293.42 2171.01 2000.71 1735.77 1525.09 1819.09 414.311 1404.77 159.971 1219.6
internal_count=100778 40156 60622 26824 3475 20199 17721 15196 12505 33798 6072 27726 1193 10561
is_linear=0
shrinkage=0.05


Tree=49
num_leaves=15
num_cat=0
split_feature=10 1 13 9 1 9 13 8 9 9 16 16 6 16
split_gain=1922.2 458.516 457.632 300.493 282.27 181.624 228.608 216.14 131.9 382.837 154.183 94.7906 88.6347 87.8022
threshold=5.5000000000000009 223.50000000000003 3.5000000000000004 49.500000000000007 2.5000000000000004 12.500000000000002 25.500000000000004 0.85500000000000009 23.500000000000004 13.500000000000002 0.015000000000000001 0.065000000000000016 0.99500000000000011 1.0000000180025095e-35
decision_type=2 2 2 2 2 2 2 2 2 2 2 2 2 2
left_child=2 3 4 5 -1 -2 7 13 9 -3 -10 -12 -5 -7
right_child=1 8 -4 12 -6 6 -8 -9 10 -11 11 -13 -14 -15
leaf_value=0.041199974291766771 -0.048661549134536145 -0.052772950184084316 0.051594460086872844 -0.047905542443362016 -0.040199859853709913 -0.011002457452231662 0.050110747594082884 0.04795359469068685 -0.052345559862566893 0.047767035291703806 0.02842429046587517 -0.057526301397378778 0.11715470498780639 0.028922495698216463
leaf_weight=183.71977384015918 163.82823396474123 243.07857688888907 1638.3319368883967 406.02749721705914 253.39435105398297 1360.1410117633641 256.94592927023768 203.25482546910644 1196.7790944203734 155.09715778380632 102.58708201721311 46.671892710030079 8.2993942983448488 153.21980917826295
leaf_count=2411 2478 4992 34994 6575 2751 11723 2525 2691 26549 1080 715 462 50 782
internal_value=0 -0.0191335 0.039467 -0.00562822 -0.00598738 0.00192619 0.00612555 -0.000458224 -0.0388911 -0.0136107 -0.0463694 0.00154834 -0.0445992 -0.00696027
internal_weight=0 4295.93 2075.45 2551.72 437.114 2137.39 1973.56 1716.62 1744.21 398.176 1346.04 149.259 414.327 1513.36
internal_count=100778 60622 40156 26824 5162 20199 17721 15196 33798 6072 27726 1177 6625 12505
is_linear=0
shrinkage=0.05


Tree=50
num_leaves=15
num_cat=0
split_feature=0 11 9 16 9 6 9 9 3 2 15 8 6 11
split_gain=1841.66 354.444 431.01 220.821 368.567 219.637 218.575 350.347 181.168 178.586 136.032 138.545 119.7 117.644
threshold=0.32500000000000007 1.0000000180025095e-35 12.500000000000002 1.0000000180025095e-35 23.500000000000004 0.015000000000000001 17.500000000000004 47.500000000000007 0.29500000000000004 0.99500000000000011 0.13000000000000003 0.025000000000000005 0.025000000000000005 1.0000000180025095e-35
decision_type=2 2 2 2 2 2 2 2 2 2 2 2 2 2
left_child=5 2 -2 4 12 -1 -4 8 -8 -5 11 -11 -3 -7
right_child=1 3 6 9 -6 13 7 -9 -10 10 -12 -13 -14 -15
leaf_value=-0.052222365176663843 -0.049177914893600176 0.022269697938368912 0.032453286771334869 -0.058549228554076474 -0.049668356738836357 0.050787354304691237 -0.039645535435625857 0.024484340051455042 0.051433513658837263 0.024641153317978417 0.084985932445708873 -0.056559111081121764 -0.029733167134435648 -0.035660593782707986
leaf_weight=55.91520157083869 395.87448747456074 278.39201805740595 620.57493205741048 94.691137131303549 1452.9327003583312 1553.4709650278091 546.21471243724227 552.74078756943345 60.66279374435544 205.76614406704903 63.658028684556484 70.539316244423389 183.65830775722861 40.378122460097075
leaf_count=528 7413 1621 6076 808 32132 34267 6502 5158 889 1500 304 783 2526 271
internal_value=0 -0.0165298 -0.00198981 -0.0299958 -0.0372984 0.0451802 0.00850375 -0.00431295 -0.0305414 0.00217786 0.0190924 0.00391116 0.00159931 0.0485973
internal_weight=0 4525.71 2176.07 2349.64 1914.98 1649.76 1780.19 1159.62 606.878 434.655 339.963 276.305 462.05 1593.85
internal_count=100778 65712 26038 39674 36279 35066 18625 12549 7391 3395 2587 2283 4147 34538
is_linear=0
shrinkage=0.05


Tree=51
num_leaves=15
num_cat=0
split_feature=0 1 6 9 9 14 18 14 9 6 9 1 9 9
split_gain=1730.83 517.897 207.191 204.684 198.862 149.914 167.208 189.965 142.634 140.127 135.769 117.595 116.605 348.006
threshold=0.32500000000000007 210.50000000000003 0.015000000000000001 49.500000000000007 47.500000000000007 12.500000000000002 1.0000000180025095e-35 250.50000000000003 23.500000000000004 0.26500000000000007 14.500000000000002 7.5000000000000009 23.500000000000004 13.500000000000002
decision_type=2 2 2 2 2 2 2 2 2 2 2 2 2 2
left_child=2 3 -1 4 5 8 7 -7 11 10 -9 -2 13 -3
right_child=1 12 -4 -5 -6 6 -8 9 -10 -11 -12 -13 -14 -15
leaf_value=-0.051502428519237392 -0.02836749089452531 -0.05251852194213083 0.048231072530020055 -0.033208235678952584 0.036226790193882363 -0.043873795948005813 0.014214371773892896 -0.050173726761344156 -0.03466011499536599 -0.047368480625561753 0.040115367215299215 0.043612054154160543 -0.044220477624157782 0.04169277344989783
leaf_weight=53.912928268313408 67.454464484006166 237.42290931940079 1527.3850370533764 442.9099238216877 394.1154635027051 516.96860793232918 411.14937310293317 51.818750519305468 98.276994477957487 99.087920349091291 211.88328610733151 357.31980678066611 1353.9294341951609 166.94622483104467
leaf_count=528 475 5337 34538 6971 3850 6321 3082 699 896 1336 2447 3656 29413 1229
internal_value=0 -0.0161428 0.0448307 -0.00218712 0.00403529 -0.00295889 -0.0121085 -0.0244103 0.0196226 0.00332477 0.0223731 0.0321816 -0.0371837 -0.0136228
internal_weight=0 4409.28 1581.3 2650.98 2208.07 1813.96 1290.91 879.759 523.051 362.79 263.702 424.774 1758.3 404.369
internal_count=100778 65712 35066 29733 22762 18912 13885 10803 5027 4482 3146 4131 35979 6566
is_linear=0
shrinkage=0.05


Tree=52
num_leaves=15
num_cat=0
split_feature=0 1 10 13 2 18 12 13 18 16 14 2 13 1
split_gain=1622.05 493.63 225.863 147.394 173.424 207.475 222.806 101.971 101.19 99.7692 248.689 96.8228 124.77 89.9208
threshold=0.32500000000000007 165.50000000000003 5.5000000000000009 24.500000000000004 0.99500000000000011 0.30500000000000005 0.59500000000000008 185.50000000000003 0.015000000000000001 0.015000000000000001 186.50000000000003 0.99500000000000011 7.5000000000000009 2.5000000000000004
decision_type=2 2 2 2 2 2 2 2 2 2 2 2 2 2
left_child=2 3 -1 4 5 6 -2 9 -4 -3 -11 -12 -13 -7
right_child=1 7 8 -5 -6 13 -8 -9 -10 10 11 12 -14 -15
leaf_value=0.051825057773134953 -0.028791784811087118 -0.043092462004588765 -0.025140101595287741 0.040246827500519375 0.016364543235978538 0.052611677788102718 0.045847334476366873 0.0007900577627918524 0.058720260326870104 -0.052576951427296917 -0.061200065232375714 0.093820374166398809 -0.043703035509800363 -0.013999008739035958
leaf_weight=1321.17846596241 1117.6109902225435 1496.0190905816853 152.01842844113708 204.39888521283865 694.60366755723953 149.34744988754392 109.80859128758311 186.62051752954721 47.122264802455902 149.23631009832025 18.147459395229816 77.355790533125401 20.962218515574932 76.678310055285692
leaf_count=33373 13534 34035 1211 2617 6018 2115 1347 2490 482 2223 136 386 149 662
internal_value=0 -0.0157417 0.0443429 -0.000325748 -0.00418646 -0.0140078 -0.0221143 -0.034355 -0.00529639 -0.038078 -0.00984404 0.044913 0.0644992 0.0300143
internal_weight=0 4300.79 1520.32 2352.45 2148.05 1453.45 1227.42 1948.34 199.141 1761.72 265.702 116.465 98.318 226.026
internal_count=100778 65712 35066 26293 23676 17658 14881 39419 1693 36929 2894 671 535 2777
is_linear=0
shrinkage=0.05


Tree=53
num_leaves=15
num_cat=0
split_feature=0 1 10 9 9 9 9 9 9 16 14 18 5 16
split_gain=1523.38 468.066 218.602 184.708 180.753 133.607 175.93 114.845 330.606 146.801 242.776 111.539 123.549 100.293
