tree
version=v3
num_class=1
num_tree_per_iteration=1
label_index=0
max_feature_idx=19
objective=binary sigmoid:1
feature_names=Column_0 Column_1 Column_2 Column_3 Column_4 Column_5 Column_6 Column_7 Column_8 Column_9 Column_10 Column_11 Column_12 Column_13 Column_14 Column_15 Column_16 Column_17 Column_18 Column_19
feature_infos=[0:1] [0:255] [0:1] [0:1] [0:1] [0:1] [0:1] [0:1] [0:1] [0:68] [0:10] [0:1] [0:1] [0:511] [0:21] [0:255] [0:1] [0:1] [0:1] [0:1]
tree_sizes=6726 6696 6706 6714 6796 6726 6663 6761 6793 6721 6745 6688 6726 6731 6748 6673 6765 6698 6708 6741 6670 6795 6691 6785 6758 6794 6837 6696 6770 6774 6764 6799 6780 6774 6711 6738 6838 6857 6943 6833 6740 6752 6777 6816 6808 6859 6880 6890 6964 6891 6837 6784 6917 6904 6839 6839 6992 6840 6996 6806 6939 6869 6980 6962 7065 7060 6886 6844 6957 7004 6857 6861 6892 6905 6905 6965 7087

Tree=0
num_leaves=63
num_cat=0
split_feature=0 14 14 6 1 3 3 3 14 2 1 6 2 1 3 19 14 2 3 2 2 14 6 6 1 14 6 6 14 2 6 1 2 2 16 2 14 3 14 2 1 14 2 16 0 1 1 2 2 3 2 3 16 19 14 3 6 6 0 1 19 1
split_gain=56209.1 18092.6 4026.6 2158.95 1614.73 956.165 604.176 599.823 563.569 481.448 282.488 276.783 268.854 218.183 193.823 2020.39 177.815 176.367 145.785 140.082 152.798 135.369 118.971 184.679 116.907 115.348 113.943 87.6288 87.4501 80.6377 159.688 125.639 123.686 77.9952 72.594 69.5108 103.503 81.3469 68.4988 67.8962 66.6696 62.5855 273.671 71.7965 58.1862 57.9791 55.7657 78.8416 55.4072 53.4317 50.1004 48.1635 47.1155 45.9401 43.4631 43.282 42.5224 67.9272 41.7355 45.3134 41.3673 39.491
threshold=0.49500000000000005 17.500000000000004 19.500000000000004 0.015000000000000001 195.50000000000003 1.0000000180025095e-35 0.35500000000000004 0.49500000000000005 16.500000000000004 1.0000000180025095e-35 238.50000000000003 1.0000000180025095e-35 0.82500000000000007 42.500000000000007 0.32500000000000007 0.015000000000000001 18.500000000000004 0.87500000000000011 0.9900000000000001 0.99500000000000011 0.76500000000000012 18.500000000000004 0.32500000000000007 0.16500000000000004 82.500000000000014 18.500000000000004 0.015000000000000001 0.14500000000000005 13.500000000000002 0.58500000000000008 0.14500000000000005 88.500000000000014 0.095000000000000015 0.13500000000000004 0.98000000000000009 0.64500000000000013 18.500000000000004 1.0000000180025095e-35 3.5000000000000004 0.96500000000000008 176.50000000000003 20.500000000000004 1.0000000180025095e-35 0.98000000000000009 0.50500000000000012 254.50000000000003 129.50000000000003 0.49500000000000005 0.29500000000000004 1.0000000180025095e-35 0.43500000000000005 0.055000000000000007 0.025000000000000005 0.70500000000000007 12.500000000000002 1.0000000180025095e-35 0.12500000000000003 0.26500000000000007 0.99500000000000011 200.50000000000003 0.015000000000000001 15.500000000000002
decision_type=2 2 2 2 2 2 2 2 2 2 2 2 2 2 2 2 2 2 2 2 2 2 2 2 2 2 2 2 2 2 2 2 2 2 2 2 2 2 2 2 2 2 2 2 2 2 2 2 2 2 2 2 2 2 2 2 2 2 2 2 2 2
left_child=3 5 4 -1 6 8 9 41 -2 34 29 25 14 16 15 22 27 18 38 20 24 49 23 51 56 45 -13 48 -19 30 53 -31 -32 -29 -3 37 -37 44 -7 -33 -41 42 43 -4 -26 -6 -40 -48 -11 -21 60 -5 -30 -10 -20 -47 -15 -58 -28 -60 -46 -50
right_child=1 2 7 12 11 17 -8 -9 10 13 -12 26 -14 19 -16 -17 -18 28 54 21 -22 -23 -24 -25 35 -27 58 33 52 31 32 39 -34 -35 -36 36 -38 -39 46 40 -42 -43 -44 -45 50 55 47 -49 61 -51 -52 -53 -54 -55 -56 -57 57 -59 59 -61 -62 -63
leaf_value=-0.49395997367894917 0.24108260062397327 -0.35191594673555038 -0.51268517497092236 -0.39048528652598413 -0.0027182682028065175 0.25900712055886388 0.29001751508050888 0.29116096620593834 -0.16929459039051598 -0.30283153634510496 -0.42680417698194173 -0.48771315564218809 -0.51268517497092259 -0.2899528066865007 0.29098071143720261 0.28925111542660109 -0.44905276638018565 0.23305160660279176 -0.45909543222579829 0.26138888690309159 -0.51268517497092259 -0.43093810976649605 -0.51268517497092259 0.11491662509229503 -0.45724751006217357 -0.063544780903622061 -0.51268517497092259 0.1932566284985002 -0.28385306178918845 0.25586233326004826 0.26701108213624725 0.24747367592458722 -0.45909543222579852 -0.51268517497092259 0.29116096620593834 -0.30114671676648552 0.17095967406734233 -0.49258902144150107 -0.47695867980750661 -0.044389487221099935 -0.51268517497092259 -0.51233584639912866 -0.47984466409647331 0.29116096620593834 0.093567501335648506 -0.30722368175914166 0.14620510468224204 -0.51268517497092259 -0.31172363967670735 -0.51268517497092259 0.22496187222666744 0.21808404428076919 0.21077635208825227 -0.51268517497092259 0.29116096620593834 -0.50456551697923713 0.22023336551386233 -0.51268517497092259 -0.34521722889240991 0.021068662770513058 -0.26284110406460098 0.1571866093431282
leaf_weight=149.53110729157925 1697.3397902548313 7.4641151726245871 5.4736844599247005 104.74641625583172 23.138757035136223 6.2200959771871558 174.90909887850285 37.818183541297913 51.253590852022171 112.45933526754379 58.220098346471786 632.70816279947758 17.416268736124039 119.42584276199341 6657.24432246387 1989.6843011826277 154.009576395154 41.30143728852272 3.7320575863122967 80.612443864345551 38.813398897647858 14.679426506161688 85.33971680700779 46.526317909359932 7.2153113335371009 86.832539841532707 15.177034184336661 38.813398897647858 34.086125954985619 124.65072338283062 57.9712945073843 22.889953196048737 11.19617275893688 7.4641151726245871 118.43062740564346 61.454548254609108 26.622010782361031 9.9521535634994489 123.1579003483057 54.239236921072006 15.674641862511633 9732.9573812633753 1339.8086734861135 23.636364713311195 44.535887196660042 455.55982936918736 15.177034184336664 13.933014988899229 10.947368919849398 3.7320575863122931 84.593305289745331 5.473684459924697 9.9521535634994489 22.392345517873764 17.913876414299011 49.263160139322281 16.91866105794907 7.2153113335371009 23.885168552398682 31.100479885935783 18.411484092473984 20.899522483348846
leaf_count=601 6822 30 22 421 93 25 703 152 206 452 234 2543 70 480 26757 7997 619 166 15 324 156 59 343 187 29 349 61 156 137 501 233 92 45 30 476 247 107 40 495 218 63 39119 5385 95 179 1831 61 56 44 15 340 22 40 90 72 198 68 29 96 125 74 84
internal_value=-0.138564 -0.363717 -0.45254 0.25969 -0.223006 0.144938 -0.0530296 -0.503996 0.189829 -0.112753 -0.0180474 -0.375169 0.272343 -0.165156 0.273881 0.222874 -0.289233 -0.212844 -0.325047 -0.0851154 -0.133972 0.129584 -0.32267 -0.219218 -0.0968853 -0.277159 -0.460898 -0.160084 0.0239934 0.0480086 -0.0687492 0.124689 0.149476 0.079395 0.253034 -0.0150285 -0.158448 0.0616641 -0.39154 -0.0514973 -0.149381 -0.506704 -0.466663 0.14001 0.0973074 -0.312292 -0.418115 -0.169161 -0.236883 0.227138 0.124427 -0.360263 -0.172072 -0.273704 0.161806 -0.326481 -0.241021 0.00111339 -0.219082 -0.138042 -0.0106785 -0.00400129
internal_weight=0 16018.2 13636.9 9055.96 2497.24 2381.3 1179.58 11139.7 2115.83 1004.67 418.488 1317.67 8906.43 878.775 8889.01 2231.77 344.593 265.474 180.134 534.182 435.158 99.0239 242.086 156.746 396.345 614.794 702.871 190.584 85.3397 360.268 142.813 217.455 69.1675 46.2775 125.895 252.785 88.0766 164.708 158.488 92.8038 69.9139 11101.9 1368.92 29.11 154.756 527.962 152.268 29.11 144.306 84.3445 147.541 110.22 44.0383 73.6459 21.6459 504.823 143.56 24.134 70.1627 54.9856 62.9474 31.8469
internal_count=100779 64381 54810 36398 10037 9571 4741 44773 8504 4038 1682 5296 35797 3532 35727 8970 1385 1067 724 2147 1749 398 973 630 1593 2471 2825 766 343 1448 574 874 278 186 506 1016 354 662 637 373 281 44621 5502 117 622 2122 612 117 580 339 593 443 177 296 87 2029 577 97 282 221 253 128
is_linear=0
shrinkage=1


Tree=1
num_leaves=63
num_cat=0
split_feature=10 2 9 9 19 7 1 10 7 9 6 9 9 9 9 9 9 2 2 9 19 1 2 1 9 9 19 17 7 7 9 1 9 10 18 1 19 2 2 1 6 6 1 1 1 2 9 17 2 5 19 6 17 6 18 1 6 1 9 9 9 18
split_gain=38751.8 5348.68 3583.85 8707.33 1615.17 555.17 512.747 371.85 342.09 307.061 296.025 238.042 272.35 207.322 181.462 134.971 698.621 163.567 128.296 158.817 216.865 131.544 123.5 120.356 211.214 325.997 109.318 88.8987 83.4854 285.221 80.0344 75.7841 74.1346 72.5714 94.7614 74.3518 68.2538 66.8771 72.8168 65.6911 65.6882 55.437 49.7161 69.9391 45.2448 150.475 44.2531 43.2495 40.5774 117.416 57.9983 39.8569 29.0061 25.795 25.7409 25.7063 25.1675 24.8482 23.4245 21.5301 20.3996 20.2287
threshold=5.5000000000000009 0.63500000000000012 17.500000000000004 12.500000000000002 0.03500000000000001 0.025000000000000005 100.50000000000001 9.5000000000000018 0.055000000000000007 1.5000000000000002 0.025000000000000005 51.500000000000007 47.500000000000007 47.500000000000007 19.500000000000004 47.500000000000007 52.500000000000007 0.55500000000000016 0.99500000000000011 23.500000000000004 1.0000000180025095e-35 52.500000000000007 0.8650000000000001 230.50000000000003 48.500000000000007 20.500000000000004 0.065000000000000016 0.50500000000000012 1.0000000180025095e-35 0.075000000000000025 19.500000000000004 254.50000000000003 19.500000000000004 2.5000000000000004 0.15500000000000005 25.500000000000004 1.0000000180025095e-35 0.03500000000000001 0.96500000000000008 63.500000000000007 0.025000000000000005 0.99500000000000011 129.50000000000003 131.50000000000003 237.50000000000003 0.99500000000000011 14.500000000000002 0.03500000000000001 0.28500000000000009 0.99500000000000011 0.99500000000000011 0.89500000000000013 0.015000000000000001 1.0000000180025095e-35 0.13000000000000003 151.50000000000003 0.99500000000000011 57.500000000000007 23.500000000000004 52.500000000000007 42.500000000000007 0.19500000000000003
decision_type=2 2 2 2 2 2 2 2 2 2 2 2 2 2 2 2 2 2 2 2 2 2 2 2 2 2 2 2 2 2 2 2 2 2 2 2 2 2 2 2 2 2 2 2 2 2 2 2 2 2 2 2 2 2 2 2 2 2 2 2 2 2
left_child=1 9 3 51 6 23 7 10 31 -1 11 12 18 33 -8 -12 17 -17 30 21 -21 32 -14 24 25 56 47 -27 36 -30 39 37 -20 58 35 -35 -16 -5 -39 -4 42 -26 -40 -44 45 -38 -45 -25 -11 50 -50 -2 -46 55 -49 -48 -6 -15 -3 -7 -32 -54
right_child=2 13 4 8 5 59 14 -9 -10 48 15 -13 22 57 28 16 -18 -19 19 20 -22 -23 -24 26 41 27 -28 -29 29 -31 60 -33 -34 34 -36 -37 44 38 40 -41 -42 -43 43 46 52 -47 53 54 49 -51 -52 -53 61 -55 -56 -57 -58 -59 -60 -61 -62 -63
leaf_value=-0.3143634170010296 -0.32754049916121902 0.24489782097717297 -0.15526785553556505 0.049028597997607677 -0.26434579855122409 0.35007920710719109 0.35715533743732231 0.34686374801962577 -0.28286110231925793 0.34761752546104874 -0.30160090128174971 -0.30930041247279849 0.3439814613003121 0.28676166151147814 -0.31829718278549524 0.34348256056284154 -0.32338597176270223 -0.18005496609082255 -0.3178865051720311 -0.26858862725050697 0.33534545575042474 -0.28924412742294686 -0.18531846279117467 -0.32030875057611596 -0.30545734600829955 0.33039574208418054 -0.3228779561386298 -0.27753740817007783 0.36240533310508366 -0.31626091509113108 -0.32354503666290862 0.45926421003245582 0.22822625856202694 0.25775258418070424 0.2622821008337472 -0.33780467794735125 -0.3276627580283018 0.41236544708279166 0.338402930301611 0.28619870771086015 -0.34437358346394659 0.32979833537138353 -0.15664740430722612 0.30472883854422084 -0.3206749137401963 0.22981912177976019 0.31449251749365381 0.015669145742395661 -0.27987082442523514 0.35852909027881696 0.35324082400922596 0.17627546450496023 -0.18664684988009222 0.51272550763662539 0.38101126229591054 -0.013654311308757959 0.35715533743732231 -0.27432264763210351 -0.32105771596497534 -0.0066818740079326857 0.024986191083039889 0.35095623589376246
leaf_weight=28.235121995210648 1782.7631573975086 2.9423337280750266 80.175702303647995 34.542335256934166 67.806362852454185 174.83132867515087 16.262555301189423 47.240377098321915 36.027418658137321 9050.4770279973745 1274.1290255188942 220.78163078427315 80.835058808326721 29.332014709711075 7230.0956183671951 99.269968509674072 354.42706802487373 31.427447497844696 10.81410266458988 148.99565316736698 28.30065344274044 28.443981423974037 22.552324712276459 13.598517090082167 79.516609385609627 131.25835558772087 113.36717329919338 10.382589206099508 32.323995769023895 105.99603027105331 162.95065174996853 188.71892042458057 123.43150408565998 10.059725522994993 20.139007523655891 50.367911741137505 45.568928495049477 326.41034139692783 631.19274038076401 16.20809568464756 6.2364611327648154 5.9028494954109183 16.885300368070602 214.81101793050766 140.74023734033108 33.681966975331306 12.535387843847273 44.665754839777946 21.966480612754825 72.346206814050674 7.8583648800849906 6.3030701428651801 69.726745843887329 5.6917286813259116 9.3244761526584607 40.084185793995857 2.7104258835315695 3.5379970520734778 504.34762319922447 7.0387062430381766 7.0061723142862311 2.9167678803205481
leaf_count=118 7520 12 335 142 285 713 66 193 152 36962 5389 930 328 120 30817 403 1499 132 45 632 115 117 94 58 335 534 482 44 131 450 686 772 502 41 82 210 193 1333 2563 66 26 24 69 874 600 138 51 186 92 295 32 26 294 24 38 164 11 15 2149 29 29 12
internal_value=0 0.305755 -0.20996 -0.0270922 -0.264486 0.0388219 -0.28372 -0.209395 0.326046 0.344171 -0.219164 -0.127933 -0.071512 -0.262439 -0.310217 -0.267418 -0.177641 0.217593 -0.122672 -0.0412448 -0.172187 0.101453 0.228523 -0.0742262 0.00398948 0.110905 -0.20285 0.285833 -0.311634 -0.157663 -0.226615 0.340898 0.184234 -0.289771 -0.11344 -0.238659 -0.314465 0.32356 0.331123 -0.0810299 0.30253 -0.261558 0.306909 0.238364 -0.219772 -0.0907306 0.262785 -0.00152569 0.346203 0.220868 -0.113056 -0.325766 -0.267698 0.108268 0.0787662 0.064519 -0.240457 0.226369 -0.317775 0.336272 -0.309177 -0.165061
internal_weight=0 9801.61 14376.9 3302.2 11074.7 660.403 10414.3 2736.99 1513.14 9180.88 2689.75 930.496 709.714 620.727 7677.31 1759.25 485.124 130.697 606.327 339.986 177.296 162.69 103.387 478.533 297.577 212.158 180.956 141.641 7661.05 138.32 266.341 1477.11 134.246 587.857 80.5666 60.4276 7522.73 1288.39 1253.85 96.3838 927.437 85.4195 921.2 290.008 292.635 79.2509 273.122 67.5887 9152.65 102.171 29.8248 1789.07 213.384 58.3113 53.9902 52.6196 70.5168 32.87 507.29 181.87 169.957 72.6435
internal_count=100779 40128 60651 13716 46935 2739 44196 11495 6170 37499 11302 3879 2949 2629 32701 7423 2034 535 2527 1411 747 664 422 1997 1233 874 764 578 32635 581 1116 6018 547 2494 333 251 32054 5246 5104 401 3771 359 3745 1182 1237 331 1113 282 37381 419 124 7546 906 239 224 215 296 135 2161 742 715 306
is_linear=0
shrinkage=0.2


Tree=2
num_leaves=63
num_cat=0
split_feature=0 11 9 9 9 3 11 1 19 19 1 19 9 9 16 1 0 5 19 16 0 1 9 9 9 1 12 9 1 9 1 19 18 9 1 0 3 1 5 3 1 1 1 19 1 9 1 1 1 19 9 1 9 19 19 1 1 19 1 9 5 19
split_gain=26497.1 4643.44 3789.95 2304.59 2129.3 652.114 605.146 448.556 364.274 328.051 282.704 635.261 222.305 189.642 170.342 168.091 125.781 440.556 297.8 102.39 75.1094 71.2478 166.019 134.816 84.6343 70.0007 67.1057 176.236 66.0814 69.1347 54.8458 59.9896 50.2441 45.7474 71.1402 42.2286 39.5602 39.354 35.6662 32.211 31.782 29.4687 27.7726 27.1578 26.2235 30.9163 24.2063 21.1663 31.6588 19.5497 14.254 14.1893 13.8334 12.9981 12.6023 12.4592 11.1907 10.675 11.3654 10.0268 9.4305 253.157
threshold=0.49500000000000005 1.0000000180025095e-35 12.500000000000002 17.500000000000004 43.500000000000007 0.29500000000000004 1.0000000180025095e-35 98.500000000000014 0.055000000000000007 1.0000000180025095e-35 2.5000000000000004 0.025000000000000005 61.500000000000007 23.500000000000004 0.14500000000000005 212.50000000000003 0.19500000000000003 0.50500000000000012 1.0000000180025095e-35 0.82500000000000007 0.59500000000000008 244.50000000000003 45.500000000000007 23.500000000000004 19.500000000000004 2.5000000000000004 0.58500000000000008 52.500000000000007 49.500000000000007 19.500000000000004 109.50000000000001 0.065000000000000016 0.37500000000000006 19.500000000000004 70.500000000000014 0.99500000000000011 0.9900000000000001 2.5000000000000004 0.47000000000000003 1.0000000180025095e-35 68.500000000000014 254.50000000000003 237.50000000000003 0.10500000000000002 36.500000000000007 47.500000000000007 104.50000000000001 88.500000000000014 91.500000000000014 0.095000000000000015 14.500000000000002 12.500000000000002 1.5000000000000002 0.49500000000000005 0.89500000000000013 20.500000000000004 13.500000000000002 1.0000000180025095e-35 188.50000000000003 24.500000000000004 0.14500000000000005 1.0000000180025095e-35
decision_type=2 2 2 2 2 2 2 2 2 2 2 2 2 2 2 2 2 2 2 2 2 2 2 2 2 2 2 2 2 2 2 2 2 2 2 2 2 2 2 2 2 2 2 2 2 2 2 2 2 2 2 2 2 2 2 2 2 2 2 2 2 2
left_child=6 2 25 20 5 10 7 16 12 13 11 -5 15 28 21 26 60 18 44 -16 -4 22 23 24 40 43 27 35 29 -3 53 39 -8 34 -30 -6 -14 -22 -7 42 49 47 -32 -2 -18 -46 55 -39 50 56 -49 -31 -45 -25 -21 -37 -11 58 -50 -13 61 -1
right_child=1 9 3 4 8 38 32 -9 -10 14 -12 59 36 -15 19 -17 17 -19 -20 54 37 -23 -24 30 -26 -27 -28 -29 33 51 31 -33 -34 -35 -36 46 -38 41 -40 -41 -42 -43 -44 52 45 -47 -48 48 57 -51 -52 -53 -54 -55 -56 -57 -58 -59 -60 -61 -62 -63
leaf_value=-0.051176907732132661 -0.17521100915910615 -0.23843063237533135 -0.15595781006843301 -0.28054876805533097 0.32020488690342552 -0.26007615948380991 -0.29455639436419723 -0.27753326646935067 0.30626285650318852 0.20903889684674826 -0.28341768984082927 0.13449155265438642 -0.29087588241030388 -0.2861332258646519 0.22192273116399275 -0.27804886383801458 -0.23146599818649016 0.30562816818121641 0.30367855012220746 -0.29547772387596399 0.063036689323778705 -0.24935573064933436 -0.27795082607111282 0.29030019972260285 -0.30164195486714318 -0.29247597489106275 0.28290765811591634 -0.30040605098027373 -0.23045501680277614 -0.15191159311227959 0.24220446480258412 -0.30825907339813868 0.2245182478987561 -0.26650580864169232 0.27987656759974766 0.086344999515473822 0.30571382290268423 0.30624383986279707 0.3053500172241348 -0.33816305053111867 0.31412049502196915 0.36294152550766129 -0.13375568581291883 -0.22894736761863654 -0.27363699812542869 0.23484881837805369 0.011576107577172274 -0.025917361778378278 0.27286313396431328 -0.29950128517533087 0.36203048564061341 -0.04115932122408103 0.31259734781774667 -0.19663244219348958 0.094421284859373567 0.19840423241388219 -0.047634648783697581 0.34255840970081342 0.21030359214986613 0.30327348639248353 0.30562975637451362 0.30576461103352742
leaf_weight=83.447246536612511 13.090236067771913 144.25322486460209 15.630965530872343 218.74751451611519 53.812581285834312 4.6641889810562125 77.557269752025604 55.466591700911522 490.39727146923542 8.6159744560718519 1014.2028632313013 16.127269819378853 69.329318955540657 6781.88360658288 73.54837255179882 39.130520462989807 121.78594326972961 608.60039053857327 71.609665662050247 22.418640077114109 31.290867567062378 317.33059920370579 172.82543320953846 53.649352952837944 77.605001121759415 1566.1252947300673 118.9436759352684 37.510937750339508 32.842528566718102 59.829087510704994 38.396498158574104 18.131029456853867 8.2527993023395521 352.89983382821083 16.373419895768166 59.983235701918602 4.7506264746189109 569.63861177861691 103.1226861178875 5.6825607419013968 11.32858696579933 190.41234356164932 9.8822702467441541 2.2479917109012595 8.3381327986717224 11.217289581894875 57.933914318680763 22.203963875770572 379.61282113194466 10.492516890168188 4.5676708221435538 204.19989229738712 11.742290228605269 2.28625863790512 3.8915075361728659 117.29492031037807 32.138650253415108 60.04261876642704 167.37664112448692 110.85218907892704 5505.1874396502972 1671.685701996088
leaf_count=374 58 658 70 1023 231 21 346 260 2139 36 4699 70 318 31985 317 183 562 2691 316 99 132 1464 789 232 346 7277 523 165 144 267 163 82 35 1631 71 259 21 2445 453 24 49 772 43 10 39 47 255 95 1623 48 19 909 51 10 17 506 138 254 704 483 24342 7386
internal_value=0 -0.168611 -0.026499 0.0783563 -0.037118 -0.192646 0.283705 0.289277 0.180472 -0.261958 -0.230177 -0.0739943 0.0700572 -0.275207 -0.144753 0.119383 0.293167 0.218994 -0.0285993 0.100795 0.280071 -0.177086 -0.125087 -0.0265859 -0.162096 -0.286963 0.154293 0.107444 -0.183766 -0.127088 0.121787 0.00648206 -0.244634 -0.241314 -0.0606752 0.160376 -0.252618 0.284854 0.280883 0.112235 0.0109656 0.289833 0.165248 0.0318452 -0.196946 0.0180382 0.12381 0.278266 0.25312 -0.0560492 0.0402728 -0.0662558 0.225581 0.270398 -0.237808 0.160488 0.00662895 0.262507 0.25372 0.281837 0.30156 0.288794
internal_weight=0 14001.3 5550.79 3957.58 2516.8 1467.72 8223.15 8137.34 1049.09 8450.5 1359.93 345.727 558.69 7592.28 858.223 484.61 8081.87 821.551 212.951 99.8585 1440.78 758.365 441.034 268.209 140.181 1593.21 445.479 326.536 810.398 408.282 128.028 72.0924 85.8101 402.116 49.2159 289.025 74.0799 1425.15 107.787 53.9613 62.5757 1393.85 48.2788 27.0805 141.341 19.5554 235.212 1203.44 633.804 51.2471 26.7716 264.029 13.9903 55.9356 26.3101 177.278 40.7546 607.032 546.989 126.979 7260.32 1755.13
internal_count=100779 64381 24859 17463 11349 6749 36398 36017 4600 39522 6275 1576 2461 35665 3857 2122 35757 3655 964 433 6114 3424 1960 1171 617 7396 1939 1416 3680 1834 554 312 381 1846 215 1251 339 6044 474 230 271 5912 206 119 648 86 1020 5140 2695 222 114 1176 61 242 116 765 174 2581 2327 553 32102 7760
is_linear=0
shrinkage=0.2


Tree=3
num_leaves=63
num_cat=0
split_feature=0 14 14 13 13 4 13 4 17 14 12 4 5 14 12 19 13 4 19 4 19 13 13 14 12 19 19 13 14 19 4 13 13 0 13 19 14 13 5 7 14 7 17 7 7 13 14 13 12 4 17 5 17 4 13 13 13 16 4 14 4 14
split_gain=19504.9 7376.63 1756.47 1011.14 798.647 461.11 451.96 439.227 435.168 278.799 225.234 221.479 210.843 130.116 96.1144 90.0055 74.2347 87.458 98.7868 60.5693 66.0572 73.522 55.8473 54.7225 52.8114 45.2446 43.9084 46.2879 81.7512 115.474 102.453 43.3578 40.9207 118.715 55.3101 59.2659 37.6154 36.1729 30.7937 60.0985 27.7245 27.214 115.077 23.1584 22.3601 25.5728 30.5824 21.9373 17.8072 16.9075 15.8325 15.8278 14.7111 12.9603 12.6892 10.6505 17.7086 10.5887 10.5202 9.23582 8.0158 7.98418
threshold=0.49500000000000005 19.500000000000004 16.500000000000004 10.500000000000002 327.50000000000006 0.22500000000000003 189.50000000000003 0.90500000000000014 0.99500000000000011 17.500000000000004 0.97500000000000009 0.025000000000000005 0.24500000000000002 17.500000000000004 0.49000000000000005 1.0000000180025095e-35 23.500000000000004 0.055000000000000007 1.0000000180025095e-35 1.0000000180025095e-35 0.54500000000000015 145.50000000000003 509.50000000000006 18.500000000000004 0.29500000000000004 0.20500000000000004 0.14500000000000005 1.5000000000000002 18.500000000000004 1.0000000180025095e-35 1.0000000180025095e-35 3.5000000000000004 6.5000000000000009 0.96500000000000008 73.500000000000014 0.015000000000000001 5.5000000000000009 16.500000000000004 0.03500000000000001 0.27500000000000008 14.500000000000002 0.99500000000000011 0.99500000000000011 0.115 1.0000000180025095e-35 274.50000000000006 18.500000000000004 1.5000000000000002 0.81500000000000006 0.78500000000000014 0.065000000000000016 0.99500000000000011 0.42500000000000004 0.015000000000000001 114.50000000000001 5.5000000000000009 1.5000000000000002 0.46500000000000002 0.71500000000000008 18.500000000000004 1.0000000180025095e-35 15.500000000000002
decision_type=2 2 2 2 2 2 2 2 2 2 2 2 2 2 2 2 2 2 2 2 2 2 2 2 2 2 2 2 2 2 2 2 2 2 2 2 2 2 2 2 2 2 2 2 2 2 2 2 2 2 2 2 2 2 2 2 2 2 2 2 2 2
left_child=3 2 5 11 7 12 10 8 9 19 41 15 36 22 -9 61 17 18 38 20 21 50 -6 -10 -7 -21 27 28 29 30 48 -28 -29 -34 35 37 -2 -35 39 -5 43 -3 -43 54 45 53 -47 -26 -11 -32 55 -51 -27 -36 -18 56 -4 -58 -30 -17 -33 -1
right_child=1 6 4 16 13 24 -8 14 23 26 -12 -13 -14 -15 -16 59 40 -19 -20 25 -22 -23 -24 -25 47 52 31 32 58 -31 49 60 33 34 44 -37 -38 -39 -40 -41 -42 42 -44 -45 -46 46 -48 -49 -50 51 -52 -53 -54 -55 -56 -57 57 -59 -60 -61 -62 -63
leaf_value=0.042250276201052997 0.40829337958882833 -0.26707074187738261 0.16309397231671766 -0.18954038931584039 -0.27150722219918005 -0.26610339328081789 0.35280104920180844 -0.28438892297992968 0.2498559794555103 0.15083258236749411 0.27569614879841964 0.25686434704154282 -0.26053099626896303 0.31093905549362155 0.26963875418283639 0.26937107072526278 0.15866750766816018 0.27664061933752737 0.26405573649851982 -0.22266872967096343 -0.27972728293878202 -0.16910048450181892 0.28377834417365777 -0.22106329878413897 -0.14436317877089552 0.28101444605721032 -0.19071215675582892 -0.27237976812730202 -0.28797260517927764 -0.2826474341331992 -0.27935261737604472 0.069514410281943786 0.27145369055960517 -0.11690398317477178 -0.19935214058127054 -0.27755530540885837 0.2571082382129205 0.26504212460095616 -0.28720578829219262 0.32973597145117389 0.27646069805864776 -0.26891873457577148 0.25605851599074819 0.30733869353429105 -0.2645426135022505 -0.11876936610038746 0.29365862272094245 0.28222315419653771 -0.28278784744592128 -0.28252273244058451 -0.31239665276021245 0.27964441094041875 -0.28326651063363839 0.30593895020965239 -0.26266595967153084 0.2847998937785407 -0.10691892983159577 0.32343196682923903 0.17448717643252687 -0.012689890504762213 0.28295351763718712 -0.25432523551063779
leaf_weight=3.6993394345045081 68.967529565095901 8236.1058822870255 158.16718244552612 25.743527561426163 23.862843811511993 78.81243896484375 47.823703169822693 13.612526834011076 140.75765541195869 116.06427632272243 30.841491609811783 50.568392917513847 31.287439852952957 268.3957830965519 156.81093735992908 14.824213162064554 4.3012600839138058 123.75239782035351 44.009825557470322 52.041940659284592 19.156258910894394 33.280682072043419 10.403352230787275 10.614703312516211 8.4190409630537051 11.268831133842466 23.568246617913246 227.7643099874258 82.464787393808365 60.344411119818687 35.819598376750946 13.980337142944338 22.947090566158295 15.599505394697188 602.5284161567688 22.059662252664566 1445.8759900927544 27.234147250652313 26.938073545694351 13.638015791773794 6817.8719052374363 83.992458343505859 20.847425550222397 8.299250125885008 183.73586644232273 47.609789416193962 8.4714321345090848 11.286252975463865 3.9160540848970404 3.4999613761901838 2.8994202315807334 4.6848563402891159 2.2105841040611258 2.0373171865940085 8.5279911160469037 23.507542446255684 15.710821852087976 2.6765734851360312 2.0156911462545386 6.7615251690149298 14.173627242445944 196.39156857132912
leaf_count=16 290 43879 735 126 123 381 195 66 690 537 152 250 151 1203 765 69 19 613 217 253 100 166 50 53 39 55 113 1113 401 292 171 64 109 74 3037 110 6690 120 130 57 33791 444 103 38 971 242 39 51 19 17 13 23 11 9 42 103 71 11 10 33 67 997
internal_value=0 -0.153063 0.06656 0.257403 -0.0402101 0.226645 -0.260285 -0.0827844 -0.109139 -0.135935 -0.263787 -0.120826 0.253377 0.264084 0.225386 -0.206984 0.271961 0.161212 0.0317393 0.0334579 0.0774667 0.106431 -0.10292 0.216834 -0.192883 -0.138086 -0.171687 -0.178065 -0.109253 -0.0461035 0.0409418 0.00942654 -0.196384 -0.177816 -0.189154 -0.0112219 0.263991 0.125942 -0.122426 -0.00971252 0.275752 -0.265782 -0.164527 0.0470047 -0.202828 -0.185665 -0.0564694 0.0999651 0.13668 -0.220092 0.151611 0.0392526 0.188474 -0.197649 -0.121406 0.158336 0.141497 -0.0442746 -0.276938 0.181018 0.176967 -0.248842
internal_weight=0 12530.2 4110.55 7345.33 2465.9 1644.65 8419.61 2163.24 1992.81 1841.44 8371.79 272.245 1546.13 302.662 170.423 221.677 7073.08 234.082 110.329 320.92 255.398 236.242 34.2662 151.372 98.5177 65.5214 1520.52 1468.8 308.81 224.329 163.985 51.7222 1159.99 932.223 909.276 64.8933 1514.84 42.8337 66.3196 39.3815 6839 8340.95 104.84 21.1285 844.383 660.647 56.0812 19.7053 119.98 44.0044 202.962 8.18482 13.4794 604.566 12.8293 200.062 176.555 18.3874 84.4805 21.5857 28.154 200.091
internal_count=100779 64381 19608 36398 12006 7602 44773 10630 9799 9056 44578 1365 7131 1376 831 1115 35033 1143 530 1518 1199 1099 173 743 471 319 7538 7294 1470 1059 767 244 5824 4711 4602 304 6980 194 313 183 33890 44426 547 99 4298 3327 281 90 556 211 933 40 66 3046 61 920 817 82 411 102 131 1013
is_linear=0
shrinkage=0.2


Tree=4
num_leaves=63
num_cat=0
split_feature=7 11 13 15 13 6 19 17 4 6 4 11 19 19 12 16 13 6 15 6 12 15 4 13 6 11 13 6 13 17 17 15 7 15 17 13 13 6 12 6 6 15 19 6 17 6 19 7 15 6 17 19 4 4 16 6 6 19 6 15 6 13
split_gain=14429.1 2458.8 1424.91 1032.79 873.856 873.946 636.056 484.009 266.331 266.053 253.589 239.761 230.865 221.405 185.136 92.1501 79.933 136.446 97.4402 70.2055 59.5587 58.8546 55.414 50.5389 74.6592 45.6696 43.806 39.384 70.7486 38.8355 44.1746 38.514 31.0967 30.0154 29.2097 28.8141 22.6825 22.2511 21.4655 19.9946 19.1975 19.5603 18.5557 54.2296 20.9349 17.6704 17.6485 22.7959 17.472 16.6494 25.6569 28.1002 33.6944 17.0527 30.0557 16.0591 15.3769 14.8612 14.7819 27.3557 28.9219 14.7567
threshold=0.03500000000000001 1.0000000180025095e-35 9.5000000000000018 4.5000000000000009 327.50000000000006 0.14500000000000005 0.095000000000000015 1.0000000180025095e-35 0.015000000000000001 0.015000000000000001 0.87500000000000011 1.0000000180025095e-35 0.015000000000000001 1.0000000180025095e-35 0.97500000000000009 0.12500000000000003 2.5000000000000004 0.015000000000000001 254.50000000000003 1.0000000180025095e-35 0.015000000000000001 9.5000000000000018 1.0000000180025095e-35 6.5000000000000009 1.0000000180025095e-35 1.0000000180025095e-35 2.5000000000000004 1.0000000180025095e-35 246.50000000000003 1.0000000180025095e-35 0.45500000000000007 139.50000000000003 0.99500000000000011 161.50000000000003 0.015000000000000001 2.5000000000000004 1.5000000000000002 0.03500000000000001 0.29500000000000004 0.99500000000000011 1.0000000180025095e-35 254.50000000000003 0.015000000000000001 0.025000000000000005 1.0000000180025095e-35 0.9850000000000001 0.045000000000000005 1.0000000180025095e-35 10.500000000000002 1.0000000180025095e-35 0.99500000000000011 0.26500000000000007 1.0000000180025095e-35 0.03500000000000001 0.03500000000000001 0.99500000000000011 0.49500000000000005 0.075000000000000025 0.025000000000000005 249.50000000000003 0.015000000000000001 81.500000000000014
decision_type=2 2 2 2 2 2 2 2 2 2 2 2 2 2 2 2 2 2 2 2 2 2 2 2 2 2 2 2 2 2 2 2 2 2 2 2 2 2 2 2 2 2 2 2 2 2 2 2 2 2 2 2 2 2 2 2 2 2 2 2 2 2
left_child=1 3 8 7 5 10 14 20 12 31 16 -11 -2 21 35 23 49 27 22 34 56 26 -19 24 29 -10 -3 28 -18 -15 36 -4 -13 57 -17 -7 -31 46 -12 -9 41 -6 43 44 -26 -44 47 61 55 53 58 52 -52 -5 -55 -8 -1 -14 59 60 -51 -20
right_child=2 13 9 4 40 6 48 39 25 11 38 32 33 15 -16 19 17 18 37 -21 -22 -23 -24 -25 42 -27 -28 -29 -30 30 -32 -33 -34 -35 -36 -37 -38 -39 -40 -41 -42 -43 45 -45 -46 -47 -48 -49 -50 50 51 -53 -54 54 -56 -57 -58 -59 -60 -61 -62 -63
leaf_value=0.24908243738963282 -0.23327023845320422 -0.14497838966943374 0.36725940306583338 -0.26887056980348983 0.28762951626811495 -0.24540782224199337 -0.34159461703412586 -0.23977859507948118 0.24984071818317913 0.25859375079976987 -0.27744175214275124 -0.27280380322709813 0.1442086345994108 -0.25398313584052762 0.26173894899901512 -0.097693032338085795 -0.15493419761617483 -0.17660297742760647 0.042891049101931172 -0.24958360482675179 -0.14582701556893304 -0.24466527994185527 0.16836246451204462 -0.24567694456768732 0.25272516862756345 -0.20690492030380742 -0.24627299147681822 -0.20591333155971145 0.12555151496706038 -0.11255052098540407 -0.24562508895455992 -0.27884872260917176 0.27506146482078803 0.24927984053260765 0.23972282296855282 0.067725747087183805 0.078970034930746516 0.25343100707738875 0.25402204781418525 0.19789862514418999 0.28013932016360676 0.10589522391510778 -0.23793525973569252 -0.20797975939419217 -0.25116284914571713 0.26021864134915224 0.29292770574424892 -0.15894792945167924 0.25723124288252597 0.0050599248977107316 0.2345802444096127 -0.24704741164267308 -0.37727742263372277 -0.26919568346057332 0.18177933179916253 0.26319632737170429 0.019731733131948263 -0.28779628292102805 -0.24249168434286414 -0.24101818661150848 -0.19505602366229779 0.29129434597610232
leaf_weight=672.76591472327709 343.78475773334503 447.09451402723789 4.0386111140251151 314.89425276219845 37.830514177680016 198.91246639192104 3.7745802402496329 101.92169624567032 85.50781512260437 6214.3642238527536 3.1985981911420813 38.599230289459229 5.8115198761224729 26.179790213704109 36.347280696034431 12.688138753175734 402.11631378531456 140.13392701745033 66.363016501069069 20.327817142009735 15.952370867133139 5049.3222740292549 21.481687605381012 149.65777607262135 17.751190751791004 9.7557187527418119 276.316590026021 709.80242557823658 39.505289018154144 30.376646444201469 24.293552547693253 42.796330824494362 4.6424834579229346 51.099078610539436 53.682989254593849 12.492771133780478 133.19432893395424 29.0711919516325 61.254172384738922 4.353402152657508 206.69337059557438 63.377111598849297 153.97667582333088 61.526790484786034 4.0506949871778479 2.9019450694322577 11.324749484658239 20.391682952642441 397.5397115200758 52.17049415409565 17.218285202980045 15.29885859787464 4.5518544912338248 15.525185585021973 9.5459577888250351 3.284238338470459 11.899910643696783 7.0481852889060974 282.66436424851418 122.43424512445927 64.733285665512085 11.177301645278929
leaf_count=3488 2008 2550 18 1791 187 1190 20 619 477 35231 17 206 28 158 196 63 2174 814 348 105 84 31049 116 868 88 50 1705 4221 192 167 143 222 24 275 262 64 707 145 329 22 1029 329 864 343 25 13 55 119 2163 262 89 94 20 86 51 18 63 34 1584 711 357 49
internal_value=0 -0.146901 0.225928 -0.0274066 -0.0760035 -0.108247 0.0971556 0.175867 -0.0980152 0.251774 -0.163734 0.255328 -0.168359 -0.224218 -0.155216 -0.117197 -0.174467 -0.145439 -0.0252895 0.075618 0.236195 -0.237022 -0.130751 -0.144878 -0.111669 0.203066 -0.183669 -0.176737 -0.129843 -0.0257745 0.00602747 -0.223134 -0.213984 0.180548 0.175219 -0.226904 0.0434029 0.0979261 0.227647 -0.22185 0.245194 0.173826 -0.188208 -0.111937 0.159105 -0.22872 0.0565492 0.0292146 0.251693 -0.221329 -0.200105 -0.0393263 0.106649 -0.256232 -0.0974848 -0.0602051 0.245096 -0.0925659 -0.211523 -0.174947 -0.105751 0.078698
internal_weight=0 10645.3 6807.45 4182 3375.11 3067.21 652.351 806.893 503.007 6304.44 2414.86 6257.61 407.744 6463.34 247.753 690.608 2350.4 1451.37 299.944 86.6989 700.618 5772.73 161.616 603.909 454.252 95.2635 723.411 1151.42 441.622 214.044 187.865 46.8349 43.2417 63.9588 66.3711 211.405 163.571 138.328 64.4528 106.275 307.901 101.208 240.207 83.3287 21.8019 156.879 109.257 97.932 404.599 899.037 559.071 37.069 21.7701 339.965 25.0711 7.05882 684.666 12.8597 522.002 239.338 116.904 77.5403
internal_count=100779 62206 38573 23096 18820 17275 3651 4276 2872 35701 13624 35461 2345 39110 1450 3806 13278 8233 1646 430 3635 35304 930 3376 2508 527 4255 6587 2366 1175 1017 240 230 337 325 1254 874 716 346 641 1545 516 1333 456 113 877 571 516 2201 5045 3117 203 109 1928 137 38 3551 62 2914 1330 619 397
is_linear=0
shrinkage=0.2


Tree=5
num_leaves=63
num_cat=0
split_feature=0 14 14 13 13 15 6 4 13 4 6 11 11 4 12 5 14 8 13 13 11 6 14 11 15 8 14 13 6 14 6 6 6 12 15 12 15 6 11 0 4 13 13 14 8 14 15 6 15 15 13 6 6 14 14 13 14 13 6 15 4 14
split_gain=11222.2 4810.74 1119.81 593.202 429.758 304.654 374.328 327.189 284.152 276.584 173.643 154.987 147.466 138.534 135.941 125.015 99.9038 93.9839 161.386 153.311 165.469 60.4336 51.1005 45.4995 44.9974 42.1652 39.0561 37.1532 37.0654 33.1143 28.6213 25.0487 19.8393 19.3569 18.4587 17.8687 17.7066 44.3008 20.1256 16.9024 30.1609 14.398 13.7137 12.7439 11.2618 24.1957 35.0909 34.2024 57.1479 17.5855 11.0093 10.9264 9.66581 36.3954 16.4709 49.6542 9.08798 12.9333 18.8927 20.1961 15.5953 10.0548
threshold=0.49500000000000005 19.500000000000004 16.500000000000004 11.500000000000002 327.50000000000006 4.5000000000000009 0.33500000000000008 0.96500000000000008 189.50000000000003 0.25500000000000006 0.015000000000000001 1.0000000180025095e-35 1.0000000180025095e-35 0.21500000000000002 0.97500000000000009 0.24500000000000002 17.500000000000004 1.0000000180025095e-35 3.5000000000000004 114.50000000000001 1.0000000180025095e-35 0.03500000000000001 18.500000000000004 1.0000000180025095e-35 202.50000000000003 0.85500000000000009 17.500000000000004 185.50000000000003 1.0000000180025095e-35 5.5000000000000009 0.055000000000000007 1.0000000180025095e-35 0.30500000000000005 0.49000000000000005 1.5000000000000002 0.015000000000000001 213.50000000000003 0.095000000000000015 1.0000000180025095e-35 0.59500000000000008 0.045000000000000005 19.500000000000004 15.500000000000002 18.500000000000004 0.10500000000000002 15.500000000000002 254.50000000000003 0.20500000000000004 4.5000000000000009 3.5000000000000004 1.5000000000000002 0.37500000000000006 1.0000000180025095e-35 17.500000000000004 17.500000000000004 240.50000000000003 12.500000000000002 1.5000000000000002 0.14500000000000005 21.500000000000004 1.0000000180025095e-35 13.500000000000002
decision_type=2 2 2 2 2 2 2 2 2 2 2 2 2 2 2 2 2 2 2 2 2 2 2 2 2 2 2 2 2 2 2 2 2 2 2 2 2 2 2 2 2 2 2 2 2 2 2 2 2 2 2 2 2 2 2 2 2 2 2 2 2 2
left_child=3 2 9 13 5 12 7 17 14 15 31 -12 25 26 39 29 28 18 36 20 41 22 52 -8 34 35 30 -24 -6 -2 -1 -5 -13 -9 -11 43 -7 -38 -39 40 42 -20 -3 -4 45 49 47 48 50 -31 -47 -32 54 -54 -21 -56 -51 58 59 -58 61 -61
right_child=1 8 4 10 16 6 23 33 -10 24 11 32 -14 -15 -16 -17 -18 -19 19 21 -22 -23 27 -25 -26 -27 -28 -29 -30 44 51 -33 -34 -35 -36 -37 37 38 -40 -41 -42 -43 -44 -45 -46 46 -48 -49 -50 56 -52 -53 53 -55 55 -57 57 -59 -60 60 -62 -63
leaf_value=-0.21398705944577642 0.36769461809107029 -0.19841331634646012 0.14942167715696689 0.34251981028563949 -0.26059341805230968 -0.27807805702849547 0.21970104557933362 -0.24910303465904635 0.28867416642548033 -0.35663620380926764 0.24522427674285813 -0.2517790401435932 -0.26054524176566612 0.24701498704382066 0.24312391549212051 -0.2196629461487043 0.26378971626978442 -0.24564748676775611 0.14021400121910624 -0.2634543955716398 -0.24631826407760166 0.27002464732391163 -0.13282250289399641 -0.25529769864736424 -0.25347589857654623 0.26175345687693663 -0.2001530375584778 0.29877210102889679 0.2476678487373882 0.14265033784353859 0.32019159375660938 -0.26642816856918777 0.21112991932595057 0.24416279128145013 0.17804004922912062 -0.14468716053952907 -0.22196436553604162 0.25729823377424527 -0.25574535614959343 -0.240702209470293 0.24257836402386151 0.29784560219213657 0.36862356194550694 -0.284148022367197 0.25112389943274777 0.18271674341492877 0.23719103420782908 0.22827562267593693 -0.32811432644967992 0.26470704747478901 -0.19154929228807879 -0.02022326495123412 0.35448094893293097 -0.18962228269090903 -0.12910778660701794 0.27126295778174941 0.27166746128488517 0.2417291863438088 0.23574539132310557 0.25219760375882638 -0.25212017476075477 -0.0071644584188613599
leaf_weight=9.8419336229562777 66.06894788146019 94.9784255027771 40.941719517111778 2.9623810946941367 21.949957072734836 180.89060798287392 146.94428811967373 3.298088312149047 41.31671205163002 3.0547710955143001 5239.4643803536892 28.44707864522934 31.346418887376785 40.13187949359417 23.446993991732597 25.240841805934906 212.46979197859764 365.95647387206554 34.453811854124069 24.655472040176392 36.820015236735344 15.328418180346487 14.323540121316908 8.5349669158458692 58.666997402906418 147.54228825867176 160.0483271330595 18.009389340877533 7.7711671590805045 92.347627356648445 11.92968909442425 30.740264043211937 4.2576171457767478 90.594716593623161 16.713947042822838 13.203946992754934 144.48506677150726 12.062055930495264 4.0973528921604148 6144.2747611105442 6.9687826931476584 70.821383327245712 1.7372549027204502 2.9040559828281394 375.19662584364414 21.443062350153927 63.70192639529705 23.05087411403656 19.550435319542885 259.67483729124069 3.6839600056409827 5.5151387751102439 5.0204878747463217 239.69607970118523 111.59123411774635 13.938216656446455 14.821245998144148 242.80748847126961 61.65324679017067 8.1491223275661486 7.9744026362895957 22.450687929987907
leaf_count=55 291 663 219 13 123 1029 925 21 195 14 34562 172 188 261 152 152 1203 2336 168 138 220 87 83 54 354 828 1043 86 50 442 61 171 25 581 87 77 894 72 25 43712 44 335 7 15 2250 125 347 145 88 1245 16 35 21 1555 613 60 69 1400 385 36 38 118
internal_value=0 -0.130746 0.0608236 0.226064 -0.0341864 -0.0682416 -0.100635 -0.133644 -0.234103 0.199245 0.239622 0.242515 0.143404 -0.0902055 -0.237547 0.221123 0.215747 -0.159838 -0.125933 -0.0621243 0.11862 -0.120156 -0.134155 0.193626 -0.165541 0.205295 -0.162447 0.107575 -0.127699 0.229798 0.0587173 -0.212903 -0.191516 0.226836 0.0954189 0.0592809 -0.235163 -0.18684 0.127212 -0.239351 -0.159273 0.246257 -0.188228 0.120705 0.222308 0.209458 0.130632 0.0304086 -0.0716789 0.224052 0.127844 0.21257 -0.153947 -0.17846 -0.114006 -0.0846524 0.236225 0.215557 0.160321 0.0732325 -0.00301149 0.061907
internal_weight=0 9718.62 3405.9 5533.34 2019.65 1777.46 1541.52 1386.04 6312.72 1386.25 5305.87 5272.17 235.938 227.467 6271.41 1307.82 242.191 1292.15 926.193 584.658 142.095 442.563 427.234 155.479 78.4357 204.592 187.335 32.3329 29.7211 1282.57 27.2868 33.7026 32.7047 93.8928 19.7687 57.0497 341.535 160.644 16.1594 6247.96 103.684 105.275 96.7157 43.8458 1216.51 841.309 131.43 67.7283 44.6775 709.879 25.127 17.4448 394.901 244.717 150.185 125.529 617.531 357.856 115.049 53.3955 38.5742 30.5998
internal_count=100779 64381 19608 36398 12006 10630 9303 8324 44773 7602 34943 34759 1327 1455 44578 7147 1376 7722 5386 3366 723 2643 2556 979 455 1139 1194 169 173 6995 151 184 197 602 101 311 2020 991 97 44426 714 503 670 234 6704 4454 721 374 229 3733 141 96 2387 1576 811 673 3291 2046 646 261 192 154
is_linear=0
shrinkage=0.2


Tree=6
num_leaves=63
num_cat=0
split_feature=10 14 1 13 14 4 14 13 1 15 15 15 19 10 14 5 13 1 15 1 1 13 1 4 13 13 13 4 13 17 1 19 10 14 1 13 15 15 15 19 4 19 14 19 1 1 19 14 19 1 10 5 1 19 14 12 13 19 1 1 13 13
split_gain=9047.25 3071.31 1142.51 1077.57 339.412 242.794 149.202 133.001 188.045 120.099 121.357 116.627 128.594 96.8999 70.4758 64.2754 63.7415 82.2296 93.2213 70.0981 62.7565 59.754 50.0769 58.4613 47.9489 48.5916 44.7637 43.3598 31.9797 31.5036 29.454 29.0159 33.2762 26.4678 51.2877 24.8901 23.7202 23.5496 22.764 22.495 21.8875 20.7623 20.0882 19.0082 15.4674 15.1679 14.8194 14.7718 14.339 12.7252 12.6835 12.5266 12.4991 11.9753 28.5551 11.5111 10.5015 10.0704 10.3599 9.94226 15.1153 16.5169
threshold=5.5000000000000009 17.500000000000004 77.500000000000014 327.50000000000006 19.500000000000004 0.25500000000000006 16.500000000000004 1.5000000000000002 2.5000000000000004 4.5000000000000009 254.50000000000003 4.5000000000000009 0.14500000000000005 9.5000000000000018 14.500000000000002 0.03500000000000001 9.5000000000000018 164.50000000000003 254.50000000000003 254.50000000000003 247.50000000000003 51.500000000000007 15.500000000000002 0.24500000000000002 240.50000000000003 75.500000000000014 136.50000000000003 0.93500000000000016 3.5000000000000004 0.025000000000000005 3.5000000000000004 0.03500000000000001 2.5000000000000004 9.5000000000000018 9.5000000000000018 254.50000000000003 9.5000000000000018 32.500000000000007 203.50000000000003 0.72500000000000009 0.025000000000000005 0.025000000000000005 12.500000000000002 0.59500000000000008 199.50000000000003 3.5000000000000004 0.10500000000000002 18.500000000000004 0.79500000000000015 254.50000000000003 7.5000000000000009 0.03500000000000001 44.500000000000007 0.085000000000000006 11.500000000000002 0.97500000000000009 19.500000000000004 1.0000000180025095e-35 2.5000000000000004 218.50000000000003 165.50000000000003 219.50000000000003
decision_type=2 2 2 2 2 2 2 2 2 2 2 2 2 2 2 2 2 2 2 2 2 2 2 2 2 2 2 2 2 2 2 2 2 2 2 2 2 2 2 2 2 2 2 2 2 2 2 2 2 2 2 2 2 2 2 2 2 2 2 2 2 2
left_child=2 5 7 4 11 6 15 8 31 30 -11 22 13 16 -4 33 -13 18 -18 59 39 47 -3 -24 25 56 -6 -16 45 -10 -8 32 -1 -2 -35 -22 43 -29 50 51 -41 -17 46 -33 -30 -14 -9 52 -36 -28 -7 -12 57 -31 -55 -43 -21 58 -20 60 -19 -62
right_child=1 3 14 -5 26 38 9 42 29 10 20 12 28 -15 27 41 17 19 21 24 35 -23 23 -25 -26 -27 49 37 44 53 -32 36 -34 34 48 -37 -38 -39 -40 40 -42 55 -44 -45 -46 -47 -48 -49 -50 -51 -52 -53 -54 54 -56 -57 -58 -59 -60 -61 61 -63
leaf_value=-0.49331515561345401 0.30355094088231327 -0.24959543971635267 0.22499791405405167 0.25110797325108941 -0.22976453990212173 -0.27682063488711656 -0.47560978132174148 -0.30481105799090069 0.14713400990588879 -0.2890594346452337 0.2422136267055823 -0.22989209728583476 0.21240679506249074 0.24180482104869425 -0.23264886164308973 -0.23318092418494429 -0.24702578357970972 -0.2284067731608338 0.15329025355776094 -0.15620759133413922 0.17322909967359532 0.28150093326716202 0.23312094740980871 -0.24341825372754014 0.19586943854995478 -0.13149234361955867 -0.23358502106092557 -0.30063896985018723 0.2247897445506252 -0.3925195070745795 0.23197673363868568 -0.40554587723369961 0.19314296375042944 0.066885486233862423 0.22175079480908422 -0.24851481040925846 0.23664108621885133 0.2477669348888418 -0.23882245241387723 -0.22643273139128361 0.23706821992239613 0.29251039886868407 0.23455067238739061 0.1366590566920485 -0.26632763753228844 -0.2451047717848378 0.16564118688806051 0.20598975176178036 -0.29174906907045217 0.30835912742842869 0.23021058114578763 -0.24566944417638817 0.11403810905319996 0.2716033437160692 -0.23472868071417188 -0.21208304283320276 0.26648435295533718 0.22393897449718822 -0.20890665832399669 -0.23024427205516595 0.062610112963321016 -0.20440530908121979
leaf_weight=5.0864747464656812 115.47275463491678 13.909975230693815 15.622157856822012 213.04597367346287 5122.7276162356138 2.74431164562702 2.4134260863065711 4.7047562003135663 10.190614797174929 61.649442046880722 55.776454597711563 327.18902628868818 3.9080401808023444 25.017602637410164 250.02770323306322 17.164893828332428 39.254501104354858 45.86079054325819 3.5685745924711254 2.7534920722246197 7.0422219336032859 46.831807896494865 68.381676405668259 12.123072475194929 23.991303384304047 197.12919580936432 2.21594090759754 4.2384901568293598 52.957790166139603 14.327437110245226 94.179420068860054 4.1367087289690954 6.352212131023407 99.686718329787254 701.98244873434305 27.283288300037384 159.05853147059679 11.999268949031828 67.563433043658733 10.046284571290018 6.8566290289163581 6.1996702924370748 4642.7339425832033 6.9003898203372955 2.6956887543201438 11.221203513443468 6.218095526099205 9.0018864125013334 2.1819528043270102 7.9532550871372223 7.025746762752533 2.1876079887151709 10.661921769380568 4.9356729686260215 45.773015841841698 2.5531371384859085 16.08604995906353 2.874774992465972 27.510052338242531 276.02023503929377 20.657377280294895 16.804754376411438
leaf_count=23 541 92 94 1366 42836 15 11 22 61 360 331 2319 20 181 2098 118 268 328 19 17 35 256 422 86 127 1196 18 22 374 68 617 23 36 559 4321 174 1155 83 463 83 52 38 35970 42 15 78 39 47 10 39 36 15 65 29 363 20 83 16 170 2159 128 127
internal_value=0 -0.136223 0.203704 -0.191372 -0.206126 0.146031 0.167942 0.226182 0.0860516 0.0360533 -0.0647245 -0.112955 -0.130324 -0.147269 -0.187858 0.205257 -0.156399 -0.12386 0.0143179 -0.156071 0.0619336 0.116448 0.100814 0.16136 -0.0723673 -0.102165 -0.228932 -0.212081 0.13091 -0.179831 0.214297 0.196232 -0.112106 0.214014 0.201152 -0.16199 0.216967 0.104618 -0.197559 0.1646 -0.0384146 -0.105354 0.233913 -0.0665596 0.201001 -0.126925 -0.0369948 -0.0277163 0.22016 0.190266 0.0877906 0.223801 -0.0748704 -0.231064 -0.185445 0.145324 0.204706 -0.134191 -0.167318 -0.211966 -0.151417 -0.0571676
internal_weight=0 7892.36 5192.31 6602.35 6389.31 1290.01 1212.68 4910.42 256.761 267.435 170.842 1256.41 1162 1091.21 281.888 945.242 1066.2 739.007 139.704 599.303 109.192 100.449 94.4147 80.5047 239.96 215.969 5132.9 266.265 70.7827 75.2267 96.5928 181.534 11.4387 919.324 803.851 34.3255 170.096 16.2378 77.3335 74.867 16.9029 25.9177 4653.66 11.0371 55.6535 15.1292 10.9229 53.6172 704.164 10.1692 9.77006 57.9641 44.6153 65.0361 50.7087 8.75281 18.8395 33.9534 31.0786 359.343 83.3229 37.4621
internal_count=100779 60651 40128 52852 51486 7799 7285 37831 1800 1678 1050 8593 7993 7506 2297 5607 7325 5006 841 4165 690 573 600 508 1423 1296 42893 2203 487 521 628 1279 59 5431 4890 209 1220 105 514 481 135 176 36031 65 389 98 61 317 4331 57 51 346 270 460 392 58 100 205 189 2742 583 255
is_linear=0
shrinkage=0.2


Tree=7
num_leaves=63
num_cat=0
split_feature=10 11 2 15 13 2 13 1 2 10 17 1 11 1 2 15 15 13 6 0 10 1 13 13 1 17 13 1 2 13 1 13 1 13 0 1 13 2 6 1 6 15 7 1 13 13 6 10 15 1 17 6 7 2 13 15 13 17 1 17 1 6
split_gain=7083.83 1104.46 1030.15 715.988 436.713 160.004 412.737 136.923 196.842 94.6902 87.3662 73.5894 71.0511 54.3329 53.7398 53.5186 51.9762 43.931 38.7577 95.8836 37.3222 30.6271 30.1358 30.0182 63.0501 34.6859 27.8042 27.4318 26.7569 38.5496 23.5823 22.5186 21.2455 19.9032 27.1373 27.1051 19.7889 37.9884 26.6234 23.4811 20.3742 33.3242 18.1724 19.4976 28.5222 16.7858 15.9371 15.7334 13.5956 13.2997 33.9707 12.4286 12.1656 11.1854 11.128 15.8398 14.6073 10.8119 12.7824 10.6415 35.1325 17.0957
threshold=5.5000000000000009 1.0000000180025095e-35 0.63500000000000012 4.5000000000000009 327.50000000000006 0.64500000000000013 7.5000000000000009 86.500000000000014 0.99500000000000011 9.5000000000000018 0.015000000000000001 254.50000000000003 1.0000000180025095e-35 5.5000000000000009 0.87500000000000011 254.50000000000003 213.50000000000003 5.5000000000000009 0.015000000000000001 0.97500000000000009 1.5000000000000002 212.50000000000003 3.5000000000000004 1.5000000000000002 2.5000000000000004 0.025000000000000005 212.50000000000003 8.5000000000000018 0.99500000000000011 7.5000000000000009 254.50000000000003 2.5000000000000004 23.500000000000004 2.5000000000000004 0.99500000000000011 9.5000000000000018 2.5000000000000004 0.81500000000000006 0.045000000000000005 208.50000000000003 0.025000000000000005 254.50000000000003 1.0000000180025095e-35 43.500000000000007 43.500000000000007 1.5000000000000002 0.065000000000000016 3.5000000000000004 86.500000000000014 51.500000000000007 1.0000000180025095e-35 0.99500000000000011 1.0000000180025095e-35 0.12500000000000003 165.50000000000003 254.50000000000003 229.50000000000003 0.015000000000000001 5.5000000000000009 1.0000000180025095e-35 233.50000000000003 1.0000000180025095e-35
decision_type=2 2 2 2 2 2 2 2 2 2 2 2 2 2 2 2 2 2 2 2 2 2 2 2 2 2 2 2 2 2 2 2 2 2 2 2 2 2 2 2 2 2 2 2 2 2 2 2 2 2 2 2 2 2 2 2 2 2 2 2 2 2
left_child=2 3 12 13 5 6 9 8 -3 33 59 14 23 -2 36 42 21 27 19 -17 -4 45 57 24 46 -26 -13 -10 -18 -30 -6 -15 -16 51 -35 -36 37 -7 39 -39 54 -42 43 -8 -45 -12 47 -1 -47 -29 -51 -5 -28 -48 -38 -56 -57 58 -22 -9 61 -61
right_child=1 7 20 4 30 11 15 10 17 -11 16 26 -14 31 32 18 28 -19 -20 -21 22 -23 -24 -25 25 -27 52 49 29 -31 -32 -33 -34 34 35 -37 40 38 -40 -41 41 -43 -44 44 -46 48 53 -49 -50 50 -52 -53 -54 -55 55 56 -58 -59 -60 60 -62 -63
leaf_value=-0.34730320718387842 -0.035427855119128229 -0.18169415167709943 -0.21774217614605862 -0.2014322249148342 0.23815199305329623 -0.21178549011091052 0.17507440083665507 -0.22252085234872832 -0.071480148143600805 0.23569536782468706 -0.19861153811653243 -0.10057626595644907 -0.21371334808645162 0.22117490307055518 -0.02473034595480679 -0.24169288392968752 -0.23445505629772004 -0.20614925225177039 0.21135788474975301 0.23566886574304935 0.17350954127521012 -0.23066769846773505 0.17194639690705915 0.22691584237635551 0.21154431438682941 -0.26827884950430952 0.083583514395656283 0.14152824356677071 0.19575655268118738 -0.17755631734895569 0.076544139641220116 -0.34669792173073843 -0.22770073730945325 -0.1698080198328511 0.16359382050279414 -0.14985529326500008 -0.21999099839646827 0.23595403609989352 -0.23325632120583539 -0.23142069372385532 -0.23177128691868334 0.25282629872540524 -0.22888760917249354 -0.22530233442413078 0.12473026305002965 -0.23942154600744853 0.22089760193874974 0.25863099594894429 0.16386472993799575 -0.16249773599347733 0.22683586811056819 0.14698677424391118 -0.2490420479658608 -0.064595453308255918 -0.22986638761166517 0.082815744959264997 -0.184425748839947 -0.014354355650733057 -0.24172869177746398 0.11596282412523895 -0.22788522762496921 -0.22664781205123383
leaf_weight=4.1630964875221244 36.942505329847336 586.59864221513271 208.39587210118771 355.97771542519331 158.0604370161891 25.215849705040455 21.634713090956211 3018.5007692947984 42.82990350574255 23.787253588438034 11.995805919170378 240.51440906524658 14.939369171857832 422.93963392078876 21.426236607134342 28.673215068876743 10.877677448093889 25.995872095227242 205.50014105439186 40.752255171537399 3.3049973696470252 80.320073679089546 18.20549513399601 3918.5236065015197 8.5465482026338595 20.436036206781864 51.725003838539124 119.48966380208731 46.112311467528343 14.557625181972979 46.815418064594269 2.8117518946528426 553.81729382276535 91.807764448225498 24.177612416446209 20.300821393728256 82.189847119152546 30.678953662514687 7.999157451093196 5.0006719082593909 10.465243890881538 12.403902098536491 14.085558988153933 20.131741970777512 17.325090430676937 4.0562847256660488 138.54825085401535 2.913793608546257 19.034722246229649 20.989046148955822 15.647314570844172 4.142889328300952 4.8070317506790152 5.7158299535512915 24.317703858017921 21.411353245377541 13.240444988012312 20.926113680005074 28.854900941252708 22.064721859991554 81.07976295799017 7.9155824035406104
leaf_count=18 228 5099 2104 3145 1222 226 153 30577 283 197 116 1691 97 3338 145 214 90 235 1472 228 17 730 131 35977 57 119 306 705 268 120 329 14 4895 794 139 166 730 154 60 44 91 87 81 189 125 34 1179 17 139 144 118 35 32 35 218 126 114 146 231 158 769 78
internal_value=0 -0.129714 0.196406 -0.0287139 -0.0767062 -0.105559 -0.0413102 -0.194332 -0.120698 -0.154109 -0.21235 -0.156035 0.221657 0.197236 -0.187323 0.127252 -0.0795388 0.0383609 0.167711 0.0385151 -0.17501 -0.162571 -0.0500988 0.223244 0.143458 -0.126786 -0.0709109 0.0703089 0.0543926 0.106181 0.201224 0.217425 -0.220141 -0.172788 -0.107689 0.0205296 -0.106274 -0.0163241 0.0965162 0.170449 -0.144054 0.0310676 -0.0247494 0.0239107 -0.0634001 -0.00668479 0.195212 -0.0978197 0.0930214 0.109206 0.00378585 -0.197424 0.0552997 0.209586 -0.172426 -0.106131 -0.0192972 -0.126248 -0.199056 -0.220284 -0.159483 0.0255047
internal_weight=0 6769.15 4393.47 2641.08 2178.39 1973.51 868.297 4128.07 811.55 520.194 3316.52 1105.21 4113.79 462.694 808.167 348.103 186.955 224.952 274.926 69.4255 279.687 115.407 71.2915 4098.85 180.324 28.9826 297.046 198.956 71.5476 60.6699 204.876 425.751 575.244 496.407 136.286 44.4784 232.923 68.8946 43.6788 35.6796 164.028 22.8691 73.1771 59.0915 37.4568 35.0868 151.341 7.07689 23.091 156.126 36.6364 360.121 56.532 144.264 141.159 58.9695 34.6518 53.086 32.1599 3129.56 111.06 29.9803
internal_count=100779 60651 40128 20988 17408 15857 6938 39663 6584 4476 33079 8919 37499 3580 6890 2462 1497 1485 1914 442 2629 1019 525 37402 1425 176 2029 1250 478 388 1551 3352 5040 4279 1099 305 1850 484 258 198 1366 178 548 467 314 289 1249 35 173 967 262 3180 338 1214 1188 458 240 394 248 31582 1005 236
is_linear=0
shrinkage=0.2


Tree=8
num_leaves=63
num_cat=0
split_feature=2 13 17 13 8 6 3 4 17 8 13 2 13 6 6 13 13 6 6 6 6 6 17 13 13 13 2 4 4 3 6 17 13 8 2 5 5 13 6 13 2 2 6 2 17 6 6 17 13 3 2 5 6 4 2 2 17 17 3 17 6 3
split_gain=4741.89 1339.77 426.822 359.029 389.518 376.061 232.768 155.515 124.998 110.268 167.785 103.069 55.2253 44.8566 44.3905 40.0911 32.4466 30.0049 29.5901 28.6214 27.3171 25.3875 22.9742 91.9275 52.5745 21.9404 21.5955 18.0281 19.4159 22.9024 19.6653 17.6313 17.0893 15.5941 15.0215 14.9956 39.0754 13.7173 13.1254 12.987 12.8565 39.2258 18.0954 12.725 12.2293 11.8653 11.7558 10.9694 10.8995 10.8114 10.5056 10.4097 14.6684 11.0961 10.2659 9.81925 11.6039 9.545 11.6361 10.6954 9.48457 9.48148
threshold=0.26500000000000007 13.500000000000002 0.99500000000000011 327.50000000000006 0.85500000000000009 1.0000000180025095e-35 0.97500000000000009 0.55500000000000016 1.0000000180025095e-35 1.0000000180025095e-35 43.500000000000007 0.6150000000000001 5.5000000000000009 0.015000000000000001 1.0000000180025095e-35 5.5000000000000009 1.5000000000000002 0.075000000000000025 0.025000000000000005 0.03500000000000001 0.025000000000000005 0.97500000000000009 1.0000000180025095e-35 1.5000000000000002 2.5000000000000004 103.50000000000001 0.10500000000000002 1.0000000180025095e-35 0.22500000000000003 0.025000000000000005 0.025000000000000005 0.015000000000000001 24.500000000000004 0.32500000000000007 0.97500000000000009 0.74500000000000011 0.03500000000000001 71.500000000000014 0.26500000000000007 204.50000000000003 0.87500000000000011 0.82500000000000007 1.0000000180025095e-35 0.55500000000000016 0.065000000000000016 0.44500000000000006 0.39500000000000007 0.12500000000000003 1.5000000000000002 1.0000000180025095e-35 0.12500000000000003 0.075000000000000025 0.41500000000000004 1.0000000180025095e-35 0.99500000000000011 0.99500000000000011 0.99500000000000011 0.50500000000000012 0.03500000000000001 0.015000000000000001 0.37500000000000006 0.015000000000000001
decision_type=2 2 2 2 2 2 2 2 2 2 2 2 2 2 2 2 2 2 2 2 2 2 2 2 2 2 2 2 2 2 2 2 2 2 2 2 2 2 2 2 2 2 2 2 2 2 2 2 2 2 2 2 2 2 2 2 2 2 2 2 2 2
left_child=1 2 6 4 7 8 15 9 49 10 12 -12 20 26 25 21 -9 -17 34 -4 22 27 24 47 40 37 -3 -1 29 30 -29 46 35 -33 -16 36 -15 -13 -32 -27 41 43 61 48 -35 -14 -11 -24 -2 -6 -21 52 -19 -54 -25 56 -5 59 -59 -56 -22 -42
right_child=3 13 19 55 5 -7 -8 16 -10 31 11 14 45 32 18 17 -18 51 -20 50 60 -23 23 54 -26 39 -28 28 -30 -31 38 33 -34 44 -36 -37 -38 -39 -40 -41 42 -43 -44 -45 -46 -47 -48 -49 -50 -51 -52 -53 53 -55 57 -57 -58 58 -60 -61 -62 -63
leaf_value=-0.18055683293731373 -0.011282773962832849 -0.13607046760121419 -0.21683319191099126 0.22798219685579235 0.16890768320107008 -0.21656099142993465 0.21321273946043992 -0.16922303573799788 -0.19543710997976696 -0.2169427348156123 0.21433590829296209 0.051909107198822114 -0.20419805652931308 0.15188202086264913 -0.097396602410043831 -0.12212987928116403 0.21277785496863394 0.21617231201433196 0.17094268621856293 0.21371528505938284 -0.19755492968627381 0.15227362875958211 -0.079885867336086672 -0.22990374917903 -0.21066677228928912 -0.072953137330505582 0.19535206406347402 0.25155480734592767 -0.18958535389879871 -0.20973377328898352 -0.077028685482119691 -0.20416322748497495 0.22156045249653428 0.079744966215325716 -0.21483779653381624 0.22280445965661366 -0.24674193969814109 0.33837476805395467 0.18101867205287805 0.044776577306687528 -0.11715477528473198 0.15549874691471247 -0.21965363069239802 -0.20777303887713283 -0.21100292189759276 0.21276663704129614 0.17686846983263971 -0.2094633264617036 -0.19349505216497809 -0.11592014265329637 -0.14887132241747322 -0.23619628103412699 -0.15424414189585001 0.15543609472711276 -0.014266787207373073 0.11574291513110072 -0.34046033155954858 -0.18449425010850981 0.2525364585026183 0.13072495714383567 -0.07848320552369889 0.026914348321528316
leaf_weight=503.78020444512367 48.627560146152973 21.224531583487988 6.5002806931734076 82.892470262944698 346.50148036330938 191.2716086730361 82.989381827414036 10.666289180517195 43.339814655482769 1311.6696064323187 60.631639175117016 16.808885298669342 874.98945466428995 59.167083792388439 86.36617423593998 57.610226474702358 53.530097439885139 25.766892567276955 11.775295600295065 229.34607518464327 350.83035899698734 10.428748473525046 33.811782568693161 4.826412431895732 306.7781630307436 95.150876216590405 12.493470206856726 11.665367037057875 61.469838492572308 24.674838654696941 46.957218743860722 30.83759631216526 3114.5641542896628 21.098410651087764 87.905409641563892 57.845194511115551 11.79775497317314 11.102746896445749 9.4755271598696691 61.837427124381065 533.53999374806881 27.773734264075756 70.742918692529202 36.221834450960159 7.9735787063837043 2.7383925914764395 3.0390601456165305 115.06549832224846 17.989141255617142 5.4139154106378546 3.2415550872683516 3.5808636322617522 10.396503560245039 8.3412938043475133 28.423446089029312 67.402247875928879 1.4617791175842274 10.883698657155035 3.1399856954812995 71.648594498634338 28.967848107218742 18.920320190489292
leaf_count=5003 418 163 34 774 3349 2282 863 89 510 15210 469 144 10265 482 768 497 532 173 106 2268 3744 82 299 49 3592 646 83 59 551 218 411 314 33957 169 954 632 102 56 77 384 4875 171 773 423 83 27 20 1376 184 48 20 30 90 71 257 519 8 112 22 535 235 122
internal_value=0 0.152198 -0.0391989 -0.130442 -0.139563 0.0136516 -0.10511 -0.159729 0.125056 -0.164246 -0.142857 -0.0274156 -0.162124 0.216222 -0.0669302 -0.139234 0.149308 -0.0247757 -0.135903 0.197094 -0.141173 -0.157333 -0.127649 -0.0753062 -0.140865 0.00247018 -0.0132691 -0.162239 -0.102412 -0.0446517 0.0151645 -0.211197 0.218608 -0.105089 -0.156636 0.147221 0.0856116 0.16586 -0.0337004 -0.0265796 -0.112459 -0.0554052 -0.124416 -0.112364 1.50109e-06 -0.202897 -0.216032 -0.180035 -0.0604873 0.164526 0.208662 0.0918621 0.118258 -0.0163873 0.0558022 0.172656 0.218132 0.067888 -0.0866405 0.089543 -0.188473 -0.112221
internal_weight=0 4373.32 1096.22 5194.6 5042.84 586.527 857.137 4456.31 395.255 4392.12 3017.5 431.578 2585.92 3277.09 370.947 774.148 64.1964 105.696 186.047 239.088 1708.19 668.452 1328.39 267.799 1060.59 184.9 33.718 658.023 154.243 92.773 68.0981 1374.62 3243.37 59.9096 174.272 128.81 70.9648 27.9116 56.4327 156.988 753.816 130.612 623.203 102.839 29.072 877.728 1314.71 148.877 66.6167 351.915 232.588 48.0856 44.5047 18.7378 118.922 151.756 84.3542 114.096 14.0237 100.072 379.798 552.46
internal_count=100779 45866 10447 54913 53612 6189 8125 47423 3907 46802 31006 3527 27479 35419 3058 7262 621 861 1828 2322 17187 6401 13208 2650 10558 1230 246 6319 1316 765 547 15796 35173 566 1722 1216 584 200 488 1030 6966 1196 5770 1025 252 10292 15230 1675 602 3397 2288 364 334 161 975 1301 782 926 134 792 3979 4997
is_linear=0
shrinkage=0.2


Tree=9
num_leaves=63
num_cat=0
split_feature=10 11 9 1 9 9 9 9 19 15 1 15 9 9 1 15 9 5 15 1 15 1 19 1 18 5 17 1 9 15 1 17 19 17 15 19 1 1 15 11 12 9 1 9 15 9 11 10 15 17 15 1 1 5 19 18 9 1 17 15 15 15
split_gain=4315.34 761.668 898.301 588.737 538.938 281.455 162.862 145.631 134.338 98.624 95.2352 85.5684 75.3363 57.4718 52.2853 57.7685 164.929 48.9847 45.6478 43.0935 41.8462 40.4776 37.7449 33.2925 26.4728 26.411 26.0388 32.285 49.8395 35.2127 22.3136 22.2828 20.1195 42.991 25.1507 20.0885 18.7622 17.8296 16.4864 15.1487 14.1565 13.8219 13.4592 13.2551 12.587 12.3188 11.7246 14.5038 11.4904 11.1249 10.8179 10.8689 10.8104 10.3531 22.7641 10.3434 9.91159 9.65739 9.49443 8.19696 7.84018 7.21895
threshold=5.5000000000000009 1.0000000180025095e-35 12.500000000000002 77.500000000000014 17.500000000000004 43.500000000000007 23.500000000000004 48.500000000000007 1.0000000180025095e-35 16.500000000000004 210.50000000000003 155.50000000000003 47.500000000000007 19.500000000000004 254.50000000000003 4.5000000000000009 14.500000000000002 0.99500000000000011 50.500000000000007 66.500000000000014 254.50000000000003 70.500000000000014 0.10500000000000002 9.5000000000000018 0.15500000000000005 0.79500000000000015 1.0000000180025095e-35 230.50000000000003 52.500000000000007 230.50000000000003 12.500000000000002 0.025000000000000005 1.0000000180025095e-35 1.0000000180025095e-35 254.50000000000003 1.0000000180025095e-35 149.50000000000003 83.500000000000014 22.500000000000004 1.0000000180025095e-35 0.56500000000000006 51.500000000000007 47.500000000000007 18.500000000000004 3.5000000000000004 23.500000000000004 1.0000000180025095e-35 3.5000000000000004 254.50000000000003 0.50500000000000012 5.5000000000000009 3.5000000000000004 2.5000000000000004 0.66500000000000015 0.075000000000000025 0.23500000000000001 42.500000000000007 2.5000000000000004 0.065000000000000016 230.50000000000003 4.5000000000000009 104.50000000000001
decision_type=2 2 2 2 2 2 2 2 2 2 2 2 2 2 2 2 2 2 2 2 2 2 2 2 2 2 2 2 2 2 2 2 2 2 2 2 2 2 2 2 2 2 2 2 2 2 2 2 2 2 2 2 2 2 2 2 2 2 2 2 2 2
left_child=3 2 -2 11 14 22 9 10 42 19 18 12 17 21 15 -4 35 -1 44 23 36 32 30 50 26 45 -10 28 49 -29 40 48 34 61 -11 -17 52 -20 -27 -13 -6 -14 56 -36 -7 -5 -47 -48 -31 -28 51 -3 -18 54 -43 -9 -8 -22 -33 -39 -32 -34
right_child=1 6 4 25 5 7 8 55 24 13 -12 39 41 -15 -16 16 20 -19 37 -21 57 -23 -24 -25 -26 38 27 29 -30 31 60 58 33 -35 43 -37 -38 59 -40 -41 -42 53 -44 -45 -46 46 47 -49 -50 -51 -52 -53 -54 -55 -56 -57 -58 -59 -60 -61 -62 -63
leaf_value=-0.16728301669938256 -0.22227401238667907 -0.12828562433022433 0.22027733212349143 0.29516827673176821 -0.14686090930786244 -0.44947932597222623 -0.073626434355118481 -0.20636738892238676 -0.19824856737136118 -0.22142636052790832 -0.20372672296393379 0.21624328364461456 0.21906975324042863 -0.191925373037659 0.30384470298492888 -0.23222663566603222 -0.18685411939880181 0.19902802885301074 0.22672888312907485 -0.23211170511108339 -0.051620702034966083 0.24314454526580964 0.12344776822794386 0.16870395558727244 0.15556401568539699 -0.26103901812705849 0.15930507530450458 -0.22257778311393583 -0.18866372971457374 0.16132135190720431 -0.46836495756087865 0.1493594234791302 -0.24061610705093331 -0.22846318291174894 -0.2341428371402158 0.31512123750360244 -0.082177978321798184 0.037091809373781197 0.22036307081568857 -0.20689332056849818 0.24044046826346657 -0.29906884859696209 -0.21639447323167899 0.095187909488327324 -0.028381980674966296 -0.21505911102652517 -0.22061962634231033 0.1783519267317851 -0.16116108841572513 -0.22358269834944722 -0.24352718272228169 0.17499663530517362 0.16802704215507094 0.2092153351480589 0.14473114830011657 0.29121675283256182 -0.18741427787212434 0.25346950587752864 -0.22824375714203349 0.16966534917787679 -0.22974515053040548 0.28531715822554643
leaf_weight=57.737940557301044 619.99504814296961 10.142914831638342 323.78426511585712 2.0518840551376334 199.96974867582321 3.2038307636976269 43.385220490396023 66.548632398247719 64.282814234495163 44.196753047406673 31.066757202148438 2732.8410696089268 88.49582301825285 208.28407672792673 131.10718942433596 54.62707731127739 3.7866432070732108 19.54544298350811 177.70457961410284 16.500002764165401 4.2877766266465178 19.713357761502266 16.671691715717316 95.750955283641815 19.338059924542904 3.8975099846720687 58.196894638240337 64.00235241651535 26.54073029011488 5.1052622869610778 5.6994917616248122 27.199604816734794 1.109262540936476 12.127278357744215 6.3127351179718998 2.8206251859664908 26.192768171429634 33.579872116446495 10.543182574212549 3.388543300330638 3.8476291596889487 7.4822663962841061 2152.3891405537724 21.668275147676468 24.957504607737064 146.1849597170949 7.5119771882891637 7.0795301124453545 32.908243156969547 3.2024112045764914 10.05187728255987 8.8514393195509893 36.816252380609512 12.310603484511377 12.098496221005915 1.714091308414935 104.07362252473831 129.29220999777317 2.9526712223887435 41.973224133253098 163.70267476886511 17.725389361381531
leaf_count=555 7332 66 3278 9 2181 14 402 658 761 531 395 35690 1098 2434 772 385 22 204 1548 134 22 117 141 522 152 27 463 761 319 34 30 179 10 124 61 16 178 248 108 24 29 42 30614 153 180 2031 66 56 341 39 91 43 354 129 89 12 1197 1143 31 391 1659 84
internal_value=0 -0.112855 -0.0201055 0.185153 0.0643945 -0.051539 -0.176277 0.0707708 -0.19588 -0.0682428 0.128582 0.206539 0.0794613 -0.127934 0.18975 0.164031 0.0933949 -0.0746407 0.165267 0.0716476 0.179046 -0.0194447 -0.170981 0.111809 -0.0708682 -0.168791 -0.0862652 -0.0535603 0.0403432 -0.11604 -0.184133 -0.0160103 -0.0696341 0.0652354 -0.127489 -0.205352 0.0497953 0.192127 0.0904337 0.215719 -0.13955 0.178388 -0.21239 0.0208883 -0.076289 -0.191781 -0.197996 -0.027046 -0.117851 0.139335 -0.0757456 0.013045 0.134931 0.0655 -0.0248552 -0.193873 -0.153936 0.243676 0.112383 0.110743 -0.237773 0.254342
internal_weight=0 5179.36 2103.35 3111.17 1483.35 770.64 3076.01 380.748 2603.58 472.434 312.486 2933.9 197.671 331.137 712.715 581.608 257.823 77.2834 281.419 141.297 200.376 122.853 389.891 124.797 303.729 177.269 284.391 220.108 87.94 132.168 373.22 68.1658 103.14 30.9619 72.1778 57.4477 66.7957 253.258 14.4407 2736.23 203.817 120.387 2299.85 27.981 28.1613 162.828 160.776 14.5915 38.0135 61.3993 29.0462 18.9944 40.6029 31.8914 19.5808 68.2627 147.459 133.58 30.1523 75.5531 169.402 18.8347
internal_count=100779 60651 20988 40128 13656 7486 39663 3446 35293 4370 2776 37831 2117 3514 6170 5398 2120 759 2381 856 1719 1080 4040 722 3080 2297 2928 2167 821 1346 3899 585 963 218 745 401 554 2187 135 35714 2210 1358 32213 214 194 2162 2153 122 375 502 200 109 376 260 131 670 1599 1165 210 639 1689 94
is_linear=0
shrinkage=0.2


Tree=10
num_leaves=63
num_cat=0
split_feature=10 11 9 2 9 9 9 19 9 2 2 9 9 16 2 15 15 9 3 2 15 8 15 2 9 15 10 19 19 2 16 2 19 11 10 17 9 15 17 16 19 17 15 15 9 15 2 9 9 19 17 15 10 19 15 17 2 2 19 15 3 19
split_gain=3417.22 609.603 711.393 531.307 414.597 210.206 143.794 120.37 108.264 131.351 89.8995 62.0962 44.1915 41.1565 38.0217 41.1226 117.836 41.9067 36.0464 30.0166 29.9413 28.4708 23.0141 22.9862 22.3946 19.2364 22.8565 69.2809 19.0805 19.0281 15.7144 15.6736 14.3455 14.1501 14.3953 12.8215 12.5475 12.4877 12.3197 11.7588 10.7775 19.9898 11.9627 10.5328 10.2588 10.1964 9.99975 9.9497 9.68783 9.04469 9.68353 8.70602 8.38818 7.83381 7.93438 8.13752 7.11978 7.02012 6.98131 12.2783 6.9132 6.86103
threshold=5.5000000000000009 1.0000000180025095e-35 12.500000000000002 0.57500000000000007 17.500000000000004 43.500000000000007 23.500000000000004 1.0000000180025095e-35 48.500000000000007 0.87500000000000011 0.84500000000000008 1.5000000000000002 19.500000000000004 0.14500000000000005 0.03500000000000001 254.50000000000003 5.5000000000000009 14.500000000000002 0.19500000000000003 0.045000000000000005 173.50000000000003 0.025000000000000005 67.500000000000014 0.99500000000000011 14.500000000000002 227.50000000000003 2.5000000000000004 0.23500000000000001 0.10500000000000002 0.99500000000000011 0.23500000000000001 0.28500000000000009 0.075000000000000025 1.0000000180025095e-35 3.5000000000000004 1.0000000180025095e-35 47.500000000000007 46.500000000000007 0.82500000000000007 0.025000000000000005 1.0000000180025095e-35 1.0000000180025095e-35 254.50000000000003 78.500000000000014 23.500000000000004 4.5000000000000009 1.0000000180025095e-35 18.500000000000004 19.500000000000004 0.055000000000000007 0.025000000000000005 18.500000000000004 1.5000000000000002 0.03500000000000001 254.50000000000003 0.025000000000000005 0.33500000000000008 0.99500000000000011 0.59500000000000008 151.50000000000003 0.9900000000000001 0.72500000000000009
decision_type=2 2 2 2 2 2 2 2 2 2 2 2 2 2 2 2 2 2 2 2 2 2 2 2 2 2 2 2 2 2 2 2 2 2 2 2 2 2 2 2 2 2 2 2 2 2 2 2 2 2 2 2 2 2 2 2 2 2 2 2 2 2
left_child=3 2 -2 11 14 19 10 30 9 22 12 -1 20 21 -4 16 -16 -18 33 28 49 23 60 46 -17 26 27 -13 -6 -19 -8 40 35 36 -35 -25 44 -32 -38 -21 42 -42 -22 45 52 -11 -9 -44 -12 -3 -51 -50 -5 54 -37 -56 -24 -15 59 -29 -7 -30
right_child=1 6 4 18 5 8 7 13 -10 43 48 25 -14 57 15 24 17 29 -20 39 31 -23 56 32 -26 -27 -28 58 61 -31 37 -33 -34 34 -36 53 38 -39 -40 -41 41 -43 47 -45 -46 -47 -48 -49 51 50 -52 -53 -54 -55 55 -57 -58 -59 -60 -61 -62 -63
leaf_value=-0.24172397031028484 -0.21714476361636426 -0.20281558873436289 -0.034399730370357436 0.34680462931940781 -0.11799358162430558 -0.084707861721463606 -0.20919226432922799 0.18996527281028103 -0.18000644340464766 -0.31081218678480027 -0.1681438999189373 -0.27489077883196161 -0.18075598454104766 -0.23415181315480404 0.21315054394647129 -0.24434949346017254 -0.24129630207294608 0.21006299227641423 0.19001186605664794 -0.22032202541108223 -0.21898410971894547 -0.20881169776687752 0.23009212859979289 -0.21416911375734593 0.27069797520403382 0.21303493064478746 0.19828576801007522 -0.29137460477812865 0.19787756934573136 -0.03261654831622534 0.33151770388366741 0.2191257420289302 -0.12307151746778799 -0.21746444896033018 0.16556950212625177 0.065863714444760135 -0.23929786356427646 -0.17673452818253557 0.21346613260594116 0.26948480207697123 0.27414759882856543 -0.22680279618582358 -0.22739993187553359 -0.22118918781514074 -0.21477464355110865 0.039586321028457376 -0.17519781493348466 0.077347874466535627 0.10594211459413166 0.27711072897028871 -0.218712308394058 -0.21993073093971463 -0.21172749890125431 0.13938615830118792 -0.1402729216725058 0.31701122275087673 0.15089033613265257 0.19299573785120458 0.21697493035671181 0.20916915552278492 0.22819289872889759 -0.10536341604260112
leaf_weight=12.348532069474457 518.3549175709486 33.767648763954639 31.666084423661232 2.4054306149482718 153.1512561775744 15.33836378157139 1910.936162378639 3.1729201264679423 59.746816489845514 4.271286457777026 5.8236835896968833 18.670747585594654 187.70203907415271 1.6372261792421365 288.39562647789717 3.433707743883132 30.346264757215977 19.447957307100296 11.774931527674196 174.43141815811396 12.214496009051798 61.819751612842083 138.21603121981025 7.5236784890294066 203.84124798327684 2226.0638708844781 117.30894695222378 3.2122087702155095 11.154171071946619 38.524427905678749 3.8531567901372901 17.391187362372875 29.921187978237867 6.7186068929731855 9.4377961717545986 37.050794258713722 4.0858173146843892 3.8816533386707306 5.8396683931350708 1.9828160256147374 11.837602145969869 4.3597100749611846 5.305533021688464 36.561337821185589 140.09892223402858 14.944654785096644 54.940289158374071 22.286880195140839 110.87457611039281 3.5461573004722586 2.8353394456207752 3.3792654387652865 1.9454145953059194 30.534075241535902 16.181979864835743 1.7222841158509243 67.607044134289026 25.661971651017666 38.345916647464037 5.029547393321991 3.4618604257702819 4.0748076364397994
leaf_count=114 7332 468 251 10 1892 107 32130 23 670 19 49 110 2524 14 3429 39 200 217 114 2001 163 848 1443 124 1729 34973 1664 21 105 305 20 121 382 66 76 348 36 63 48 9 60 50 61 494 2303 93 692 155 616 18 40 45 12 251 174 9 583 215 514 67 37 33
internal_value=0 -0.107906 -0.0190231 0.180829 0.0599386 -0.0471181 -0.169846 -0.190441 0.0644327 0.116517 -0.0628508 0.205623 -0.121178 -0.0654539 0.179044 0.190617 0.15125 -0.0508803 -0.148429 -0.157165 -0.0226885 -0.0916252 0.184729 -0.0516111 0.262166 0.207916 0.145505 0.0506257 -0.0967634 0.048795 -0.208041 0.0532717 -0.00261413 -0.171798 0.00628562 0.0361357 -0.190436 0.0764553 0.0270862 -0.214817 0.00176844 0.139311 -0.054197 -0.158182 -0.205382 -0.0382997 -0.15526 0.0187503 0.0834783 -0.161549 0.0568134 0.0963038 0.0970654 0.0581644 0.013036 -0.0962849 0.204077 0.167378 0.181082 0.0140832 -0.0270905 0.11674
internal_weight=0 4429.11 1818.95 2603.29 1300.6 684.942 2610.16 2188.84 340.147 280.401 421.324 2420.98 301.247 270.166 615.655 583.989 376.714 88.3186 182.307 344.794 113.545 242.867 224.623 181.047 207.275 2408.63 182.567 65.2584 168.38 57.9724 1918.67 73.3954 122.934 170.532 16.1564 93.0128 154.375 7.73481 9.92549 176.414 56.0042 16.1973 39.8069 55.7773 144.45 19.2159 58.1132 27.5924 120.078 40.1491 6.3815 114.254 4.35085 85.4891 54.9551 17.9043 205.823 27.2992 46.5877 8.24176 18.8002 15.229
internal_count=100779 60651 20988 40128 13656 7486 39663 35293 3446 2776 4370 37463 3660 3080 6170 5919 4151 722 2665 4040 1136 2851 2170 2003 1768 37349 2376 712 2030 522 32213 610 1288 2551 142 906 2409 83 84 2010 489 110 379 606 2325 112 715 216 710 526 58 661 22 782 531 183 2026 229 602 88 144 138
is_linear=0
shrinkage=0.2


Tree=11
num_leaves=63
num_cat=0
split_feature=0 14 9 6 9 14 9 9 14 12 7 19 12 12 19 12 1 1 6 14 9 9 19 14 6 14 6 6 6 6 1 1 7 19 14 1 6 8 1 9 9 1 6 6 9 6 6 14 14 0 18 14 14 9 1 14 9 1 9 1 14 7
split_gain=2702.19 1656.34 607.526 157.626 136.956 75.8578 214.486 177.366 53.3999 52.2733 38.5712 54.2197 49.2336 36.3617 34.7525 32.5445 29.6803 29.1095 25.5492 24.8911 25.6037 43.1972 21.691 19.4789 17.9975 17.6575 17.4822 24.0123 15.075 14.7854 46.6718 20.0329 14.5763 14.234 12.4573 11.8076 11.4226 30.9997 13.9921 11.3152 91.4397 16.921 17.1001 11.2039 10.4778 10.4499 9.69243 8.38126 8.17204 8.11142 22.0724 8.03628 7.11992 12.3636 16.177 12.0013 7.08155 6.95672 8.52492 6.92218 15.772 6.77165
threshold=0.49500000000000005 19.500000000000004 12.500000000000002 0.015000000000000001 51.500000000000007 15.500000000000002 17.500000000000004 46.500000000000007 4.5000000000000009 0.56500000000000006 0.18500000000000003 1.0000000180025095e-35 0.66000000000000014 0.97500000000000009 0.015000000000000001 0.58500000000000008 254.50000000000003 77.500000000000014 0.20500000000000004 11.500000000000002 20.500000000000004 14.500000000000002 0.075000000000000025 18.500000000000004 1.0000000180025095e-35 16.500000000000004 0.15500000000000003 0.33500000000000008 0.39500000000000007 1.0000000180025095e-35 44.500000000000007 73.500000000000014 0.99500000000000011 0.065000000000000016 15.500000000000002 254.50000000000003 1.0000000180025095e-35 0.48500000000000004 90.500000000000014 17.500000000000004 14.500000000000002 185.50000000000003 1.0000000180025095e-35 0.015000000000000001 23.500000000000004 1.0000000180025095e-35 0.095000000000000015 17.500000000000004 13.500000000000002 0.59500000000000008 0.99500000000000011 14.500000000000002 17.500000000000004 14.500000000000002 139.50000000000003 18.500000000000004 1.0000000180025095e-35 3.5000000000000004 19.500000000000004 9.5000000000000018 12.500000000000002 0.47500000000000003
decision_type=2 2 2 2 2 2 2 2 2 2 2 2 2 2 2 2 2 2 2 2 2 2 2 2 2 2 2 2 2 2 2 2 2 2 2 2 2 2 2 2 2 2 2 2 2 2 2 2 2 2 2 2 2 2 2 2 2 2 2 2 2 2
left_child=3 2 18 45 5 19 32 9 -6 14 25 12 23 39 -8 22 28 -11 -2 43 21 -21 -10 26 -9 46 51 -28 -16 30 59 48 35 -18 -24 36 37 38 -7 40 -3 42 -42 44 57 -1 -5 -17 -31 50 61 -12 53 54 -40 -54 -13 58 -4 60 -23 -41
right_child=1 13 4 10 8 6 7 24 15 17 11 56 -14 -15 16 47 33 -19 -20 20 -22 29 34 -25 -26 -27 27 -29 -30 31 -32 -33 -34 -35 -36 -37 -38 -39 52 49 41 -43 -44 -45 -46 -47 -48 -49 -50 -51 -52 -53 55 -55 -56 -57 -58 -59 -60 -61 -62 -63
leaf_value=0.16811962992903717 -0.21981827835118134 -0.21491575494437726 0.16772667743865152 -0.12812138663560521 0.30979978463347618 0.18010984605014069 -0.22387034539016423 -0.26850294609480668 -0.21755262777963758 0.20796401802592213 0.2471952946995431 -0.25532086681305144 0.2028078338939362 0.20562090452100756 -0.23598109820670629 -0.035467408655648215 0.22328273539228097 -0.22199937054830521 0.16279223409411148 0.20591454774625714 0.21211744443161895 -0.38793362319793212 0.14617925118272834 -0.16190473453210452 0.19974110541833079 0.21107680756175451 0.3655427513163137 -0.24629750091041946 0.1117544170516446 0.0066886409301048239 -0.29404702115953218 0.17855510225387383 -0.19662075882536295 -0.26341963141677777 -0.14965570410963935 0.26203377194956834 0.2302730891602805 0.21557034743300318 -0.14975252416967369 0.26278865981132254 -0.25665123928999112 0.29809474387387502 0.17316982830114519 0.3021733320395168 0.26581822149215711 -0.21906065407747166 0.2066439701294637 0.20081310820172318 -0.247373774945785 -0.21235948664802295 0.21720173109683738 -0.2156010532116609 0.16661556942134881 -0.34502124507820803 0.20662021831507263 -0.15208633646230066 0.2121561528492622 0.16524191060729596 -0.31761802647857662 0.19858339105126163 0.14768053872056017 -0.20851450449264386
leaf_weight=3.0011247918009749 275.70864296332002 193.17698135599494 2.9852671250700942 9.5622401162981969 12.910417519509791 21.203203469514847 138.01729279756546 3.3931927382946006 78.013802632689476 24.929469309747219 1.8213560283184076 1.3089142441749562 36.77751861512661 8.6114886254072172 22.422532193362716 11.208323184400797 17.580668274313215 8.4276616908609849 7.1624471619725218 88.475666020065546 176.03858505561948 2.8400691747665396 11.860397621989252 44.713142082095146 101.49461503326893 1680.333472751081 10.149381816387175 3.433851294219493 6.4130217544734469 6.8990970551967647 11.397478006780146 8.2161928303539735 3.7944099791347972 2.7842463888227931 10.950220659375189 86.305051267147064 102.80436966195703 104.40629449859262 13.322839811444288 1.2722121179103876 6.0931385904550561 15.888400316238403 9.4360757246613485 83.369884014129639 52.993950746953487 39.329381056129932 5.4205739572644225 12.935238413512707 19.04083725810051 2057.8923010118306 6.4838581979274741 8.5287094041705114 15.54344889521599 5.6840969771146765 8.250139154493807 6.7913128286600104 133.29936510324478 44.7825573310256 2.810422271490097 36.882364675402641 9.7437272891402227 29.38712390139699
leaf_count=21 4144 3548 20 74 65 235 1685 22 1035 397 9 7 678 152 269 148 123 113 78 1306 2138 13 110 584 1479 31842 64 33 103 55 60 77 56 26 143 670 1266 1602 96 7 38 119 116 463 418 580 87 204 174 40196 93 117 133 27 83 51 2302 246 12 217 46 504
internal_value=0 -0.0957445 0.056846 0.190175 0.111653 0.132678 0.0887692 -0.0295133 -0.077441 -0.131325 0.198525 0.123489 0.01608 -0.204591 -0.172423 -0.117447 -0.0281009 0.099334 -0.21013 0.188406 0.157627 0.105351 -0.167391 -0.08396 0.184593 0.209149 0.0616595 0.210869 -0.158645 0.0117135 0.0708145 -0.0936 0.19335 0.156742 0.0041639 0.197411 0.17735 0.146295 0.0441302 -0.206114 -0.163451 0.152987 0.00452258 0.2476 0.203672 -0.191611 -0.00700793 0.0911231 -0.179802 -0.210688 -0.118057 -0.13416 -0.0140084 -0.0826067 -0.0134651 0.0697081 0.20761 0.138558 -0.0676247 0.154882 0.0267964 -0.188958
internal_weight=0 3989.04 1660.79 1977.68 1377.92 1240.04 693.568 325.463 137.878 220.575 1935.35 240.032 105.424 2328.24 187.218 124.968 49.2005 33.3571 282.871 546.476 359.534 183.495 100.824 68.6464 104.888 1695.32 23.9333 13.5832 28.8356 95.0198 60.8636 34.1561 368.105 20.3649 22.8106 364.311 278.006 175.201 70.795 2319.63 224.595 31.4176 15.5292 186.942 103.572 42.3305 14.9828 24.1436 25.9399 2095.04 37.1432 10.3501 49.5918 27.2571 21.573 22.3348 134.608 50.5782 5.79569 49.4662 12.5838 30.6593
internal_count=100779 64381 19608 36398 15386 13681 8436 4217 1705 2716 35797 3794 1485 44773 2206 1640 521 510 4222 5245 4086 1948 1288 807 1501 32003 223 97 372 642 336 306 4219 149 253 4163 3493 2227 625 44621 3821 273 154 1159 696 601 161 352 229 40800 604 126 390 206 179 184 2309 278 32 276 59 511
is_linear=0
shrinkage=0.2


Tree=12
num_leaves=63
num_cat=0
split_feature=10 14 1 14 3 15 15 14 14 14 14 1 19 3 15 1 1 3 1 14 19 5 7 14 15 1 5 3 19 10 14 15 5 19 7 1 7 18 19 14 19 7 3 12 14 12 14 1 7 15 15 14 14 7 19 15 14 7 19 14 15 14
split_gain=2172.77 1161.66 302.98 284 72.0558 60.3575 53.5817 46.7251 35.4839 31.1044 30.8992 30.3834 26.4439 24.8823 32.7845 30.4538 28.2163 21.6398 21.5231 19.9614 18.6221 18.3089 17.7074 14.074 29.0049 17.574 13.4374 12.8053 27.9248 16.4153 12.2366 12.1017 11.285 10.1459 9.9752 9.24817 8.92261 8.32754 8.25472 7.59324 7.54056 8.75417 7.06273 6.50601 6.41304 6.26621 6.02675 5.80329 7.20578 6.9351 8.84975 5.6198 5.67473 8.29079 7.26481 10.9483 5.1659 5.12835 5.06103 5.01782 4.82335 7.3761
threshold=5.5000000000000009 19.500000000000004 77.500000000000014 16.500000000000004 0.055000000000000007 155.50000000000003 4.5000000000000009 14.500000000000002 9.5000000000000018 18.500000000000004 15.500000000000002 12.500000000000002 0.14500000000000005 0.49500000000000005 254.50000000000003 216.50000000000003 254.50000000000003 0.075000000000000025 8.5000000000000018 17.500000000000004 0.065000000000000016 0.24500000000000002 0.8650000000000001 20.500000000000004 254.50000000000003 10.500000000000002 0.47000000000000003 0.50500000000000012 0.50500000000000012 2.5000000000000004 18.500000000000004 99.500000000000014 0.93500000000000016 0.03500000000000001 0.56500000000000006 254.50000000000003 0.075000000000000025 0.99500000000000011 0.025000000000000005 17.500000000000004 0.68500000000000016 0.03500000000000001 1.0000000180025095e-35 0.015000000000000001 11.500000000000002 0.97500000000000009 13.500000000000002 1.5000000000000002 0.44500000000000006 4.5000000000000009 72.500000000000014 17.500000000000004 18.500000000000004 1.0000000180025095e-35 1.0000000180025095e-35 148.50000000000003 18.500000000000004 0.095000000000000015 0.79500000000000015 12.500000000000002 4.5000000000000009 7.5000000000000009
decision_type=2 2 2 2 2 2 2 2 2 2 2 2 2 2 2 2 2 2 2 2 2 2 2 2 2 2 2 2 2 2 2 2 2 2 2 2 2 2 2 2 2 2 2 2 2 2 2 2 2 2 2 2 2 2 2 2 2 2 2 2 2 2
left_child=2 3 5 4 8 9 11 20 60 27 -4 -5 13 14 51 22 19 -12 44 -17 -7 -13 56 24 -3 34 -11 28 29 37 38 -14 58 -21 36 -27 -26 -1 39 -18 -33 -42 -31 -41 -10 -44 -29 48 -46 -49 -51 -8 53 54 55 -53 -16 -52 -20 -47 61 -2
right_child=1 23 10 6 -6 7 12 -9 18 26 17 21 31 -15 15 16 30 -19 32 33 -22 -23 -24 -25 25 35 -28 46 -30 42 -32 40 -34 -35 -36 -37 -38 -39 -40 43 41 -43 45 -45 47 59 -48 49 -50 50 57 52 -54 -55 -56 -57 -58 -59 -60 -61 -62 -63
leaf_value=0.016441690405477126 0.25458508439688587 -0.21582094797885804 0.18137363939466952 -0.16573108569598968 -0.17959263124279884 -0.28220304502922156 -0.23454849511928155 0.20907987616246429 0.17060097864772292 -0.21447120940494924 -0.21176574172348986 0.19600972508601669 -0.26706709242379151 0.21805674725511759 0.01751047338529332 0.18053227871374786 -0.1836905493093193 0.2170238491920348 0.16624617379935569 -0.18825400851756771 0.1472334180265859 -0.21479916035945054 -0.21197985169725486 -0.20897793653155824 -0.15706210585596903 -0.16268415103464112 0.21814045627104758 -0.45257346912777419 0.18532499149350992 0.17882952591381823 0.096239980389123223 0.18094735865513256 -0.19759919359995803 0.25689621113546057 -0.17317289971492575 -0.032667148279677885 0.20256847867990457 -0.30124520836573532 0.31919069311215692 -0.033024225628040957 -0.10854172418527078 0.18271174982845692 -0.2516886139291869 -0.21404863353387713 -0.13907081477370117 -0.26762165397926263 0.2119960328491661 0.14777745199404402 0.14624533957737249 -0.30525736258185104 -0.014671768014039183 -0.11873066346608628 -0.19976098552206278 -0.23126430975912735 -0.21503367984596294 0.073409820953256738 0.1051201866177022 0.25537770715265662 -0.19619240275258001 0.21370209180900748 0.29511283945299877 -0.072838912754709925
leaf_weight=4.5595363043248662 10.52545567974448 172.02908805757761 9.9186923578381521 12.921876579523085 25.308845747262239 10.81366988271475 29.031760890036821 1554.9430567920208 12.861666530370711 19.222379000857476 90.622974023222923 64.506516415625811 3.5614970065653315 12.075199514627455 134.69402765482664 6.4886857010424128 18.026355341076851 4.9658449292182913 368.66691943258047 111.88315477594733 6.4474150985479346 4.6525279991328707 12.46955221146345 1572.4621667191386 3.3883837200701299 76.17900887876749 3.3764230348169795 0.55398011207580466 34.301110811531544 9.6749761663377303 24.536001492291689 27.448447242379189 3.4706029593944541 2.0862153246998778 5.419333714991807 30.703411243855953 14.869535893201826 11.952422074973583 2.3063170313835135 119.54245345294476 10.01102961972356 7.0243389233946791 4.0384897887706739 8.5065785571932775 15.332931909710171 1.1641805171966551 37.128844980150461 18.695977937430143 4.6038094460964194 3.5948421508073833 14.153518989682199 27.703274812549353 37.329119063913822 16.229397211223841 11.223483830690382 20.745316844433546 33.646651774644852 3.5105704106390467 1.5475655272603024 3.3866696581244469 81.274157747626305 3.7264785245060912
leaf_count=38 56 3157 99 137 389 57 338 35556 67 383 2115 1016 45 201 1857 84 188 83 4438 2522 101 85 246 37586 59 1530 62 3 542 139 289 482 43 21 80 489 153 80 14 1335 162 139 34 171 114 5 784 170 53 19 111 422 545 281 206 262 547 41 10 47 471 20
internal_value=0 -0.10006 0.17425 0.0432162 0.150258 0.194642 -0.0368235 0.205447 0.165662 0.0633234 -0.154625 0.115776 -0.0553367 -0.0662688 -0.0718382 -0.0465751 -0.0863653 -0.18949 0.141989 -0.160679 -0.121799 0.168373 0.0179868 -0.201377 -0.161877 -0.0907989 -0.149836 0.108445 0.0572853 -0.069005 -0.0345967 0.0876752 0.161366 -0.180106 0.0651018 -0.125335 0.135827 -0.213521 -0.0562316 -0.0621589 0.116077 0.0115533 0.0616452 -0.0450501 0.0424653 -0.0703504 0.202226 0.0149483 -0.0731854 0.0589253 -0.0192149 -0.156045 -0.135917 -0.104517 -0.0700452 -0.0364576 0.0350212 0.038998 0.164731 0.0905718 0.276294 0.168973
internal_weight=0 3200.97 1807.07 1325.92 567.273 1701.56 758.65 1572.2 541.964 129.359 105.508 82.0809 676.569 628.524 616.448 474.186 293.376 95.5888 446.438 120.458 17.2611 69.159 180.81 1875.05 302.589 130.56 22.5988 106.76 69.0774 34.7763 172.918 48.0453 373.685 113.969 23.6773 106.882 18.2579 16.512 148.382 146.075 44.4838 17.0354 18.2643 128.049 72.7533 8.58934 37.6828 59.8917 19.9367 39.9549 21.2589 142.262 113.231 75.9015 59.6721 48.4486 168.341 17.6641 370.214 4.55085 95.5261 14.2519
internal_count=100779 60651 40128 17597 6002 37831 11595 35714 5613 2117 2297 1238 10357 9529 9328 7274 4624 2198 5066 2627 158 1101 2650 43054 5468 2311 445 1672 885 343 1997 828 4491 2543 292 2019 212 118 1708 1694 783 301 225 1506 575 86 787 508 167 341 171 2054 1716 1171 890 684 2404 152 4448 52 547 76
is_linear=0
shrinkage=0.2


Tree=13
num_leaves=63
num_cat=0
split_feature=10 14 6 14 13 13 4 14 6 8 8 13 14 14 14 6 8 13 13 0 0 14 13 4 6 13 10 13 6 4 6 7 6 5 6 10 14 13 6 14 6 0 13 12 5 6 13 6 10 6 7 4 6 6 14 5 10 6 13 4 13 0
split_gain=1726.5 948.467 268.744 207.42 85.7544 69.9041 63.0862 50.2188 49.865 61.3917 31.5246 49.4324 31.2222 29.2759 26.9369 26.1566 25.9629 24.5512 23.1297 22.8593 21.3362 20.6069 17.8114 16.9713 16.4425 14.5104 17.4952 14.1013 18.8396 12.8805 11.9431 13.5015 11.527 11.4259 11.2933 10.0045 9.85513 11.1778 9.59882 8.63413 8.06515 6.66244 6.40717 6.09593 5.66477 5.18147 5.37834 4.94942 4.93672 4.87877 4.87337 5.24504 4.61424 4.57771 4.49806 5.46293 4.10385 7.57084 3.86394 3.52725 3.37944 3.34885
threshold=5.5000000000000009 19.500000000000004 0.015000000000000001 16.500000000000004 337.50000000000006 136.50000000000003 0.29500000000000004 14.500000000000002 0.15500000000000003 0.85500000000000009 1.0000000180025095e-35 19.500000000000004 17.500000000000004 14.500000000000002 11.500000000000002 1.0000000180025095e-35 0.37500000000000006 3.5000000000000004 114.50000000000001 0.32500000000000007 0.26500000000000007 13.500000000000002 9.5000000000000018 0.59500000000000008 0.065000000000000016 3.5000000000000004 9.5000000000000018 5.5000000000000009 0.29500000000000004 0.70500000000000007 0.03500000000000001 1.0000000180025095e-35 0.045000000000000005 0.03500000000000001 0.025000000000000005 6.5000000000000009 18.500000000000004 118.50000000000001 0.015000000000000001 17.500000000000004 0.10500000000000002 0.25500000000000006 509.50000000000006 0.97500000000000009 0.47000000000000003 0.13500000000000004 125.50000000000001 1.0000000180025095e-35 3.5000000000000004 1.0000000180025095e-35 0.56500000000000006 0.45500000000000007 1.0000000180025095e-35 0.015000000000000001 18.500000000000004 0.065000000000000016 2.5000000000000004 0.67500000000000016 8.5000000000000018 1.0000000180025095e-35 5.5000000000000009 0.99500000000000011
decision_type=2 2 2 2 2 2 2 2 2 2 2 2 2 2 2 2 2 2 2 2 2 2 2 2 2 2 2 2 2 2 2 2 2 2 2 2 2 2 2 2 2 2 2 2 2 2 2 2 2 2 2 2 2 2 2 2 2 2 2 2 2 2
left_child=2 3 13 6 8 19 14 24 9 10 11 52 42 43 35 -11 17 21 20 22 32 44 -3 -15 48 26 -10 28 29 40 31 36 -13 -24 59 -2 53 -38 -37 -12 -9 45 -6 49 47 46 -19 -16 -4 -1 51 -27 54 -20 55 60 57 61 -52 -23 -5 -26
right_child=1 5 7 4 12 -7 -8 27 25 15 39 18 -14 23 16 -17 -18 41 30 -21 -22 34 33 -25 56 50 -28 -29 -30 -31 -32 -33 -34 -35 -36 38 37 -39 -40 -41 -42 -43 -44 -45 -46 -47 -48 -49 -50 -51 58 -53 -54 -55 -56 -57 -58 -59 -60 -61 -62 -63
leaf_value=0.20472464520423037 -0.19008294405057111 -0.20844814322475125 -0.25439569790814498 -0.056208724848727909 -0.21872270383846787 0.19886451260792115 -0.17834244463918991 -0.13516025386076447 -0.12469181118569739 0.20241859022919051 0.1242661423432677 -0.2280864661898987 0.21643892705570017 -0.20715310932559927 0.093819914265811835 -0.22261518093062005 0.19970828167625182 -0.22250474817124008 -0.054759675736929803 -0.20541647385101106 0.20948395790710986 -0.0061077799984722162 0.19925111536413959 0.10954077539548986 0.06041079994558355 0.22725522110713126 0.21523891573313689 0.20741639501080927 0.19187396404792609 0.21005388606720668 0.22768076083637301 -0.21039117965930565 0.19201994163520328 -0.22530905206435864 -0.18475566572408375 0.17818315195205325 -0.22006400979764551 0.21716280658133236 0.27803037518880808 -0.20856922317425536 0.079304105427871405 0.19771208343038865 0.20719416272189625 -0.29063757399682005 -0.21559992331404729 0.1559587383530863 0.20872974506768702 0.21914169606972675 0.018612954248107601 -0.25903174725441186 -0.10027774520249849 -0.2372069963285732 -0.17434671465485865 0.13559176909653667 -0.21181520563322512 -0.18266612967221024 0.15833177416843872 0.16280901721889618 0.19667718914420781 0.19178475255869218 0.2056177881569218 -0.27660112167149775
leaf_weight=11.919062737375492 2.3571766279637805 11.831829477101566 11.842041481286286 36.180810201913118 9.0013725310564006 17.588142141699791 24.489561773836613 16.991594256833199 17.718816943466663 40.306446578353643 3.2210763283073893 8.6327884979546052 66.833934985101223 82.201891025528312 37.565035097301006 6.7633532118052235 106.22115911543369 4.1290917582809907 136.01261785253882 1516.8732329551131 31.11705856397748 70.384424019604921 12.819498777389525 7.3758944831788531 1.6931009553372875 32.232167474925518 9.201017804443838 1240.2186789736152 78.475023083388805 10.715469002723692 6.3701737597584716 18.975247394293547 3.7462093941867343 3.160695143043994 15.28834357485175 81.999156609177589 2.9484500102698794 11.312240686267613 72.621085805818439 97.042411582544446 11.944494392722843 64.052413929253817 1.6758093610405929 1.2650295346975333 1.8957477025687683 6.8518961854279041 1.607140067964792 18.971797857433558 3.412963528186082 0.98215217888355333 3.9710040614008895 1.0027993470430363 115.06829082779586 5.2485496029257765 13.455256901681421 15.504637911915777 11.628155458718537 5.0974253453314304 3.1375443115830421 3.7971408255398265 2.0855306312441817 3.8872753046452999
leaf_count=135 24 231 63 343 115 218 387 266 237 836 32 99 1188 2289 274 145 2168 58 1879 42412 339 584 146 114 12 533 192 34565 1896 261 87 488 34 47 134 646 44 115 488 2139 236 924 50 6 32 100 11 144 34 8 45 8 2027 55 175 332 157 61 46 28 12 25
internal_value=0 -0.0946312 0.171738 0.0382159 -0.0326522 -0.197608 0.134891 0.194819 -0.0574002 -0.077144 -0.0974317 -0.0726666 0.165704 -0.138826 0.150619 0.141346 0.118239 0.0797002 -0.00981268 -0.202122 0.121134 0.0320946 -0.022442 -0.181076 -0.033305 0.105213 -0.00850578 0.201127 0.135099 0.0227352 -0.0413035 -0.051123 -0.100951 0.115278 -0.0282359 0.218845 -0.0316907 0.126765 0.225079 -0.197877 -0.0466318 0.171571 -0.151874 0.128337 0.124471 0.0385545 -0.101684 0.135874 -0.193316 0.169419 0.181093 0.213241 -0.150026 -0.0476872 -0.108396 -0.0825171 0.0761263 -0.0133957 0.0307911 0.00402177 -0.0419391 -0.174351
internal_weight=0 2773.27 1499.65 1211 698.766 1562.27 512.231 1395.91 621.254 553.991 506.921 406.658 77.5111 103.744 487.742 47.0698 330.764 224.543 224.363 1544.69 43.4961 147.902 27.812 89.5778 37.561 67.2633 26.9198 1358.35 118.127 39.6516 180.867 174.497 12.379 15.9802 89.4699 156.977 155.522 14.2607 154.62 100.263 28.9361 76.6405 10.6772 14.1662 58.4326 12.5881 5.73623 56.5368 15.255 12.9012 40.3435 33.235 182.295 141.261 67.2262 53.771 22.306 10.6778 7.10855 74.1816 38.2663 5.58038
internal_count=100779 60651 40128 17597 11595 43054 6002 37576 10242 9181 8200 6029 1353 2552 5615 981 4457 2289 3140 42836 472 1196 424 2403 352 1061 429 37224 2659 763 2668 2581 133 193 746 1158 2093 159 1134 2171 502 1093 165 149 450 169 69 418 97 143 632 541 2889 1934 862 687 255 98 91 612 355 37
is_linear=0
shrinkage=0.2


Tree=14
num_leaves=63
num_cat=0
split_feature=7 13 9 9 19 13 15 6 3 15 6 3 19 9 13 13 9 9 6 19 19 9 19 9 17 9 9 15 15 9 9 3 15 17 9 9 6 6 15 15 6 6 13 15 17 3 15 6 9 6 15 9 15 6 13 17 7 6 15 13 9 13
split_gain=1314.4 194.399 191.068 476.767 124.817 93.1965 126.959 84.8627 41.5214 39.1025 32.6524 30.0113 31.38 27.6077 110.888 38.9874 33.5849 29.6257 40.1394 36.5474 25.1492 24.4365 14.486 13.9462 12.4477 11.2612 11.0411 10.6121 9.13577 9.12969 9.08898 11.3424 8.04875 7.89468 7.89366 7.78977 7.69318 7.58331 6.51075 6.88958 9.75634 7.83331 6.33557 12.8771 6.10829 5.88954 5.86639 5.84782 5.66253 5.51104 7.53518 5.44341 5.10929 5.05587 4.94978 4.7896 4.61292 4.56406 5.25681 4.5272 4.34613 5.52358
threshold=0.03500000000000001 12.500000000000002 19.500000000000004 12.500000000000002 0.03500000000000001 8.5000000000000018 4.5000000000000009 0.095000000000000015 0.91500000000000015 254.50000000000003 0.015000000000000001 0.43500000000000005 1.0000000180025095e-35 47.500000000000007 2.5000000000000004 3.5000000000000004 52.500000000000007 23.500000000000004 1.0000000180025095e-35 1.0000000180025095e-35 0.065000000000000016 17.500000000000004 1.0000000180025095e-35 24.500000000000004 0.03500000000000001 20.500000000000004 47.500000000000007 9.5000000000000018 6.5000000000000009 52.500000000000007 48.500000000000007 0.03500000000000001 236.50000000000003 1.0000000180025095e-35 52.500000000000007 58.500000000000007 0.50500000000000012 0.015000000000000001 3.5000000000000004 250.50000000000003 0.015000000000000001 0.085000000000000006 23.500000000000004 254.50000000000003 0.50500000000000012 1.0000000180025095e-35 102.50000000000001 0.075000000000000025 18.500000000000004 0.055000000000000007 254.50000000000003 18.500000000000004 6.5000000000000009 1.0000000180025095e-35 13.500000000000002 1.0000000180025095e-35 1.0000000180025095e-35 0.99500000000000011 175.50000000000003 2.5000000000000004 23.500000000000004 2.5000000000000004
decision_type=2 2 2 2 2 2 2 2 2 2 2 2 2 2 2 2 2 2 2 2 2 2 2 2 2 2 2 2 2 2 2 2 2 2 2 2 2 2 2 2 2 2 2 2 2 2 2 2 2 2 2 2 2 2 2 2 2 2 2 2 2 2
left_child=2 11 3 36 8 6 21 20 13 22 32 12 -2 15 16 17 38 18 27 -19 24 -5 -8 -9 -6 -14 44 -4 35 52 -28 -32 -3 48 54 -18 -1 59 -15 41 -41 -40 43 -12 46 -20 60 -39 -24 -47 -51 -23 -25 55 -26 -21 -17 58 -31 -11 -22 -62
right_child=1 10 4 5 7 -7 9 23 -10 37 42 -13 25 14 -16 56 28 19 45 53 26 51 33 29 34 -27 30 -29 -30 57 31 -33 -34 -35 -36 -37 -38 47 39 40 -42 -43 -44 -45 -46 49 -48 -49 -50 50 -52 -53 -54 -55 -56 -57 -58 -59 -60 -61 61 -63
leaf_value=-0.20968122203075318 -0.13785245845747321 0.26614693547416712 0.017428705216658229 0.19700555997684557 -0.20953634278104741 0.24787331310764538 -0.19861499224755991 -0.1115059650775157 0.16177442244883811 -0.32521565993661528 -0.089428109311380455 0.19320382716929618 -0.12580386908215194 -0.31443950140616495 0.20481168497901492 -0.20242944015804665 -0.20989583125610209 -0.18358574207264344 -0.17255679906206356 -0.20720507129870833 0.21804291817904994 -0.28375173810037851 -0.10917963612556181 -0.2442610719876151 0.15003147196484842 0.1536149637582922 0.25333269961830479 0.2507392484266997 -0.20214521771426475 -0.14532252927415099 -0.24381298272830018 0.16832593518991396 -0.2147087403576706 -0.17215642370220377 -0.2193840692437195 0.074268452144653649 0.077668379017903036 0.082069969641867246 0.056481313881482448 -0.21254267661395332 0.25893170676535043 -0.22793725875523971 0.20341555427437663 0.17903269451346907 -0.20051051389018057 -0.20027304576282345 -0.21259433992994456 0.35406394950224601 0.17439689538506159 -0.092992746141259089 0.25428044618129486 0.04216918457984236 0.20890571898584887 -0.19078063041063734 -0.16850230561670693 0.075441548866697711 0.1888278932285227 0.20625536721079205 0.16329929038894825 0.03000113677630328 -0.1877379272235907 0.034884564252256299
