tree
version=v3
num_class=1
num_tree_per_iteration=1
label_index=0
max_feature_idx=19
objective=binary sigmoid:1
feature_names=Column_0 Column_1 Column_2 Column_3 Column_4 Column_5 Column_6 Column_7 Column_8 Column_9 Column_10 Column_11 Column_12 Column_13 Column_14 Column_15 Column_16 Column_17 Column_18 Column_19
feature_infos=[0:1] [0:255] [0:1] [0:1] [0:1] [0:1] [0:1] [0:1] [0:1] [0:69] [0:10] [0:1] [0:1] [0:511] [0:21] [0:255] [0:1] [0:1] [0:1] [0:1]
tree_sizes=6652 6654 6666 6671 6748 6680 6690 6746 6770 6695 6713 6681 6723 6686 6744 6693 6703 6708 6722 6751 6715 6756 6689 6727 6756 6765 6750 6730 6749 6715 6731 6769 6761 6764 6729 6793 6837 6831 6916 6839 6756 6800 6804 6794 6854 6856 6837 6876 6883 6944 6834 6924 6891 6932 6905

Tree=0
num_leaves=63
num_cat=0
split_feature=10 14 2 13 14 9 13 3 14 9 9 6 9 14 3 7 9 6 0 19 2 0 13 6 14 9 9 14 19 8 13 10 9 6 18 13 8 9 14 6 1 3 9 14 2 1 7 13 9 1 19 9 18 9 9 1 1 1 13 3 13 1
split_gain=58313.4 14300.2 8151.68 5012.83 1121.77 1232.69 1400.06 1045.63 639.755 624.399 593.219 787.971 441.012 436.277 366.469 333.492 291.638 282.261 256.349 144.618 140.217 136.215 128.043 115.179 112.211 102.015 88.4417 87.0998 107.814 84.6642 91.2049 84.4642 73.3552 61.6039 61.3949 57.5464 57.1251 68.3223 66.7743 142.38 56.7625 95.2676 54.446 100.428 42.2987 37.2617 37.0595 79.9095 34.2864 66.3289 101.192 33.3286 33.301 29.5464 30.7158 27.6395 43.4566 33.4801 26.5543 37.6507 25.7793 18.3972
threshold=5.5000000000000009 17.500000000000004 0.59500000000000008 326.50000000000006 19.500000000000004 13.500000000000002 23.500000000000004 0.045000000000000005 16.500000000000004 17.500000000000004 17.500000000000004 0.18500000000000003 1.5000000000000002 15.500000000000002 0.49500000000000005 0.24500000000000002 53.500000000000007 0.12500000000000003 0.19500000000000003 0.015000000000000001 0.22500000000000003 0.085000000000000006 177.50000000000003 0.14500000000000005 18.500000000000004 48.500000000000007 43.500000000000007 14.500000000000002 0.055000000000000007 0.48500000000000004 5.5000000000000009 8.5000000000000018 53.500000000000007 0.67500000000000016 1.0000000180025095e-35 25.500000000000004 0.24500000000000002 20.500000000000004 11.500000000000002 0.045000000000000005 93.500000000000014 0.075000000000000025 52.500000000000007 11.500000000000002 0.045000000000000005 133.50000000000003 0.015000000000000001 48.500000000000007 14.500000000000002 45.500000000000007 1.0000000180025095e-35 17.500000000000004 1.0000000180025095e-35 53.500000000000007 23.500000000000004 150.50000000000003 33.500000000000007 215.50000000000003 11.500000000000002 0.9900000000000001 2.5000000000000004 1.5000000000000002
decision_type=2 2 2 2 2 2 2 2 2 2 2 2 2 2 2 2 2 2 2 2 2 2 2 2 2 2 2 2 2 2 2 2 2 2 2 2 2 2 2 2 2 2 2 2 2 2 2 2 2 2 2 2 2 2 2 2 2 2 2 2 2 2
left_child=2 7 12 4 5 -3 10 8 21 29 15 -12 -1 52 -15 24 -8 34 19 35 25 23 -20 -2 -7 58 -19 28 45 30 55 -23 -27 -9 46 -6 37 38 -33 44 -29 -42 61 -44 -40 53 -11 -48 -46 -50 -51 -41 -4 54 -14 56 -10 -57 59 -13 -26 -39
right_child=1 3 13 -5 18 6 16 33 9 17 11 20 27 14 -16 -17 -18 26 22 -21 -22 31 -24 -25 60 32 -28 40 -30 -31 -32 36 -34 -35 -36 -37 -38 42 39 51 41 -43 43 -45 48 -47 47 -49 49 50 -52 -53 -54 -55 -56 57 -58 -59 -60 -61 -62 -63
leaf_value=-0.47345789962521556 -0.44121695769584046 -0.51145681009087918 -0.18610778162713182 0.29001780582891956 -0.43903518980790246 0.25396019897279221 0.2763698690318136 -0.486227582795145 0.06788494290517097 -0.4821991931549503 -0.50137701289894443 -0.45356359821609182 -0.36912608705935623 -0.51167170398994755 0.2911752501863164 -0.51266985602580695 -0.51266985602580695 -0.51266985602580695 -0.51118160284111613 0.2911752501863164 -0.51266985602580695 -0.3786956716571197 0.2911752501863164 0.26565635792561415 -0.46242953688754918 0.28608762293180934 0.19684648772264887 0.28973736155011298 0.2525626031630267 0.28967273596909748 0.27810459805278598 0.24453577303407723 -0.34215725773838679 0.18632588850647427 0.25289691179526297 0.2911752501863164 0.28683990579326224 0.065093814064156735 -0.31779831512589829 0.14045429277154306 -0.51266985602580684 0.2911752501863164 0.2911752501863164 -0.49397578378831575 0.25289691179526297 0.2911752501863164 -0.49805449045831374 0.2911752501863164 0.18109455092796831 -0.42027386680602263 0.26345645342038115 -0.49282182871192737 0.26787539203524036 -0.51266985602580684 0.25622546295970239 0.2911752501863164 -0.46921876920353001 -0.41218921774929151 0.1189227274265757 0.2911752501863164 0.21809842234885071 0.28445067722572603
leaf_weight=30.602910697460175 22.39237368106842 989.24530839920044 7.9617328643798819 345.58896714448929 32.593343913555145 107.48339366912842 229.64623230695724 113.45469331741333 8.9569494724273699 137.83750021457672 584.44095307588577 16.918682336807258 6.966516256332401 601.11083126068115 23.636394441127777 35.578993737697601 20.40194046497345 8.2105370163917524 10616.47316634655 23.387590289115906 15.923465728759764 8.9569494724273664 7.9617328643798819 15.674661576747893 11.942599296569822 78.622112035751343 48.765613794326782 9180.1267967820168 56.976150810718536 133.11022132635117 30.602910697460175 145.7992330789566 8.2105370163917524 5.7224954962730399 5.2248871922492972 4.9760830402374259 553.58923822641373 15.923465728759764 8.2105370163917524 3.9808664321899441 9.4545577764511126 15.674661576747893 16.669878184795383 10.698578536510466 73.148420691490173 4.9760830402374259 13.684228360652925 8.2105370163917524 78.1245037317276 21.645961225032806 14.430640816688536 20.153136312961578 34.334972977638245 13.435424208641052 5.7224954962730408 8.4593411684036237 18.411507248878479 3.9808664321899405 6.9665162563323966 3.2344539761543265 2.7368456721305838 386.64165222644806
leaf_count=123 90 3976 32 1389 131 432 923 456 36 554 2349 68 28 2416 95 143 82 33 42670 94 64 36 32 63 48 316 196 36897 229 535 123 586 33 23 21 20 2225 64 33 16 38 63 67 43 294 20 55 33 314 87 58 81 138 54 23 34 74 16 28 13 11 1554
internal_value=-0.138545 -0.38678 0.236206 -0.461613 -0.481912 -0.348699 -0.205212 0.119997 0.157549 -0.0571576 -0.324838 -0.402355 0.284526 -0.439211 -0.481297 0.0261853 0.211991 -0.289179 -0.508234 -0.0992638 0.043246 0.222982 -0.51058 -0.150151 0.183123 0.120929 0.0946018 0.287022 0.0890786 0.195854 0.0184928 0.233442 0.226683 -0.453934 -0.421737 -0.342319 0.237507 0.203172 0.139599 0.0699585 0.288916 -0.0112615 0.257217 -0.0157474 0.12652 -0.210424 -0.443805 -0.202093 0.145992 0.0775171 -0.146782 -0.388364 0.18242 -0.305967 -0.0871048 -0.181084 -0.293439 0.0660986 -0.217681 -0.334038 -0.335551 0.275774
internal_weight=0 15083 9990.98 13142.3 12796.7 2111.35 1122.11 1940.67 1821.5 425.455 872.059 714.317 9323.94 667.044 624.747 157.742 250.048 221.933 10685.4 60.957 129.876 1396.04 10624.4 38.067 122.163 113.952 56.9762 9293.33 88.0767 203.522 70.4116 1357.97 86.8326 119.177 164.957 37.5694 1349.02 795.427 365.493 219.694 9205.26 25.1292 429.934 27.3685 195.56 31.1005 159.732 21.8948 187.35 114.201 36.0766 24.134 42.2967 26.1244 12.689 39.8087 27.3685 12.4402 27.1197 20.1531 14.6794 402.565
internal_count=100778 60622 40156 52822 51433 8486 4510 7800 7321 1710 3505 2871 37475 2681 2511 634 1005 892 42947 245 522 5611 42702 153 491 458 229 37352 354 818 283 5458 349 479 663 151 5422 3197 1469 883 36998 101 1728 110 786 125 642 88 753 459 145 97 170 105 51 160 110 50 109 81 59 1618
is_linear=0
shrinkage=1


Tree=1
num_leaves=63
num_cat=0
split_feature=10 14 2 14 9 9 6 4 5 7 14 9 14 9 6 11 4 0 19 11 18 11 6 1 19 9 14 19 10 9 7 1 5 16 6 2 4 19 7 0 9 9 1 2 1 1 9 9 14 9 1 1 6 9 14 1 9 0 5 9 6 0
split_gain=38764.8 9741.85 5314.02 1956.41 1712.25 1692.13 798.88 768.418 401.923 333.663 313.03 303.77 298.082 287.14 228.067 217.303 212.188 177.095 95.0116 83.5857 65.7226 59.5333 133.218 85.0116 57.697 54.62 52.9236 53.1134 49.7955 47.2974 43.9463 42.6124 39.6449 34.6433 33.286 33.1931 97.7948 34.0302 31.9918 31.1175 30.7312 472.178 37.9004 30.0146 29.4421 28.7996 27.2633 46.9987 58.0346 46.2625 25.6881 25.2525 25.1805 24.2772 58.8223 24.0313 22.6454 21.0978 20.0969 19.7435 23.4818 19.2723
threshold=5.5000000000000009 17.500000000000004 0.59500000000000008 19.500000000000004 13.500000000000002 17.500000000000004 0.15500000000000003 0.22500000000000003 0.03500000000000001 0.24500000000000002 16.500000000000004 17.500000000000004 14.500000000000002 1.5000000000000002 0.12500000000000003 1.0000000180025095e-35 0.59500000000000008 0.19500000000000003 0.015000000000000001 1.0000000180025095e-35 0.15500000000000005 1.0000000180025095e-35 0.03500000000000001 83.500000000000014 0.46500000000000002 48.500000000000007 10.500000000000002 0.075000000000000025 9.5000000000000018 11.500000000000002 0.015000000000000001 120.50000000000001 1.0000000180025095e-35 0.46500000000000002 0.17500000000000002 0.31500000000000006 0.32500000000000007 0.99500000000000011 0.19500000000000003 0.13500000000000004 17.500000000000004 14.500000000000002 76.500000000000014 0.66500000000000015 89.500000000000014 136.50000000000003 14.500000000000002 20.500000000000004 15.500000000000002 17.500000000000004 4.5000000000000009 232.50000000000003 0.38500000000000006 52.500000000000007 10.500000000000002 129.50000000000003 48.500000000000007 0.065000000000000016 0.99500000000000011 48.500000000000007 0.27500000000000008 0.49500000000000005
decision_type=2 2 2 2 2 2 2 2 2 2 2 2 2 2 2 2 2 2 2 2 2 2 2 2 2 2 2 2 2 2 2 2 2 2 2 2 2 2 2 2 2 2 2 2 2 2 2 2 2 2 2 2 2 2 2 2 2 2 2 2 2 2
left_child=2 7 13 4 -3 9 21 8 10 -6 29 44 -4 -1 30 25 -14 18 34 26 -10 22 32 24 57 39 27 -15 43 52 33 -18 -7 -13 -5 -28 37 -37 -32 -8 41 -19 -43 -9 50 55 -31 48 -48 51 -12 -50 -2 -49 -55 -46 -36 -24 -41 60 -16 -42
right_child=1 3 12 17 5 6 15 28 20 -11 11 14 16 19 59 -17 31 40 -20 -21 -22 -23 23 -25 -26 -27 35 -29 -30 46 38 -33 -34 -35 56 36 -38 -39 -40 58 61 42 -44 -45 45 -47 47 53 49 -51 -52 -53 -54 54 -56 -57 -58 -59 -60 -61 -62 -63
leaf_value=-0.28331646146035533 -0.34467154371263337 -0.31871443748850808 0.28436238822170351 -0.29610769004905385 0.33052596791906819 -0.29665601405363801 0.35202303582753092 -0.31072852011291768 -0.29720450921300329 -0.31977890995171737 -0.27716732244665238 -0.28882981100899546 -0.3174538621593424 -0.29128471860063149 0.25330586875009453 -0.32883631175862416 0.35499297364306925 -0.31995729702096493 0.34947694208926694 -0.20717412773102112 0.31807800665169705 -0.32043961384309527 0.25191611948068909 0.3336171461301386 0.49499628690018471 0.33680277546029813 0.34848986995093245 0.32284849897553303 0.36518414608058608 0.34670917601731688 0.30292557808543974 -0.31989851265898656 0.17296614444273875 0.35530959535289774 -0.20305559022125502 -0.35591399499724174 0.34963834864509014 0.35050543267499179 -0.29215006861697562 -0.20031967011932983 -0.22889873429952201 -0.18060883567107125 0.30348218780940772 0.042440224415946873 0.11967494730808703 0.28981995054354848 0.2585429762908571 0.33969781530815873 0.333042849375147 -0.2552377620326699 0.34205462924624891 -0.233038191759254 0.35606928348231848 0.35640043355420953 -0.26568637777137161 -0.30106147939285965 0.37972520111502467 -0.29216212876812164 0.34947694208926694 0.34961346635697965 -0.41615487413994884 -0.31971436809401094
leaf_weight=29.089145645499229 6.71028885245323 932.21752151846886 38.367915391921997 25.295175775885582 544.87848511338234 179.79227428138256 8.340997129678728 115.3937726020813 61.247524410486221 33.500148519873619 2.7374656349420539 109.74013358354568 564.91617566347122 10.390343546867372 6.1513838320970518 26.789448574185371 23.467055082321171 832.19154536724091 23.008853942155838 10.911333262920378 7.8322833478450766 358.8318040817976 3.167998522520068 26.214553013443947 4.9748595207929602 137.58334404230118 9045.3923876881599 12.302763015031813 4.9537854790687552 566.39308385550976 10.013147518038748 4.4521824866533271 7.4898948818445197 3.4446288645267478 4.7665941715240461 13.322019889950754 48.228093981742859 3.4300202429294577 5.6543734371662131 16.190690368413929 94.444717764854431 7.317287251353263 55.814651384949684 10.501610711216925 25.864552557468414 36.429101645946503 253.72377307713032 433.41523726284504 14.00458884239197 16.822117432951927 127.18004183471203 4.0677199810743323 2.9542768597602844 17.84608015418053 9.2216558158397657 6.873246654868125 6.0549227148294449 28.477657616138458 3.1820755451917639 38.36522863805294 3.178738072514534 9056.1469691991806
leaf_count=123 28 3978 156 106 2224 764 34 488 258 143 11 465 2410 44 25 113 96 3551 94 45 32 1527 13 107 21 562 36946 50 20 2311 41 19 31 14 20 56 197 14 24 68 403 31 230 44 107 149 1031 1768 57 70 519 17 12 73 39 29 25 121 13 155 13 38643
internal_value=0 -0.210768 0.305426 -0.275315 -0.109331 0.0321725 -0.156054 0.210892 0.245469 0.29286 0.264677 0.103519 -0.255889 0.34405 -0.0874702 0.199567 -0.290854 -0.313286 0.0318355 0.346046 -0.227444 -0.268231 -0.193329 0.0586637 -0.13816 0.285204 0.346707 0.0416594 -0.256795 0.310359 -0.22577 0.24737 -0.277875 -0.269226 -0.170524 0.347467 0.205034 -0.211273 0.0881641 0.0290459 -0.315317 -0.279953 0.247374 -0.281269 0.272888 0.167478 0.313597 0.288561 0.225284 -0.0165484 0.329007 0.205629 -0.130468 0.328222 0.144463 0.031342 0.123026 -0.237695 -0.110013 0.286157 0.0252231 -0.318777
internal_weight=0 14317.4 9804.27 12416.7 2311.63 1379.41 801.036 1900.72 1769.87 578.379 1700.79 375.632 631.203 9173.07 176.548 192.087 592.835 10105 59.1255 9143.98 69.0798 608.949 250.117 62.8351 36.6205 165.297 9133.07 22.6931 130.849 1325.16 128.852 27.9192 187.282 113.185 36.1167 9110.37 64.9801 16.752 15.6675 27.7138 10045.9 895.323 63.1319 125.895 199.084 69.1669 1315.49 749.101 288.618 34.8944 129.918 18.0723 9.66457 460.483 27.0677 32.7378 10.8215 31.6457 19.3728 47.6954 9.33012 9150.59
internal_count=100778 60622 40156 52822 9719 5741 3374 7800 7248 2367 6958 1552 2681 37475 737 790 2525 43103 245 37352 290 2584 1057 262 155 677 37307 94 552 5406 544 115 795 479 151 37213 267 70 65 115 42858 3812 261 532 815 285 5366 3055 1175 144 530 74 40 1880 112 136 45 134 81 193 38 39046
is_linear=0
shrinkage=0.2


Tree=2
num_leaves=63
num_cat=0
split_feature=10 14 1 13 14 9 11 4 15 13 5 15 13 4 14 3 19 14 9 0 9 9 15 3 14 15 15 11 13 9 15 19 11 14 13 9 12 9 5 9 10 9 9 1 13 9 11 18 9 9 14 9 15 1 1 13 1 1 14 11 14 19
split_gain=27599.2 7025.57 3339.11 2490.77 590.393 625.88 748.279 536.606 325.594 301.864 279.883 263.643 263.505 242.157 176.12 174.149 171.114 139.863 133.971 133.454 101.113 91.4391 90.828 86.3274 70.4355 123.935 163.791 97.1701 65.0438 61.7681 53.9849 48.6834 40.8395 38.0639 35.4417 47.9072 35.3847 34.3141 32.6417 28.4792 42.0639 26.6486 26.3878 25.092 24.1037 23.3584 20.7927 19.0223 18.7556 38.7077 38.6335 30.6351 20.8192 53.8581 26.3525 18.5102 17.2342 16.984 16.1723 20.0728 16.0235 35.9216
threshold=5.5000000000000009 17.500000000000004 76.500000000000014 326.50000000000006 19.500000000000004 13.500000000000002 1.0000000180025095e-35 0.22500000000000003 28.500000000000004 29.500000000000004 0.03500000000000001 4.5000000000000009 159.50000000000003 0.015000000000000001 18.500000000000004 0.03500000000000001 0.065000000000000016 15.500000000000002 1.5000000000000002 0.19500000000000003 42.500000000000007 64.500000000000014 254.50000000000003 0.065000000000000016 16.500000000000004 4.5000000000000009 254.50000000000003 1.0000000180025095e-35 177.50000000000003 24.500000000000004 203.50000000000003 0.025000000000000005 1.0000000180025095e-35 8.5000000000000018 9.5000000000000018 64.500000000000014 0.95500000000000007 14.500000000000002 0.47000000000000003 35.500000000000007 1.5000000000000002 11.500000000000002 17.500000000000004 254.50000000000003 8.5000000000000018 17.500000000000004 1.0000000180025095e-35 0.095000000000000015 14.500000000000002 20.500000000000004 15.500000000000002 17.500000000000004 9.5000000000000018 51.500000000000007 150.50000000000003 2.5000000000000004 232.50000000000003 2.5000000000000004 13.500000000000002 1.0000000180025095e-35 14.500000000000002 0.055000000000000007
decision_type=2 2 2 2 2 2 2 2 2 2 2 2 2 2 2 2 2 2 2 2 2 2 2 2 2 2 2 2 2 2 2 2 2 2 2 2 2 2 2 2 2 2 2 2 2 2 2 2 2 2 2 2 2 2 2 2 2 2 2 2 2 2
left_child=2 7 8 4 5 57 9 10 14 11 12 37 23 16 39 17 34 47 -10 22 -14 -11 -6 24 41 42 -27 -28 -21 45 46 -12 33 -20 -13 -36 -33 -7 -16 40 -1 -2 -26 -29 -24 -15 -9 -4 -43 50 52 56 53 -50 -55 -34 -52 -3 -54 -60 61 -35
right_child=1 3 15 -5 19 6 -8 30 18 21 31 13 20 29 38 -17 -18 -19 32 28 -22 -23 44 -25 25 26 27 43 -30 -31 -32 36 55 60 35 -37 -38 -39 -40 -41 -42 48 -44 -45 -46 -47 -48 -49 49 -51 51 -53 58 54 -56 -57 -58 -59 59 -61 -62 -63
leaf_value=-0.35718569147282653 -0.10226568896727997 0.28036742622487981 -0.18693263350193826 0.30702419790157492 -0.2979819062413091 0.31147843571695122 -0.28729807582113237 0.26708606050049888 -0.23028647312113157 0.30689745380196709 -0.29735773634229362 -0.28423111678579138 0.27683150149573449 0.27109118804679327 -0.28867010034403606 0.27988060881432197 0.29499065381213935 -0.2872933409756035 -0.08563100050715533 -0.28556540083747445 -0.26775810772303132 -0.28903163023155093 -0.26186639397080264 -0.28034993076124404 0.30447492469726767 -0.30911083897689606 0.27823949472252257 -0.29916461468624816 0.31035031979681171 0.28667225101634658 -0.28072344111822323 0.34938519672297574 -0.35294744698702546 -0.075769138176657647 0.10830531428711598 -0.289786356856781 -0.27405239080874533 -0.28171540455096539 0.3116070879882531 0.25960259009781977 0.17380628470317772 0.3021516438977318 -0.29250736828903401 0.3088652447541399 0.28828380069290788 -0.27412651463443632 -0.17813767668136868 0.32551606309975983 0.22234987049172561 0.29020818445550589 0.28210259158410689 -0.21291035981206341 0.31779404341390605 -0.24574556826133384 0.31697221440947765 0.28808468628962175 -0.19954120198960823 -0.28719492796532942 -0.21315723931702593 0.28188894250597796 0.30437022661538859 0.28813518540192817
leaf_weight=8.397295609116556 7.5924143791198722 2.1143051981925955 3.4715294837951687 316.28178338706493 21.127878427505493 87.09718219935894 348.60001829266548 10.971523180603983 18.904863476753235 195.92812316119671 48.422302573919296 188.48467192053795 17.918395146727562 4.1625054031610498 58.40412725508213 24.798790633678436 26.051229402422905 451.75141111016273 10.060256913304327 9024.0146156400442 57.078005522489548 10.870604887604712 3.5597211867570868 12.342704653739927 136.59448289871216 41.290964409708977 72.953287988901138 18.055721238255504 7.3324508666992179 66.407804876565933 102.87789206206799 9.5137820392847043 5.517015412449835 14.3286936879158 23.993374720215797 24.377226829528809 5.8998500555753699 4.0835484117269507 3.863191306591033 63.012446850538254 20.623648107051849 524.23770163953304 3.0273368954658499 3.1952821612358084 30.304416060447693 12.834628239274025 6.7940172404050818 17.522838532924652 115.47261102497578 420.06263744831085 13.296981170773508 15.610812723636625 92.25256784260273 16.208350628614429 4.189307138323783 2.6756809800863266 3.8269193023443213 838.53344160318375 5.4452221989631626 8.2250179648399353 8300.8877299427986 44.695767894387245
leaf_count=36 34 10 15 1389 96 379 1640 46 87 854 222 867 78 18 275 110 112 2136 45 42670 263 51 16 55 596 183 316 83 32 292 477 41 23 61 106 114 27 18 17 277 89 2311 14 14 133 59 29 75 488 1847 57 68 392 67 18 11 17 3966 22 35 36704 195
internal_value=0 -0.187886 0.266932 -0.246274 -0.2623 -0.158776 -0.0512566 0.182071 0.296237 0.0764559 0.211796 -0.0176644 0.228293 -0.0973301 0.0083447 -0.236742 -0.191528 -0.263842 0.301527 -0.28319 -0.137643 0.275572 0.027429 0.246421 0.250751 0.159293 0.0230287 0.16861 -0.285082 0.199597 -0.225128 -0.198817 0.302727 0.303164 -0.245039 -0.0923201 0.110753 0.284912 -0.251428 0.1841 0.0201622 0.271267 0.291531 -0.207742 0.230453 -0.140606 0.0968206 0.24078 0.273594 0.25204 0.193638 -0.010271 0.221244 0.169427 -0.130174 -0.143591 0.174463 -0.285767 0.287711 0.0846988 0.303632 0.199794
internal_weight=0 13009.5 9048.92 11236.2 10919.9 1833.54 992.891 1773.36 8551.37 644.291 1652.71 437.492 1588.88 346.311 154.301 497.545 262.907 472.746 8397.07 9086.34 74.9964 206.799 54.992 1513.88 1501.54 275.117 135.495 94.2043 9031.35 83.4049 120.643 63.8359 8378.17 8369.97 236.855 48.3706 15.4136 91.1807 62.2673 92.0334 29.0209 1226.42 139.622 21.251 33.8641 16.9971 17.7655 20.9944 1218.83 694.59 274.528 32.7347 241.793 135.87 20.3977 8.1927 17.1239 840.648 105.923 13.6702 8359.91 59.0245
internal_count=100778 60622 40156 52822 51433 8486 4510 7800 37820 2870 7248 1965 6958 1568 694 2336 1199 2226 37126 42947 341 905 245 6617 6562 1206 596 413 42702 369 552 290 37039 37005 1087 220 68 397 292 402 125 5356 610 97 149 77 75 90 5322 3011 1164 142 1022 573 85 34 74 3976 449 57 36960 256
is_linear=0
shrinkage=0.2


Tree=3
num_leaves=63
num_cat=0
split_feature=0 14 9 13 9 9 14 9 4 13 6 12 4 13 4 17 6 19 9 14 14 7 15 6 12 4 1 7 17 5 9 14 6 14 19 15 15 15 13 1 9 1 9 15 13 4 6 6 15 12 14 15 16 14 19 14 1 5 14 16 15 4
split_gain=19760.3 6805.45 2418.28 994.25 613.028 330.508 593.022 720.646 385.745 285.788 257.464 238.594 229.463 190.837 123.854 107.748 95.4863 93.8022 66.2332 62.7034 55.816 51.0295 46.3393 42.9887 35.9444 32.0043 31.4968 30.072 113.04 29.2325 28.2456 26.9604 39.2101 23.5908 65.6927 23.2368 21.2991 19.3144 232.659 58.7024 18.1273 17.8738 47.4193 16.2994 89.6935 49.4205 16.2631 16.0191 15.4574 14.6452 14.5399 18.8323 14.241 14.2009 14.1912 12.1551 15.0245 11.8767 10.7539 8.87171 20.9835 9.84432
threshold=0.49500000000000005 19.500000000000004 12.500000000000002 10.500000000000002 52.500000000000007 17.500000000000004 16.500000000000004 47.500000000000007 0.96500000000000008 177.50000000000003 0.015000000000000001 0.95500000000000007 0.025000000000000005 2.5000000000000004 0.24500000000000002 0.66500000000000015 0.075000000000000025 1.0000000180025095e-35 20.500000000000004 3.5000000000000004 15.500000000000002 0.99500000000000011 12.500000000000002 0.6150000000000001 0.45500000000000007 0.97500000000000009 124.50000000000001 0.99500000000000011 0.99500000000000011 0.24500000000000002 1.5000000000000002 11.500000000000002 0.025000000000000005 16.500000000000004 0.025000000000000005 1.5000000000000002 4.5000000000000009 4.5000000000000009 2.5000000000000004 31.500000000000004 31.500000000000004 46.500000000000007 19.500000000000004 199.50000000000003 25.500000000000004 0.90500000000000014 1.0000000180025095e-35 0.91500000000000015 109.50000000000001 0.31000000000000005 18.500000000000004 46.500000000000007 0.93500000000000016 18.500000000000004 0.03500000000000001 11.500000000000002 120.50000000000001 0.66500000000000015 15.500000000000002 0.025000000000000005 254.50000000000003 0.32500000000000007
decision_type=2 2 2 2 2 2 2 2 2 2 2 2 2 2 2 2 2 2 2 2 2 2 2 2 2 2 2 2 2 2 2 2 2 2 2 2 2 2 2 2 2 2 2 2 2 2 2 2 2 2 2 2 2 2 2 2 2 2 2 2 2 2
left_child=3 2 16 12 5 21 14 8 23 11 46 27 17 15 18 19 -2 -1 20 -6 31 37 -9 59 -16 47 -10 -3 -29 35 -18 36 41 34 -12 -20 -7 -4 39 -39 -25 -33 -43 44 45 52 -5 -21 -19 -27 -24 -52 -35 -23 -17 -26 -57 -15 -41 -8 61 -61
right_child=1 9 4 10 13 6 7 22 26 -11 33 -13 -14 57 24 54 30 48 29 25 -22 53 50 40 55 49 -28 28 -30 -31 -32 32 -34 43 -36 -37 -38 38 -40 58 -42 42 -44 -45 -46 -47 -48 -49 -50 -51 51 -53 -54 -55 -56 56 -58 -59 -60 60 -62 -63
leaf_value=-0.2515035826037601 -0.26688048379086232 -0.26483028203754583 0.27738677059477923 0.31079851255428936 0.25890812033422239 0.066734447929024318 -0.26673099961276497 -0.28953887884786939 0.27105720942740774 0.28277218562138873 -0.18537211581909885 0.29058604007564409 0.25994845344074968 -0.19627939039608713 -0.25367712105453033 -0.28994288070881269 -0.24823875315080579 -0.29072260568806529 -0.29077783644025379 -0.26207374607874961 -0.21007853647125199 0.28887937937828656 0.28508875444254217 -0.27344030578168432 -0.30449566234825043 -0.27706297172180844 -0.27071857509037306 -0.26566450172526862 0.24919626934554684 -0.18709810508646949 0.2710904431011194 0.19010789027296693 -0.26391475534500231 -0.2771767984748123 0.27208598007050994 0.27376776497541688 0.27656079644262571 0.14450692334522872 0.27811590717419049 0.083037322725173335 0.27820241614149988 0.28849722905800396 -0.32624078456541911 0.27819487351123334 0.27767772581794542 0.2787318719074221 -0.2779738306870419 0.10640260250257437 0.2759373548091692 0.23671953697651382 -0.28217780228165579 0.20342893610275337 0.27792289338467363 -0.26547295884061833 0.25375744167687392 0.31751402365035897 -0.28329603793699804 0.279191806378629 -0.31855642119014332 -0.31559341947371644 0.089694573494970467 0.13528634582600849
leaf_weight=197.1425528973341 754.43662002682686 8174.2016214430332 684.34453625977039 1.97996425628662 10.547357589006422 24.389245226979256 356.41651901602745 6.0709470808506003 73.638246774673462 38.783116370439529 16.784923106431961 31.204450145363808 51.328187748789787 2.2056304961442939 27.249155655503273 2.0892485529184368 5.5078398734331158 2.1713355332613018 2.9296703189611426 231.62126405537128 16.69952580332756 2.2857283800840351 217.51004673540592 3.2831924110651007 2.096773386001586 3.0752283036708814 4.5579421222209922 79.440293371677399 21.72150656580925 5.6157348603010169 17.49689893424511 61.980538815259933 11.07651276886463 22.072639435529712 49.846157521009445 640.69897736608982 93.672014147043228 18.290972471237183 403.49177394807339 2.8777499049901953 8.687878414988516 9.7808219939470291 10.309918686747551 6736.5058912485838 191.17235636711121 11.140352025628088 35.943253889679909 4.8174567669630042 17.010122373700142 7.9724390357732773 3.9806087464094189 16.174085199832916 2.0176528394222251 9.6617279052734375 23.73982498049736 9.9959038347005826 1.9976080507040013 44.466171145439148 36.451981842517853 18.367609009146694 9.6364779621362704 2.1653219759464255
leaf_count=1014 4051 43963 3352 9 52 108 1882 31 364 188 83 155 254 11 140 10 27 11 13 1201 78 11 1056 17 9 16 24 427 108 27 83 277 50 113 241 3137 436 83 1969 13 43 46 43 33367 946 55 184 22 82 37 20 78 10 52 114 44 10 219 163 90 49 10
internal_value=0 -0.156914 0.0610286 0.258154 0.139513 0.169958 0.112178 -0.0236538 -0.166672 -0.258879 0.272484 -0.261408 -0.120219 -0.118061 0.218729 -0.179681 -0.254641 -0.210423 0.234672 -0.218666 0.141914 0.25178 0.256093 -0.246358 -0.119572 -0.239019 0.239478 -0.263489 -0.155113 0.267234 0.146752 0.169744 0.0892985 0.275288 0.156848 0.271198 0.233215 0.256069 0.22443 -0.151506 0.126909 0.136969 -0.0269664 0.276421 0.223638 -0.0696014 -0.247234 -0.254566 0.211792 0.0937031 0.27003 0.10752 -0.230685 -0.159417 0.209779 0.139775 0.217445 0.256722 -0.289172 -0.257916 -0.153779 -0.268045
internal_weight=0 12249.7 3904.36 7335.12 3126.92 2796.39 1638.98 720.489 476.753 8345.35 7067.46 8306.57 267.652 330.535 918.492 283.863 777.441 216.324 877.153 258.034 227.909 1157.4 243.736 398.557 41.3394 247.486 78.1962 8275.36 101.162 649.244 23.0047 211.209 93.1478 7029.54 66.6311 643.629 118.061 1145.46 461.112 57.6207 11.9711 82.0713 20.0907 6962.91 226.403 35.2306 37.9232 236.439 19.1815 11.0477 237.665 20.1547 24.0903 11.9475 25.8291 14.0903 11.9935 46.6718 39.3297 386.586 30.1694 20.5329
internal_count=100778 64409 19568 36369 15407 13725 8082 3664 2479 44841 35008 44653 1361 1682 4418 1452 4161 1107 4215 1328 1038 5643 1185 2091 203 1276 388 44498 535 3177 110 960 416 34815 324 3150 544 5580 2228 259 60 366 89 34491 1124 178 193 1223 93 53 1154 98 123 63 124 63 54 230 176 2031 149 100
is_linear=0
shrinkage=0.2


Tree=4
num_leaves=63
num_cat=0
split_feature=10 6 11 15 13 19 10 19 8 13 6 15 16 11 1 6 10 1 13 7 6 13 1 8 1 13 1 6 1 1 4 15 13 1 4 13 17 1 1 6 15 18 13 17 15 1 8 6 1 0 15 0 1 17 19 6 6 1 13 6 5 8
split_gain=15494.4 2015.96 1975.49 1455.65 801.051 730.563 210.046 185.986 141.82 225.487 237.034 134.199 103.32 97.6346 95.8077 161.527 87.599 69.7781 67.4923 70.8672 59.3551 56.7575 69.169 49.4966 49.1838 46.7767 41.8738 39.971 178.217 38.7547 38.1119 37.4027 36.1882 134.019 37.4726 31.0919 27.5064 27.3261 53.094 25.0967 23.2291 22.46 21.7778 24.0173 19.4699 19.4322 18.5776 17.5008 15.6164 24.8907 16.6571 14.3787 16.0823 14.1521 15.0856 54.4282 13.8602 15.0457 17.4711 24.9248 13.3803 13.1955
threshold=5.5000000000000009 0.015000000000000001 1.0000000180025095e-35 4.5000000000000009 326.50000000000006 0.14500000000000005 9.5000000000000018 1.0000000180025095e-35 1.0000000180025095e-35 8.5000000000000018 0.015000000000000001 254.50000000000003 0.13000000000000003 1.0000000180025095e-35 49.500000000000007 1.0000000180025095e-35 1.5000000000000002 89.500000000000014 103.50000000000001 0.03500000000000001 0.44500000000000006 2.5000000000000004 8.5000000000000018 0.025000000000000005 3.5000000000000004 3.5000000000000004 254.50000000000003 1.0000000180025095e-35 244.50000000000003 254.50000000000003 0.16500000000000004 100.50000000000001 1.5000000000000002 2.5000000000000004 0.97500000000000009 240.50000000000003 0.50500000000000012 100.50000000000001 254.50000000000003 0.99500000000000011 244.50000000000003 0.64500000000000013 7.5000000000000009 0.015000000000000001 254.50000000000003 96.500000000000014 0.095000000000000015 0.44500000000000006 49.500000000000007 0.99500000000000011 76.500000000000014 0.9850000000000001 99.500000000000014 1.0000000180025095e-35 0.015000000000000001 0.03500000000000001 0.32500000000000007 8.5000000000000018 2.5000000000000004 0.015000000000000001 0.015000000000000001 0.48500000000000004
decision_type=2 2 2 2 2 2 2 2 2 2 2 2 2 2 2 2 2 2 2 2 2 2 2 2 2 2 2 2 2 2 2 2 2 2 2 2 2 2 2 2 2 2 2 2 2 2 2 2 2 2 2 2 2 2 2 2 2 2 2 2 2 2
left_child=1 16 3 24 5 6 8 14 9 56 18 48 23 17 15 21 -1 32 19 37 51 22 -4 27 -2 45 -20 28 36 -6 -19 39 33 -3 47 -28 -9 44 -39 -7 -30 53 43 -42 -11 -18 -24 -35 49 -12 -51 -13 -53 54 55 -29 57 58 -5 -60 -40 -26
right_child=2 13 7 4 29 31 -8 12 -10 10 11 20 -14 -15 -16 -17 25 30 26 -21 -22 -23 46 -25 61 -27 35 41 40 -31 -32 -33 -34 34 -36 -37 -38 38 60 -41 42 -43 -44 -45 -46 -47 -48 -49 -50 50 -52 52 -54 -55 -56 -57 -58 -59 59 -61 -62 -63
leaf_value=-0.24608234140041249 -0.010957081039009612 0.24039539860601705 -0.16015129985529564 -0.18403306191095933 0.25936944380134402 -0.2504552402250555 0.27799133746148486 0.21734964114649849 -0.24827130635934258 -0.25476737222176155 -0.24346434244625759 0.29830033567782926 0.19336134142476116 -0.19795735902999217 -0.24743899373526848 -0.23376741929321676 0.031239276570526289 -0.21768294403990729 -0.21883868073416687 -0.25421237436087457 -0.3132992395781401 -0.21616566768858494 0.16418059999210588 -0.24447391621007505 0.17943933848615104 0.19786009524816928 -0.13383320892696074 0.16577655542592629 -0.25026921688967374 0.076713064868576514 0.26997962855177193 0.26258410809538224 0.25828847573161245 -0.31095476142131245 0.26333277613385486 0.092005449819458643 -0.23457742630173772 -0.25023892149139332 0.18846061149190727 0.24913088749539189 -0.25027419550270741 0.28537265016139102 -0.22382351522467939 0.17514818634731444 0.2646433513079694 -0.1891151757513401 -0.14846793605363845 0.29122730114394924 -0.17357816916614591 -0.25024941678805201 0.17929472295031268 0.22664067612661062 -0.021566604570862732 -0.24498268480402166 -0.19761676853986004 -0.24545005668825381 -0.24995531191000908 -0.21082372032269392 -0.23426539740514041 0.074484893889552012 -0.25025077409643565 0.25915170466578558
leaf_weight=327.70228150486946 31.367936283349991 219.44335031509399 44.272572129964828 103.73399865627289 220.10896328091621 10.023780390620233 42.042129024863243 75.274957180023193 706.40458953380585 3.1624229401350012 11.703652113676069 84.917635917663574 38.689565435051918 19.179662510752678 5230.3929232060909 405.2731074243784 24.243414908647537 19.33609446883202 279.06180201470852 33.848041206598282 8.0253007262945157 41.482215240597725 94.279549673199654 146.8563337624073 99.5769994109869 26.277886986732483 120.32963646948338 23.869605451822281 88.443617269396782 58.896508917212486 9.5894919633865339 179.42708739638329 6320.6942300349474 27.753242492675785 6.4275803565978995 30.58159713447094 5.8023740053176871 21.501333296298981 31.597160071134567 6.7176334857940665 7.5446680635213879 4.2115301787853232 21.655391156673431 17.906460583209991 33.108466863632202 47.124944061040878 8.2689302414655668 2.0747843682765952 47.550043016672134 4.3328990936279324 21.678501889109612 45.680411368608475 13.536056056618689 83.128308638930321 71.800138577818871 27.948397442698479 248.23069460690022 512.02250285446644 16.246268302202225 29.35859152674675 3.049126371741294 501.03668618202209
leaf_count=2027 170 1222 252 608 1235 59 226 423 4398 19 63 445 218 98 32524 2477 122 118 1722 204 46 253 478 911 541 144 733 131 551 338 52 980 35907 137 36 175 36 134 175 35 47 22 132 101 177 283 48 10 291 27 122 248 80 512 433 171 1513 3050 96 157 19 2816
internal_value=0 0.225532 -0.161657 -0.0420811 -0.101518 -0.135481 -0.165197 -0.227767 -0.17293 -0.141683 -0.0637798 0.103516 -0.122992 0.252633 -0.238797 -0.162651 -0.196538 0.253941 -0.135188 -0.0066291 0.216074 -0.00959165 0.0487729 -0.144299 0.233185 -0.0302659 -0.172941 -0.109893 -0.0495495 0.220812 -0.0560117 0.235908 0.255304 0.181542 -0.174681 -0.0880678 0.185007 0.0840476 -0.00336072 -0.0499921 -0.189846 -0.171859 -0.0764 0.0490371 0.219356 -0.114262 0.13897 -0.269068 -0.0973498 -0.00124318 0.107743 0.24555 0.169904 -0.181173 -0.138263 -0.0560214 -0.209657 -0.194532 -0.138676 -0.0355043 0.149851 0.245936
internal_weight=0 7049.85 9995.96 3558.86 2926.88 2647.87 2451.7 6437.1 2409.66 1703.26 793.664 237.425 613.131 6624.5 5823.97 593.576 425.349 6605.32 556.24 126.267 152.159 188.303 146.821 574.442 631.982 97.6462 429.973 427.585 216.627 279.005 28.9256 196.169 6576.39 255.699 36.2556 150.911 81.0773 92.4185 56.1476 16.7414 135.55 210.958 47.1065 25.4511 36.2709 71.3684 102.548 29.828 85.2651 37.7151 26.0114 144.134 59.2165 206.746 123.618 51.818 909.592 661.361 149.339 45.6049 34.6463 600.614
internal_count=100778 40156 60622 20902 17375 15802 14728 39720 14502 10104 4680 1322 3688 37580 36032 3508 2576 37482 3358 728 819 1031 778 3470 3527 549 2630 2559 1290 1573 170 1074 37312 1405 183 908 459 524 328 94 831 1269 280 148 196 405 526 147 503 212 149 773 328 1247 735 302 5424 3911 861 253 194 3357
is_linear=0
shrinkage=0.2


Tree=5
num_leaves=63
num_cat=0
split_feature=10 14 6 13 14 9 11 4 7 14 15 14 9 9 3 6 3 15 0 13 6 11 13 14 13 6 5 13 10 9 4 15 15 9 5 19 9 6 9 10 9 19 3 7 9 13 14 19 10 15 9 3 9 15 14 13 11 6 13 14 13 12
split_gain=11868.9 3311.38 1554.24 1124.78 299.444 310.101 345.084 229.605 158.133 131.87 123.478 115.945 97.312 96.1371 94.9602 88.4922 80.6487 71.3678 70.8716 69.8629 60.8618 61.8407 59.0391 59.3587 45.3642 94.1536 36.8505 36.1171 33.1799 28.0718 27.9346 24.9017 24.2304 54.544 23.0795 28.7038 17.7758 18.0756 16.9093 30.1668 16.5817 15.7784 15.3448 14.4509 14.2333 14.1171 14.0482 14.0345 13.9812 12.653 18.541 10.4097 10.0916 27.5046 15.4 44.1131 16.5604 14.2168 12.922 10.4072 9.99271 9.86197
threshold=5.5000000000000009 17.500000000000004 0.015000000000000001 326.50000000000006 19.500000000000004 13.500000000000002 1.0000000180025095e-35 0.25500000000000006 0.17500000000000002 16.500000000000004 4.5000000000000009 14.500000000000002 49.500000000000007 1.5000000000000002 0.16500000000000004 0.14500000000000005 0.055000000000000007 254.50000000000003 0.32500000000000007 13.500000000000002 1.0000000180025095e-35 1.0000000180025095e-35 18.500000000000004 18.500000000000004 1.5000000000000002 0.065000000000000016 0.03500000000000001 177.50000000000003 3.5000000000000004 43.500000000000007 0.53500000000000014 203.50000000000003 4.5000000000000009 48.500000000000007 0.03500000000000001 0.025000000000000005 12.500000000000002 0.055000000000000007 24.500000000000004 1.5000000000000002 14.500000000000002 0.88500000000000012 0.9900000000000001 0.47500000000000003 14.500000000000002 7.5000000000000009 12.500000000000002 0.045000000000000005 7.5000000000000009 254.50000000000003 17.500000000000004 0.9900000000000001 14.500000000000002 9.5000000000000018 13.500000000000002 2.5000000000000004 1.0000000180025095e-35 0.03500000000000001 1.5000000000000002 6.5000000000000009 5.5000000000000009 0.66000000000000014
decision_type=2 2 2 2 2 2 2 2 2 2 2 2 2 2 2 2 2 2 2 2 2 2 2 2 2 2 2 2 2 2 2 2 2 2 2 2 2 2 2 2 2 2 2 2 2 2 2 2 2 2 2 2 2 2 2 2 2 2 2 2 2 2
left_child=2 7 11 4 5 42 8 9 12 16 40 -1 22 -4 -13 -10 34 -12 19 -6 29 43 23 32 25 28 -21 61 -15 -19 -25 48 44 49 36 -36 37 -2 39 41 -11 -27 -3 -22 -7 -45 -26 -40 -9 -34 -51 -14 -38 59 -55 56 58 -58 -56 -54 -17 -20
right_child=1 3 13 -5 18 6 -8 31 15 10 17 14 51 24 -16 60 -18 20 27 26 21 -23 -24 30 46 38 -28 -29 -30 -31 -32 -33 33 -35 35 -37 52 -39 47 -41 -42 -43 -44 45 -46 -47 -48 -49 -50 50 -52 -53 53 54 55 -57 57 -59 -60 -61 -62 -63
leaf_value=0.19418566465545814 -0.29753444196896944 -0.24040524960466647 -0.20167200602376442 0.24644377856316796 -0.21308374579554978 0.24916753386518856 -0.23840743092437866 -0.22941625558227297 -0.23598748091855268 0.24001358902123854 -0.24543289879860361 -0.23957503558664578 -0.25113161017382213 -0.28981696880446939 0.24526254695321037 -0.044264533960883264 -0.21439878161205106 0.20563355256363242 -0.23814726409655332 0.29110112786720777 0.2452912341232911 -0.24958927525464608 0.25036184098102321 -0.23414078708273781 -0.055617123554062856 -0.36311637453547696 -0.28637367240309369 0.26264219297256824 0.17955684340285533 -0.25880869612038065 0.2419434947617729 -0.22969109870358762 -0.27155569091567505 0.23022698457723992 -0.2483704395865694 0.29234561996778713 0.24218788427664728 0.2736092225803583 -0.038053408681441039 0.23566530458899085 -0.18787029434024832 0.22094264870224631 0.4001444339924376 -0.22874038238344543 -0.23437889464952577 0.26599163819648042 0.24451370276975784 0.23689129161725253 0.21463784355217708 0.26283986817301624 -0.22722253191841851 0.29022341101484922 0.28211967424121581 0.25867943615377076 -0.23534775881298692 0.23632661651020645 0.23568481395703894 -0.28389489161244241 0.061252295254777572 0.10450510312429687 0.22084681175361343 0.30420813089586995
leaf_weight=30.048638448119164 5.4186744391918165 554.00136728584766 19.74093197286129 216.30530689656734 38.728468358516693 59.928261235356331 229.74842928349972 4.1765856444835654 89.702178582549095 93.181314498186111 55.499658316373825 325.87017299234867 27.032628878951076 23.230798453092579 17.001863747835159 7.5132410079240826 18.358627423644066 6.245780035853385 5861.3074485212564 25.410656228661541 57.386183336377144 14.38633857667446 155.91657856106758 29.000184327363968 6.2453715652227393 7.5227926820516586 5.3509517163038245 5.7690608650445929 8.1332652568817121 31.255097702145576 5.9395564496517173 68.44611756503582 15.640334218740463 31.964401006698608 9.6064480692148226 6.642292082309722 355.39483061432838 3.7506321668624878 7.7602001875638953 13.998944684863091 3.7692732363939276 2.4536107331514359 1.4999998211860646 5.5025792717933637 2.5380764156579962 3.9728013724088669 5440.5047478526831 172.54532116651535 8.8371274173259717 5.7313236743211746 6.6959283500909805 1.499623879790305 14.729270964860914 234.26580719649792 13.793621495366096 128.99236391484737 13.409382298588751 2.4990528076887122 10.235466375946999 126.75617192685604 23.397371560335159 1.3413899838924397
leaf_count=154 30 3970 118 1389 257 379 1640 20 613 592 359 2322 181 134 100 45 118 36 42470 148 328 96 922 171 31 37 33 32 49 178 37 467 92 203 62 38 2301 20 44 80 22 14 6 26 13 23 35967 1106 46 29 41 7 73 1309 71 798 78 13 54 642 137 7
internal_value=0 -0.151266 0.213052 -0.202911 -0.216438 -0.127373 -0.0380566 0.143582 0.0614684 0.165374 0.0424566 -0.18252 0.130929 0.238922 -0.215534 -0.135424 0.200692 -0.0582069 -0.235153 -0.0343604 0.0292969 0.126572 0.163127 0.076735 0.240453 0.154539 0.19065 -0.237531 -0.1681 -0.181456 -0.153209 -0.181474 0.142321 0.0515858 0.208926 -0.0273321 0.213148 -0.0639127 0.204075 0.0462777 0.223378 -0.219472 -0.238676 0.207509 0.229521 -0.021311 0.24417 0.225058 0.0721243 -0.151857 -0.00121068 -0.222679 0.215971 0.198864 0.225488 0.179458 -0.0042174 0.154064 -0.109008 0.122996 0.156408 -0.238023
internal_weight=0 8698.47 6075.06 7401.96 7185.66 1247.75 692.248 1296.51 462.5 1215.05 271.199 372.921 341.887 5702.14 342.872 120.613 943.853 174.248 5937.91 69.4901 118.749 81.2479 313.355 157.438 5682.4 235.645 30.7616 5868.42 31.3641 37.5009 34.9397 81.4598 122.498 60.032 925.494 16.2487 909.245 9.16931 204.281 23.9753 96.9506 9.9764 555.501 66.8616 62.4663 9.47538 5446.75 180.306 13.0137 28.0676 12.4273 28.5323 900.076 544.681 403.196 168.93 39.9375 15.9084 24.0291 141.485 30.9106 5862.65
internal_count=100778 60622 40156 52822 51433 8486 4510 7800 2870 7267 1660 2576 2075 37580 2422 795 5607 1046 42947 438 687 473 1887 965 37462 1464 181 42509 183 214 208 533 757 365 5489 100 5389 50 1281 131 614 51 3976 377 392 49 35998 1150 66 162 70 188 5339 3038 2323 1014 216 91 125 715 182 42477
is_linear=0
shrinkage=0.2


Tree=6
num_leaves=63
num_cat=0
split_feature=10 14 2 13 14 6 4 15 14 15 14 11 3 11 3 0 15 19 11 1 11 14 19 13 19 11 1 13 2 13 2 1 13 15 15 10 2 13 1 13 1 5 6 14 16 0 13 0 5 10 14 13 3 6 15 1 13 13 14 6 6 1
split_gain=9258.38 2592.06 1291.07 880.788 241.271 196.301 173.765 117.789 98.1804 95.0139 94.3409 75.7863 75.6462 73.048 60.6959 58.7935 55.1031 52.2616 51.8785 50.9505 45.8144 31.7642 33.9541 28.2917 26.9288 25.8433 24.6919 39.9511 21.4815 78.0372 41.8485 21.4359 20.8372 20.2153 19.7685 19.6372 19.155 43.0709 16.5926 16.2099 15.6383 15.5813 15.0643 18.6391 12.9524 14.006 10.5089 16.8018 10.0575 9.51398 9.47693 12.3786 9.31259 9.30424 9.15269 8.68967 8.0925 7.9803 6.96887 8.21859 6.83205 6.24455
threshold=5.5000000000000009 17.500000000000004 0.57500000000000007 326.50000000000006 19.500000000000004 0.15500000000000003 0.25500000000000006 4.5000000000000009 16.500000000000004 4.5000000000000009 15.500000000000002 1.0000000180025095e-35 0.49500000000000005 1.0000000180025095e-35 0.055000000000000007 0.32500000000000007 254.50000000000003 1.0000000180025095e-35 1.0000000180025095e-35 247.50000000000003 1.0000000180025095e-35 14.500000000000002 0.095000000000000015 177.50000000000003 0.24500000000000002 1.0000000180025095e-35 254.50000000000003 250.50000000000003 0.76500000000000012 41.500000000000007 0.62500000000000011 1.5000000000000002 25.500000000000004 30.500000000000004 203.50000000000003 2.5000000000000004 0.29500000000000004 2.5000000000000004 57.500000000000007 254.50000000000003 4.5000000000000009 0.99500000000000011 0.12500000000000003 8.5000000000000018 0.045000000000000005 0.025000000000000005 9.5000000000000018 0.37500000000000006 0.99500000000000011 7.5000000000000009 18.500000000000004 168.50000000000003 0.32500000000000007 0.015000000000000001 190.50000000000003 16.500000000000004 179.50000000000003 1.5000000000000002 16.500000000000004 0.24500000000000002 0.045000000000000005 9.5000000000000018
decision_type=2 2 2 2 2 2 2 2 2 2 2 2 2 2 2 2 2 2 2 2 2 2 2 2 2 2 2 2 2 2 2 2 2 2 2 2 2 2 2 2 2 2 2 2 2 2 2 2 2 2 2 2 2 2 2 2 2 2 2 2 2 2
left_child=2 6 11 4 5 7 8 13 14 40 44 21 -12 55 31 17 -11 32 33 20 46 22 35 52 26 -26 28 50 29 -9 38 42 -6 -7 49 -1 53 48 60 57 -10 56 43 -2 -4 -46 47 -18 -38 -8 -28 -52 -17 -23 -37 -3 61 -21 59 -13 -31 -33
right_child=1 3 10 -5 15 18 34 24 9 16 12 58 -14 -15 -16 23 19 -19 -20 39 -22 36 -24 -25 25 -27 27 -29 -30 30 -32 41 -34 -35 -36 54 37 -39 -40 -41 -42 -43 -44 -45 45 -47 -48 -49 -50 -51 51 -53 -54 -55 -56 -57 -58 -59 -60 -61 -62 -63
leaf_value=-0.24025429842643076 0.2414692976955185 -0.18928405840409102 -0.18295829363686017 0.2356153702594404 -0.18777838467196234 -0.1707597840862411 -0.19967092353543839 -0.21905648244635173 -0.28622732307514209 -0.23281552546898565 -0.23223091816099597 -0.23239836036842579 0.24346393048117743 -0.2330971975080538 -0.19851375728512402 -0.22942514308287365 -0.14135795963130734 0.26563947856991438 -0.23403927214410578 -0.27478564684561618 -0.23979359390939903 -0.21748834309854825 0.23608522165300339 0.24822705727569644 0.23625402699249315 -0.23698116372678668 -0.15788003495006525 0.19708971392057451 -0.22738582892855189 -0.2136492361878336 -0.14643005351725899 0.15467879916232211 0.30754345849652259 0.20312646369051257 -0.21725027323036211 0.17168459818972837 -0.27415289070184251 0.23695352249572499 0.23162168407208178 -0.24539878608199955 0.22581518633954745 -0.23663916197177293 0.20744134701058914 -0.13282020293105407 -0.33513497878880949 0.23952774859474557 0.25583315173043647 0.23707570780728174 0.24899567620251073 0.17818538169906029 -0.097449913052989154 0.25404836675006354 0.32330633277898446 0.23462092526646022 -0.2436739411624671 0.22733130304717172 -0.24881480966901087 0.2037303016471094 -0.27679472651988241 0.24194930204615678 0.24390264980197651 0.21074066586717211
leaf_weight=14.087006255984308 7.2407793849706676 2.0825128704309455 4.0105640590190914 184.36565835773945 40.613739848136902 6.1718705594539633 3.8729126304388037 187.72070241719484 2.458022102713584 47.640673972666264 289.36069690436125 3.1029189378023174 14.019687160849569 20.335940040647984 16.106745839118958 4962.2218632176518 8.2006569504737854 17.055828064680099 13.83082254976034 1.8462760597467411 11.520374424755571 1.8214672803878773 28.58475187420845 4.9679521322250357 12.357246667146685 7.3681490793824187 185.67065446823835 14.846718013286589 377.87932415306568 5.4969382211565962 30.073922492563725 90.107140094041824 3.7073269784450522 92.146557599306107 58.910630322992802 11.383819341659544 11.200926311314102 27.726456552743912 31.245131276547909 26.837061047554016 81.2284065335989 3.2354118004441252 16.70912279933691 20.082365319132805 1.8160166591405893 25.772353261709213 39.277526944875717 10.970986008644104 1.691981345415116 8.5492644160985929 19.800125196576122 5.0245951116085044 1.219576135277747 4726.1813224330544 2.608303874731063 52.183214724063873 1.5811006575822819 5.6918392032384872 11.541057989001272 2.7611766904592514 1.711881101131439 673.49376477301121
leaf_count=75 39 13 18 1389 297 38 20 1537 13 359 2422 16 101 168 118 42471 40 118 113 12 90 10 191 32 81 59 1491 103 3140 43 241 550 23 657 467 67 72 211 217 178 601 25 104 115 8 146 263 69 11 46 158 30 6 36712 13 385 9 35 71 12 12 4647
internal_value=0 -0.144785 0.203734 -0.195065 -0.208091 -0.121659 0.133286 -0.151089 0.153541 0.0396389 -0.175994 0.23 -0.210248 0.0901916 0.185939 -0.226409 -0.0545927 -0.0318608 0.128637 0.0267785 0.124736 0.231503 0.0826421 -0.228812 -0.171562 0.0594836 -0.176865 -0.119998 -0.197073 -0.152372 0.0303007 0.193561 -0.146346 0.179656 -0.168903 -0.073564 0.233272 0.0965158 0.168518 -0.17261 0.210776 0.201337 0.0578495 -0.0336315 0.152879 0.2017 0.196585 0.075201 -0.205498 0.0603796 -0.142363 -0.0263056 -0.229289 0.234447 0.0942567 0.211343 0.203189 0.0865296 -0.186586 -0.00904632 -0.104994 0.204125
internal_weight=0 7415.66 5177.67 6280.1 6095.73 1065.95 1135.56 953.797 1064.23 235.672 334.979 4842.69 303.38 74.6017 828.556 5029.79 151.985 61.3769 112.149 104.345 69.9695 4825.29 56.6639 4968.41 879.195 19.7254 859.47 225.342 634.128 256.249 68.5279 812.45 44.3211 98.3184 71.3328 28.0791 4768.62 40.6194 38.454 34.3752 83.6864 768.417 44.0323 27.3231 31.5989 27.5884 58.4492 19.1716 12.8929 12.4222 210.495 24.8247 4963.44 4728 13.9921 54.2657 765.182 7.53812 17.4052 5.8641 7.20882 763.601
internal_count=100778 60622 40156 52822 51433 8486 7800 7678 7267 1660 2695 37461 2523 566 5607 42947 1046 438 808 687 462 37362 346 42509 7112 140 6972 1782 5190 2050 513 5489 320 695 533 155 37016 294 272 225 614 5231 258 154 172 154 372 109 83 66 1679 188 42477 36722 80 398 5206 47 99 28 55 5197
is_linear=0
shrinkage=0.2


Tree=7
num_leaves=63
num_cat=0
split_feature=10 11 2 15 13 4 1 2 2 13 11 6 3 1 17 15 16 11 1 17 13 2 6 7 13 1 4 1 10 13 1 1 2 6 13 15 13 13 1 13 2 1 6 0 13 18 13 2 17 3 6 13 15 5 13 13 15 6 6 6 0 6
split_gain=7271.84 1034.25 1017.95 646.519 355.461 219.048 92.0978 132.248 72.3199 311.793 59.8948 58.0889 55.4235 52.4283 45.681 44.8654 41.5344 33.6402 31.7452 29.9214 34.6381 26.4707 25.9596 52.5813 25.5199 68.8655 65.8466 23.7641 23.4998 23.4104 22.3483 31.2805 18.6121 17.3168 16.6513 16.1793 15.4555 15.3719 14.3252 12.9201 20.9956 18.2069 21.3174 13.3237 15.3999 12.8824 12.091 16.6858 12.0352 11.4478 10.9776 10.8074 10.6906 10.1408 9.85105 9.6116 9.52761 9.46307 9.27965 9.17673 10.1084 9.0946
threshold=5.5000000000000009 1.0000000180025095e-35 0.57500000000000007 4.5000000000000009 337.50000000000006 0.015000000000000001 103.50000000000001 0.99500000000000011 0.64500000000000013 8.5000000000000018 1.0000000180025095e-35 0.26500000000000007 0.03500000000000001 254.50000000000003 0.015000000000000001 254.50000000000003 0.13000000000000003 1.0000000180025095e-35 5.5000000000000009 1.0000000180025095e-35 2.5000000000000004 0.87500000000000011 0.015000000000000001 0.03500000000000001 4.5000000000000009 2.5000000000000004 0.90500000000000014 254.50000000000003 3.5000000000000004 11.500000000000002 8.5000000000000018 63.500000000000007 0.12500000000000003 0.99500000000000011 2.5000000000000004 104.50000000000001 24.500000000000004 240.50000000000003 26.500000000000004 2.5000000000000004 0.81500000000000006 210.50000000000003 0.045000000000000005 0.95500000000000007 110.50000000000001 0.37500000000000006 6.5000000000000009 0.99500000000000011 0.065000000000000016 0.055000000000000007 0.025000000000000005 1.5000000000000002 94.500000000000014 0.045000000000000005 3.5000000000000004 63.500000000000007 16.500000000000004 0.13500000000000004 0.99500000000000011 0.44500000000000006 0.99500000000000011 0.065000000000000016
decision_type=2 2 2 2 2 2 2 2 2 2 2 2 2 2 2 2 2 2 2 2 2 2 2 2 2 2 2 2 2 2 2 2 2 2 2 2 2 2 2 2 2 2 2 2 2 2 2 2 2 2 2 2 2 2 2 2 2 2 2 2 2 2
left_child=2 3 10 18 5 8 7 45 9 33 24 29 17 21 -8 36 35 -4 -2 20 30 39 23 -17 25 32 57 -6 -19 -7 -9 56 61 -5 -20 -16 -11 55 -23 40 -10 42 -42 44 -41 50 47 -37 -49 -21 51 -3 -38 59 -14 -15 -32 -27 -34 60 -24 -1
right_child=1 6 12 4 27 11 14 19 13 15 -12 -13 54 37 16 22 -18 28 34 49 -22 38 53 -25 -26 26 -28 -29 -30 -31 31 -33 58 -35 -36 46 52 -39 -40 43 41 -43 -44 -45 -46 -47 -48 48 -50 -51 -52 -53 -54 -55 -56 -57 -58 -59 -60 -61 -62 -63
leaf_value=0.031778606455136103 0.011074550200481615 -0.10045963182850018 -0.220314010201726 -0.18315724908217212 0.22930660419849686 -0.14054734977079653 -0.22154904267889453 -0.13403471011202847 -0.20067761910231066 -0.15371555662794967 -0.17261501434216195 0.21330934978411098 -0.0022089009924014156 -0.01598712267117262 -0.22498640666414482 0.20682218116277939 0.16937221605037586 -0.21945152049470795 0.21426274669468182 0.17803941505889495 -0.19438160821167827 -0.044557544480313002 0.27900708779724764 -0.22612939506310215 0.22827811539683562 -0.30295209723967015 0.2287123145199825 0.053603595062327793 0.2263603648561977 0.18518476806372297 0.12293182735933011 -0.22908016697905831 -0.37808160842944727 0.20875788334573195 -0.26176082610326923 -0.22465301049519038 -0.22361881151753293 0.057132797905216054 -0.22341250486055594 -0.23915122149760185 0.2023150631639227 -0.3223235174057098 -0.22210006643119456 -0.18081542415571172 0.23278744207259897 0.1388908411670354 -0.19527779146807545 0.09146992683593709 -0.22682248748201614 -0.23319665925396965 -0.20647502607788032 -0.21996715344582338 0.11876062810778035 -0.32550769197597534 0.23584321328941338 -0.12394994622893774 -0.094772746922777845 -0.056723486710415286 0.12727386764759804 0.081194300485026627 0.14702940874658429 0.22497106858055599
leaf_weight=10.132862672209738 34.850404679775238 88.147112891077995 235.16167226433754 427.68077950179577 135.71369874477386 34.737718857824802 3011.3945418298244 32.887127958238125 21.608709089457989 27.437579616904259 15.315962530672548 98.454260669648647 17.494505852460865 41.089389331638813 61.148486725986004 28.027902394533157 18.686932526528835 7.7960990667343149 375.97554726153612 37.403601177036762 44.909149385988712 18.585682965815067 71.975719638168812 18.711284957826138 3752.0785318315029 21.505246117711071 21.096742458641529 39.826919265091419 12.023994222283363 11.831720575690268 77.172423541545868 13.32034073024988 3.127712406218051 4.5577232688665381 2.9625086784362784 12.700376495718954 4.3842390626668957 27.230983801186085 494.64504816383123 4.614615358412264 22.332266241312031 4.4612858667969695 6.0072043761610976 128.93498905748129 6.9028102457523346 4.7485807761549941 26.497482411563396 30.489531882107258 5.6291253343224517 2.9190154969692221 461.62491284310818 46.098146073520184 21.720701195299625 1.4084556847810734 11.540237739682196 167.21657410264015 8.9762633666396123 8.7973150014877302 2.7151824459433556 17.77859028428793 34.264450363814831 255.83630960434675
leaf_count=67 232 801 2331 3943 1233 289 30762 244 212 248 99 822 117 337 622 219 153 69 3280 318 425 152 564 187 34602 133 182 315 82 93 487 95 16 35 15 130 40 212 4832 40 150 41 55 1246 59 35 258 261 55 25 4529 446 170 7 96 1455 74 54 21 148 271 2287
internal_value=0 -0.138698 0.196728 -0.033033 -0.0818518 -0.109118 -0.200641 -0.140825 -0.130431 -0.0795345 0.222149 0.126255 -0.169411 -0.165919 -0.216096 0.110992 -0.110266 -0.199224 0.193742 -0.00723433 -0.0426068 -0.193108 0.160718 0.033497 0.223633 0.169709 -0.0425879 0.189443 0.0510033 -0.0577898 0.00889116 0.0561463 0.209854 -0.179025 0.210541 -0.148559 -0.0489035 -0.0841804 -0.216936 -0.130352 -0.0476095 0.0532297 0.11235 -0.162405 0.0436987 -0.189221 -0.086508 -0.0274711 0.0418638 0.148269 -0.191836 -0.141497 0.0612591 0.208126 0.092408 -0.102654 0.100248 -0.231468 -0.143244 0.214186 0.236442 0.217611
internal_weight=0 6320.68 4374.62 2335.93 1922.14 1746.6 3984.75 818.207 1601.58 657.947 4090.61 145.024 284.017 943.63 3166.55 225.709 155.152 254.982 413.788 217.588 177.265 708.093 172.166 46.7392 4075.29 323.211 51.3993 175.541 19.8201 46.5694 132.356 99.469 271.812 432.239 378.938 136.465 53.5425 235.537 513.231 194.862 54.4095 32.8008 28.3395 140.452 11.5174 600.619 75.3165 48.819 36.1187 40.3226 595.87 134.245 26.1049 125.427 29.0347 208.306 86.1487 30.3026 5.84289 124.019 106.24 265.969
internal_count=100778 60622 40156 20902 17375 15827 39720 7479 14623 5832 37461 1204 2695 8791 32241 1854 1479 2482 3527 1668 1325 6787 1396 406 37362 2760 369 1548 151 382 900 656 2391 3978 3295 1326 458 2004 4984 1803 458 246 205 1345 99 5811 704 446 316 343 5776 1247 210 990 213 1792 561 187 37 983 835 2354
is_linear=0
shrinkage=0.2


Tree=8
num_leaves=63
num_cat=0
split_feature=10 2 15 13 19 8 10 15 8 13 2 3 13 19 13 2 4 19 2 13 6 6 0 6 13 6 15 0 15 15 13 15 16 6 13 13 17 0 6 13 13 2 6 13 13 13 2 6 6 0 2 15 15 4 4 10 15 3 6 13 17 17
split_gain=5699.99 809.347 567.779 436.296 313.747 278.417 109.195 108.773 72.2619 129.099 120.753 43.2433 43.0537 42.3337 39.528 79.8018 34.945 48.8958 27.1137 24.8545 22.2508 20.961 23.9813 20.9359 20.8149 19.3074 19.1797 16.8047 15.2615 15.2293 29.3091 15.0156 14.6284 14.1919 28.0455 13.7585 13.5947 13.2783 12.4071 15.3062 21.8961 23.5073 12.2138 12.1199 16.7275 11.3355 11.4537 24.4131 26.8013 11.191 11.0181 24.564 18.2449 17.3864 20.6199 10.5892 10.0459 9.89443 8.85092 8.83556 8.75184 10.5777
threshold=5.5000000000000009 0.59500000000000008 4.5000000000000009 326.50000000000006 0.03500000000000001 0.85500000000000009 9.5000000000000018 254.50000000000003 1.0000000180025095e-35 32.500000000000007 0.6150000000000001 0.03500000000000001 1.5000000000000002 1.0000000180025095e-35 4.5000000000000009 0.03500000000000001 0.90500000000000014 0.55500000000000016 0.89500000000000013 16.500000000000004 0.065000000000000016 1.0000000180025095e-35 0.97500000000000009 0.17500000000000002 2.5000000000000004 0.025000000000000005 254.50000000000003 0.22500000000000003 254.50000000000003 16.500000000000004 2.5000000000000004 104.50000000000001 0.23500000000000001 0.025000000000000005 4.5000000000000009 508.50000000000006 0.065000000000000016 0.99500000000000011 0.99500000000000011 2.5000000000000004 5.5000000000000009 0.72500000000000009 1.0000000180025095e-35 45.500000000000007 103.50000000000001 5.5000000000000009 0.18500000000000003 0.32500000000000007 0.16500000000000004 0.93500000000000016 0.81500000000000006 251.50000000000003 250.50000000000003 0.22500000000000003 0.015000000000000001 2.5000000000000004 254.50000000000003 1.0000000180025095e-35 0.075000000000000025 208.50000000000003 0.50500000000000012 0.03500000000000001
decision_type=2 2 2 2 2 2 2 2 2 2 2 2 2 2 2 2 2 2 2 2 2 2 2 2 2 2 2 2 2 2 2 2 2 2 2 2 2 2 2 2 2 2 2 2 2 2 2 2 2 2 2 2 2 2 2 2 2 2 2 2 2 2
left_child=1 14 5 4 6 24 8 38 9 13 27 28 -9 18 15 20 17 -17 19 25 -1 26 -23 -21 -2 37 -12 -11 -3 30 -20 -29 -10 34 -15 56 -14 -4 39 -6 60 -42 -34 -28 -45 -27 47 48 -47 -25 52 -52 -39 54 -54 -30 -5 -7 -35 -46 61 -41
right_child=2 11 3 35 7 57 -8 12 32 10 21 -13 36 33 -16 16 -18 -19 29 23 -22 22 -24 49 -26 45 43 31 55 -31 -32 -33 42 58 -36 -37 -38 50 -40 40 41 -43 -44 44 59 46 -48 -49 -50 -51 51 -53 53 -55 -56 -57 -58 -59 -60 -61 -62 -63
leaf_value=-0.045625946281906055 -0.053779966182031881 -0.20611977892824784 -0.21448319822737649 0.22268940644552471 -0.16823444461693582 0.20020237965813023 0.2386787158575342 -0.12474359174226456 -0.21878830892994158 -0.025711104719616459 -0.22834901409377872 0.0775693214628949 0.21124961056749028 0.050661594760355158 0.2224782776365109 -0.23554402989675102 0.22309788593797231 0.20049094917701843 -0.071229990438549162 -0.095480843081534331 0.21946398583323898 0.21639897884865997 -0.17669071652828397 0.28788432539710557 -0.19078795540113924 -0.19716329757344911 -0.16832471887578718 -0.20828528475982694 -0.22448551241595271 -0.21415903539740647 -0.21926165914239873 0.23734929853778841 0.14737811325865111 -0.18369593928274244 -0.1935749258501136 0.22196452053483334 -0.23131228729103667 -0.1936827607517014 0.21259867044682951 -0.18377576707452337 0.13612072533819272 -0.19477553514794621 -0.22415223475374449 0.16684324413417082 -0.084140705973174204 -0.10076871150146066 -0.19920657737033942 -0.29957520392339365 0.275386888307599 -0.22477126010275247 0.14470003480181701 -0.24358238599410931 -0.058993190980827816 -0.22331209804968571 0.28488104825610427 0.1480024030576291 0.049804425063545585 -0.23564646445704371 0.0037999124904952823 0.03395555044862799 -0.17311514137604239 0.15775868065832768
leaf_weight=13.481877878308294 254.58255603909492 201.76453979313374 53.595640279352665 19.2164596170187 62.794760406017303 281.31053518503904 25.004440002143383 18.62780936807394 1445.4075203314424 14.395207010209559 23.832317024469376 26.667664602398872 122.12362372130156 60.636428482830524 3145.5522355735302 39.017728373408318 15.23698518425226 13.970240674912928 92.88116929680109 48.554633095860481 209.1334561035037 6.4617852568626395 158.04342633485794 9.9148424938321096 53.713237017393112 592.30259573459625 23.143973924219608 3.1894690915942183 4.7469938546419135 1119.5863152071834 126.17996488511562 58.449263617396355 8.0499581247568113 53.033277936279774 27.261279076337814 94.034940704703331 2.840983346104621 80.707768760621548 5.5192680060863486 4.1568517908453932 10.914484135806559 40.284177996218204 6.3165321350097647 18.141775563359261 68.715141370892525 20.101359874010086 36.915340006351471 11.390415310859678 12.160221487283705 2.0565227270126334 19.001606650650501 9.9194249138236064 84.600224711000919 23.511756978929043 7.6018004938960066 8.5538303181529027 44.757636025547981 2.0989762768149367 12.431531384587286 40.146008744835854 4.872308872640132 28.472979925572872
leaf_count=90 2370 2354 585 210 678 2939 225 173 17421 136 272 207 1138 566 34617 264 156 128 850 483 2220 66 1770 80 606 6684 265 35 51 13384 1516 525 71 566 311 1016 27 907 44 44 102 473 71 131 593 181 416 96 82 21 152 112 782 254 44 69 360 23 116 315 55 280
internal_value=0 0.191073 -0.131095 -0.153606 -0.164586 0.0538869 -0.178081 0.0331018 -0.180461 -0.162291 -0.0589058 -0.162653 0.158906 -0.179404 0.215956 0.145413 -0.0438278 -0.120584 -0.186045 -0.161347 0.20341 -0.110067 -0.16125 -0.0370743 -0.0776504 -0.169249 -0.0616713 0.168852 -0.192441 -0.204723 -0.156497 0.21429 -0.216792 -0.0775934 -0.0250878 0.173287 0.201188 -0.125008 -0.0819482 -0.0926791 -0.0391904 -0.124235 -0.0159731 -0.0352151 -0.0109582 -0.187589 -0.117205 -0.0478583 0.041014 0.199817 -0.103727 0.0115257 -0.120696 -0.0697902 -0.0306417 0.0150634 0.101735 0.196974 -0.148091 -0.040589 0.0769146 0.114249
internal_weight=0 3678.13 5453.96 4862.26 4704.25 591.705 4403.64 300.607 4378.64 2918.86 414.518 241.733 143.592 2504.34 3436.39 290.84 68.225 52.988 2350.98 1012.33 222.615 338.484 164.505 60.526 308.296 951.808 173.979 76.0339 215.065 1338.65 219.061 61.6387 1459.77 153.363 87.8977 158.009 124.965 278.938 157.015 151.496 88.7008 51.1987 14.3665 150.147 127.003 672.87 80.5673 43.652 32.2616 11.9714 225.343 28.921 196.422 115.714 92.202 13.3008 63.9741 283.41 65.4648 108.861 37.5021 32.6298
internal_count=100778 40156 60622 54684 53098 5938 50084 3014 49859 32296 4108 2681 1338 28188 37475 2858 548 392 26629 10879 2310 3412 1836 584 2976 10295 1576 696 2474 15750 2366 560 17563 1559 877 1586 1165 2836 1676 1632 954 575 142 1304 1039 7459 775 359 263 101 2251 264 1987 1080 826 120 570 2962 682 908 379 324
is_linear=0
shrinkage=0.2


Tree=9
num_leaves=63
num_cat=0
split_feature=10 14 6 9 9 14 6 3 14 15 9 7 3 0 7 15 1 11 9 15 14 5 19 9 3 9 9 6 6 1 9 3 14 9 9 15 1 17 15 11 1 5 15 6 11 17 9 3 11 7 11 14 15 18 14 9 3 19 15 15 14 1
split_gain=4465.93 1588.53 608.289 600.604 254.054 268.231 139.222 82.587 62.5393 45.7294 44.0307 43.7476 43.1058 42.41 53.806 31.0238 30.7071 29.5324 26.6069 25.0272 22.0186 20.9072 40.3207 22.5234 20.2794 19.6359 19.0788 17.7922 17.0343 15.0615 14.7332 13.8869 13.0271 12.0594 134.063 32.9914 11.6647 10.8598 10.0526 9.93245 9.76901 9.73217 9.70418 16.7454 28.3755 13.1293 12.4543 9.47333 9.16004 8.72159 8.68106 16.4173 8.63229 7.97912 8.68034 7.63227 6.63977 6.35326 6.08825 27.6509 16.4707 16.1913
threshold=5.5000000000000009 19.500000000000004 0.015000000000000001 12.500000000000002 17.500000000000004 16.500000000000004 0.15500000000000003 0.055000000000000007 14.500000000000002 198.50000000000003 4.5000000000000009 0.055000000000000007 0.16500000000000004 0.49500000000000005 0.39500000000000007 9.5000000000000018 52.500000000000007 1.0000000180025095e-35 48.500000000000007 254.50000000000003 13.500000000000002 0.99500000000000011 0.045000000000000005 28.500000000000004 0.015000000000000001 53.500000000000007 23.500000000000004 0.27500000000000008 0.56500000000000006 80.500000000000014 23.500000000000004 0.49500000000000005 9.5000000000000018 17.500000000000004 14.500000000000002 254.50000000000003 121.50000000000001 0.99500000000000011 19.500000000000004 1.0000000180025095e-35 1.5000000000000002 0.95500000000000007 254.50000000000003 0.03500000000000001 1.0000000180025095e-35 0.025000000000000005 43.500000000000007 0.49500000000000005 1.0000000180025095e-35 0.43500000000000005 1.0000000180025095e-35 10.500000000000002 1.5000000000000002 1.0000000180025095e-35 12.500000000000002 53.500000000000007 0.9900000000000001 0.15500000000000003 254.50000000000003 4.5000000000000009 15.500000000000002 89.500000000000014
decision_type=2 2 2 2 2 2 2 2 2 2 2 2 2 2 2 2 2 2 2 2 2 2 2 2 2 2 2 2 2 2 2 2 2 2 2 2 2 2 2 2 2 2 2 2 2 2 2 2 2 2 2 2 2 2 2 2 2 2 2 2 2 2
left_child=2 3 8 28 11 7 31 15 53 10 -4 58 -10 14 19 16 48 18 27 -3 41 22 37 30 50 26 29 -8 -2 -22 -24 42 -11 34 -15 -36 -34 -12 -20 -25 49 -17 -7 45 46 -44 -45 -29 52 -28 -18 -52 -6 54 -1 -21 -35 -16 59 -5 -60 -61
right_child=1 13 9 4 5 6 17 -9 12 32 21 -13 -14 33 57 20 24 -19 38 55 25 -23 23 39 -26 -27 40 47 -30 -31 -32 -33 36 56 35 -37 -38 -39 -40 -41 -42 -43 43 44 -46 -47 -48 -49 -50 -51 51 -53 -54 -55 -56 -57 -58 -59 60 61 -62 -63
leaf_value=-0.34559398322528301 -0.22076765717211111 -0.22359884652480191 -0.23847922029752741 0.21571822215247183 -0.29801056271313386 -0.22160528323844911 0.17184012329580353 -0.18562575475307061 -0.21489938790701105 -0.1029245029611474 -0.29111775501641657 -0.17157318860626783 0.20746181054477636 -0.21792290300741937 -0.20326008553252209 0.23652173179683067 -0.47261430568071588 -0.22268419187198321 -0.13103939730954883 0.30777063380894715 -0.18488133013144353 0.21594682406760046 0.18165573166898311 0.20610642480078126 0.38646488682863023 -0.2029460071149202 -0.19134819710744841 -0.2482121695516889 0.20342069787944347 0.21375153091720378 -0.22430894319520892 0.37540396988561936 0.21757627930275239 -0.21622955240417682 -0.22669523265393657 0.34804257575516306 -0.14958387334817461 0.079297206496316511 0.22310240789769775 -0.12913506023865343 0.19947136906197321 -0.17437508909286956 -0.19055683384810246 -0.22900728158102296 -0.21844643594832769 0.22277430095916301 0.19585693705982879 0.24176824016938214 0.13317366490125257 0.20078271015307078 0.31839180405690554 -0.26764258397260915 0.092287578299474551 0.22000690602142639 0.19334835042720633 -0.22734010552477174 0.31753062923875658 0.32351996629465085 -0.076649667902392804 0.18428743916046536 0.24657654959677441 -0.017884018990949546
leaf_weight=2.3391691893339184 310.31164466589689 4.9502192214131382 13.045148760080336 293.43921713531017 4.0101872980594617 114.55697399377823 9.2337843552231806 31.053043402731419 167.49867898970842 5.0975424721837035 12.850934505462648 12.645726561546324 10.257488317787645 254.68419672176242 40.257476784288883 174.71172535419464 4.7468346953392073 10.031363464891909 3.3809650987386695 19.154192976653579 11.492820851504804 83.162141270935535 5.5650080069899532 63.966991771012545 2.3275359719991675 7.1360482051968566 5.1371233984827978 12.29092904925346 3.8335287645459166 5.6575826629996291 10.004197560250759 1.8335945457220066 2677.5381649956107 2718.7688812315464 4.8497391119599369 22.668876715004444 3.4656521193683139 4.2009102478623381 62.003740265965462 3.7418872937560073 79.845217451453209 2.3365418910980216 125.56767623871565 3.2789874151349094 17.296028859913349 3.1511626094579688 17.429983124136925 1.810906536877156 79.342094488441944 4.0633418336510658 2.3723831474781045 9.8557790815830213 5.2135977894067764 18.248601026833057 2.444746270775795 1.1290126964449871 0.93254494667053123 0.93711218237876792 6.5444141477346411 28.260928742587566 173.1606312468648 36.068171709775925
leaf_count=11 4034 55 118 3354 18 1411 75 362 2322 36 91 158 100 3490 475 1306 24 126 23 156 99 1066 48 787 10 65 37 90 28 38 86 9 35264 38639 48 213 40 25 706 19 822 25 1411 33 228 26 192 17 465 42 12 48 28 129 14 12 4 11 30 265 1532 370
internal_value=0 -0.122943 0.186236 0.0336788 0.0912031 0.0200504 -0.101892 0.128519 -0.150348 0.20968 0.116554 0.19612 -0.190527 -0.208465 -0.0504004 0.153014 0.0614263 0.102582 0.139359 0.179586 0.187036 0.141795 0.0803317 0.137704 -0.167149 0.118201 0.139781 -0.0439759 -0.215591 -0.0533801 -0.0792022 -0.173214 0.216494 -0.211963 -0.172611 0.246754 0.217102 -0.199862 0.20479 0.18758 0.176984 0.231099 -0.17679 -0.145997 -0.0293484 -0.180438 0.128585 -0.185291 0.111243 -0.0181654 -0.243058 -0.153946 -0.0774007 0.159735 -0.0701758 0.277985 -0.216047 -0.191277 0.204771 0.189685 0.234805 0.0709335
internal_weight=0 4743.76 3083.43 1675.43 1361.29 811.168 381.866 429.302 200.789 2882.64 196.537 550.119 177.756 3068.33 66.428 398.249 107.868 98.7517 88.7203 25.2334 290.38 183.492 100.33 83.2781 19.3025 113.332 106.196 23.3356 314.145 17.1504 15.5692 283.114 2686.1 3001.9 282.203 27.5186 2681 17.0518 65.3847 67.7089 89.0457 177.048 281.281 166.724 38.005 128.719 20.709 14.1018 88.5659 9.20047 16.975 12.2282 9.22379 23.0325 4.78392 20.2832 2719.7 41.1946 537.473 357.768 179.705 64.3291
internal_count=100778 60622 40156 17519 13457 7748 4347 3401 2576 37580 2240 5709 2422 43103 709 3039 605 1037 911 223 2434 2122 1056 940 94 1103 1038 182 4062 137 134 3310 35340 42394 3751 261 35304 116 729 806 901 1331 3301 1890 453 1437 225 107 511 79 84 60 46 154 25 168 38643 486 5551 3989 1562 635
is_linear=0
shrinkage=0.2


Tree=10
num_leaves=63
num_cat=0
split_feature=10 11 9 2 9 9 9 2 9 19 2 7 9 9 1 19 10 16 13 19 5 13 15 15 2 13 1 9 3 2 2 9 2 0 7 19 17 1 1 15 1 15 15 5 8 10 13 7 13 1 15 1 19 1 3 19 15 2 17 10 9 2
split_gain=3566.6 590.209 577.842 519.957 370.173 228.506 99.3407 96.9158 124.404 75.9928 59.1205 36.6574 36.4308 34.4673 39.5525 32.4431 30.0733 26.6718 23.0755 40.7525 34.0585 19.689 85.5619 22.5716 19.1641 18.0231 17.9602 57.6889 17.5014 17.1137 16.1395 15.5997 13.6906 13.193 14.7051 12.5308 23.3462 12.1881 16.8354 11.9866 12.4855 9.97015 9.40179 10.9811 9.30059 8.86156 8.634 17.8368 8.39308 8.31748 7.87128 12.0892 7.78294 7.39629 7.03715 8.25246 6.80004 6.78815 6.627 6.32478 6.2176 5.94603
threshold=5.5000000000000009 1.0000000180025095e-35 12.500000000000002 0.59500000000000008 17.500000000000004 44.500000000000007 23.500000000000004 0.87500000000000011 49.500000000000007 1.0000000180025095e-35 0.93500000000000016 0.055000000000000007 1.0000000180025095e-35 19.500000000000004 70.500000000000014 0.10500000000000002 1.5000000000000002 0.13000000000000003 5.5000000000000009 0.095000000000000015 0.59500000000000008 8.5000000000000018 4.5000000000000009 254.50000000000003 0.015000000000000001 2.5000000000000004 230.50000000000003 43.500000000000007 0.39500000000000007 0.39500000000000007 0.13500000000000004 23.500000000000004 0.96500000000000008 0.32500000000000007 0.56500000000000006 1.0000000180025095e-35 1.0000000180025095e-35 9.5000000000000018 65.500000000000014 38.500000000000007 210.50000000000003 254.50000000000003 230.50000000000003 0.47000000000000003 0.39000000000000007 1.5000000000000002 16.500000000000004 0.42500000000000004 2.5000000000000004 69.500000000000014 4.5000000000000009 3.5000000000000004 0.015000000000000001 17.500000000000004 0.03500000000000001 0.66500000000000015 12.500000000000002 0.03500000000000001 0.56500000000000006 9.5000000000000018 48.500000000000007 0.28500000000000009
decision_type=2 2 2 2 2 2 2 2 2 2 2 2 2 2 2 2 2 2 2 2 2 2 2 2 2 2 2 2 2 2 2 2 2 2 2 2 2 2 2 2 2 2 2 2 2 2 2 2 2 2 2 2 2 2 2 2 2 2 2 2 2 2
left_child=3 2 57 12 11 15 10 8 29 -8 13 21 -1 14 35 28 31 26 19 20 24 22 -4 32 52 54 27 58 33 -7 -21 -5 -24 34 46 41 -37 50 44 -31 -41 -3 -28 -44 48 -32 47 -6 -39 -9 51 -12 -14 -34 -18 -56 -29 -2 -11 -10 -33 -13
right_child=1 6 4 16 5 7 9 49 59 17 37 61 18 -15 -16 -17 25 -19 -20 30 -22 -23 23 -25 -26 -27 42 56 -30 39 45 60 53 -35 -36 36 -38 38 -40 40 -42 -43 43 -45 -46 -47 -48 -49 -50 -51 -52 -53 -54 -55 55 -57 -58 -59 -60 -61 -62 -63
leaf_value=-0.20559692292383042 0.020509656162219121 -0.20861206928947851 0.20951912059957978 0.32177224511846114 -0.31772124092815135 0.23583545948309356 -0.21031171056302345 -0.064623859680379328 -0.18404453731193807 0.15822340419965303 -0.1736507899163818 -0.20947779561856544 -0.10610983080333705 -0.18398566545291767 0.24377422225580508 0.13385806326760427 -0.18065644234243691 0.14229009013682145 0.21457468608500785 0.21369796845739361 0.19890856948102353 0.24051137781965881 0.053309902808671789 0.13998724592875852 -0.2501117807258802 0.13885678591971895 -0.21442532879110754 0.19057568601819269 0.19183162973763523 -0.21857754528321727 -0.23225077599484034 -0.21423746823862233 0.077300620147052912 -0.20860357300937801 -0.18933620446603347 0.22354577503741432 -0.21595201101908823 0.16087038149385857 -0.16046600095070776 0.15799647992531532 -0.27053392222461609 -0.028874274716008563 -0.10899159137285955 0.47434960719987829 -0.26622383879729161 0.13229269072251745 0.26165424174104096 0.25127940379974734 -0.25575219866067167 -0.23166026610714463 -0.28593218696081213 0.21047689494483626 0.20950091034252663 -0.24271358673238699 -0.10948403152410534 0.23172879762868065 -0.18522863053879685 -0.2156371158672824 -0.21537002274161574 0.24954289480873079 0.24637964895252562 0.26379467199492623
leaf_weight=8.5304484032094461 4.9226305224001399 34.711381632834673 246.00105280429125 2.2480152547359458 4.6948982588946802 142.70431344583631 1873.5564324818552 18.638186205178499 43.048477660864592 37.828744556754827 7.3426561728119868 10.870279561728237 5.8153029754757863 169.05876883491874 17.004291482269764 13.231695890426634 20.267824452370405 18.779058746993542 2175.0290888696909 146.70566534250975 20.155602529644966 189.13300692662597 10.802097238600252 15.955223489552735 20.504492197185755 18.539381850510836 62.271898481994867 1.9937562979757775 4.8139541819691649 4.3570305593311778 5.0780869051814062 122.72369980067015 3.2318829521536854 251.92254792153835 19.836045958101749 11.639806471765043 8.2693196162581426 58.093575745820999 9.0092748403549177 40.666082456707954 2.9144933372735968 19.158193681389093 37.230923548340797 1.3371692076325405 2.2606793008744708 5.6183926686644554 5.9038953930139533 4.1530648358166218 2.0007887855172148 33.101896353065968 5.5470122247934333 5.9190898686647415 6.7566275969147682 27.223315220326185 8.0669447779655439 4.3717952147126189 56.641048889607191 447.64922964945436 1.9996278285980214 1.3891377225518216 1.1835060231387604 1.176809974014758
leaf_count=106 57 561 3353 10 35 1643 32251 171 584 438 49 163 38 2658 116 150 280 218 34540 2218 283 2121 80 89 148 204 1020 17 40 65 38 2094 21 3505 206 91 130 400 62 474 32 219 509 7 14 36 44 37 31 520 33 35 68 289 49 37 830 7204 31 11 7 8
internal_value=0 -0.119548 -0.0229533 0.182498 0.0555676 -0.0517883 -0.180803 0.0763196 0.130861 -0.197306 -0.082186 0.181437 0.206978 -0.130608 -0.0312055 -0.172436 -0.147882 -0.0855687 0.208454 0.145246 -0.00602709 0.189871 0.158283 -0.0620189 -0.130908 -0.018681 -0.107038 -0.0462797 -0.186347 0.201105 0.196405 -0.200365 -0.14014 -0.192701 -0.0768763 -0.094582 0.040999 0.0573453 0.0950937 0.0977162 0.129338 -0.14469 -0.166365 -0.0887669 0.132018 -0.040772 0.0743425 -0.0506432 0.146999 -0.171489 -0.08588 -0.00220381 0.0635112 -0.208754 -0.10798 0.0104407 -0.17245 -0.213069 0.139467 -0.17049 -0.209838 -0.163247
internal_weight=0 3989.99 1548.34 2571.59 1095.77 591.376 2441.65 286.82 235.08 2091.64 350.015 504.394 2394.19 259.842 90.783 304.556 177.401 218.082 2385.66 210.634 53.232 492.347 303.214 57.2125 33.0764 51.2459 199.303 98.4632 291.324 190.642 157.402 126.155 41.2573 286.51 34.5879 73.7787 19.9091 90.1731 71.3643 47.9376 43.5806 53.8696 100.84 38.5681 62.355 10.6965 14.7519 8.84796 60.0944 51.7401 18.8088 13.2617 12.5719 30.4552 32.7066 12.4387 58.6348 452.572 39.8284 44.4376 123.907 12.0471
internal_count=100778 60622 20902 40156 13641 7517 39720 3500 2809 35321 4399 6124 37475 3775 1117 4017 2681 3070 37369 2829 537 5953 3832 479 254 570 2852 1316 3867 2214 2292 2111 390 3827 322 1001 221 624 507 571 506 780 1536 516 445 74 116 72 431 691 117 84 106 310 366 86 847 7261 469 595 2101 171
is_linear=0
shrinkage=0.2


Tree=11
num_leaves=63
num_cat=0
split_feature=10 14 2 9 9 14 6 4 14 3 0 7 9 7 15 14 15 12 1 9 9 19 14 6 18 6 9 9 15 3 9 9 15 15 1 15 6 4 18 7 14 14 10 3 1 3 1 9 10 14 4 7 9 7 2 4 2 6 15 15 2 9
split_gain=2844.77 1087.33 419.861 384.126 149.645 180.799 86.0915 58.4689 45.4735 32.7299 31.9882 35.5614 29.2491 26.7238 26.2896 23.4166 20.7414 20.573 19.2398 17.1681 17.8379 16.7337 15.182 13.9566 9.42602 9.38799 8.91801 91.1515 22.444 8.91096 8.67181 9.42386 8.6203 8.45479 8.25791 8.00952 9.81484 18.0749 8.9076 7.46585 6.70288 6.69959 6.11947 6.88729 6.01649 5.96372 5.80732 5.78023 5.3618 5.26187 5.2131 5.13722 5.05303 5.05842 4.96009 10.8804 4.88852 11.517 5.20127 21.4757 17.7594 13.0063
threshold=5.5000000000000009 19.500000000000004 0.59500000000000008 12.500000000000002 17.500000000000004 16.500000000000004 0.15500000000000003 0.29500000000000004 15.500000000000002 0.16500000000000004 0.49500000000000005 0.47500000000000003 1.0000000180025095e-35 0.055000000000000007 9.5000000000000018 14.500000000000002 254.50000000000003 0.95500000000000007 51.500000000000007 48.500000000000007 53.500000000000007 0.085000000000000006 12.500000000000002 0.56500000000000006 1.0000000180025095e-35 0.26500000000000007 17.500000000000004 14.500000000000002 254.50000000000003 0.49500000000000005 23.500000000000004 53.500000000000007 254.50000000000003 10.500000000000002 78.500000000000014 254.50000000000003 0.03500000000000001 0.095000000000000015 1.0000000180025095e-35 0.59500000000000008 9.5000000000000018 6.5000000000000009 2.5000000000000004 0.015000000000000001 2.5000000000000004 0.49500000000000005 1.5000000000000002 48.500000000000007 1.0000000180025095e-35 16.500000000000004 0.57500000000000007 0.43500000000000005 53.500000000000007 0.21500000000000002 0.30500000000000005 0.75500000000000012 0.03500000000000001 0.015000000000000001 254.50000000000003 4.5000000000000009 0.96500000000000008 14.500000000000002
decision_type=2 2 2 2 2 2 2 2 2 2 2 2 2 2 2 2 2 2 2 2 2 2 2 2 2 2 2 2 2 2 2 2 2 2 2 2 2 2 2 2 2 2 2 2 2 2 2 2 2 2 2 2 2 2 2 2 2 2 2 2 2 2
left_child=2 3 12 23 13 7 29 14 24 -10 11 16 -1 56 18 21 -3 22 41 25 -21 42 -16 -2 -4 32 27 -12 -29 35 34 46 -8 47 -24 -7 38 52 -37 -34 -20 -6 -14 -44 -43 -27 51 -17 -35 -15 -45 -32 53 -38 -50 -56 57 -5 59 -58 -61 -62
right_child=1 10 8 4 5 6 19 -9 9 -11 26 -13 15 49 17 33 -18 -19 40 20 -22 -23 30 -25 -26 45 -28 28 -30 -31 31 -33 39 48 -36 36 37 -39 -40 -41 -42 44 43 50 -46 -47 -48 -49 54 -51 -52 -53 -54 -55 55 -57 58 -59 -60 60 61 -63
leaf_value=-0.19726591624579665 -0.21420152115827085 -0.21529982468719022 -0.10421814691453338 -0.41668828966654425 0.27095430908094736 -0.21391593886094806 -0.22256125633097185 -0.18096873050825063 -0.21256070375026007 0.19462293939139488 -0.21185757411598338 -0.19446186721187275 -0.18112162039415577 0.19830218922102141 0.23464063078608471 -0.25893608538180118 0.25241400020010984 -0.18741020876764306 0.1470024757913137 0.20323203927152941 -0.15760716080671397 0.19147376224464693 -0.14265139039109603 0.19306077185943996 0.20024684934740875 -0.22074713968819931 -0.21017848850456422 -0.21837250551405327 0.33021037628331967 0.28404786878782434 -0.12540549726994293 -0.10991788224282953 0.32891468560628012 -0.33518827331700979 0.18580977805199772 -0.1732429412050138 0.21528657779380989 -0.21289778772477697 0.20730951342757639 -0.12788755790385187 -0.20044890200922635 -0.075881683747334186 0.23420287517586424 -0.25212227994328085 0.097565874370347971 0.22833896457130406 0.18870709420229179 0.13767029492534283 0.21006145802344334 -0.21395345665574617 0.15552571679601818 0.19046770289080123 -0.21847138085569459 -0.075522720557966758 -0.15760102889659519 0.21244926233028663 0.20470872898815134 0.13796044412032291 0.22753271076069026 0.21721080778962035 -0.25330418616392658 0.042679261781371797
leaf_weight=7.2489369623363009 214.96621719747782 4.8871153779327896 5.3955893069505718 1.6699343621730829 7.7754306197166434 81.645531959831715 2.5758221745491046 24.106278691440821 121.57404482737184 8.444815341383217 176.4766219817102 27.425849121063948 10.491474233567716 1.4630200341343869 125.32697534188628 2.5237346850335589 16.934436969459057 5.9756597205996504 2.6528499498963383 43.47914369776845 6.2702299505472174 17.622169818729162 8.3113521784543973 3.4193699285387984 16.522748209536076 10.848103027790781 1885.5081285350025 3.6222979165613678 16.906611986458302 1.7811631262302388 4.716262821108101 5.1225692108273497 5.2250831499695778 0.72400939464568992 4.8473376557230941 94.43231313303113 10.980916373431681 12.018842875957487 2.5261369571089736 1.9709946066141126 13.640695594251154 9.1613762006163579 4.145695708692072 3.5354671329259872 63.080614440143108 1.3275689519941813 70.546374700963497 3.5200987197458744 1922.4617837369442 8.0668014287948591 1.9452522359788416 3.6560199148952961 1.6459751427173621 3.0590432509779939 4.6980624534189692 9.824425879865883 206.2406396754086 14.500749215483664 118.8508187495172 17.233852654695511 8.1412582769989985 21.94888361543417
leaf_count=106 4034 78 32 7 44 1411 35 365 2408 103 3490 458 80 12 1149 15 173 91 15 711 91 208 75 28 138 119 38643 48 213 9 40 46 48 4 43 1406 172 221 31 16 76 41 36 22 430 17 940 51 36685 146 22 46 27 33 66 180 3354 94 1493 236 90 277
internal_value=0 -0.115445 0.179263 0.0330446 0.0842729 0.0235163 -0.0962551 0.119557 -0.14119 -0.186114 -0.20218 -0.042865 0.203745 0.18022 0.141861 0.205212 0.147666 0.178801 0.0542185 0.0927492 0.157753 0.0491799 0.188635 -0.207825 0.125297 -0.0545978 -0.205948 -0.165458 0.233414 -0.161376 0.129316 0.152954 0.0914114 0.208242 -0.0216544 -0.165222 -0.13333 -0.0283477 -0.163328 0.203797 -0.143878 0.0945559 -0.0754618 0.0396929 0.0755701 -0.171781 0.170017 -0.0279414 0.208978 -0.150664 -0.107437 0.0125304 0.113058 0.151925 0.209182 0.092737 0.188335 0.0806823 0.193009 0.176827 0.0553192 -0.0374027
internal_weight=0 3376.97 2140.68 1245.21 1026.82 628.707 279.787 348.92 151.937 130.019 2131.76 49.2474 1988.74 398.116 324.814 1981.49 21.8216 228.503 96.311 71.6969 49.7494 37.7401 222.527 218.386 21.9183 21.9476 2082.51 197.006 20.5289 208.09 97.1999 84.0412 9.7719 1943.75 13.1587 206.309 124.663 27.7048 96.9585 7.19608 16.2935 80.0174 20.1179 9.62642 72.242 12.1757 78.9187 6.04383 1937.71 9.52982 5.48072 8.37228 15.6859 14.04 1936.98 14.5225 388.586 16.1707 372.415 253.565 47.324 30.0901
internal_count=100778 60622 40156 17519 13457 7748 4347 3401 2681 2511 43103 709 37475 5709 3036 37369 251 2430 606 1037 802 368 2339 4062 170 235 42394 3751 261 3310 1190 1072 99 37001 118 3301 1890 453 1437 64 91 515 160 80 471 136 1026 66 36935 158 44 86 232 205 36931 246 5551 101 5450 3957 603 367
is_linear=0
shrinkage=0.2


Tree=12
num_leaves=63
num_cat=0
split_feature=10 14 2 14 13 15 6 3 13 14 13 1 11 3 4 13 2 1 7 13 13 11 14 14 1 14 14 5 1 4 15 14 13 2 19 11 19 10 18 15 7 13 15 19 1 14 13 6 13 13 1 3 15 16 14 15 15 14 11 3 1 6
split_gain=2280.66 888.335 338.828 193.296 73.4905 55.7165 58.5494 47.0025 39.8308 36.7654 31.0718 43.0848 30.2819 26.4164 22.7727 22.7158 25.8099 26.4392 20.8511 50.5697 19.7161 14.0557 14.011 13.7023 18.4701 12.8145 12.5831 12.3659 12.1657 11.5432 11.4463 11.139 10.2668 9.55099 8.90569 7.55294 7.4981 7.33118 7.11266 6.88481 8.70065 6.14966 6.08375 10.865 9.87057 6.07328 17.8892 5.97367 5.51262 5.1008 5.04893 5.02992 4.96242 4.92485 4.91621 5.87506 4.84394 9.35813 13.4467 6.68192 5.9496 24.1566
threshold=5.5000000000000009 19.500000000000004 0.59500000000000008 16.500000000000004 434.50000000000006 4.5000000000000009 0.15500000000000003 0.055000000000000007 136.50000000000003 15.500000000000002 4.5000000000000009 2.5000000000000004 1.0000000180025095e-35 0.49500000000000005 0.96500000000000008 7.5000000000000009 0.72500000000000009 254.50000000000003 0.065000000000000016 13.500000000000002 51.500000000000007 1.0000000180025095e-35 9.5000000000000018 9.5000000000000018 9.5000000000000018 18.500000000000004 8.5000000000000018 0.03500000000000001 10.500000000000002 0.26500000000000007 9.5000000000000018 17.500000000000004 79.500000000000014 0.6150000000000001 0.56500000000000006 1.0000000180025095e-35 0.16500000000000004 8.5000000000000018 1.0000000180025095e-35 19.500000000000004 0.56500000000000006 8.5000000000000018 4.5000000000000009 0.03500000000000001 2.5000000000000004 17.500000000000004 262.50000000000006 1.0000000180025095e-35 168.50000000000003 2.5000000000000004 20.500000000000004 0.9900000000000001 232.50000000000003 0.03500000000000001 17.500000000000004 254.50000000000003 2.5000000000000004 14.500000000000002 1.0000000180025095e-35 1.0000000180025095e-35 210.50000000000003 1.0000000180025095e-35
decision_type=2 2 2 2 2 2 2 2 2 2 2 2 2 2 2 2 2 2 2 2 2 2 2 2 2 2 2 2 2 2 2 2 2 2 2 2 2 2 2 2 2 2 2 2 2 2 2 2 2 2 2 2 2 2 2 2 2 2 2 2 2 2
left_child=2 3 10 7 5 12 15 23 18 38 11 22 28 -11 26 53 20 54 51 36 -17 39 -1 -2 35 32 -13 50 -5 37 34 47 -19 -22 -24 -25 -20 -26 -4 -8 -41 -42 44 -44 -37 -34 -47 -6 -27 56 -21 -3 -31 -7 55 -18 57 58 -39 -59 -58 -62
right_child=1 8 9 4 31 6 21 -9 -10 13 -12 14 -14 -15 -16 16 17 25 19 27 33 -23 30 24 29 48 -28 -29 -30 52 -32 -33 45 -35 -36 42 -38 49 -40 40 41 -43 43 -45 -46 46 -48 -49 -50 -51 -52 -53 -54 -55 -56 -57 60 59 -60 -61 61 -63
leaf_value=-0.15273819237046593 0.22314629799598809 -0.20683465379938762 -0.083847174346172115 -0.11850869576765206 -0.22211617879682732 -0.18891370703149979 -0.14589928933987834 -0.15839146743363294 0.20013374867949182 -0.20768961430239044 0.20945385671675207 0.13726250452696384 -0.206073222056326 0.21972482634933066 0.21128955481076633 -0.098600908981298169 -0.20901357811902668 0.16747995845973548 -0.20161207646306245 0.28431328082138724 0.2024538000605558 -0.21233406350078041 -0.26228271378532075 0.082402703471610092 -0.19050740106786057 -0.0076487172062947879 -0.22644542174153567 -0.22547534184695128 0.19821314815562738 0.15077581845336807 0.20264015957983209 0.21043022898893385 -0.22214674772712689 -0.023719686228174757 0.2302770586629781 -0.17747624423573163 0.27808639010723912 -0.48115620863773617 0.18568512139528698 0.17415275105076763 -0.16011216467106437 0.2184684874092187 -0.25263254065051072 0.16208756342617689 0.21829654370028831 -0.10663549179008876 0.18847811348012389 0.20947881741005581 0.21813863672891923 0.20391635885644899 -0.21057237736732209 0.2843389034185495 -0.21459398968410259 0.085757276286219736 -0.18695650396737126 0.14805844872508783 0.13013398380645994 0.20019108719311041 0.09720517757492475 -0.50024440777173018 0.1226117007122316 -0.56476166377422521
leaf_weight=5.0568330958485594 71.999910365790129 1678.1554224565625 5.3684222027659443 5.3736246526241294 3.9448674023151389 128.78474144637585 3.5990499071776858 21.665316864848137 9.9108963683247548 101.81308781355619 1496.2263700515032 4.5681046992540386 10.30211231485009 6.1324788853526107 8.373052164912222 26.092939745634794 3.4614612236618987 6.6562173552811137 56.926218286156654 14.837583355605602 23.813065495342016 5.5171090699732295 3.8800856359302989 45.135548319667578 2.4297667331993571 7.9515308961272266 22.773936716839671 2.4594679065048686 49.888906922191381 2.1341189742088309 108.19157558679581 48.623332750052214 12.027186013758181 10.880849901586769 2.3621598109602928 4.2499874532222766 1.3339327350258816 1.8537759222090215 14.477658633142708 45.471176438033581 5.8401869274675828 2.4306080527603626 9.8956784121692163 3.3933218829333773 6.1946231424808502 64.17361955717206 9.4226200282573682 1.9008887261152265 9.4845783561468107 73.295436192303896 0.87313720211386758 0.83438538014888664 4.9031042531132698 2.6651595048606387 116.42031694203615 3.9423764571547508 95.384062752127647 92.161436960101128 12.126449070870876 0.54802399128675361 10.190100360661743 2.5585609525442115
leaf_count=42 545 41382 32 46 44 2511 38 380 210 2416 34617 36 190 95 176 463 84 78 1266 173 342 118 28 439 34 116 241 36 967 16 2305 1068 134 185 30 18 13 12 138 797 56 39 91 34 35 1085 139 44 129 1190 19 4 86 34 2780 31 1062 1824 91 4 128 12
internal_value=0 -0.112558 0.17634 0.0313475 -0.0426028 -0.0643898 -0.0876189 0.129173 -0.199683 -0.13741 0.200618 0.11544 0.10873 -0.183408 -0.0773031 -0.114219 -0.0833471 -0.113563 -0.20194 -0.0997765 0.0327401 0.0925622 0.17305 0.143382 0.12771 -0.0420734 -0.16568 0.191529 0.167416 0.149311 0.187447 0.17907 -0.0717845 0.13152 -0.0758907 0.0343743 -0.190629 0.155441 0.112776 0.121898 0.139832 -0.0488555 -0.056964 -0.146735 0.0572537 -0.0903845 -0.0688517 -0.0817726 0.115171 0.158358 0.25681 -0.206591 -0.103791 -0.183345 -0.176907 -0.0188808 0.142814 0.173049 0.0205145 0.196051 0.112983 -0.015339
internal_weight=0 2834.12 1779.22 1068.79 608.669 554.199 488.635 460.119 1765.33 127.792 1651.43 155.206 65.5646 107.946 35.7151 425.777 294.327 233.54 1755.42 76.4303 60.7869 62.8581 119.491 438.454 366.454 109.716 27.342 18.1702 55.2625 297.585 114.434 54.4691 92.2796 34.6939 6.24225 68.8692 58.2602 290.548 19.8461 57.341 53.742 8.27079 23.7336 13.289 10.4446 85.6234 73.5962 5.84576 17.4361 288.118 15.7107 1678.99 7.03722 131.45 123.824 7.40384 214.822 106.69 13.9802 92.7095 108.133 12.7487
internal_count=100778 60622 40156 17519 11518 10362 9159 6001 43103 2681 37475 2858 1203 2511 453 8111 5566 4576 42893 1507 990 1048 2405 5621 5076 1681 277 228 1013 4459 2363 1156 1436 527 58 617 1279 4357 170 930 892 95 178 125 53 1358 1224 88 245 4323 192 41386 102 2545 2895 115 3133 1931 103 1828 1202 140
is_linear=0
shrinkage=0.2


Tree=13
num_leaves=63
num_cat=0
split_feature=10 14 9 6 9 14 6 13 1 4 13 14 15 0 13 5 4 7 13 6 5 1 9 9 15 14 13 9 14 14 6 13 15 14 15 14 16 6 11 14 1 1 15 15 11 14 9 17 7 1 14 14 9 16 6 11 9 0 7 12 10 10
split_gain=1823.75 733.698 258.578 256.632 105.192 104.734 52.8548 35.3983 45.0244 33.4133 32.0035 28.2107 25.0607 23.5969 25.0671 18.428 18.2038 17.4372 16.6139 30.9716 14.0826 13.3652 12.7409 12.8432 12.6033 12.3792 17.9712 12.3285 12.1769 11.414 9.31159 8.02468 35.459 14.1071 16.7229 21.0623 7.75488 7.29604 6.64075 6.59206 6.45688 6.45536 6.33704 5.85773 5.80015 12.9785 5.5424 9.102 5.50247 5.39634 5.06807 4.91313 12.7645 4.81288 4.68023 4.65773 4.55223 4.31446 4.28991 4.08726 4.0618 3.99032
threshold=5.5000000000000009 19.500000000000004 12.500000000000002 0.015000000000000001 17.500000000000004 16.500000000000004 0.14500000000000005 4.5000000000000009 2.5000000000000004 0.29500000000000004 136.50000000000003 15.500000000000002 9.5000000000000018 0.49500000000000005 8.5000000000000018 0.66500000000000015 0.59500000000000008 0.055000000000000007 28.500000000000004 1.0000000180025095e-35 0.99500000000000011 51.500000000000007 48.500000000000007 53.500000000000007 254.50000000000003 13.500000000000002 1.5000000000000002 64.500000000000014 9.5000000000000018 11.500000000000002 0.56500000000000006 8.5000000000000018 4.5000000000000009 11.500000000000002 254.50000000000003 15.500000000000002 0.025000000000000005 0.26500000000000007 1.0000000180025095e-35 15.500000000000002 2.5000000000000004 80.500000000000014 14.500000000000002 254.50000000000003 1.0000000180025095e-35 10.500000000000002 46.500000000000007 0.015000000000000001 0.59500000000000008 210.50000000000003 6.5000000000000009 14.500000000000002 14.500000000000002 0.045000000000000005 0.66500000000000015 1.0000000180025095e-35 14.500000000000002 0.03500000000000001 0.67500000000000016 0.95500000000000007 9.5000000000000018 9.5000000000000018
decision_type=2 2 2 2 2 2 2 2 2 2 2 2 2 2 2 2 2 2 2 2 2 2 2 2 2 2 2 2 2 2 2 2 2 2 2 2 2 2 2 2 2 2 2 2 2 2 2 2 2 2 2 2 2 2 2 2 2 2 2 2 2 2
left_child=3 2 30 11 17 9 18 8 29 12 13 40 21 14 -3 28 -13 31 36 -20 25 50 37 -24 -16 -14 38 -21 -10 -5 -2 32 51 -34 39 -36 -7 43 -27 -35 -1 -40 54 -8 -23 -46 47 57 -45 -48 -6 52 -4 -42 -31 -52 -12 -28 -59 -39 -25 -15
right_child=1 10 4 7 5 6 22 -9 15 -11 56 16 20 61 24 -17 -18 -19 19 27 -22 44 23 60 -26 26 46 -29 -30 42 -32 -33 33 34 35 -37 -38 59 41 -41 53 -43 -44 48 45 -47 49 -49 -50 -51 55 -53 -54 -55 -56 -57 -58 58 -60 -61 -62 -63
leaf_value=-0.23790880754987304 -0.21061201668617741 -0.19848319128379446 -0.52719695946278011 -0.067093894966537657 0.24411290859362761 -0.19368016332893753 -0.21555953947505666 0.20738062675739444 0.13062428129484857 -0.16248316849276204 -0.21251132290130581 -0.20497154103620568 0.21272961717014227 -0.20383205419838327 -0.2120821198654341 0.18784508852993381 0.15680292219819139 -0.14318885504111614 -0.21836910514720517 0.22450914757704982 -0.21114832195418229 -0.34472986268238698 0.19355805017196426 -0.2265146798146975 0.21856032412819448 -0.203336328303724 0.26064553587669675 -0.21538615723878465 -0.22330033266504135 -0.23230519376803249 0.16358684254199865 0.22042913098251954 0.24852572316778443 0.12759356626790433 -0.21934250562796526 0.30128896107832637 0.11581810261255834 -0.21399751730688399 -0.18991090408470618 -0.24794312947025399 -0.12110336539200368 0.20922326749473968 0.20127436477437777 0.30279858883374577 0.28321272885414822 -0.19625918396418612 0.21303613189407927 0.21552700960088497 -0.11514942549561756 -0.45330339520713975 -0.084865762014226409 0.20327130638152374 0.17884956549314515 0.19169176197030552 0.13567471729007513 0.071407689282707965 0.23720353427142246 -0.26568840958087031 0.098174261451095465 0.21955481637371019 0.22922464256260855 0.26346864199466846
leaf_weight=1.9960074871778513 155.57874455302954 19.054222829639912 1.3352619819343079 7.5929344631731501 5.8689806275069705 114.33076651953161 1.9809249080717579 1236.6996518857777 4.6473725959658649 18.236913826316595 1.0194505490362624 78.805273327976465 104.34711866825819 1416.1412743069232 3.3802633695304403 7.4492459371685973 5.9860870428383341 6.9666155129671088 17.774665519595146 15.381415098905565 3.9689611047506324 4.0510165169835064 32.0788409486413 4.3023243173956862 13.883191268891096 8.6117373481392843 1.1413226909935454 3.0544842705130568 23.810569634661078 2.3556677997112265 2.7062536254525176 107.39434881135821 6.3679851666092864 2.1204619258642223 5.1560108959674853 7.8257221356034279 3.3327094428241244 9.0612194593995774 2.5909302420914164 15.81171355769038 2.3174482285976401 4.3290308676660061 87.304487258195877 4.3028131872415543 3.0987549796700486 8.3247572556138021 34.545583441853523 7.3844197504222393 1.7817674688994882 0.49308642745017905 8.8406602963805181 140.97046050429344 4.3970172330737114 13.035386897623537 3.3467583544552326 55.660217586904764 7.7063177935779095 4.5356127768754959 1.8146283924579618 0.96213494986295778 0.95608630776405323 0.73130650818347831
leaf_count=11 4034 461 16 80 44 2700 38 34634 41 365 19 2296 1310 42180 70 171 114 158 272 230 86 23 713 87 178 66 12 56 333 19 28 1909 42 13 22 43 38 119 26 171 12 52 2246 50 19 49 690 120 17 2 46 3287 48 143 56 425 191 47 19 17 10 4
internal_value=0 -0.108473 0.0289931 0.173963 0.075987 0.0187098 -0.0881369 0.196712 0.100061 0.0991976 -0.197218 -0.131887 0.11758 -0.199511 -0.0403253 -0.0921973 -0.179431 0.16951 -0.148457 -0.029993 0.161257 0.0291723 0.0793238 0.146067 0.134239 0.169962 0.101773 0.151627 -0.165502 0.168684 -0.204214 0.176987 0.151629 -0.0225409 -0.0783782 0.0945075 -0.184914 -0.0584408 -0.0861072 -0.203536 0.100483 0.0597819 0.187932 0.0831577 -0.139113 -0.0661971 0.160235 0.0579533 0.18041 0.203659 0.0661788 0.195891 0.014385 0.144477 -0.0163375 0.0499884 0.184662 -0.0973668 -0.161712 -0.172381 -0.143652 -0.203591
internal_weight=0 2405.69 943.774 1475.35 785.489 487.144 209.3 1373.21 136.507 277.844 1461.92 102.14 259.607 1453.19 36.3177 35.9072 84.7914 298.346 153.874 36.2106 173.762 85.8444 55.4261 37.3373 17.2635 169.793 65.4464 18.4359 28.4579 100.6 158.285 291.379 183.985 37.2819 30.9139 12.9817 117.663 18.0889 15.5317 17.9322 17.3488 6.91996 93.0069 8.06551 15.4745 11.4235 49.9147 14.876 6.08458 35.0387 70.3699 146.703 5.73228 15.3528 5.70243 64.5009 8.72577 7.49156 6.35024 10.0234 5.25841 1416.87
internal_count=100778 60622 17519 40156 13457 7748 4347 37580 2946 3401 43103 2576 3036 42893 709 545 2410 5709 3296 558 2430 606 1051 810 248 2344 1034 286 374 2401 4062 5551 3642 291 249 65 2738 241 144 184 166 78 2321 105 91 68 890 198 67 692 515 3351 64 155 75 471 210 78 66 136 97 42184
is_linear=0
shrinkage=0.2


Tree=14
num_leaves=63
num_cat=0
split_feature=0 11 9 9 9 13 1 3 6 19 9 1 9 6 1 19 4 19 11 4 13 15 15 6 6 15 13 6 1 9 6 7 9 15 8 16 1 6 13 4 3 1 15 17 1 1 19 6 19 13 15 6 19 15 4 12 9 6 15 9 6 6
split_gain=1448.87 307.279 270.641 154.2 147.608 99.5263 61.1763 52.6362 42.653 38.0873 29.6522 32.939 26.1331 23.6462 22.6585 38.8003 19.6758 23.2146 18.9999 16.7604 16.6195 43.9893 14.6323 14.1089 13.291 11.7041 11.8558 9.88583 9.66023 8.93921 8.32797 7.69988 7.09121 7.88945 6.75089 7.09756 7.06124 6.67395 6.4877 6.201 6.78265 6.18896 15.6606 7.59383 5.50935 5.49079 5.35673 5.29714 5.07121 4.82606 4.38177 4.23985 4.14907 3.88852 3.76895 3.76022 3.75449 5.55005 3.38553 3.00882 2.9978 9.82651
threshold=0.49500000000000005 1.0000000180025095e-35 12.500000000000002 17.500000000000004 47.500000000000007 13.500000000000002 86.500000000000014 0.36500000000000005 1.0000000180025095e-35 1.0000000180025095e-35 49.500000000000007 210.50000000000003 19.500000000000004 0.015000000000000001 10.500000000000002 0.33500000000000008 0.03500000000000001 1.0000000180025095e-35 1.0000000180025095e-35 0.03500000000000001 8.5000000000000018 4.5000000000000009 19.500000000000004 0.10500000000000002 0.015000000000000001 86.500000000000014 6.5000000000000009 1.0000000180025095e-35 254.50000000000003 19.500000000000004 0.32500000000000007 0.99500000000000011 19.500000000000004 14.500000000000002 0.03500000000000001 0.15500000000000005 9.5000000000000018 0.14500000000000005 6.5000000000000009 1.0000000180025095e-35 0.015000000000000001 252.50000000000003 252.50000000000003 0.025000000000000005 61.500000000000007 100.50000000000001 0.075000000000000025 0.025000000000000005 0.56500000000000006 2.5000000000000004 33.500000000000007 1.0000000180025095e-35 0.49500000000000005 27.500000000000004 0.24500000000000002 0.23500000000000001 62.500000000000007 0.17500000000000002 109.50000000000001 18.500000000000004 0.045000000000000005 0.32500000000000007
decision_type=2 2 2 2 2 2 2 2 2 2 2 2 2 2 2 2 2 2 2 2 2 2 2 2 2 2 2 2 2 2 2 2 2 2 2 2 2 2 2 2 2 2 2 2 2 2 2 2 2 2 2 2 2 2 2 2 2 2 2 2 2 2
left_child=5 2 30 20 7 16 8 14 34 12 11 22 -8 51 15 47 17 60 -15 23 21 -4 48 52 28 -11 27 41 -23 -29 -2 -20 39 -34 36 -36 -3 -17 54 44 -41 -27 -43 -44 -10 -24 -25 -5 -6 -47 -32 -7 -12 56 -38 -45 57 -21 -19 -9 -1 -62
right_child=1 6 3 4 10 13 9 59 32 25 19 -13 -14 18 -16 37 -18 58 31 53 -22 24 45 46 -26 26 -28 29 -30 -31 50 -33 33 -35 35 -37 38 -39 -40 40 -42 42 43 55 -46 49 -48 -49 -50 -51 -52 -53 -54 -55 -56 -57 -58 -59 -60 -61 61 -63
leaf_value=-0.20171404046848226 -0.2076892230930808 -0.05068380792379943 0.19115227011926933 -0.018724270919681787 -0.12831303966293539 0.2324903125640837 0.23958411690094336 0.045198134530389553 -0.15805048545881972 -0.20412833944852862 -0.20287600096018865 -0.24727734182247577 -0.20544422500617843 0.20482420916177935 -0.20602746098253855 -0.14446541492446441 0.20403555530233089 -0.21981124365135016 -0.20375108294985861 0.19153937806932808 0.23365312868408436 -0.19436278141762001 0.20620763418961913 -0.16130243263450028 0.081163523280972427 0.17072020031778995 -0.17301269334423194 0.22886579569046914 0.17653030883173795 -0.18415780965097797 -0.18734271756125292 0.24271831384261278 -0.016719147642100939 -0.18396213572739439 -0.18237566394560178 0.22761450936871153 0.080226118316953976 0.18998460079237395 -0.18586192355953327 0.13976322680385245 -0.21524321122230622 -0.20757179626985056 -0.063258081629002857 0.1805817415339894 0.086197061366554681 0.0028406011312471636 0.20222801764674686 -0.18156104404979584 0.20893468470050527 0.20908646255201857 0.1927805303096353 -0.21482891580188387 -0.59014370231058944 0.18207481274269471 0.47643594415584156 0.55158970369174731 -0.221716270211336 -0.30062156666348955 0.21461835267138471 0.22907987300795216 0.014493243477221369 -0.22477246340002061
leaf_weight=22.132775938138366 220.71055052801967 26.572166128084064 123.55265601351857 9.4397912099957448 8.2602395433932525 0.97595752775668998 5.3119434714317313 4.6668397393077639 24.374354895204309 19.812435913830996 18.218908365815885 7.9437396991997948 827.95472084544599 1023.4962459467351 137.35762596875429 2.7119859717786339 10.727816319093106 0.77555547282099624 6.4177911821752769 4.3218509219586876 100.74624993652105 20.565599253401164 112.26051365025342 2.3156137187033883 18.822334239259362 14.726526618003843 17.779978709295392 2.4876491837203494 3.2533549219369879 13.316721877083181 1.9484875202178944 2.0350657738745213 12.515847180038689 114.50812280364335 10.810498865321277 2.001706361770629 62.03355622664094 19.891822787001729 3.7079893089830867 8.7343762759119254 2.8568254709243766 8.7954359818249959 5.6467106249183443 9.3131334371864778 4.3538741655647746 10.858985818922521 5.4078167974948883 52.062658116221428 2.2746266163885585 7.7964830864220849 3.2135364171117544 6.44291165843606 1.1781532391905774 11.547151898965238 0.97545279562473197 1.2379664890468109 2.2075505368411541 1.1631961800158022 9.5926293153315765 14.999873153865336 14.004762625321748 13.469320364296435
leaf_count=596 7236 297 3358 104 104 9 55 102 744 670 409 196 30696 34407 4033 43 343 13 136 56 2131 358 2859 31 184 304 543 32 16 377 39 26 258 3542 234 23 834 576 129 149 75 269 123 171 77 244 106 1553 59 217 68 148 8 286 6 8 34 7 159 376 208 324
