tree
version=v3
num_class=1
num_tree_per_iteration=1
label_index=0
max_feature_idx=41
objective=binary sigmoid:1
feature_names=Column_0 Column_1 Column_2 Column_3 Column_4 Column_5 Column_6 Column_7 Column_8 Column_9 Column_10 Column_11 Column_12 Column_13 Column_14 Column_15 Column_16 Column_17 Column_18 Column_19 Column_20 Column_21 Column_22 Column_23 Column_24 Column_25 Column_26 Column_27 Column_28 Column_29 Column_30 Column_31 Column_32 Column_33 Column_34 Column_35 Column_36 Column_37 Column_38 Column_39 Column_40 Column_41
feature_infos=[0:42908] [0:2] [0:69] [0:10] [0:1379963888] [0:1309937401] [0:1] [0:3] none [0:77] [0:5] [0:1] [0:7479] [0:1] [0:2] [0:7468] [0:43] [0:2] [0:8] none [0:1] [0:511] [0:511] [0:1] [0:1] [0:1] [0:1] [0:1] [0:1] [0:1] [0:255] [0:255] [0:1] [0:1] [0:1] [0:1] [0:1] [0:1] [0:1] [0:1] [0:22] [0:21]
tree_sizes=1746 1312 6823 6875 6909 6915 6925 6891 6902 6924 6903 6907 6926 6933 6960 6808 6937 6927 6944 6951 6948 6980 6959 6972 6973 6982 6975 6974 7027 6985 6979 7023 7005 6802 7002 7015 6786 6971 6980 6963 6832 7014 6842 6991 7020 6834 7009 7002 7007 6826 7025 7011 7008 7007 7042 7031 7005 7021 7004 7028 6857 7063 7068 7069 7055 7050 6851 7075 6859 7077 7081 7067 7078 7097 7060 7075 7086 7079 7063 7080 7080 7086 7091 7090 6928 7087 6948 7105 7101 7086 7114 7116 7110 7128 7115 7106 7111 7131 7109 7123 7124 7131 7115 7134 6964 7134 7132 7141 7154 6997 7157 7148 7153 7153 7152 7147 7155 7162 7155 7008 7174 7148 7168 7167 7150 7168 7178 7197 7179 7178 7181 7177 7181 7188 7192 7199 7199 7196 7210 7194 7181 7204 7213 7206 7212 7229 7226 7122 7239 7235 7245 7249 7259 7249 7253 7252 7262 7243 7267 7246 7274 7252 7274 7287 7283 7254 7249 7281 7205 7280 7283 7278 7296 7281 7290 7297 7309 7283 7307 7297 7284 7283 7304 7302 7329 7307 7342 7309 7301 7315 7305 7313 7303 7328 7333 7328 7310 7351 7342 7335 7325 7326 7340 7325 7295 7320 7356 7359 7360 7381 7375 7347 7335 7371 7382 7374 7384 7373 7395 7381 7389 7410 7392 7404 7405 7414 7403 7406 7422 7421 7392 7397 7419 7398 6699 6593 7386 5086 6036 5210 6506 6164 4528 3933 4534 4874 4648 4077 3252 4315 3955 4063 2670 2676 2901 3026 3498 3144 3008 3365 3266 3839 2296 2646 3207 2381 2265 2169 2507 2170 1834 2401 2132 1812 2063 1732 1133 1821 2654 2065 1581 1357 2049 1362 1976 1577 1360 1939 1370 1257 1146 1366 919 919 1289 1148 702 1636 922 1179 1152 1039 928 1036 813 1171 928 817 926 814 698 705 832 834 832 833 829 715 714 828 715 718 713 599 603 483 598 482 599 597 599 485 597 483 479 484 483 482 482 480 485 486 483 483 486 364 487 364 484 486 487 366 362 368 367 365 362 363 365 365 363 365 363 365 365 365 364 365 364 365 364 367 364 364 364 365 364 364 363 363 364 365 363 365 365 365 364 365 364 365 364 363 365 364 363 365 364 365 365 365 365 363 365 365 365 365 367 365 366 364 365 365 366 368 366 366 366 367 367 367 366 367 369 366 367 366 367 367 368 367 366 367 368 366 367 366 367 367 369 367 367 365 367 367 365 364 369 367 366 367 366 367 369 364 368 366 367 367 368 367 367 367 367 367 367 367 368 367 367 367 369 367 369 367 367 367 367 369 366 366 365 367 367 366 366 369 366 367 365 369 367 367 366 366 367 367 367 369 367 367 367 368 367 367 367 367 367 365 368 365 367 367 367 366 365 367 369 367 365 366 368 367 367 369 367 366 367 369 367 367 367 367 369 366 365 367 368 367 367 369 367 367 367 368 367 365 366 368 367 366 366 369 367 367 368 366 367 366 366 368 367 367 367 369 367 366 367 366 367 369 367 365 366 367 365 367 366 366 366 366 367 366 365 366 365 367 367 365 367 366 367 365 366 365 363 367 365 366 366 365 365 367 365 366 367 367 366 365 366 366 367 367 369 369 369 367 366 365 365 369 369 369 368 368 368 369 366 369 366 366 369 367 369 366 370 368 367 366 367 371 369 368 369 371 370 371 371 371 370 371 368 371 369 370 371 371 368 370 371 370 371 371 370 369 368 371 371 369 371 368 368 366 371 371 370 371 371 370 371 371 370 369 369 368 370 369 370 371 371 371 369 371 369 368 371 370 371 371 370 370 371 370 369 370 368 370 369 371 371 371 370 370 370 370 371 371 370 371 371 370 369 371 370 370 369 371 371 371 370 369 370 371 370 371 371 371 370 371 371 371 370 370 371 371 369 368 370 369 369 370 371 371 369 370 371 370 369 371 367 371 371 371 371 371 371 371 370 371 370 371 369 370 371 368 370 371 371 369 371 370 371 371 370 371 371 370 371 370 370 371 371 370 369 371 367 371 371 370

Tree=0
num_leaves=15
num_cat=0
split_feature=4 40 40 40 40 0 0 3 34 0 2 30 30 0
split_gain=71749.1 11020.6 4651.1 9262.16 4095 1.81899e-12 4.54747e-13 4.54747e-13 4.54747e-13 2.27374e-13 1.42109e-14 1.42109e-14 7.10543e-15 3.55271e-15
threshold=28.500000000000004 11.500000000000002 10.500000000000002 14.500000000000002 10.500000000000002 40242.000000000007 22.500000000000004 8.5000000000000018 0.16500000000000004 150.50000000000003 35.500000000000007 251.50000000000003 166.50000000000003 103.50000000000001
decision_type=2 2 2 2 2 2 2 2 2 2 2 2 2 2
left_child=2 4 -1 6 9 -5 8 -3 -4 -2 -7 12 -12 -8
right_child=1 7 3 5 -6 10 13 -9 -10 -11 11 -13 -14 -15
leaf_value=-0.031114957782030397 -0.031114957782030397 -0.031114957782030397 -0.23207623433506125 -0.031114957782030397 -0.23207623433506125 -0.031114957782030522 -0.23207623433506125 -0.031114957782030397 -0.23207623433506125 -0.031114957782030397 -0.031114957782030481 -0.031114957782030397 -0.031114957782030397 -0.23207623433506122
leaf_weight=9180.8732092380524 256.01947242021561 2.9856498241424552 636.44102084636688 1453.7626602053642 12467.078449010849 2.9856498241424587 2.4880415201187125 749.89571416378021 293.34009522199631 2.7368456721305838 4.2296705842018154 8.2105370163917524 8.2105370163917524 4.7272788882255554
leaf_count=36900 1029 12 2558 5843 50108 12 10 3014 1179 11 17 33 33 19
internal_value=-0.138545 -0.216993 -0.0473543 -0.109105 -0.22799 -0.031115 -0.232076 -0.031115 -0.232076 -0.031115 -0.031115 -0.031115 -0.031115 -0.232076
internal_weight=0 13478.7 11595.3 2414.4 12725.8 1477.4 936.996 752.881 929.781 258.756 23.6364 20.6507 12.4402 7.21532
internal_count=100778 54174 46604 9704 51148 5938 3766 3026 3737 1040 95 83 50 29
is_linear=0
shrinkage=1


Tree=1
num_leaves=11
num_cat=0
split_feature=4 40 40 40 40 0 27 27 0 31
split_gain=64864.6 10011.4 4145.82 8356.74 3723.71 7.27596e-12 7.27596e-12 9.09495e-13 4.54747e-13 3.55271e-15
threshold=28.500000000000004 11.500000000000002 10.500000000000002 14.500000000000002 10.500000000000002 26357.000000000004 0.76500000000000012 0.88500000000000012 28.500000000000004 63.500000000000007
decision_type=2 2 2 2 2 2 2 2 2 2
left_child=2 4 6 8 -2 -6 -1 -8 -4 -10
right_child=1 -3 3 -5 5 -7 7 -9 9 -11
leaf_value=0.10158020351089564 0.10158020351089564 0.10158020351089564 -0.089644280551231817 0.10158020351089564 -0.089644280551231817 -0.089644280551231817 0.10158020351089564 0.10158020351089564 -0.089644280551231817 -0.089644280551231803
leaf_weight=8150.2771974205971 259.9370813369751 756.31693089008331 922.52253353595734 1484.1407586336136 12357.362001359463 2.4666377902030936 10.997338056564329 1061.4930619597435 2.9599653482437125 3.4532929062843323
leaf_count=32609 1040 3026 3740 5938 50098 10 44 4247 12 14
internal_value=0 -0.0751159 0.086314 0.0279666 -0.0857055 -0.0896443 0.10158 0.10158 -0.0896443 -0.0896443
internal_weight=0 13376.1 11635.8 2413.08 12619.8 12359.8 9222.77 1072.49 928.936 6.41326
internal_count=100778 54174 46604 9704 51148 50108 36900 4291 3766 26
is_linear=0
shrinkage=0.05


Tree=2
num_leaves=63
num_cat=0
split_feature=5 21 34 2 36 9 1 0 3 7 35 35 32 32 38 33 32 5 32 31 21 34 37 11 0 5 38 33 37 37 38 7 31 1 21 11 22 2 1 22 31 31 35 35 35 33 34 1 15 2 38 38 33 38 27 5 2 36 34 0 34 3
split_gain=54574.3 8973.49 3326.67 3511.39 2039.25 1833.68 1002.7 875.402 394.553 284.732 257.61 231.12 604.423 197.588 492.867 173.786 160.506 142.714 124.524 123.122 96.7783 203.292 72.7153 67.8685 59.6276 57.9459 61.8657 57.1657 54.7615 48.375 46.6952 44.7971 46.0466 41.1885 38.3233 34.2444 33.4712 31.8974 27.4274 38.3626 27.3774 85.4027 40.4851 37.6116 34.7948 23.3886 225.104 65.9405 20.3763 20.8163 19.6654 19.014 18.9279 18.326 101.41 12.6073 12.2644 31.4668 57.6568 11.716 8.85519 8.81316
threshold=1.0000000180025095e-35 23.500000000000004 0.99500000000000011 45.500000000000007 0.96500000000000008 1.0000000180025095e-35 1.0000000180025095e-35 18.500000000000004 3.5000000000000004 1.0000000180025095e-35 1.0000000180025095e-35 0.10500000000000002 0.99500000000000011 0.03500000000000001 0.03500000000000001 0.92500000000000016 0.31500000000000006 8586.5000000000018 0.99500000000000011 52.500000000000007 3.5000000000000004 0.78500000000000014 0.095000000000000015 1.0000000180025095e-35 44.500000000000007 2425.5000000000005 0.34500000000000003 0.025000000000000005 0.32500000000000007 0.9900000000000001 0.49500000000000005 1.0000000180025095e-35 254.50000000000003 1.0000000180025095e-35 2.5000000000000004 1.0000000180025095e-35 1.5000000000000002 23.500000000000004 1.0000000180025095e-35 1.5000000000000002 90.500000000000014 131.50000000000003 0.49500000000000005 0.26500000000000007 0.24500000000000002 0.015000000000000001 0.12500000000000003 1.5000000000000002 1.0000000180025095e-35 13.500000000000002 0.03500000000000001 1.0000000180025095e-35 0.13500000000000004 0.29500000000000004 0.49500000000000005 8314.5000000000018 53.500000000000007 0.94500000000000006 0.03500000000000001 22.500000000000004 0.025000000000000005 8.5000000000000018
decision_type=2 2 2 2 2 2 2 2 2 2 2 2 2 2 2 2 2 2 2 2 2 2 2 2 2 2 2 2 2 2 2 2 2 2 2 2 2 2 2 2 2 2 2 2 2 2 2 2 2 2 2 2 2 2 2 2 2 2 2 2 2 2
left_child=1 2 3 4 9 15 -5 10 18 13 17 12 -10 14 51 53 56 25 -4 34 21 28 -6 45 -9 26 -7 55 -18 38 -17 32 -21 -34 48 -16 40 -20 39 52 -13 42 43 44 -42 46 47 -3 49 -14 -25 60 -15 -2 -55 -26 -8 58 -58 -40 -1 -38
right_child=5 23 8 6 22 7 16 24 11 -11 -12 36 19 29 35 30 20 -19 37 31 -22 -23 -24 50 27 -27 -28 -29 -30 -31 -32 -33 33 -35 -36 -37 61 -39 59 -41 41 -43 -44 -45 -46 -47 -48 -49 -50 -51 -52 -53 -54 54 -56 -57 57 -59 -60 -61 -62 -63
leaf_value=-0.055802378255177268 -0.085923867264402556 -0.082536314702681621 0.09659800576579454 -0.085785793773346108 -0.072390328126033049 -0.064264234687733388 0.096431493819449793 -0.084785953301273434 0.09365325104185579 0.09659800576579454 -0.082839618685466854 0.090869054795058163 -0.086245036763165639 -0.083843460904634556 0.089567145722771677 -0.071858470454604695 -0.08212898508932151 -0.086245036763165639 0.09659800576579454 -0.084531561147586753 0.094447817732978279 0.091638737458929073 0.096377735577094711 -0.086245036763165639 0.092446515301792986 0.094401492178112889 0.09659800576579454 -0.082422839890079494 0.09659800576579454 0.09659800576579454 0.084841536889055685 0.09659800576579454 0.081273597487389257 -0.086245036763165639 -0.071480617215622336 -0.062894684836158066 0.013322185858627445 -0.086245036763165639 -0.084390220015463382 0.075125962382635011 -0.08624503676316557 0.09569224201197285 0.083192635294605022 -0.086245036763165639 0.086388814747290002 0.096396346085668286 0.096151572908846211 0.09659800576579454 -0.086245036763165639 0.050544865071039037 0.078713326971134118 -0.019004075865868063 0.051722842000615735 0.076720776972471566 -0.080548045869427778 -0.024296858232078573 -0.063462486470773141 0.09659800576579454 0.084841536889055685 0.024534277438229328 -0.083706067557237862 0.096355423313884081
leaf_weight=34.492503151297569 10661.208136588335 24.619836285710338 12.484496086835859 99.411566406488419 6.5904041975736609 12.461983367800714 535.0734043866396 156.44775015115738 272.30282355844975 24.219922408461571 26.812605053186417 93.311443358659744 2.9236916899681082 19.010044932365425 63.360750645399094 6.3467632234096554 44.366853088140488 12.425689682364462 2.4968992173671714 79.932386368513107 41.436429113149643 35.931152939796448 202.24278765916824 6.5783063024282438 10.730617687106134 243.3750863224268 11.485736399888991 11.944456681609152 4.7441085129976264 3.7453488260507575 18.946189314126968 4.2447286695241919 8.7210004180669767 6.3346653282642356 9.2765038609504682 3.9103534817695609 3.2096752971410742 53.357373341917992 1526.0548149645329 6.2241012006998053 4.3855375349521664 49.182865634560585 9.9694500267505628 15.59302234649658 8.7270493656396848 8836.2843723595142 299.36006931960583 6.4919379651546469 3.1673326641321173 57.071794092655182 2.4908502697944641 14.258204400539396 2.9781322181224814 11.205801740288733 120.20573447644711 2.9478874802589408 10.019524678587915 62.422480434179306 18.946189314126968 2.4727034270763388 161.83204737305641 734.56355395913124
leaf_count=141 43756 101 50 408 27 51 2143 642 1091 97 110 374 12 78 254 26 182 51 10 328 166 144 810 27 43 975 46 49 19 15 76 17 35 26 38 16 13 219 6262 25 18 197 40 64 35 35390 1199 26 13 230 10 58 12 45 493 12 41 250 76 10 664 2942
internal_value=0 0.0677209 0.00861687 -0.0219584 -0.0571078 -0.0811089 0.0634621 0.0136342 0.0710754 -0.0737197 0.0652099 0.0769538 0.0473315 -0.0759636 -0.0371165 -0.0853883 0.0831674 0.0793997 -0.0461617 -0.0261431 0.0317898 0.00125999 0.0910517 0.0957727 -0.0732061 0.0870992 0.012888 -0.00250214 -0.064864 -0.0828806 0.0455208 -0.0623214 -0.069423 0.0107902 0.0234165 0.0807048 0.0912655 -0.0780713 -0.0833124 -0.0344616 0.0720088 0.0519779 -0.00361337 -0.0337611 0.028651 0.0959079 0.0828483 -0.0451573 0.0373537 0.0438788 -0.0409391 -0.0747547 -0.065482 -0.0856951 -0.0671373 0.0672869 0.0935403 0.0766122 0.0335417 -0.084214 -0.0788036 0.0959942
internal_weight=0 13530.8 4355 2923.74 2071.39 11306.5 852.352 488.632 1431.26 1862.56 306.561 1362.92 443.975 1838.34 277.854 10817.9 752.94 279.748 68.3388 171.672 126.479 85.0421 208.833 9175.83 182.071 267.323 23.9477 25.623 49.111 1560.49 25.293 99.2328 94.9881 15.0557 72.4393 67.2711 918.943 55.8543 1556.74 28.2123 181.169 87.8579 38.6751 28.7056 13.1126 9166.76 330.472 31.1118 63.1628 59.9955 9.06916 210.583 21.9882 10792.6 131.412 13.6785 626.462 91.3882 28.9657 1528.53 196.325 737.773
internal_count=100778 54403 17650 11898 8469 46375 3429 1979 5752 7632 1233 5473 1790 7535 1133 44396 3021 1123 279 699 511 345 837 36753 746 1072 97 104 201 6402 102 406 389 61 293 270 3683 229 6387 115 728 354 157 117 53 36716 1326 127 255 242 37 863 90 44294 538 55 2510 367 117 6272 805 2955
is_linear=0
shrinkage=0.05


Tree=3
num_leaves=63
num_cat=0
split_feature=4 40 40 40 40 41 41 38 40 2 0 41 41 0 41 31 33 1 30 21 32 31 11 2 35 41 2 2 34 33 32 31 15 30 21 38 37 22 41 2 38 4 22 33 30 41 41 31 21 34 33 38 40 31 2 34 28 0 30 38 33 32
split_gain=53804.3 8402.52 3359.24 6933.41 3132.91 0.293213 0.215777 0.0687238 0.0663172 0.056742 0.037782 0.0289683 0.0221295 0.0197088 0.0174129 0.017091 0.0168206 0.016398 0.0379756 0.0263448 0.0157131 0.0134074 0.0121001 0.0119437 0.0246921 0.0108893 0.0151412 0.0125065 0.0108573 0.0105763 0.0104016 0.00963649 0.0144502 0.00880525 0.00807219 0.00767892 0.0100009 0.00727902 0.0071778 0.00662178 0.0404646 0.00577293 0.00512199 0.00504881 0.00429438 0.0156299 0.00420115 0.00406308 0.0149558 0.0471965 0.00780177 0.00457802 0.00403098 0.004019 0.00401527 0.00394928 0.00872672 0.00506483 0.0354665 0.0039322 0.00342557 0.00327175
threshold=28.500000000000004 11.500000000000002 10.500000000000002 14.500000000000002 10.500000000000002 1.5000000000000002 10.500000000000002 0.19500000000000003 4.5000000000000009 43.500000000000007 11.500000000000002 14.500000000000002 15.500000000000002 44.500000000000007 12.500000000000002 1.5000000000000002 0.115 1.0000000180025095e-35 10.500000000000002 44.500000000000007 0.50500000000000012 90.500000000000014 1.0000000180025095e-35 19.500000000000004 0.10500000000000002 4.5000000000000009 48.500000000000007 18.500000000000004 0.99500000000000011 0.13500000000000004 0.89500000000000013 53.500000000000007 1.0000000180025095e-35 103.50000000000001 105.50000000000001 0.075000000000000025 0.17500000000000002 1.5000000000000002 8.5000000000000018 26.500000000000004 0.025000000000000005 1527.5000000000002 1.5000000000000002 0.92500000000000016 48.500000000000007 20.500000000000004 5.5000000000000009 78.500000000000014 23.500000000000004 0.085000000000000006 0.44500000000000006 1.0000000180025095e-35 8.5000000000000018 57.500000000000007 19.500000000000004 0.99500000000000011 0.7350000000000001 1.0000000180025095e-35 254.50000000000003 0.15500000000000003 0.10500000000000002 0.03500000000000001
decision_type=2 2 2 2 2 2 2 2 2 2 2 2 2 2 2 2 2 2 2 2 2 2 2 2 2 2 2 2 2 2 2 2 2 2 2 2 2 2 2 2 2 2 2 2 2 2 2 2 2 2 2 2 2 2 2 2 2 2 2 2 2 2
left_child=2 4 8 12 10 -3 7 25 -1 15 28 35 33 -12 20 -7 -11 18 21 29 54 -16 39 -17 -25 -5 27 -27 46 44 -26 32 -22 38 -24 36 37 -10 -4 40 -8 -15 -40 47 45 -20 -2 48 55 51 -51 -50 -39 -9 -6 -19 57 58 -57 60 -42 -35
right_child=1 5 3 6 14 9 22 53 11 16 13 -13 -14 41 17 23 -18 43 19 -21 31 -23 34 24 30 26 -28 -29 -30 -31 -32 -33 -34 61 -36 -37 -38 52 42 -41 59 -43 -44 -45 -46 -47 -48 -49 49 50 -52 -53 -54 -55 -56 56 -58 -59 -60 -61 -62 -63
leaf_value=0.10009739168060672 0.094377092982756067 0.10015322090699699 -0.087104210981568952 0.10004134007535351 -0.085472795312665079 0.095629945617643181 0.09884954913394263 0.092918267474444816 0.094182574304965086 0.099337454510204981 0.098280634322606822 0.092323851902198856 -0.08332043934608524 0.095659864138930017 -0.088685396362181257 0.092361708348814658 0.094180705029877437 -0.08330978459137342 -0.083456836417055355 -0.087413080472482821 -0.087528300580033344 -0.084593905666058414 0.096845074860270566 0.094453012013303278 0.095731033539783753 0.096616016237158389 0.094112780769105786 0.10029674679641698 0.094448231970739122 -0.086782889155168019 0.092449497521410282 -0.083746405814472624 -0.083250090337022756 -0.084554815321798565 0.092990240108209499 0.092981603149896452 0.092424424531227914 0.097906751082651566 -0.084054473495051782 0.092369809299069114 0.092775534562231449 0.092506487253245326 -0.086134748140668863 -0.08433715261524026 -0.083404395610653451 -0.086807061482560371 0.092489421713532471 -0.083267950746826525 -0.083260769194981252 -0.08659063308374193 -0.089912873649588027 -0.085432803468212137 0.095063497339902228 0.095220306721406578 -0.08332551551767596 -0.083617681539125716 -0.086575317760785225 -0.083294167957935483 -0.089803536371874826 0.092426917324257174 0.094988036769742407 -0.083552239914689089
leaf_weight=2.7489635795354834 2.9845285415649405 12.744608998298643 4.1510198861360577 7.2487853318452897 2.4241983890533474 4.2351468056440345 2.7489341497421256 7.9514904916286451 10.955937266349794 3.747106969356536 4.241390720009802 9112.0316310226917 851.19664222002029 2.4913281798362732 4.9161822348833066 623.94184675812721 2.7360069453716278 1844.1154808104038 16.808456122875217 4.3957935869693747 7.8324531912803632 3.3781086355447769 2.4931178838014594 21.422714620828629 2.4897868335247031 4.4891694039106351 2.4865672141313544 4.7495924085378647 7.4713805168867102 2.437485620379447 80.211201086640358 4.8087812513113013 2.638676181435585 12.798144429922102 2.9829447716474533 25.098168656229973 5.4629048258066168 2.4964862763881674 9.1492259949445707 1388.1850222945213 4.2233650833368293 3.4770296663045883 4.3733270019292823 11.332518190145491 212.22476589679718 4.3907659202814093 237.65161411464214 9728.5904601663351 27.108151957392696 4.380120873451232 2.9622416496276855 2.6644086986780158 2.489833727478981 2.489605724811554 21.358580529689789 37.971304133534431 2.43331454694271 71.0201216340065 2.4677705764770499 41.469553053379059 2.9866269826889038 22.344870805740356
leaf_count=11 12 51 17 29 10 17 11 32 44 15 17 36702 3547 10 20 2513 11 7685 70 18 32 14 10 86 10 18 10 19 30 10 323 20 11 53 12 101 22 10 38 5591 17 14 18 47 884 18 957 40552 113 18 12 11 10 10 89 158 10 296 10 167 12 93
internal_value=0 -0.069661 0.0785868 0.0256429 -0.0795925 0.0926338 0.0924857 0.0967251 0.0923325 0.0925041 0.0926938 0.0923302 -0.0833821 0.0956747 -0.0832942 0.0924629 0.0971612 -0.0832908 -0.0836927 -0.0835779 -0.0843482 -0.087019 0.0923994 0.0924444 0.0929402 0.0985179 0.0975761 0.0985083 0.0925711 -0.0835064 0.0925483 -0.0855993 -0.0864502 -0.0843752 0.0947453 0.093575 0.0942707 0.0949033 -0.0852855 0.0923904 0.0929476 0.0938228 -0.0847273 -0.0832823 -0.0834722 -0.0841507 0.0925128 -0.0832813 -0.0833463 -0.0843406 -0.087931 -0.0834551 0.096487 0.0934672 -0.0835444 -0.0833274 -0.0836132 -0.0835485 -0.0839952 0.0926143 0.093692 -0.0839174
internal_weight=0 13032.5 11539.8 2378.52 12281 751.528 1474.5 29.4152 9161.28 738.784 258.317 9158.53 904.013 10.2097 12022.7 732.301 6.48311 11983.6 248.552 240.257 39.0627 8.29429 1445.09 728.066 104.124 18.9741 11.7253 9.23876 248.108 235.861 82.701 15.2799 10.4711 52.8166 5.47606 46.5033 21.4052 15.9423 17.6736 1439.61 51.4285 5.96836 13.5226 11735 233.424 21.1992 240.636 11723.7 1995.12 37.1149 7.34236 29.7726 4.98632 10.4411 23.7828 1958.01 113.893 111.459 40.4391 48.6795 7.20999 35.143
internal_count=100778 54174 46604 9704 51148 3026 5938 118 36900 2975 1040 36889 3766 41 50108 2949 26 49946 1034 1000 162 34 5820 2932 419 76 47 37 999 982 333 63 43 219 22 187 86 64 73 5798 207 24 56 48912 972 88 969 48865 8313 154 30 124 20 42 99 8159 474 464 168 196 29 146
is_linear=0
shrinkage=0.05


Tree=4
num_leaves=63
num_cat=0
split_feature=4 40 40 40 40 41 41 40 2 33 31 5 5 41 2 5 22 34 31 22 11 41 33 21 30 31 33 0 0 41 2 35 9 5 33 11 32 30 5 34 6 2 31 33 30 29 1 28 33 31 36 33 11 22 41 21 9 23 20 34 5 5
split_gain=49269.1 7718.82 3048.66 6340.36 2879.95 0.21961 0.162397 0.0496952 0.0427418 0.0364228 0.0289992 0.0269872 0.023709 0.0219343 0.0213506 0.0198982 0.0414562 0.0272125 0.0792176 0.0258347 0.0203146 0.0172666 0.0171047 0.0139674 0.0230208 0.0129476 0.012503 0.0123473 0.0161968 0.00915394 0.00902546 0.018599 0.00820429 0.0545991 0.00838206 0.00794894 0.00790584 0.00685833 0.00804622 0.00548263 0.00531929 0.00526915 0.00488183 0.00493216 0.00454885 0.00449086 0.00478818 0.00529928 0.0039915 0.00365014 0.0035254 0.00327895 0.00314378 0.00313116 0.00287784 0.00274328 0.00257489 0.00340543 0.00280173 0.00298138 0.00564875 0.0129677
threshold=28.500000000000004 11.500000000000002 10.500000000000002 14.500000000000002 10.500000000000002 1.5000000000000002 10.500000000000002 4.5000000000000009 43.500000000000007 0.34500000000000003 3.5000000000000004 4.5000000000000009 1.0000000180025095e-35 14.500000000000002 48.500000000000007 1.0000000180025095e-35 23.500000000000004 0.99500000000000011 52.500000000000007 1.5000000000000002 1.0000000180025095e-35 15.500000000000002 0.42500000000000004 44.500000000000007 254.50000000000003 1.5000000000000002 0.115 6.5000000000000009 47.500000000000007 13.500000000000002 19.500000000000004 0.10500000000000002 1.0000000180025095e-35 88.500000000000014 1.0000000180025095e-35 1.0000000180025095e-35 0.89500000000000013 103.50000000000001 1.0000000180025095e-35 0.025000000000000005 1.0000000180025095e-35 23.500000000000004 6.5000000000000009 0.065000000000000016 1.5000000000000002 0.26500000000000007 1.0000000180025095e-35 0.055000000000000007 0.92500000000000016 30.500000000000004 0.025000000000000005 0.065000000000000016 1.0000000180025095e-35 7.5000000000000009 8.5000000000000018 1.5000000000000002 1.0000000180025095e-35 0.065000000000000016 1.0000000180025095e-35 1.0000000180025095e-35 8586.5000000000018 2451.5000000000005
decision_type=2 2 2 2 2 2 2 2 2 2 2 2 2 2 2 2 2 2 2 2 2 2 2 2 2 2 2 2 2 2 2 2 2 2 2 2 2 2 2 2 2 2 2 2 2 2 2 2 2 2 2 2 2 2 2 2 2 2 2 2 2 2
left_child=2 4 7 21 10 -3 9 -1 25 12 27 52 14 45 42 16 17 23 19 35 51 37 -13 39 -25 -7 -10 -2 -29 -21 -27 -32 33 34 -12 -19 -33 38 44 41 -15 -6 43 -5 -4 46 -9 -48 56 -50 -11 -18 -8 -24 -46 -56 -17 58 59 60 61 -58
right_child=1 5 3 6 15 8 11 13 26 50 32 22 -14 40 -16 48 20 18 -20 29 -22 -23 53 24 -26 30 -28 28 -30 -31 31 36 -34 -35 -36 -37 -38 -39 -40 -41 -42 -43 -44 -45 54 -47 47 -49 49 -51 -52 -53 -54 -55 55 -57 57 -59 -60 -61 -62 -63
leaf_value=0.095328794067770062 0.089010343783309631 0.095377085046450774 -0.084800907658704308 0.093677178752226503 -0.081603473732632423 0.0914787819649404 0.088635231653635183 0.090410000721541733 0.094678049137998113 0.090928302627712565 0.090736471336078997 0.094376781437739185 0.095867913236660662 0.088590636112920493 0.08875130727302262 -0.080605633258922213 -0.084407470681638216 -0.085477508867323679 -0.080741390399424282 -0.083925169247987499 -0.080961557215120272 -0.080656757588945915 0.089214396875429341 -0.086572107068279294 -0.080868199183819808 0.088624479519539001 0.090218674772966245 0.095270729932062925 0.0905014153591846 -0.081382862673859857 0.090447525437458154 0.091571652775947115 0.088657105781646262 0.096228596942044553 0.088728462100876149 -0.082951937269706205 0.088701014463843403 -0.081188745590188446 -0.080642430302776333 -0.080674599705216316 0.090707984231607142 -0.080691568749892778 0.09503711233595652 0.090894823905746228 -0.083955107032664997 0.091416110631427849 0.089017330589975366 0.091328209020166959 -0.080879610576883587 -0.08306521674109571 0.088865986634419691 -0.086499478123429757 0.090265814546208606 0.091377124781976377 -0.081160695534498006 -0.083138821825509551 -0.081254904503688052 -0.082660882818490239 -0.080649968944265557 -0.080749778342118994 -0.080815552176015035 -0.085202427878294462
leaf_weight=2.7422660291194907 3.4462970495223981 12.714191496372221 2.9013291448354748 4.4753503352403694 32.025151073932648 4.206627443432807 1417.521870970726 11.615211918950079 3.7351709753274909 3.4595157355070096 5.9347053170204154 2.9853081554174405 7.2364343404769889 9020.3244035542011 3.1977659314870825 10228.92158152163 4.5763390213251096 13.347571969032289 97.119352206587791 5.0517363995313671 4.2488466799259186 835.73062007129192 5.1732418835163116 2.6838403791189185 5.1892499923706055 617.88701096177101 2.7138792276382446 3.2400140166282654 3.9508535116910934 11.837636455893515 21.256777927279472 2.4731213450431815 194.75691455602646 2.7457724064588538 41.814105197787285 4.0641454756259909 79.43953350186348 34.523453205823898 4.7118552178144446 1141.2276849448681 2.9672379195690146 31.345925346016884 3.2400577664375305 2.472847580909729 2.6438349634408933 3.4638046324253073 28.305817857384685 2.7191832810640326 4.9565253704786283 3.1083115786314011 5.1675696820020676 3.1708290725946426 2.9621932208538047 2.4738632291555405 4.0179439187049866 3.1087639480829239 7.3375137150287646 2.3845747113227835 152.90712888538837 32.066945284605026 13.445134148001669 2.9037362337112427
leaf_count=11 14 51 12 18 135 17 5765 47 15 14 24 12 29 36690 13 43430 19 55 412 21 18 3547 21 11 22 2513 11 13 16 50 86 10 792 11 170 17 323 146 20 4843 12 133 13 10 11 14 115 11 21 13 21 13 12 10 17 13 31 10 649 136 57 12
internal_value=0 -0.0673908 0.0754563 0.0246761 -0.0770359 0.0888621 0.0887328 0.0885989 0.0887489 0.0924209 0.0889152 0.0886574 0.0935621 0.0885969 0.0923156 -0.0806334 -0.0808137 -0.0807875 -0.0814709 -0.0835365 -0.0837399 -0.0807117 0.0911671 -0.0807135 -0.0828126 0.0887129 0.0928015 0.091471 0.0926503 -0.0821433 0.0886968 0.0891297 0.0888044 0.0893723 0.088978 -0.084888 0.0887877 -0.0815966 -0.0824065 -0.0806997 0.0885913 -0.0811524 0.0934343 0.0926869 -0.0830625 0.0896847 0.0895441 0.0892199 -0.0806101 -0.081722 0.089693 -0.0852637 0.0886386 0.089914 -0.0825462 -0.0820236 -0.0806092 -0.0807821 -0.0807606 -0.081064 -0.0814894 -0.0823742
internal_weight=0 12804.2 11420.1 2348 12059.8 744.426 1460.37 9072.14 731.712 29.2495 255.889 1431.12 20.6225 9069.4 13.386 11803.9 1355.89 1343.89 131.42 34.3011 11.996 887.638 10.6324 1212.47 7.87309 725.263 6.44905 10.6372 7.19087 16.8894 721.056 103.169 245.251 50.4946 47.7488 17.4117 81.9127 51.9072 17.3837 1204.6 9023.29 63.3711 10.1883 6.9482 12.6719 46.104 42.6402 31.025 10448 8.06484 8.62709 7.74717 1420.48 7.64711 9.77054 7.12671 10440 211.045 208.66 55.7533 23.6864 10.2412
internal_count=100778 54174 46604 9704 51148 3026 5938 36900 2975 118 1040 5820 83 36889 54 50108 5749 5699 555 143 50 3766 43 5144 33 2949 26 43 29 71 2932 419 997 205 194 72 333 219 73 5111 36702 268 41 28 53 187 173 126 44359 34 35 32 5777 31 41 30 44325 895 885 236 100 43
is_linear=0
shrinkage=0.05


Tree=5
num_leaves=63
num_cat=0
split_feature=4 40 40 40 40 41 41 38 40 2 31 5 38 41 5 22 34 31 22 11 5 41 21 30 31 33 0 0 41 2 35 41 9 5 32 11 32 30 5 38 37 22 34 2 30 6 30 38 33 31 33 28 40 11 31 41 32 38 30 9 23 20
split_gain=45262.4 7111.18 2778.72 5817.81 2654.85 0.166621 0.12367 0.0391616 0.0377208 0.0325988 0.0221391 0.020632 0.0179287 0.0168207 0.0156224 0.0324319 0.0213417 0.0618729 0.0200472 0.0158071 0.0139826 0.0135745 0.0109185 0.0178601 0.00992805 0.00942046 0.00938991 0.0121916 0.00713739 0.00690154 0.0141801 0.00686684 0.00626222 0.0413139 0.00640469 0.00613271 0.00608183 0.00537177 0.00630259 0.00449972 0.00590118 0.00443557 0.00429816 0.00412953 0.00408578 0.00406435 0.00352188 0.00323192 0.00313926 0.00286821 0.00250586 0.00250515 0.00247223 0.00241517 0.00234045 0.0022919 0.00213357 0.00361684 0.00209597 0.00202251 0.00268359 0.00219746
threshold=28.500000000000004 11.500000000000002 10.500000000000002 14.500000000000002 10.500000000000002 1.5000000000000002 10.500000000000002 0.19500000000000003 4.5000000000000009 43.500000000000007 3.5000000000000004 4.5000000000000009 0.31500000000000006 14.500000000000002 1.0000000180025095e-35 23.500000000000004 0.99500000000000011 52.500000000000007 1.5000000000000002 1.0000000180025095e-35 1.0000000180025095e-35 15.500000000000002 44.500000000000007 254.50000000000003 1.5000000000000002 0.115 6.5000000000000009 47.500000000000007 13.500000000000002 19.500000000000004 0.10500000000000002 4.5000000000000009 1.0000000180025095e-35 88.500000000000014 0.99500000000000011 1.0000000180025095e-35 0.89500000000000013 103.50000000000001 1.0000000180025095e-35 0.075000000000000025 0.17500000000000002 1.5000000000000002 0.025000000000000005 23.500000000000004 112.50000000000001 1.0000000180025095e-35 1.5000000000000002 1.0000000180025095e-35 0.92500000000000016 30.500000000000004 0.065000000000000016 0.14500000000000005 8.5000000000000018 1.0000000180025095e-35 57.500000000000007 11.500000000000002 0.03500000000000001 0.015000000000000001 249.50000000000003 1.0000000180025095e-35 0.065000000000000016 1.0000000180025095e-35
decision_type=2 2 2 2 2 2 2 2 2 2 2 2 2 2 2 2 2 2 2 2 2 2 2 2 2 2 2 2 2 2 2 2 2 2 2 2 2 2 2 2 2 2 2 2 2 2 2 2 2 2 2 2 2 2 2 2 2 2 2 2 2 2
left_child=2 4 8 21 10 -3 7 20 -1 24 26 53 -13 39 15 16 22 18 35 50 31 37 42 -24 -7 -11 -2 -28 -20 -26 -31 -5 33 34 -12 -18 -32 38 46 40 41 -10 43 47 -33 -15 -4 -6 59 -50 -17 -14 -43 -8 -9 -48 57 -39 -19 -16 61 -61
right_child=1 5 3 6 14 9 11 54 13 25 32 12 51 45 48 19 17 58 28 -21 -22 -23 23 -25 29 -27 27 -29 -30 30 36 44 -34 -35 -36 -37 -38 56 -40 -41 -42 52 -44 -45 -46 -47 55 -49 49 -51 -52 -53 -54 -55 -56 -57 -58 -59 -60 60 -62 -63
leaf_value=0.091209977169626755 0.08568857807958917 0.091252142573443717 -0.081974351917606492 0.090742793495286286 -0.078927747585069 0.087861641101834906 0.08535828841640955 0.085764481806969065 0.086741174575396096 0.090647309544075863 0.085440195362383883 0.091304889713528334 0.087772988071660257 0.085318954413669532 -0.078235457742558301 -0.08163130636072008 -0.082572506166100818 -0.078320273154350528 -0.08119796072433727 -0.078555327564104382 0.091673898999797748 -0.078281238765592287 -0.083539158499951194 -0.078471958865815372 0.085348809644492943 0.086756927291782443 0.091160794879696042 0.087004127647530877 -0.078932189512596285 0.086950629746622876 0.087947393905698792 0.086485641959789972 0.085377466697700924 0.091987429789703617 0.087205618823228678 -0.080333895382633247 0.085416050725835593 -0.078715146937346825 -0.078268385717539468 0.085823442117790971 0.085385096241340969 0.089673081858199388 -0.078297252904376544 -0.078312323680906792 0.08891238005885721 0.087180290630980081 -0.080760638383216246 -0.08041388030764024 -0.078480448337589145 -0.080436776355493608 -0.083474991124700332 0.085855002028304941 0.087428785616290638 0.086795940817810779 0.087538061578328691 -0.079214071888368182 -0.078457346894454993 -0.080574802835630122 -0.079836978469302933 -0.078645651758079749 -0.080077253602293175 -0.078275165820288373
leaf_weight=2.7232389599084845 3.4019954651594144 12.626519054174421 2.8525243997573879 3.4625125229358726 27.163965627551082 4.1619093716144553 1398.8075941354036 7.7772601544857007 10.740606203675272 3.7068648338317862 41.265778854489326 2.4755938798189154 2.4473210871219617 8900.8703568428755 10017.210890695453 4.4973564296960813 13.131699398159983 92.785577863454819 4.9625777453184154 4.1622275710105896 7.6859589964151374 818.47239173948765 2.6432282030582419 5.0830040276050568 609.72350816428661 2.6818470507860184 3.2173143029212952 3.9053004235029221 11.600878238677977 21.012086868286133 2.4469245672225943 2.6800879687070847 192.18985533714294 2.7291310578584662 5.8678826540708533 3.988662675023078 78.395761936903 8.5724442750215513 4.6144927144050589 24.55186240375042 5.3386985957622519 2.4640713334083548 1117.6789155751467 30.699649423360825 4.915954202413559 2.9337607473134986 4.7040215879678708 4.2277242988347998 4.8552002608776084 3.0508333444595337 3.1226322799921036 5.5938909202814102 2.444272443652153 2.9274375885725012 2.4448479413986206 4.8813058733940125 21.492550879716873 3.762008234858512 2.3351605981588355 54.622853979468346 2.3395680338144293 149.74856898188591
leaf_count=11 14 51 12 14 117 17 5765 32 44 15 170 10 10 36690 43430 19 55 402 21 18 31 3547 11 22 2513 11 13 16 50 86 10 11 792 11 24 17 323 37 20 101 22 10 4843 133 20 12 20 18 21 13 13 23 10 12 10 21 93 16 10 236 10 649
internal_value=0 -0.0653687 0.0727088 0.023824 -0.0747566 0.085558 0.0854442 0.0886782 0.0853263 0.0854584 0.0856046 0.0853778 0.0875842 0.0853245 -0.0782604 -0.0784217 -0.0783983 -0.0790096 -0.0808512 -0.0810333 0.0900358 -0.0783305 -0.078332 -0.0802055 0.0854267 0.0890142 0.0878496 0.0888817 -0.079611 0.0854125 0.0857934 0.0888974 0.085507 0.0860063 0.08566 -0.082051 0.0854927 -0.0791229 -0.0798465 0.086283 0.0868205 0.0873102 -0.0783197 -0.0787247 0.0880562 0.0853196 -0.080432 -0.0791279 -0.0782394 -0.0792354 -0.0823868 0.0864387 0.0885555 0.0853613 0.0861887 -0.0799731 -0.0787582 -0.0792823 -0.0783575 -0.0782387 -0.0783935 -0.0783742
internal_weight=0 12547.2 11262.6 2310.57 11812.5 734.755 1441.22 28.9666 8952.07 722.129 252.577 1412.25 10.5168 8949.34 11559.9 1328.08 1316.3 128.805 33.6838 11.7822 18.7445 869.352 1187.5 7.72623 715.74 6.38871 10.5246 7.12261 16.5635 711.578 101.855 11.0586 242.053 49.8628 47.1337 17.1204 80.8427 50.8793 17.0523 45.5395 20.9876 15.6489 1179.77 62.0913 7.59604 8903.8 12.4379 31.3917 10231.8 7.90603 7.61999 8.04121 4.90834 1401.74 10.2221 9.58533 33.827 12.3345 95.1207 10223.9 206.711 204.371
internal_count=100778 54174 46604 9704 51148 3026 5938 118 36900 2975 1040 5820 43 36889 50108 5749 5699 555 143 50 76 3766 5144 33 2949 26 43 29 71 2932 419 45 997 205 194 72 333 219 73 187 86 64 5111 268 31 36702 53 135 44359 34 32 33 20 5777 42 41 146 53 412 44325 895 885
is_linear=0
shrinkage=0.05


Tree=6
num_leaves=63
num_cat=0
split_feature=4 40 40 40 40 41 41 38 40 2 31 5 38 41 5 22 34 31 22 11 41 5 21 30 31 0 0 33 41 2 34 41 9 5 32 11 34 5 38 31 5 21 36 34 2 6 30 38 22 33 31 22 22 11 33 30 32 2 9 23 20 34
split_gain=41700.2 6568.1 2542.19 5354.34 2453.43 0.127843 0.0952324 0.0299362 0.0289532 0.0251331 0.0170833 0.0159201 0.0137095 0.0130224 0.0123528 0.0255697 0.0168613 0.0487071 0.0156869 0.0124015 0.0108526 0.0105923 0.00860131 0.0139726 0.00769323 0.00722096 0.00928636 0.00718182 0.00560948 0.00533218 0.00858138 0.00521822 0.00482995 0.0316215 0.00494579 0.004773 0.00435438 0.00643191 0.00346655 0.00344551 0.00420382 0.00373017 0.00341509 0.0033921 0.00325811 0.00313821 0.00313342 0.00255309 0.00252194 0.00248725 0.00227105 0.00208679 0.00194331 0.00187477 0.00182683 0.00166467 0.00164177 0.00163305 0.00160554 0.00212989 0.00174566 0.00196948
threshold=28.500000000000004 11.500000000000002 10.500000000000002 14.500000000000002 10.500000000000002 1.5000000000000002 10.500000000000002 0.19500000000000003 4.5000000000000009 43.500000000000007 3.5000000000000004 4.5000000000000009 0.31500000000000006 14.500000000000002 1.0000000180025095e-35 23.500000000000004 0.99500000000000011 52.500000000000007 1.5000000000000002 1.0000000180025095e-35 16.500000000000004 1.0000000180025095e-35 44.500000000000007 254.50000000000003 1.5000000000000002 6.5000000000000009 47.500000000000007 0.115 13.500000000000002 19.500000000000004 0.99500000000000011 4.5000000000000009 1.0000000180025095e-35 88.500000000000014 0.99500000000000011 1.0000000180025095e-35 0.99500000000000011 4.5000000000000009 0.49500000000000005 7.5000000000000009 4.5000000000000009 3.5000000000000004 0.95500000000000007 0.025000000000000005 23.500000000000004 1.0000000180025095e-35 112.50000000000001 1.0000000180025095e-35 1.5000000000000002 0.92500000000000016 30.500000000000004 30.500000000000004 7.5000000000000009 1.0000000180025095e-35 0.34500000000000003 249.50000000000003 0.99500000000000011 23.500000000000004 1.0000000180025095e-35 0.065000000000000016 1.0000000180025095e-35 1.0000000180025095e-35
decision_type=2 2 2 2 2 2 2 2 2 2 2 2 2 2 2 2 2 2 2 2 2 2 2 2 2 2 2 2 2 2 2 2 2 2 2 2 2 2 2 2 2 2 2 2 2 2 2 2 2 2 2 2 2 2 2 2 2 2 2 2 2 2
left_child=2 4 8 20 10 57 7 21 -1 24 25 53 -13 38 15 16 22 18 35 51 36 31 43 -24 -7 -2 -27 -11 -20 -26 -31 -5 33 34 -12 56 39 -38 42 40 -4 -41 48 44 47 -15 -33 -6 -10 58 -51 -17 -14 -8 -9 -19 -18 -3 -16 60 61 -60
right_child=1 5 3 6 14 9 11 54 13 27 32 12 52 45 49 19 17 55 28 -21 -22 -23 23 -25 29 26 -28 -29 -30 30 -32 46 -34 -35 -36 -37 37 -39 -40 41 -42 -43 -44 -45 -46 -47 -48 -49 -50 50 -52 -53 -54 -55 -56 -57 -58 -59 59 -61 -62 -63
leaf_value=0.087619897739709587 0.082758274894433312 0.088060068083978787 -0.07761190681730834 0.087210098544554832 -0.076732424401856181 0.084684755412314933 0.082465498395366377 0.08440378031053844 0.083722090433426793 0.087129303226792604 0.082537930016558944 0.087704260168006323 0.082905134974590622 0.082430562109885475 -0.076110652043608285 -0.080471881662439654 -0.080797360581884706 -0.07618723725245348 -0.078768146275686554 -0.076399488335282206 -0.076142685766918419 0.088023457819079706 -0.080851166611223824 -0.076324676546859871 0.082457082830090622 0.087577889023416039 0.083926966100598202 0.083709313109206915 -0.076738245625367463 0.085648251700028544 0.082774538622390564 0.08346730630376939 0.082482425957806749 0.08829744172100773 0.084100892347160491 -0.077996814170216033 -0.079027746995430526 -0.076130208318184678 0.08286540161580129 -0.076228736825122698 -0.076148345675397383 -0.078067477500232726 0.082730790178980898 -0.076166279702873929 -0.076179734338381752 0.084078197617784817 0.085608026117664326 -0.078067453833991524 0.085119979149620162 -0.076330777424665708 -0.078090695318308562 -0.078742540147908963 0.084606890081148342 0.083741736002848288 0.08282521254523445 -0.077553697700598487 -0.079596583593546377 0.086846050472615635 -0.076833465559022235 -0.077769321280602516 -0.076146381791543316 -0.076219205396959963
leaf_weight=2.6937976330518714 3.3476885110139829 8.3437336385250074 15.333996936678888 3.4235869199037605 26.559349939227108 4.1035876721143714 1376.0517546981573 2.4098795652389509 10.822319909930231 3.6647427678108206 40.597673445940018 2.4490152448415738 5.5054915100336075 8755.7530243545771 9787.820902556181 4.7006600201129896 4.2458160668611535 90.667695626616478 4.8624040931463268 4.0680732727050781 779.62365092337132 7.6064071506261817 2.5957430005073538 4.9676232188940048 599.79924422502518 3.1823460608720779 3.8475033193826675 2.6415168941020966 11.342449545860289 2.6688868254423133 97.569953709840775 2.6391758620738983 189.0668830126524 2.7016901373863211 5.7824086993932715 3.9048834592103949 4.8717412352561933 3.1559206247329712 23.442879542708397 36.333973988890648 7.2149501889944068 2.9847963750362387 5.9749537557363501 1092.1472096294165 29.998824208974838 2.890968218445777 4.8520009368658066 4.1392860859632483 4.5969923734664908 4.7451205849647513 2.9869764447212219 2.7738332450389862 2.4128156155347824 2.8835893571376792 7.6535285711288452 2.2849821001291266 8.6379308849573135 4.1467478424310675 22.702594831585884 2.2898048013448706 146.32481424510479 30.689346149563789
leaf_count=11 14 34 67 14 117 17 5765 10 45 15 170 10 23 36690 43430 20 18 402 21 18 3458 31 11 22 2513 13 16 11 50 11 408 11 792 11 24 17 21 14 98 161 32 13 25 4843 133 12 20 18 19 21 13 12 10 12 32 10 37 17 100 10 649 136
internal_value=0 -0.0635582 0.0702808 0.023068 -0.072714 0.0826425 0.0825416 0.0853984 0.082437 0.0825543 0.0826837 0.0824828 0.0844349 0.0824355 -0.0761331 -0.0762782 -0.0762572 -0.0768066 -0.078457 -0.078621 -0.0761962 0.0865911 -0.0761975 -0.0778782 0.0825261 0.0846695 0.0855797 0.0856968 -0.0773473 0.0825135 0.0828511 0.0855929 0.0825972 0.0830391 0.0827328 -0.0795282 -0.076793 -0.0778886 0.0832854 -0.0766509 -0.0771436 -0.0763683 0.0837456 -0.0761865 -0.0765503 0.0824311 0.0848538 -0.0769124 0.0841388 -0.0761142 -0.0770106 -0.0798301 0.0834237 0.0824682 0.0832032 -0.0762208 -0.0799923 0.087657 -0.0761135 -0.0762531 -0.0762357 -0.0764804
internal_weight=0 12266.9 11073.6 2267.41 11544 722.938 1417.89 28.5846 8806.17 710.448 248.526 1389.3 10.3673 8803.48 11295.5 1297.9 1286.35 125.946 32.9935 11.5426 849.519 18.5212 1160.41 7.56337 704.142 10.3775 7.02985 6.30626 16.2049 700.038 100.239 10.9148 238.149 49.0818 46.3801 16.7886 69.8954 8.02766 44.8371 61.8677 22.5489 39.3188 21.3943 1152.84 60.6975 8758.64 7.49118 30.6986 15.4193 9997.56 7.7321 7.47449 7.91831 1378.94 10.0634 92.9527 12.8837 12.4905 9989.83 202.007 199.717 53.3919
internal_count=100778 54174 46604 9704 51148 3026 5938 118 36900 2975 1040 5820 43 36889 50108 5749 5699 555 143 50 3766 76 5144 33 2949 43 29 26 71 2932 419 45 997 205 194 72 308 35 187 273 99 174 89 5111 268 36702 31 135 64 44359 34 32 33 5777 42 412 55 51 44325 895 885 236
is_linear=0
shrinkage=0.05


Tree=7
num_leaves=63
num_cat=0
split_feature=4 40 40 40 40 41 41 38 40 2 31 5 38 41 5 22 34 31 22 21 41 5 21 30 31 0 0 33 41 2 35 41 32 9 5 33 11 34 5 31 5 21 38 37 22 34 2 6 30 31 38 38 4 40 22 31 11 31 31 31 41 9
split_gain=38515.8 6080.3 2333.46 4940.88 2272.32 0.0990392 0.074032 0.0231167 0.0224416 0.0195613 0.0133062 0.0123992 0.0105903 0.01018 0.0098328 0.0202983 0.0134088 0.038605 0.0123629 0.00991783 0.00864986 0.0081119 0.00682253 0.011013 0.00601647 0.00560746 0.00714728 0.00553171 0.00443999 0.00416204 0.00900608 0.00400729 0.00381728 0.00375986 0.0244467 0.00385471 0.00374213 0.0034551 0.00510004 0.00274414 0.0033465 0.00297868 0.00270232 0.00361178 0.00270342 0.00269484 0.0025879 0.00244547 0.00242684 0.00232324 0.0020308 0.0019863 0.00181199 0.00154557 0.00152161 0.00147214 0.00146855 0.001365 0.00132268 0.00130659 0.00262556 0.00128242
threshold=28.500000000000004 11.500000000000002 10.500000000000002 14.500000000000002 10.500000000000002 1.5000000000000002 10.500000000000002 0.19500000000000003 4.5000000000000009 43.500000000000007 3.5000000000000004 4.5000000000000009 0.31500000000000006 14.500000000000002 1.0000000180025095e-35 23.500000000000004 0.99500000000000011 52.500000000000007 1.5000000000000002 23.500000000000004 16.500000000000004 1.0000000180025095e-35 44.500000000000007 254.50000000000003 1.5000000000000002 6.5000000000000009 47.500000000000007 0.115 13.500000000000002 19.500000000000004 0.10500000000000002 4.5000000000000009 0.89500000000000013 1.0000000180025095e-35 88.500000000000014 1.0000000180025095e-35 1.0000000180025095e-35 0.99500000000000011 4.5000000000000009 7.5000000000000009 4.5000000000000009 3.5000000000000004 0.075000000000000025 0.17500000000000002 1.5000000000000002 0.025000000000000005 23.500000000000004 1.0000000180025095e-35 112.50000000000001 61.500000000000007 1.0000000180025095e-35 0.82500000000000007 3186.0000000000005 8.5000000000000018 7.5000000000000009 57.500000000000007 1.0000000180025095e-35 252.50000000000003 13.500000000000002 210.50000000000003 17.500000000000004 1.0000000180025095e-35
decision_type=2 2 2 2 2 2 2 2 2 2 2 2 2 2 2 2 2 2 2 2 2 2 2 2 2 2 2 2 2 2 2 2 2 2 2 2 2 2 2 2 2 2 2 2 2 2 2 2 2 2 2 2 2 2 2 2 2 2 2 2 2 2
left_child=2 4 8 20 10 -3 7 21 -1 24 25 56 -13 42 15 16 22 18 36 -17 37 31 45 -24 -7 -2 -27 -11 -20 -26 -31 -5 -32 34 35 -12 58 39 -39 40 -4 -41 43 44 -10 46 50 -15 -33 -21 -6 61 -53 -46 -14 -9 -8 -19 -18 -47 -61 -16
right_child=1 5 3 6 14 9 11 55 13 27 33 12 54 47 51 19 17 57 28 49 -22 -23 23 -25 29 26 -28 -29 -30 30 32 48 -34 -35 -36 -37 -38 38 -40 41 -42 -43 -44 -45 53 59 -48 -49 -50 -51 -52 52 -54 -55 -56 -57 -58 -59 -60 60 -62 -63
leaf_value=0.084465968671583569 0.080156790241465381 0.084498499727032508 -0.07555322027789324 0.084103897326136698 -0.074757988636580827 0.081875183095579576 0.079895731229765315 0.0802122772217196 0.080987294748194216 0.084035070416694099 0.081352338350890008 0.084541452207596041 0.080287170376740283 0.079864526547131498 -0.074196665241852949 -0.074355785689839429 -0.077998935196588848 -0.074266156311987699 -0.076591943048205963 -0.078455540016925701 -0.074226026090134622 0.084819652858155792 -0.078454983526600131 -0.074391592027106143 0.079888217622745866 0.084429813831171152 0.081201279074063035 0.081008459572624564 -0.074764861402991017 0.081176634980384688 0.08197023893300473 0.080791271714218293 0.079933404280896667 0.079910752221899348 0.085060875648887257 0.079960168651910593 -0.075900041906699064 -0.076826193548657939 -0.074214750936989329 -0.074303763151868263 -0.0742311590822059 -0.075966329125987678 0.080264790925456297 0.079907001859100352 0.083320779867012973 -0.07424226341700485 -0.074259460071054925 0.081331868342403926 0.082691817066190526 -0.076694433520280103 -0.07596274968412034 -0.074525358852518458 -0.076028265743380424 0.081519492214613548 0.081806364299113865 0.081641896690395274 0.081035479061402127 -0.075518273110168066 -0.076845696376130923 -0.076233456860243409 -0.074324082318101808 -0.074325125173441614
leaf_weight=2.6556134223937979 3.2850951105356199 12.31389172375202 14.973351120948793 3.3737688064575249 25.914097636938099 4.033929616212844 1349.9523286521435 7.5105278193950635 10.39112262427807 3.6110348999500266 5.6814177036285392 2.4144632965326291 5.4033302813768387 8589.4069657772779 9529.6235846281052 3.7427458614110929 9.2029489427804965 88.418351784348488 4.7532887607812873 3.4672069251537323 760.25752267241478 7.5016315430402747 2.5426111668348303 4.8449771851301193 588.41832321882248 3.1370795518159866 3.7795265018939972 2.5942928791046143 11.066714659333227 20.339872673153877 2.3724161386489859 2.5914620012044907 75.660774901509285 185.48397746682167 2.6651706397533408 39.830447182059288 3.8144074827432624 4.7635144442319861 3.0774905383586884 35.434281259775162 7.0357637107372275 2.9157314896583548 23.713253289461136 5.1520528942346564 2.3967033326625815 1055.9615776538849 29.254673212766647 2.8404264152050009 4.773909404873848 4.0720073580741882 4.0436920225620261 18.75742390751839 2.2456474155187598 2.366942971944809 2.3716757297515869 2.3686261624097824 2.8321859240531913 2.2315538823604575 3.4066675007343283 2.4753177314996702 6.6037539094686508 198.32700537145138
leaf_count=11 14 51 67 14 117 17 5765 32 44 15 24 10 23 36690 43363 17 40 402 21 15 3458 31 11 22 2513 13 16 11 50 86 10 11 323 792 11 170 17 21 14 161 32 13 101 22 10 4802 133 12 20 18 18 85 10 10 10 10 12 10 15 11 30 901
internal_value=0 -0.0619295 0.0681216 0.0223936 -0.070875 0.0800535 0.0799636 0.082503 0.0798703 0.079975 0.0800901 0.0799112 0.0816489 0.0798689 -0.0742174 -0.0743485 -0.0743295 -0.0748255 -0.0763114 -0.0764598 -0.0742744 0.0835581 -0.0742756 -0.0757901 0.0799499 0.0818577 0.0826656 0.0827697 -0.0753138 0.0799385 0.0802396 0.0826768 0.0799953 0.080013 0.0804065 0.080134 -0.0772723 -0.0748138 -0.0758012 -0.0746856 -0.0751306 -0.0744302 0.0806273 0.0810507 0.0814395 -0.0742657 -0.074594 0.079865 0.0820231 -0.0775043 -0.0749206 -0.0742003 -0.074686 0.0824258 0.0807506 0.080555 0.0798981 -0.074297 -0.0776874 -0.0742474 -0.0748447 -0.0741993
internal_weight=0 11968 10858.5 2219.55 11258.6 709.345 1391.09 28.1199 8638.92 697.031 243.863 1362.97 10.1895 8636.27 11014.8 1265.82 1254.53 122.894 32.244 11.282 828.458 18.2408 1131.64 7.38759 690.825 10.2017 6.91661 6.20533 15.82 686.791 98.3731 10.7391 78.0332 233.661 48.177 45.5119 16.424 68.2001 7.841 60.3591 22.0091 38.35 44.0201 20.3068 15.1548 1124.25 59.2125 8592.25 7.36537 7.53921 29.9578 9748.95 21.0031 4.76365 7.77501 9.87915 1352.78 90.6499 12.6096 1065.04 9.07907 9727.95
internal_count=100778 54174 46604 9704 51148 3026 5938 118 36900 2975 1040 5820 43 36889 50108 5749 5699 555 143 50 3766 76 5144 33 2949 43 29 26 71 2932 419 45 333 997 205 194 72 308 35 273 99 174 187 86 64 5111 268 36702 31 33 135 44359 95 20 33 42 5777 412 55 4843 41 44264
is_linear=0
shrinkage=0.05


Tree=8
num_leaves=63
num_cat=0
split_feature=4 40 40 40 40 41 41 40 2 33 0 5 41 5 22 34 32 11 0 41 33 21 35 41 5 32 1 33 41 5 2 35 41 15 32 34 34 5 32 35 35 34 2 21 33 4 22 41 6 41 25 33 37 22 33 41 36 35 41 22 2 3
split_gain=35655.1 5640.2 2148.1 4570.13 2108.77 0.0774053 0.0580345 0.0175451 0.0153529 0.0129938 0.0103772 0.0097368 0.00801727 0.00787123 0.0162099 0.0107281 0.017657 0.00802573 0.00722582 0.0069352 0.00597005 0.00544518 0.00541902 0.00580193 0.00506534 0.00456362 0.00447089 0.00429949 0.00424769 0.00421573 0.00344185 0.00711132 0.00336653 0.00318797 0.00301762 0.00287244 0.00275856 0.00406962 0.00251462 0.00226423 0.00465268 0.0021539 0.00206803 0.00203736 0.0021239 0.00203136 0.00194231 0.00241532 0.00192122 0.0019146 0.0018377 0.00167432 0.00206896 0.00249826 0.001653 0.00164724 0.00243792 0.00150462 0.00140608 0.00131925 0.001297 0.00127692
threshold=28.500000000000004 11.500000000000002 10.500000000000002 14.500000000000002 10.500000000000002 1.5000000000000002 10.500000000000002 4.5000000000000009 43.500000000000007 0.13500000000000004 13.500000000000002 4.5000000000000009 14.500000000000002 1.0000000180025095e-35 23.500000000000004 0.99500000000000011 0.99500000000000011 1.0000000180025095e-35 44.500000000000007 16.500000000000004 0.42500000000000004 44.500000000000007 0.48500000000000004 12.500000000000002 4.5000000000000009 0.015000000000000001 1.0000000180025095e-35 0.115 16.500000000000004 1.0000000180025095e-35 19.500000000000004 0.10500000000000002 8.5000000000000018 1.0000000180025095e-35 0.89500000000000013 0.99500000000000011 0.99500000000000011 4.5000000000000009 0.055000000000000007 0.015000000000000001 0.065000000000000016 0.025000000000000005 23.500000000000004 2.5000000000000004 0.015000000000000001 1527.5000000000002 1.5000000000000002 17.500000000000004 1.0000000180025095e-35 5.5000000000000009 0.23500000000000001 0.66500000000000015 0.17500000000000002 1.5000000000000002 0.92500000000000016 7.5000000000000009 0.03500000000000001 0.21500000000000002 20.500000000000004 30.500000000000004 48.500000000000007 8.5000000000000018
decision_type=2 2 2 2 2 2 2 2 2 2 2 2 2 2 2 2 2 2 2 2 2 2 2 2 2 2 2 2 2 2 2 2 2 2 2 2 2 2 2 2 2 2 2 2 2 2 2 2 2 2 2 2 2 2 2 2 2 2 2 2 2 2
left_child=2 4 7 19 10 -3 9 -1 25 29 35 -8 51 14 15 21 -17 59 -12 36 -13 41 23 33 38 28 -23 -10 -7 32 -27 -32 -5 39 -33 49 43 -38 -11 -18 -41 42 -6 55 -45 -20 47 -25 -14 -2 -46 52 53 61 -15 56 -4 58 -49 -16 -55 -9
right_child=1 5 3 6 13 8 11 12 27 24 18 20 48 54 17 16 22 -19 45 -21 -22 26 -24 46 -26 30 -28 -29 -30 -31 31 34 -34 -35 -36 -37 37 -39 -40 40 -42 -43 -44 44 50 -47 -48 57 -50 -51 -52 -53 -54 60 -56 -57 -58 -59 -60 -61 -62 -63
leaf_value=0.081676089234920368 0.078931355776796608 0.08170508767051804 -0.07277383805145643 0.080917765612848483 -0.073122185331520234 0.080145242045541187 0.077602344567437684 0.077498453225785691 0.081295188971435201 0.077667968063991358 0.081420691487115893 0.081112125024608142 0.077572183919158322 -0.07246909449032353 -0.076028271072796555 -0.076275394371075458 -0.075353353354680713 -0.072677874112071467 0.079522391320943853 -0.07249295459256358 0.078400197641959712 -0.074958884187803318 -0.075365040723474233 -0.072571277486736904 0.080508467745350948 0.0775886219336024 -0.072430980375978768 0.078600892631057906 0.077712747460756265 0.081989490887853456 0.07874057137555257 0.079462833479724007 0.078889066796324597 -0.072245214116030007 0.077633863930980124 0.078711716638550644 -0.074846051655838533 -0.072482727025190749 0.079503157160427843 -0.072643586298691498 -0.075355540688575695 -0.072512376025609407 -0.072523241563616739 -0.072450070032222286 -0.07538008267272274 0.077582515586902434 -0.07256704948271793 -0.072973958082039866 0.078886001078181903 0.077662250004955857 -0.073335231092565858 0.077913958825636218 0.077615137784490237 0.080438083813204969 -0.073219105995030287 -0.072692093512242081 -0.074637847774888133 -0.074467072534052145 -0.073931449611821895 -0.074621136504779764 0.078996551148559135 0.078660165601102144
leaf_weight=2.6101474016904822 3.0124918669462195 12.103423431515692 4.5150103718042365 6.3689527064561862 29.179572612047195 3.5125063359737387 1323.8940857350826 3.2049398422241255 3.5476901978254309 6.8798720985650998 3.0771477669477445 2.8327848762273771 8405.7089888453484 9481.9083868265152 4.4979032129049283 4.064641758799552 3.3488043993711454 3.8614504784345627 2.329593226313591 740.02375331521034 7.1554419249296188 4.2086658477783203 2.22705054283142 17.780012294650078 3.0539993047714225 572.15690736472607 2.9929356873035422 2.5414026081562042 3.6696925312280655 5.7103946954011908 20.39198811352253 2.3260797560214987 3.0121218264102936 2.3441237509250632 74.047503814101219 6.9481462240219107 4.6479854434728614 2.995553582906723 2.5615880638360977 3.8603859841823578 2.6791233420372009 1036.7155472189188 28.476984217762947 2.1385030448436728 2.2270292937755585 3.2077634185552597 59.558635085821152 16.161135554313667 2.7835040241479865 220.12290485203266 2.1686636060476303 19.537247434258461 4.8131172060966483 2.5834268778562537 7.3521343916654578 44.859714910387993 2.8686420917510986 2.6395128071308127 5.026874676346778 2.645339772105217 3.9403063356876373 9.0300813764333725
leaf_count=11 13 51 21 27 135 15 5777 14 15 30 13 12 36690 44325 20 18 15 18 10 3458 31 19 10 83 13 2497 14 11 16 24 88 10 13 11 323 30 21 14 11 18 12 4843 133 10 10 14 278 75 12 960 10 85 21 11 34 209 13 12 23 12 17 39
internal_value=0 -0.0604581 0.0661912 0.0217887 -0.0692127 0.0777416 0.077661 0.0775774 0.0776712 0.079931 0.0777743 0.0776141 0.0775761 -0.0724851 -0.072604 -0.0725868 -0.0730364 -0.0745144 0.0794781 -0.0725369 0.0791693 -0.0725379 -0.0729225 -0.0728745 0.0787384 0.0776487 -0.0739083 0.0801707 0.0789024 0.0809184 0.0776353 0.0779111 0.0802664 -0.073903 0.0776896 0.0777106 -0.0730263 -0.0739198 0.0781659 -0.0742961 -0.0737546 -0.0725289 -0.0728264 -0.0729101 -0.0737425 0.0783986 -0.0727502 -0.0730123 0.0775726 0.0776794 -0.0743712 0.0782562 0.0785399 0.0787772 -0.0724697 -0.072806 -0.073498 -0.0733414 -0.0732011 -0.0755072 0.0795674 0.0783559
internal_weight=0 11654.5 10622.1 2167.91 10960.2 694.297 1361.47 8454.21 682.194 27.5869 238.698 1333.88 8451.6 10721.5 1232.27 1221.26 119.69 11.0047 8.6145 806.445 9.98823 1101.57 115.626 113.399 12.4955 676.105 7.2016 6.08909 7.1822 15.0915 668.922 96.7656 9.38107 12.2324 76.3736 230.084 66.4211 7.64354 9.44146 9.88831 6.53951 1094.37 57.6566 58.7776 6.5342 5.53736 101.166 41.6075 8408.49 223.135 4.39569 43.1091 23.5719 18.7588 9489.26 52.2434 7.38365 23.8275 21.188 7.14324 6.52373 12.235
internal_count=100778 54174 46604 9704 51148 3026 5938 36900 2975 118 1040 5820 36889 50108 5749 5699 555 50 37 3766 43 5144 537 527 54 2949 33 26 31 64 2918 421 40 56 333 1003 308 35 41 45 30 5111 268 273 30 24 471 193 36702 973 20 187 102 81 44359 243 34 110 98 32 28 53
is_linear=0
shrinkage=0.05


Tree=9
num_leaves=63
num_cat=0
split_feature=4 40 31 40 5 1 11 40 40 38 40 40 40 33 32 33 2 41 41 2 31 41 5 22 34 31 22 21 33 41 21 31 0 0 41 34 33 41 28 21 9 5 32 11 41 2 31 31 32 21 34 2 6 31 4 35 32 32 22 38 38 33
split_gain=33074 5241.57 1989.55 1960.51 847.937 528.02 455.446 295.622 1820.28 152.368 60.1299 22.4303 20.8533 16.5052 1.8091 0.227621 0.11661 0.0609643 0.0156474 0.0121399 0.00835061 0.00692917 0.00633829 0.0130185 0.00863195 0.0251529 0.0079437 0.00648907 0.00565069 0.00477407 0.00442054 0.00377347 0.00356371 0.00443698 0.00348646 0.0032931 0.00317549 0.00282662 0.00281902 0.00262279 0.00243386 0.015833 0.00242723 0.00240976 0.00198632 0.00259894 0.00302234 0.00193445 0.0019015 0.00186082 0.00175444 0.00166269 0.00151954 0.00148728 0.00146748 0.00454202 0.00230671 0.001992 0.00139646 0.00137308 0.00135342 0.00218045
threshold=28.500000000000004 11.500000000000002 208.50000000000003 10.500000000000002 1.0000000180025095e-35 1.0000000180025095e-35 1.0000000180025095e-35 10.500000000000002 14.500000000000002 0.095000000000000015 15.500000000000002 14.500000000000002 10.500000000000002 0.14500000000000005 0.8650000000000001 0.64500000000000013 18.500000000000004 1.5000000000000002 7.5000000000000009 43.500000000000007 3.5000000000000004 15.500000000000002 1.0000000180025095e-35 23.500000000000004 0.99500000000000011 52.500000000000007 1.5000000000000002 23.500000000000004 0.13500000000000004 14.500000000000002 38.500000000000007 1.5000000000000002 6.5000000000000009 47.500000000000007 6.5000000000000009 0.99500000000000011 0.67500000000000016 13.500000000000002 0.045000000000000005 23.500000000000004 1.0000000180025095e-35 88.500000000000014 0.99500000000000011 1.0000000180025095e-35 11.500000000000002 48.500000000000007 4.5000000000000009 7.5000000000000009 0.03500000000000001 3.5000000000000004 0.025000000000000005 23.500000000000004 1.0000000180025095e-35 61.500000000000007 1032.5000000000002 0.10500000000000002 0.91500000000000015 0.03500000000000001 11.500000000000002 1.0000000180025095e-35 0.29500000000000004 0.89500000000000013
decision_type=2 2 2 2 2 2 2 2 2 2 2 2 2 2 2 2 2 2 2 2 2 2 2 2 2 2 2 2 2 2 2 2 2 2 2 2 2 2 2 2 2 2 2 2 2 2 2 2 2 2 2 2 2 2 2 2 2 2 2 2 2 2
left_child=2 3 4 20 6 -4 7 29 21 10 12 15 -6 -11 -7 -8 -15 -3 28 31 32 35 23 24 30 26 43 -25 -10 -1 50 -19 -2 -34 -21 47 -18 -28 -32 54 41 42 -22 -26 45 46 -20 -9 -23 -49 51 59 -31 -29 55 57 -57 -33 -38 -5 -24 -62
right_child=1 17 5 22 9 14 11 8 18 13 -12 -13 -14 16 -16 -17 36 19 44 34 40 48 60 27 25 -27 37 53 -30 52 38 39 33 -35 -36 -37 58 -39 -40 -41 -42 -43 -44 -45 -46 -47 -48 49 -50 -51 -52 -53 -54 -55 -56 56 -58 -59 -60 -61 61 -63
leaf_value=0.076149578739369256 0.075738283191620195 0.079219267827431453 0.075523964664231488 -0.071354756423011659 0.079710754193448696 -0.024666397517668918 -0.070956727814510429 -0.072084328761386235 0.078521530757737268 -0.070985547418693548 0.079504813004427036 0.076564778821637189 -0.070891090286701944 0.064307582110471759 -0.070922730472286158 -0.054226413163805033 0.077677494773873645 0.077140191722870552 0.076106115123876994 0.079243926956000479 0.075590958407525041 -0.072054507792103206 -0.070896844186378732 -0.071004304834775905 -0.073774456442621789 -0.07097522818851168 -0.072868296159513221 -0.074399249188056946 0.076220502014932384 0.075514526578122951 -0.073059284550307135 0.077653483732758488 0.079196302174870128 0.076601500601671285 0.076800873867056946 -0.073372522267501614 0.075789420863243029 -0.071371907225306536 -0.071344705924776958 0.075508676317891404 0.075549676647451658 0.079768627560035762 0.076719701043485855 -0.072302608211921707 0.075534778470132027 0.075520318577770709 0.078283707195513696 -0.071026939797511721 -0.070929048553314958 -0.072488663625032854 -0.070935927806784371 -0.070947623907360716 0.076696212612626546 -0.072955048796927296 0.075594971452451337 0.077117413832461776 0.075568275924374068 0.076242092490486149 0.077045983876554203 -0.072371743621086074 -0.071040471023642346 -0.072517035208971112
leaf_weight=29.739593654870987 3.1404109895229322 11.865060433745382 75.84824737906456 24.534815356135372 2.3379660695791236 2.1273426860570899 57.435709357261658 11.454770192503934 5.776539131999014 2.0823318660259273 7.2348770797252646 2.7159945517778388 136.34868155419827 2.2725728154182461 331.51220870018005 2.1076340675353995 2.97512058913708 3.8685002177953711 5.179358139634135 2.5592534393072119 38.068442970514297 3.8188682347536078 9114.5347867161036 3.5394471883773786 12.006327375769617 85.751439481973648 4.515801101922988 3.3059728592634201 4.9581450372934341 8133.7996219694614 3.8772444427013379 2.7452112585306194 3.0232492834329605 3.6203227490186691 3.4010782539844513 2.8186179250478736 19.081416070461277 10.479399144649504 6.2806473225355148 459.92530250549316 177.25925199687481 2.5730904638767234 5.443879932165145 3.6192013919353476 1275.6997232735157 9.1729080677032453 2.3014572262763977 14.586322009563448 217.56844744086266 2.5593008548021308 1004.3312900364399 27.674282297492027 2.7213976681232444 3.8690156042575836 101.6663558781147 2.5006045699119559 61.56355993449688 27.983663946390152 2.5008323937654486 3.8381841033697119 104.21442922949791 2.5617021173238745
leaf_count=132 14 51 339 117 10 10 276 54 25 10 31 12 656 10 1594 10 13 17 23 11 170 18 43847 17 55 412 21 15 22 36358 18 12 13 16 15 13 85 50 30 2056 792 11 24 17 5701 41 10 70 1046 12 4828 133 12 18 454 11 275 124 11 18 500 12
internal_value=0 -0.0591239 0.0644569 -0.0677043 0.068898 -0.0435565 0.0708483 0.0717115 0.0517369 -0.0402443 -0.0610214 -0.0639549 -0.0683523 0.0646188 -0.0706278 -0.0703645 0.0751434 0.0756667 0.0755577 0.0756035 0.0756965 -0.0710471 -0.070913 -0.0710212 -0.0710055 -0.0714145 -0.0726446 -0.0727562 0.0774587 0.0755172 -0.0709611 0.0755832 0.0771262 0.0777823 0.0778499 -0.0717419 0.0761461 -0.0718225 -0.0719992 0.075574 0.0756338 0.0759575 0.0757322 -0.0734335 0.0755419 0.0760844 0.076776 -0.0715812 -0.0709485 -0.0712451 -0.0709511 -0.0712234 0.0755149 -0.0736205 0.0757269 0.0758684 0.0756287 0.0763682 0.075935 -0.0714923 -0.0708989 -0.0710759
internal_weight=0 11330.1 10368.7 10652.1 9959.25 409.488 9784.41 9722.16 1555.89 174.834 145.922 62.2593 138.687 28.9123 333.64 59.5433 26.8299 678.079 1303.09 666.214 233.129 252.806 10418.9 1197.62 1186.91 116.372 30.6207 10.7144 10.7347 8166.26 1070.54 660.253 9.78398 6.64357 5.96033 31.419 24.5574 14.9952 10.1579 656.385 223.345 46.0854 43.5123 15.6255 1292.35 16.6537 7.48082 28.6004 221.387 17.1456 1060.38 56.0473 8136.52 7.17499 196.459 94.793 64.0642 30.7289 21.5822 28.373 9221.31 106.776
internal_count=100778 54174 46604 51148 44661 1943 43835 43537 7035 826 697 298 666 129 1604 286 119 3026 5822 2975 1040 1213 50108 5749 5699 555 143 50 47 36502 5144 2949 43 29 26 149 109 71 48 2932 997 205 194 72 5775 74 33 136 1064 82 5096 268 36370 33 876 422 286 136 96 135 44359 512
is_linear=0
shrinkage=0.05


Tree=10
num_leaves=63
num_cat=0
split_feature=4 40 31 40 5 1 11 40 40 38 40 40 40 33 32 35 2 41 41 2 31 41 5 22 34 31 22 11 33 41 21 30 31 0 0 5 34 33 41 2 35 32 9 5 32 11 41 2 31 31 32 21 34 2 30 22 38 38 1 33 31 4
split_gain=30735.7 4879.2 1844.27 1825.63 785.872 491.277 422.331 273.216 1688.95 141.709 55.9388 20.8736 19.4097 15.2876 1.77681 0.238358 0.121644 0.0483457 0.0124575 0.00966262 0.00664945 0.00560849 0.00512783 0.010506 0.00697805 0.0202766 0.00637593 0.00529554 0.00446818 0.00381716 0.00358285 0.00609225 0.00301569 0.00283152 0.00349944 0.00279226 0.00264792 0.0025319 0.00227598 0.00211069 0.00456408 0.00194131 0.0019364 0.0125322 0.00193379 0.00192625 0.0015871 0.00207422 0.00240429 0.00156459 0.00153732 0.00150868 0.00141677 0.00134254 0.00116003 0.0011171 0.00111041 0.00110905 0.00104277 0.00102664 0.00158328 0.00101706
threshold=28.500000000000004 11.500000000000002 208.50000000000003 10.500000000000002 1.0000000180025095e-35 1.0000000180025095e-35 1.0000000180025095e-35 10.500000000000002 14.500000000000002 0.095000000000000015 15.500000000000002 14.500000000000002 10.500000000000002 0.14500000000000005 0.8650000000000001 0.115 18.500000000000004 1.5000000000000002 7.5000000000000009 43.500000000000007 3.5000000000000004 15.500000000000002 1.0000000180025095e-35 23.500000000000004 0.99500000000000011 52.500000000000007 1.5000000000000002 1.0000000180025095e-35 0.13500000000000004 14.500000000000002 38.500000000000007 254.50000000000003 1.5000000000000002 6.5000000000000009 47.500000000000007 4.5000000000000009 0.99500000000000011 0.67500000000000016 13.500000000000002 19.500000000000004 0.10500000000000002 0.89500000000000013 1.0000000180025095e-35 88.500000000000014 0.99500000000000011 1.0000000180025095e-35 11.500000000000002 48.500000000000007 4.5000000000000009 7.5000000000000009 0.03500000000000001 3.5000000000000004 0.025000000000000005 23.500000000000004 104.50000000000001 11.500000000000002 1.0000000180025095e-35 0.82500000000000007 1.0000000180025095e-35 0.055000000000000007 1.5000000000000002 3186.0000000000005
decision_type=2 2 2 2 2 2 2 2 2 2 2 2 2 2 2 2 2 2 2 2 2 2 2 2 2 2 2 2 2 2 2 2 2 2 2 2 2 2 2 2 2 2 2 2 2 2 2 2 2 2 2 2 2 2 2 2 2 2 2 2 2 2
left_child=2 3 4 20 6 -4 7 29 21 10 12 15 -6 -11 -7 -8 -15 -3 28 32 33 36 23 24 30 26 45 -25 54 58 52 -32 -19 -2 -35 -21 49 -18 -28 -34 -41 -42 43 44 -22 -26 47 48 -20 59 -23 -51 53 56 -10 -39 -5 -24 -1 -9 -61 -59
right_child=1 17 5 22 9 14 11 8 18 13 -12 -13 -14 16 -16 -17 37 19 46 35 42 50 57 27 25 -27 38 -29 -30 -31 31 -33 39 34 -36 -37 -38 55 -40 40 41 -43 -44 -45 -46 -47 -48 -49 -50 51 -52 -53 -54 -55 -56 -57 -58 61 -60 60 -62 -63
leaf_value=0.074641817654698059 0.073861160588435462 0.076995283755928914 0.073667297081253247 -0.069884146348296053 0.077434488183493508 -0.023541498046262512 -0.069529719851648755 -0.069988324291642576 0.075483774255986083 -0.069547526418904534 0.077249906006744973 0.074608997852798606 -0.069461373643810817 0.06204220909235645 -0.06949024968669397 -0.052202915648385598 0.075613714563594892 0.07512979297803192 0.074194494594896535 0.074362155821055306 0.073727826976634978 -0.070522793113096213 -0.069467705019788231 -0.071987695000559584 -0.072084373395614437 -0.069538461093416604 -0.071263053302998744 -0.069623224099272393 0.07429893581962535 0.073659128383609315 -0.072688315669509132 -0.069776550577275054 0.073675415994401708 0.076975093385673127 0.074643554839291748 0.076620609429267378 -0.071720711319729652 0.073907099470814627 -0.069900885541803556 0.074624380743940663 0.075209684906500929 0.073708341182150722 0.073690556354139444 0.077486280738148727 0.074747872928861189 -0.070749553298678922 0.073677108314904385 0.073664017529778886 0.076159979625035609 -0.069585410152381275 -0.069496015054225063 -0.070920727944280185 -0.069502327493086435 -0.069512946317028923 0.076949594709537356 0.075044813681428513 -0.070812010125067867 -0.069721232289675888 0.074013490976899007 -0.069806307623558425 -0.071493608284238216 -0.0708935721677426
leaf_weight=10.169029474258425 3.0612161308526975 11.603985220193861 73.920695230364799 23.816762402653698 2.287629321217536 2.1177936643362036 55.743982776999474 4.6913922280073219 2.2327404171228391 2.0206815153360393 7.077727183699607 2.6495138555765143 132.30001157522202 2.2386395931243923 321.67806078493595 2.0581547468900672 2.9052732437849071 3.7757630199193946 5.0504279583692577 2.1999796479940406 37.103363364934921 3.709493711590766 8928.2589066624641 6.7736988365650159 11.681661561131479 83.211426839232445 4.3898386359214774 3.6407759636640549 4.8351701200008392 7929.6771719902754 2.3617599755525571 7.5045275837182999 548.02770087122917 2.9566468745470047 3.5317631959915161 3.621494859457016 2.7413161247968665 18.601184546947483 10.172709941864012 19.009367302060127 2.2210031300783148 70.475630179047585 172.75868332386017 2.51783163845539 5.3114645630121222 3.5163233876228324 1243.2921683937311 8.9397622346878034 2.2486860603094101 14.15500168502331 211.11564043164253 2.4869231432676306 974.54996071755886 26.85397544503212 3.4128910899162292 2.4406668841838828 3.7293478548526755 17.232025653123859 18.831415295600891 2.0317821353673935 4.4037010967731476 2.0725327581167212
leaf_count=46 14 51 339 117 10 10 276 23 10 10 31 12 656 10 1594 10 13 17 23 10 170 18 44264 32 55 412 21 18 22 36370 11 37 2513 13 16 16 13 85 50 86 10 323 792 11 24 17 5701 41 10 70 1046 12 4828 133 15 11 18 85 86 10 21 10
internal_value=0 -0.0579099 0.0628914 -0.0663311 0.0672164 -0.0426379 0.0691156 0.0699562 0.0504972 -0.039382 -0.0597595 -0.0626224 -0.0669645 0.0629627 -0.0691897 -0.0689128 0.0731881 0.0737964 0.0736978 0.0737392 0.0738233 -0.0696038 -0.0694814 -0.0695802 -0.0695659 -0.0699391 -0.0710592 -0.0711611 0.0754145 0.0736612 -0.0695253 -0.0704736 0.0737209 0.0751146 0.075706 0.0757671 -0.0702382 0.0742301 -0.0703115 0.0737126 0.0739346 0.0737542 0.0737666 0.074059 0.0738556 -0.0717755 0.0736835 0.0741746 0.0748 -0.0700918 -0.0695137 -0.069785 -0.0695162 -0.0697645 0.0763699 0.0740391 -0.0700098 -0.0694685 0.0742338 -0.0705508 -0.0709609 -0.0698471
internal_weight=0 10997.9 10102.1 10337 9704.35 397.717 9534.48 9474.02 1515.35 169.872 141.665 60.4517 134.588 28.2064 323.796 57.8021 26.1858 660.935 1270.01 649.331 227.241 245.335 10109.8 1162.2 1151.79 112.972 29.7605 10.4145 10.4808 7958.68 1038.82 9.86629 643.509 9.54963 6.48841 5.82147 30.5101 23.9471 14.5625 639.734 91.706 72.6966 217.691 44.9327 42.4148 15.198 1259.53 16.2389 7.29911 27.7688 214.825 16.6419 1028.95 54.4001 5.64563 21.0419 27.5461 8947.56 29.0004 11.1269 6.43548 19.3046
internal_count=100778 54174 46604 51148 44661 1943 43835 43537 7035 826 697 298 666 129 1604 286 119 3026 5822 2975 1040 1213 50108 5749 5699 555 143 50 47 36502 5144 48 2949 43 29 26 149 109 71 2932 419 333 997 205 194 72 5775 74 33 136 1064 82 5096 268 25 96 135 44359 132 54 31 95
is_linear=0
shrinkage=0.05


Tree=11
num_leaves=63
num_cat=0
split_feature=4 40 31 40 5 1 11 40 40 38 40 40 40 33 41 38 2 41 41 2 41 41 5 22 34 31 22 21 33 4 41 21 30 31 33 34 34 33 41 21 11 5 41 2 31 31 21 34 2 6 31 4 34 0 21 33 30 0 38 31 34 1
split_gain=28610 4548.73 1712.83 1702.54 729.745 457.79 392.353 253.055 1569.93 132.001 52.1223 19.4534 18.094 14.1858 1.441 0.243057 0.127322 0.0385754 0.00997216 0.0077365 0.00532992 0.00455568 0.00416598 0.00852156 0.00566647 0.0164213 0.0051427 0.00434367 0.00355306 0.00311607 0.00306809 0.00290808 0.00491064 0.00242398 0.00227922 0.00225982 0.00214024 0.00203119 0.00184119 0.00170846 0.00154767 0.00146333 0.00127534 0.00166508 0.0019243 0.00126833 0.00122856 0.00114918 0.00108889 0.00101965 0.00096547 0.000958614 0.00235845 0.00218966 0.00335382 0.000925122 0.000917534 0.000910437 0.000902072 0.000890241 0.000838195 0.000829921
threshold=28.500000000000004 11.500000000000002 208.50000000000003 10.500000000000002 1.0000000180025095e-35 1.0000000180025095e-35 1.0000000180025095e-35 10.500000000000002 14.500000000000002 0.095000000000000015 15.500000000000002 14.500000000000002 10.500000000000002 0.14500000000000005 16.500000000000004 0.64500000000000013 18.500000000000004 1.5000000000000002 7.5000000000000009 43.500000000000007 5.5000000000000009 15.500000000000002 1.0000000180025095e-35 23.500000000000004 0.99500000000000011 52.500000000000007 1.5000000000000002 23.500000000000004 0.13500000000000004 1527.5000000000002 14.500000000000002 38.500000000000007 254.50000000000003 1.5000000000000002 0.115 0.99500000000000011 0.99500000000000011 0.75500000000000012 13.500000000000002 23.500000000000004 1.0000000180025095e-35 73.500000000000014 11.500000000000002 48.500000000000007 4.5000000000000009 7.5000000000000009 3.5000000000000004 0.025000000000000005 23.500000000000004 1.0000000180025095e-35 61.500000000000007 1032.5000000000002 0.87500000000000011 5.5000000000000009 8.5000000000000018 0.92500000000000016 104.50000000000001 44.500000000000007 1.0000000180025095e-35 30.500000000000004 0.015000000000000001 1.0000000180025095e-35
decision_type=2 2 2 2 2 2 2 2 2 2 2 2 2 2 2 2 2 2 2 2 2 2 2 2 2 2 2 2 2 2 2 2 2 2 2 2 2 2 2 2 2 2 2 2 2 2 2 2 2 2 2 2 2 2 2 2 2 2 2 2 2 2
left_child=2 3 4 20 6 -4 7 30 21 10 12 15 -6 -11 -7 -8 -15 -3 28 33 29 36 23 24 31 26 40 -25 56 -2 61 47 -33 -19 -21 -22 45 41 -28 51 -26 -18 43 44 -20 60 -47 48 58 -32 -29 52 53 54 -35 -24 -10 -31 -5 -57 -9 -1
right_child=1 17 5 22 9 14 11 8 18 13 -12 -13 -14 16 -16 -17 37 19 42 34 35 -23 55 27 25 -27 38 50 -30 57 49 32 -34 39 -36 -37 -38 -39 -40 -41 -42 -43 -44 -45 -46 46 -48 -49 -50 -51 -52 -53 -54 -55 -56 59 -58 -59 -60 -61 -62 -63
leaf_value=0.072870105570181684 0.07442578469134721 0.074996024978107437 0.07198647442044348 -0.068542055701012281 0.075390340724691099 -0.031178495767725401 -0.06821912109642958 -0.068811156882091759 0.073633776717450902 -0.06823424042441921 0.075224138568456916 0.072841742736265896 -0.068155442113641926 0.059921726960572866 -0.068187570360022542 -0.050542667267405729 0.072588553097305941 0.073314934330884401 0.072465688236542466 0.074734345548611289 0.072047425588031386 -0.068203387135403443 -0.068161537110348641 -0.068229642068271076 -0.07054909916459505 -0.068226262300679921 -0.069802160673735944 -0.071079982099069891 0.072561385035707957 0.073308555009566137 0.07197873121584121 -0.071097648637874294 -0.068445144012691847 0.074733947336130882 0.072700895504189261 0.072954142512015208 -0.07021893240520935 0.072227547842034098 -0.068558351090762595 0.071973438169454437 -0.069334529965349445 0.074178997518460493 0.071995407709945142 0.071983506823938725 0.074246868867311966 -0.068269017731397874 -0.069492436914883896 -0.068192954482822296 -0.068202624622546906 0.072971606821478435 -0.069883189456571973 0.072044779392662531 0.072182725521157107 0.071984496951180144 0.072426542474714237 -0.068289731165676312 0.074953980178213919 0.07195994535417248 -0.069391149549693984 -0.069469423249115966 -0.069721442022896471 0.072301999507155948
leaf_weight=9.9022174328565615 3.7419978082180005 11.324726417660711 71.915164425969124 23.087443307042125 2.2335418760776511 2.6526130884885779 54.020229324698448 6.7481537163257652 2.1758356690406782 1.9581790119409586 6.9091762006282798 2.5798697620630255 128.19729572534561 2.2028798907995251 311.16680450737476 2.0173509269952765 3.2129103243351009 3.6782379150390616 4.9157809168100348 3.3174707293510428 205.12408730387688 208.17349281907082 8663.4188282340765 3.3266655653715116 11.347550839185716 80.636527642607689 4.2608970105648032 3.1292144507169724 4.7066607773303986 2.1635608375072479 7711.891581222415 2.295547738671301 7.2738310545682907 3.0948066115379316 2.3571663051843643 7.1099989265203467 2.6619594395160666 17.466465309262276 9.8612178415060026 436.06040875613689 3.4113439917564383 2.6302307695150375 1209.5713455379009 8.6971908360719663 2.1927133649587631 13.717636793851854 2.4130093157291403 944.36454075574875 26.022486239671707 2.5867047160863867 3.6516745090484619 96.406892895698547 80.24077370762825 3.394097626209259 3.2064769417047501 4.1179128736257544 3.3306507021188736 2.9685488641262054 3.6182418018579474 2.61465023458004 4.0446263700723648 18.326124712824821
leaf_count=46 17 51 339 117 10 13 276 34 10 10 31 12 656 10 1591 10 15 17 23 15 966 1064 44325 17 55 412 21 15 22 10 36358 11 37 14 11 33 13 82 50 2056 17 12 5701 41 10 70 12 4828 133 12 18 454 377 16 15 21 15 14 18 13 20 86
internal_value=0 -0.0568018 0.0614733 -0.065077 0.0656934 -0.0417995 0.0675466 0.0683668 0.0493735 -0.0385955 -0.058608 -0.0614024 -0.0656973 0.0614573 -0.0678747 -0.0675828 0.0714116 0.0721037 0.0720142 0.0720518 0.072128 -0.0682859 -0.0681737 -0.0682642 -0.0682511 -0.0685927 -0.0696157 -0.0697095 0.0735701 0.0733285 0.071981 -0.068214 -0.0690814 0.0720352 0.0738897 0.0720778 -0.0688665 0.0724975 -0.0689336 0.0720276 -0.0702684 0.0733045 0.0720012 0.0724475 0.0730151 -0.0687327 -0.068452 -0.0682056 -0.0684328 0.0719791 -0.0704355 0.0721543 0.0722717 0.0730083 0.0735598 -0.068162 0.0744323 0.0725285 -0.0686571 -0.0687479 -0.0691523 0.0725013
internal_weight=0 10660.6 9825.22 10017.5 9439.48 385.735 9274.67 9216.06 1473.35 164.811 137.34 58.6175 130.431 27.4707 313.819 56.0376 25.5125 643.081 1235.59 631.756 221.108 237.759 9796.44 1126.29 1116.18 109.518 28.881 10.1076 10.2131 8.87411 7742.71 1006.66 9.56938 626.082 5.67464 212.234 29.5854 23.3096 14.1221 622.403 14.7589 5.84314 1225.38 15.8057 7.10849 26.9234 16.1306 997.093 52.7282 7714.48 6.78089 186.343 89.9362 9.69538 6.30128 8670.15 5.50649 5.13211 26.7057 6.73256 10.7928 28.2283
internal_count=100778 54174 46604 51148 44661 1943 43835 43537 7035 826 697 298 666 129 1604 286 119 3026 5822 2975 1040 1213 50108 5749 5699 555 143 50 47 41 36502 5144 48 2949 26 999 149 109 71 2932 72 27 5775 74 33 136 82 5096 268 36370 33 876 422 45 29 44359 25 24 135 34 54 132
is_linear=0
shrinkage=0.05


Tree=12
num_leaves=63
num_cat=0
split_feature=4 40 31 40 5 1 11 40 40 38 40 40 40 33 32 35 2 41 41 2 31 41 5 22 34 31 22 11 33 41 21 30 31 41 34 41 33 4 41 2 35 32 11 32 31 41 2 31 21 34 33 38 34 6 41 38 33 27 22 30 31 33
split_gain=26671.4 4246.46 1593.48 1589.89 678.798 427.171 365.117 234.841 1461.69 123.132 48.6362 18.154 16.891 13.1849 1.81499 0.254295 0.133582 0.0309511 0.00802546 0.00622735 0.00433953 0.003717 0.00339829 0.00693691 0.00462004 0.0133548 0.00416658 0.00355125 0.00284155 0.00247871 0.00237007 0.00397601 0.00195854 0.00186895 0.00173701 0.00171844 0.00164042 0.00154995 0.00149584 0.00137714 0.00308328 0.00127303 0.00124932 0.00105835 0.00103374 0.00103013 0.00134366 0.00154856 0.00100446 0.000935902 0.000897917 0.0013484 0.00085174 0.000821098 0.000771344 0.000768931 0.00123163 0.00130022 0.00074102 0.00073015 0.000697741 0.00107328
threshold=28.500000000000004 11.500000000000002 208.50000000000003 10.500000000000002 1.0000000180025095e-35 1.0000000180025095e-35 1.0000000180025095e-35 10.500000000000002 14.500000000000002 0.095000000000000015 15.500000000000002 14.500000000000002 10.500000000000002 0.14500000000000005 0.8650000000000001 0.115 18.500000000000004 1.5000000000000002 7.5000000000000009 43.500000000000007 3.5000000000000004 15.500000000000002 1.0000000180025095e-35 23.500000000000004 0.99500000000000011 52.500000000000007 1.5000000000000002 1.0000000180025095e-35 0.13500000000000004 14.500000000000002 38.500000000000007 254.50000000000003 1.5000000000000002 6.5000000000000009 0.99500000000000011 7.5000000000000009 0.67500000000000016 1527.5000000000002 13.500000000000002 19.500000000000004 0.10500000000000002 0.89500000000000013 1.0000000180025095e-35 0.03500000000000001 7.5000000000000009 11.500000000000002 48.500000000000007 4.5000000000000009 3.5000000000000004 0.025000000000000005 0.025000000000000005 1.0000000180025095e-35 0.99500000000000011 1.0000000180025095e-35 16.500000000000004 0.29500000000000004 0.89500000000000013 0.66500000000000015 11.500000000000002 104.50000000000001 1.5000000000000002 0.055000000000000007
decision_type=2 2 2 2 2 2 2 2 2 2 2 2 2 2 2 2 2 2 2 2 2 2 2 2 2 2 2 2 2 2 2 2 2 2 2 2 2 2 2 2 2 2 2 2 2 2 2 2 2 2 2 2 2 2 2 2 2 2 2 2 2 2
left_child=2 3 4 20 6 -4 7 29 21 10 12 15 -6 -11 -7 -8 -15 -3 28 32 35 34 23 24 30 26 42 -25 59 -1 49 -32 -19 -21 44 37 -18 -2 -28 -34 -41 -42 -26 -23 60 46 47 -20 -46 50 -5 -52 -22 -31 -16 -24 57 -57 -38 -10 -9 -62
right_child=1 17 5 22 9 14 11 8 18 13 -12 -13 -14 16 54 -17 36 19 45 33 52 43 55 27 25 -27 38 -29 -30 53 31 -33 39 -35 -36 -37 58 -39 -40 40 41 -43 -44 -45 48 -47 -48 -49 -50 -51 51 -53 -54 -55 -56 56 -58 -59 -60 -61 61 -63
leaf_value=0.070928794927428665 0.072827493463681184 0.073191085733481501 0.070459381533509932 -0.067059933134141159 0.073546584012438174 -0.020032312850897231 -0.067024703211181008 -0.067290436901583026 0.071958530265781903 -0.067031543895297682 0.073396313876955305 0.071238817726156325 -0.06695927527293967 0.057927136334967572 -0.067980841551511725 -0.048717053631549712 0.07206842184229334 0.071670254261614275 0.070896455220022053 0.073246972276631087 0.070525207847057 -0.067866836482772044 -0.066963648460969347 -0.069079899037410963 -0.06914990301038336 -0.067024504112990366 -0.068468518018554414 -0.067081981097733015 0.070984413739073715 0.070452334779310719 -0.069649744583199391 -0.067226226721749202 0.070465957773688567 0.071389537164484332 -0.068849200839737515 0.070599559142263915 0.07065593794927022 0.071261579339461645 -0.067329585518497576 0.071263798175143223 0.071739392224992329 0.070490387233113461 -0.068041405799630902 -0.066988094119025857 -0.067063540745668435 0.070467534651534089 0.070456685114257442 0.072516448005401593 -0.068187433385451149 -0.066993725908113075 -0.067337846112789521 -0.068666539715707159 0.071184933233973291 0.071355955114263819 -0.066981236206284003 -0.068194226636429822 -0.068237667009769479 -0.067046454069571659 0.071608055761355857 0.07315227821074434 -0.067417286736147289 -0.068674728874148272
leaf_weight=27.431649327278137 3.4382079690694791 11.031234845519064 69.852408349514008 33.192323058843613 2.1765026748180381 2.072125479578971 52.293175801634789 3.43599477410317 2.1166654825210554 1.8952432423830057 6.7316719889640799 2.5078481882810584 124.06775104999542 2.1657443642616299 1.9423883259296406 1.9681464582681645 2.7548660933971432 3.5770770460367194 4.7768790423870078 2.3809978961944571 200.73126764595509 3.4867984205484381 8293.7007839232683 6.3824275583028776 11.006937786936762 78.043965935707092 4.1300153136253348 3.4138045012950897 4.5740234851837158 7490.6346661299467 2.2278220951557142 7.0413261353969574 517.87234061956406 3.1406706869602203 2.5812194049358359 2.6858799904584885 17.584640786051754 2.9242575019598007 9.5470906198024732 17.999314278364182 2.1045639514923087 66.598021626472473 3.305062308907508 197.98993964493275 13.277169749140738 1174.886499479413 8.4477031677961332 2.1342658549547195 2.3381297141313544 913.97624552249908 15.676400244235994 2.1742971539497367 5.0146027505397788 2.514831230044364 299.76847897469997 2.53518322110176 2.3425597250461569 92.337822869420052 2.3122833073139182 3.2442373633384705 2.8729263544082642 4.1458527594804764
leaf_count=132 16 51 339 175 10 10 276 18 10 10 31 12 656 10 10 10 13 17 23 11 973 18 43847 32 55 412 21 18 22 36358 11 37 2513 15 13 13 85 14 50 86 10 323 17 1046 70 5701 41 10 12 4828 82 11 24 12 1584 13 12 487 11 15 15 21
internal_value=0 -0.0557876 0.060184 -0.0639286 0.0643092 -0.0410311 0.0661208 0.0669224 0.0483515 -0.0378758 -0.0575543 -0.060282 -0.0645369 0.0600833 -0.0666674 -0.0663607 0.0697906 0.0705661 0.0704847 0.0705189 0.0705884 -0.0670791 -0.0669761 -0.0670591 -0.0670471 -0.0673605 -0.0682976 -0.0683837 0.0718999 0.0704544 -0.067013 -0.0678087 0.0705037 0.0721905 -0.067612 0.0716601 0.0709249 0.0721078 -0.0676735 0.0704968 0.0706813 0.0705286 -0.0688939 -0.0670033 -0.0674894 0.0704729 0.0708797 0.0713967 -0.0672318 -0.0670054 -0.0672137 -0.0674997 0.0705413 0.0704526 -0.0669877 -0.0669653 -0.0671051 -0.0670771 0.0707666 0.0726809 -0.0678742 -0.06816
internal_weight=0 10320.5 9540.98 9695.83 9167.35 373.635 9007.66 8950.89 1430.31 159.689 132.976 56.7692 126.244 26.7128 303.783 54.2613 24.8175 624.704 1200.18 613.673 214.794 230.128 9481.03 1090.12 1080.32 106.033 27.9891 9.79623 9.93493 7520.58 974.288 9.26915 608.151 5.52167 28.6513 9.04835 22.6518 6.36247 13.6771 604.574 86.7019 68.7026 14.312 201.477 26.0701 1190.25 15.3588 6.91114 15.6153 965.019 51.043 17.8507 205.746 7493.15 301.711 8390.92 97.2156 94.873 19.8969 5.3609 10.4548 7.01878
internal_count=100778 54174 46604 51148 44661 1943 43835 43537 7035 826 697 298 666 129 1604 286 119 3026 5822 2975 1040 1213 50108 5749 5699 555 143 50 47 36502 5144 48 2949 26 149 43 109 30 71 2932 419 333 72 1064 136 5775 74 33 82 5096 268 93 997 36370 1594 44359 512 500 96 25 54 36
is_linear=0
shrinkage=0.05


Tree=13
num_leaves=63
num_cat=0
split_feature=4 40 40 31 5 1 11 40 40 38 40 40 40 5 32 32 32 41 41 38 2 30 41 5 22 34 31 22 21 9 41 21 30 38 32 41 5 34 41 2 35 4 32 11 32 31 41 2 31 21 9 2 34 4 2 6 31 41 38 38 4 31
split_gain=24898.3 3969.26 1486.51 1484.76 632.4 399.111 340.291 218.322 1362.92 115.007 45.4426 16.9619 15.7881 3.37343 1.79287 1.40636 0.264284 0.0249582 0.00649005 0.00560405 0.00503672 0.00355273 0.00304267 0.00278167 0.00567091 0.00378089 0.0109026 0.00338949 0.00294714 0.00217485 0.00201259 0.00193882 0.00323241 0.00190526 0.00161467 0.00155905 0.00154722 0.00141566 0.00122 0.00117093 0.00249511 0.00107903 0.00103551 0.00101279 0.000866106 0.000844657 0.000835924 0.00108941 0.00125235 0.000824209 0.000800075 0.0063345 0.000764723 0.000757306 0.000733846 0.000664347 0.000637569 0.00063141 0.000630614 0.000599961 0.000578576 0.000570674
threshold=28.500000000000004 11.500000000000002 10.500000000000002 208.50000000000003 1.0000000180025095e-35 1.0000000180025095e-35 1.0000000180025095e-35 10.500000000000002 14.500000000000002 0.095000000000000015 15.500000000000002 14.500000000000002 10.500000000000002 137.50000000000003 0.8650000000000001 0.49500000000000005 0.03500000000000001 1.5000000000000002 7.5000000000000009 0.31500000000000006 43.500000000000007 6.5000000000000009 15.500000000000002 1.0000000180025095e-35 23.500000000000004 0.99500000000000011 52.500000000000007 1.5000000000000002 23.500000000000004 1.0000000180025095e-35 14.500000000000002 38.500000000000007 254.50000000000003 0.10500000000000002 0.015000000000000001 16.500000000000004 4.5000000000000009 0.99500000000000011 13.500000000000002 19.500000000000004 0.10500000000000002 1527.5000000000002 0.89500000000000013 1.0000000180025095e-35 0.03500000000000001 7.5000000000000009 11.500000000000002 48.500000000000007 4.5000000000000009 3.5000000000000004 1.0000000180025095e-35 48.500000000000007 0.025000000000000005 1.0000000180025095e-35 23.500000000000004 1.0000000180025095e-35 61.500000000000007 16.500000000000004 0.82500000000000007 1.0000000180025095e-35 3186.0000000000005 1.5000000000000002
decision_type=2 2 2 2 2 2 2 2 2 2 2 2 2 2 2 2 2 2 2 2 2 2 2 2 2 2 2 2 2 2 2 2 2 2 2 2 2 2 2 2 2 2 2 2 2 2 2 2 2 2 2 2 2 2 2 2 2 2 2 2 2 2
left_child=3 2 21 4 6 -5 7 30 22 10 12 16 -6 15 -7 19 -8 -3 33 -11 34 29 37 24 25 31 27 43 -26 -2 -1 52 -33 -10 35 -19 -22 45 -29 -36 -41 -31 -42 -27 -24 61 47 48 -20 -47 51 -23 54 -35 59 -32 -30 -16 -25 -4 -60 -9
right_child=1 17 23 5 9 14 11 8 18 13 -12 -13 -14 -15 57 -17 -18 20 46 -21 36 50 44 58 28 26 -28 38 56 41 55 32 -34 53 39 -37 -38 -39 -40 40 42 -43 -44 -45 -46 49 -48 -49 -50 -51 -52 -53 -54 -55 -56 -57 -58 -59 60 -61 -62 -63
leaf_value=0.069496866216328085 0.071064763525443345 0.071555290247939343 -0.066188037455213275 0.069067449098058328 0.071877013209433946 -0.019114211757548124 -0.04703321040765409 -0.06616539318183208 0.071059584448296728 0.072098787994106073 0.071740642315240008 0.069779972861655506 -0.065860885820337708 0.0086682504628072046 -0.066800486983655857 0.030195817876732135 -0.065926004888733444 0.070703810495049438 0.069467305373913116 0.069384083369220181 0.069553634481645601 0.07213956300907183 -0.066695569127084631 -0.065865767368447389 -0.065908521601148379 -0.067870935163953802 -0.065921095530929896 -0.067247610800505564 -0.068325593991611144 0.070459826506949597 0.069061020503029355 -0.06832771223072269 -0.066107428524508877 0.070311421233678228 0.069070260048997439 0.069130371223056555 0.071306541041802521 -0.067596281492213126 -0.066202036318584248 0.069796065529830156 0.07023892893440184 0.06921193357208387 0.069095750476007786 -0.066856459157126 -0.065887387635774092 -0.065956834220407462 0.069074916857015264 0.069064994547634831 0.070945510715381702 -0.066991793998808169 0.06908304691868343 0.069193783369482675 -0.065892590310517196 0.069034671540608092 -0.065899424256713843 0.069885990597965172 -0.067322373729167856 -0.065881071733194699 -0.066066234285322475 -0.066903228314275795 -0.06699305765601303 -0.066965035893311875
leaf_weight=26.617650508880615 3.5395036041736594 10.726955428719519 21.615535154938701 67.750444144010544 2.1172084510326377 2.0633025914430609 1.9213916361331929 3.3225733786821419 4.9988133013248426 2.1212794035673239 6.5473489910364142 2.4341329187154761 119.93482080101967 2.9687799364328376 1.8794697374105442 2.5370563566684714 50.562143787741661 3.0980709940195075 4.6349932253360739 18.312415435910225 2.0180872231721869 1.914347931742667 3.373502403497695 8093.9239816069603 3.1110377013683301 10.662372171878816 75.448576167225838 3.9980924129486075 2.9440864473581314 2.467993959784506 7265.1814514249563 2.1591223180294019 6.8083745539188385 2.2537881135940552 499.06172454357147 3.2009772509336472 3.346087783575058 2.4996774792671195 9.2321945875883085 17.875206425786018 2.0435917675495139 5.8110214322805405 64.595893457531929 3.1981685310602179 191.39973539113998 12.83613485097885 1139.5408244132996 8.1934773027896863 2.073976531624794 2.2627771347761145 155.54149247705936 39.081209167838097 883.55841805040836 2.3963784575462341 24.346407979726791 2.441207528114318 3.4274017363786697 289.78867131471634 15.633646756410601 3.392615169286727 1.8871185928583134 6.7925630509853363
leaf_count=132 17 51 117 339 10 10 10 18 24 10 31 12 656 15 10 13 276 15 23 91 10 9 18 44264 17 55 412 21 15 12 36358 11 37 11 2497 16 16 13 50 88 10 29 323 17 1046 70 5701 41 10 12 778 195 4828 12 133 12 18 1584 85 18 10 36
internal_value=0 -0.0548568 -0.0628742 0.0590081 0.0630471 -0.0403263 0.0648208 0.0656057 0.0474189 -0.0372155 -0.0565876 -0.0592501 -0.0634716 0.0588243 -0.0655584 0.0653065 -0.0652344 0.0691649 0.0690906 0.0696659 0.0691219 0.0691855 -0.0659711 -0.0658763 -0.0659528 -0.0659417 -0.06623 -0.0670904 -0.06717 0.0700274 0.0690629 -0.0659103 -0.066642 0.0703819 0.069108 0.0699042 0.0706471 -0.0664613 -0.066518 0.0690994 0.0692715 0.0695839 0.0691308 -0.0676369 -0.0659014 -0.0663488 0.0690798 0.0694518 0.0699243 -0.0661119 0.0691348 0.0693313 -0.0659033 0.0696535 -0.0660948 0.0690613 -0.0677859 -0.065887 -0.0658664 -0.0662851 -0.0661661 -0.0667024
internal_weight=0 9979.67 9373.7 9251.76 8890.28 361.482 8735.74 8680.82 1386.58 154.539 128.599 54.9177 122.052 25.9395 293.731 22.9708 52.4835 605.967 1164.09 20.4337 595.24 208.356 222.487 9165.35 1053.9 1044.42 102.539 27.0908 9.48253 11.8185 7294.24 941.88 8.9675 9.64898 589.875 6.29905 5.36418 27.7137 13.2303 583.576 84.5147 8.27902 66.6395 13.8605 194.773 25.214 1154.44 14.9024 6.70897 15.0989 196.537 40.9956 932.913 4.65017 49.3546 7267.62 6.37149 291.668 8111.44 25.0082 17.5208 10.1151
internal_count=100778 54174 51148 46604 44661 1943 43835 43537 7035 826 697 298 666 129 1604 114 286 3026 5822 101 2975 1040 1213 50108 5749 5699 555 143 50 58 36502 5144 48 47 2949 31 26 149 71 2918 421 41 333 72 1064 136 5775 74 33 82 982 204 5096 23 268 36370 33 1594 44359 135 95 54
is_linear=0
shrinkage=0.05


Tree=14
num_leaves=63
num_cat=0
split_feature=4 40 40 31 40 40 1 32 41 41 11 2 38 2 41 41 41 9 1 21 33 11 41 32 32 38 41 33 34 2 21 15 31 2 35 28 31 32 32 2 34 2 38 21 34 31 41 36 32 37 34 6 3 41 38 33 34 33 33 33 35 39
split_gain=23271.9 3714.41 1391.42 1385.38 553.456 2027.03 373.326 2.24535 0.0202176 0.0175805 0.00671951 0.00992359 0.00504098 0.00409154 0.00290625 0.00226212 0.00205773 0.00168187 0.00163844 0.00250792 0.0018986 0.0014109 0.00140275 0.00158168 0.00131494 0.00127384 0.0012665 0.00125428 0.00120875 0.00107426 0.000992574 0.00096733 0.00149735 0.000951651 0.00202455 0.000949823 0.00150804 0.00481347 0.00084583 0.000780207 0.000771178 0.000757461 0.00403423 0.000749927 0.000610447 0.00058652 0.000556932 0.00078981 0.000546579 0.00073486 0.00063591 0.000539846 0.000534951 0.000513498 0.000512505 0.000509692 0.000482577 0.000468204 0.0012223 0.000456006 0.000445703 0.000443389
threshold=28.500000000000004 11.500000000000002 10.500000000000002 208.50000000000003 10.500000000000002 14.500000000000002 1.0000000180025095e-35 0.85500000000000009 1.5000000000000002 10.500000000000002 1.0000000180025095e-35 53.500000000000007 0.19500000000000003 43.500000000000007 5.5000000000000009 14.500000000000002 16.500000000000004 1.0000000180025095e-35 1.0000000180025095e-35 46.500000000000007 0.14500000000000005 1.0000000180025095e-35 12.500000000000002 0.50500000000000012 0.015000000000000001 0.85500000000000009 16.500000000000004 0.115 0.99500000000000011 48.500000000000007 105.50000000000001 1.0000000180025095e-35 53.500000000000007 19.500000000000004 0.10500000000000002 0.055000000000000007 49.500000000000007 0.99500000000000011 0.89500000000000013 17.500000000000004 0.99500000000000011 26.500000000000004 0.025000000000000005 2.5000000000000004 1.0000000180025095e-35 3.5000000000000004 7.5000000000000009 0.03500000000000001 0.26500000000000007 0.17500000000000002 0.34500000000000003 1.0000000180025095e-35 1.5000000000000002 16.500000000000004 0.15500000000000003 0.92500000000000016 1.0000000180025095e-35 0.27500000000000008 0.32500000000000007 0.10500000000000002 0.47500000000000003 0.015000000000000001
decision_type=2 2 2 2 2 2 2 2 2 2 2 2 2 2 2 2 2 2 2 2 2 2 2 2 2 2 2 2 2 2 2 2 2 2 2 2 2 2 2 2 2 2 2 2 2 2 2 2 2 2 2 2 2 2 2 2 2 2 2 2 2 2
left_child=3 2 14 4 10 16 -5 -8 -3 12 15 -12 29 24 17 48 25 -2 19 20 35 41 23 -20 26 40 -10 -15 -16 39 -23 32 -25 -26 -35 36 37 -4 -36 -7 43 42 -11 46 -45 -19 47 -6 -1 50 -50 -17 -52 -9 59 -24 -41 -18 -59 -44 -38 -14
right_child=1 8 18 6 5 9 7 53 13 21 11 -13 61 27 28 51 57 45 22 -21 -22 30 55 31 33 -27 -28 -29 -30 -31 -32 -33 -34 34 38 -37 60 -39 -40 56 -42 -43 54 44 -46 -47 -48 -49 49 -51 52 -53 -54 -55 -56 -57 -58 58 -60 -61 -62 -63
leaf_value=0.067938678706258762 0.069866205298231163 0.070067624495813649 -0.065071851050927387 0.067794962410886325 -0.06502059866863498 0.06940615180267827 -0.0066693235096311381 -0.065716098971976736 0.06929336557480105 0.070081494278427622 0.072252374542585193 0.067977026268197169 0.067886595644952419 0.069892795865094615 0.067840950527528573 0.067789092199903533 -0.064872292280708607 0.068805831858399127 -0.064905468120379992 -0.066452246127666731 -0.066438376968429594 0.069526223149068492 -0.064859529071258817 -0.066365477960588698 0.067797556863537653 -0.066505193107681854 0.067853000658060769 0.068316648095091109 0.068534279633893858 0.068836261620545514 0.068011572927395542 -0.064707559585799754 -0.065023127259453931 0.068461789499105447 0.0688701166281213 -0.064863948203959951 -0.064899345860688559 -0.066666784227684614 0.067820871680606645 0.070877889623415125 -0.065736267186690525 0.067802784254986911 0.067959764783234483 -0.065081303044227004 -0.066182379226971719 0.067768396403631762 -0.06495846975113366 -0.066184028808930179 0.069212962192478869 0.067775216623443713 0.067693252398246931 0.068544411793004828 0.068531631336043425 -0.064872728681981837 0.06782501591097137 -0.065249103504305461 0.069991760005244583 -0.066372175894633276 -0.06499190843475007 0.068867597055398508 -0.065697737740578951 0.068634364721577121
leaf_weight=11.266517639160158 2.6404054462909681 10.414884269237517 25.431439831852916 65.624881744384766 3.7304068207740775 4.6274337172508258 1.6665010899305333 1.8165539354085911 3.0054236948490134 2.2485767006874076 2.0846127867698661 3.8900151401758194 4.8507235348224622 3.0502362251281729 187.20808544754982 7037.5936262607574 314.51381812989712 2.9730153232812881 16.625709772109985 2.9722756743431082 2.2287542670965186 2.0143180638551703 8630.0809886008501 5.9405032098293322 483.40563794970512 1.8619996458291996 3.1007176488637924 2.1533172875642776 6.5047569125890723 2.7755363732576361 2.3359831571578979 2.1069811582565299 3.1946643590927124 17.326320141553879 1.9815707802772511 96.976502552628517 49.33159051835537 5.8116053491830817 62.570984318852425 2.0759423226118088 5.4499375224113455 1081.9407884180546 3.3039905428886405 2.3133076578378668 2.7614258080720901 2.5147982686758041 34.732147112488747 2.3955005258321762 2.7980323284864435 4.0629318207502356 2.3166900575160971 2.3664343357086173 10.647895291447639 280.2365685403347 32.354172870516777 8.4040708839893323 5.9118405431509018 1.8173593878746022 13.659124940633772 2.3794034421443939 1.8122661113739003 3.3524874150753021
leaf_count=58 13 51 143 339 21 23 8 10 15 11 10 20 25 15 966 36360 1780 15 94 16 12 10 48865 32 2497 10 16 11 33 14 12 12 18 88 10 549 279 31 323 10 30 5588 17 13 15 13 196 13 14 21 12 12 54 1586 167 47 29 10 77 12 10 17
internal_value=0 -0.0540006 -0.061904 0.0579317 0.061892 0.0346589 -0.0396776 -0.0645363 0.0678843 0.0678425 0.0677926 0.0694687 0.0691933 0.0678449 0.0679031 0.0677912 -0.064932 0.0688293 -0.0648642 -0.0650116 -0.064988 0.0678142 -0.0648611 -0.0652152 0.0678321 -0.0652205 0.0685619 0.0692406 0.0678642 0.0697268 0.0687129 -0.0656733 -0.065896 0.0678243 0.0679819 -0.06497 -0.0650948 -0.0653685 0.0678531 0.0699228 -0.0651739 0.0678107 0.0680236 -0.0651072 -0.0656805 0.0683304 -0.065036 -0.0654756 0.0682168 0.0683748 0.0685294 0.0677893 0.0683818 -0.0648782 0.0679019 -0.0648599 0.0702221 -0.0648855 -0.065154 0.0683398 -0.0649276 0.0681922
internal_weight=0 9639.77 9052.76 8959.78 8610.43 1533.41 349.345 283.72 587.009 1150.17 7077.03 5.97463 23.594 576.594 201.841 7071.05 383.235 8.12822 8850.92 184.564 181.592 1126.58 8666.35 27.8679 571.391 53.2447 6.10614 5.20355 193.713 15.3908 4.3503 11.2421 9.13517 565.285 81.8789 179.363 82.3869 31.243 64.5526 12.6152 51.3827 1122.23 40.2861 45.9328 5.07473 5.48781 40.8581 6.12591 31.0921 19.8255 15.7626 7039.96 12.9646 282.053 38.0376 8638.49 7.98778 329.99 15.4765 5.68339 51.1439 8.20321
internal_count=100778 54174 51148 46604 44661 8100 1943 1604 3026 5935 36561 30 118 2975 1040 36531 2165 41 50108 1040 1024 5817 49068 156 2949 298 31 26 999 76 22 62 50 2918 421 1012 463 174 333 62 288 5795 207 258 28 28 230 34 159 101 80 36372 66 1596 196 48912 39 1867 87 29 289 42
is_linear=0
shrinkage=0.05


Tree=15
num_leaves=63
num_cat=0
split_feature=5 21 34 2 36 9 1 0 3 7 35 32 38 35 30 30 33 31 32 5 31 21 34 37 0 33 37 7 5 38 37 33 38 21 1 22 11 2 30 25 27 28 33 34 1 34 2 3 27 38 1 0 5 23 2 36 34 2 32 11 33 33
split_gain=20330.6 3119.46 1188.07 1318.51 798.656 721.397 366.094 323.047 140.303 107.432 93.0425 81.4631 186.258 79.6718 233.527 71.3961 68.2862 61.1254 55.1697 51.1457 46.7035 34.4164 74.1702 25.9152 23.5143 21.1025 20.6303 20.1863 20.0832 22.4024 18.3777 17.1122 16.7689 14.8563 11.751 14.8149 11.3029 10.9481 8.1567 7.93799 25.2486 7.11175 6.89896 74.5672 22.432 6.64014 6.59331 6.04203 5.9671 4.689 33.0235 4.63667 4.49625 4.18475 4.05216 11.1614 20.7709 3.3077 5.29115 3.17331 3.5328 5.5947
threshold=1.0000000180025095e-35 24.500000000000004 0.99500000000000011 45.500000000000007 0.96500000000000008 1.0000000180025095e-35 1.0000000180025095e-35 18.500000000000004 3.5000000000000004 1.0000000180025095e-35 1.0000000180025095e-35 0.03500000000000001 0.015000000000000001 0.10500000000000002 254.50000000000003 15.500000000000002 0.92500000000000016 52.500000000000007 0.31500000000000006 8586.5000000000018 3.5000000000000004 3.5000000000000004 0.78500000000000014 0.065000000000000016 44.500000000000007 0.025000000000000005 0.32500000000000007 1.0000000180025095e-35 2425.5000000000005 0.34500000000000003 0.9900000000000001 0.065000000000000016 0.49500000000000005 3.5000000000000004 1.0000000180025095e-35 1.5000000000000002 1.0000000180025095e-35 23.500000000000004 18.500000000000004 0.15500000000000005 0.32500000000000007 0.39500000000000007 0.015000000000000001 0.115 1.5000000000000002 0.025000000000000005 13.500000000000002 8.5000000000000018 0.99500000000000011 0.50500000000000012 1.5000000000000002 22.500000000000004 8314.5000000000018 0.99500000000000011 53.500000000000007 0.94500000000000006 0.025000000000000005 24.500000000000004 0.045000000000000005 1.0000000180025095e-35 0.015000000000000001 0.025000000000000005
decision_type=2 2 2 2 2 2 2 2 2 2 2 2 2 2 2 2 2 2 2 2 2 2 2 2 2 2 2 2 2 2 2 2 2 2 2 2 2 2 2 2 2 2 2 2 2 2 2 2 2 2 2 2 2 2 2 2 2 2 2 2 2 2
left_child=1 2 3 4 9 16 -5 10 20 11 19 12 45 14 17 47 39 33 54 28 -4 22 26 -6 -9 52 -20 -19 29 -7 34 48 -18 46 35 38 42 -22 -13 49 -41 -38 43 44 -3 59 -10 -15 -14 -2 -51 57 -26 -47 -8 56 -56 -36 -59 60 -1 -62
right_child=5 36 8 6 23 7 18 24 13 -11 -12 30 31 15 -16 -17 32 27 21 -21 37 -23 -24 -25 25 -27 -28 -29 -30 -31 -32 -33 -34 -35 51 -37 41 -39 -40 40 -42 -43 -44 -45 -46 53 -48 -49 -50 50 -52 -53 -54 -55 55 -57 -58 58 -60 -61 61 -63
