tree
version=v3
num_class=1
num_tree_per_iteration=1
label_index=0
max_feature_idx=18
objective=binary sigmoid:1
feature_names=Column_0 Column_1 Column_2 Column_3 Column_4 Column_5 Column_6 Column_7 Column_8 Column_9 Column_10 Column_11 Column_12 Column_13 Column_14 Column_15 Column_16 Column_17 Column_18
feature_infos=[0:1] [0:255] [0:1] [0:1] [0:1] [0:1] [0:1] [0:1] [0:1] [0:69] [0:10] [0:1] [0:1] [0:511] [0:255] [0:1] [0:1] [0:1] [0:1]
tree_sizes=6780 6817 6827 6827 6818 6807 6810 6791 6811 6834 6818 6810 6823 6836 6808 6814 6825 6820 6825 6805 6815 6814 6823 6824 6813 6850 6841 6793 6814 6826 6850 6853 6846 6841 6825 6853 6836 6781 6828 6811 6881 6884 6820 6793 6795 6809 6807 6819 6820 6843 6817 6831 6823 6838 6818 6834 6856 6828 6876 6854 6834 6868 6835 6847 6825 6854 6865 6857 6858 6860 6856 6850 6852 6861 6842 6815 6869 6865 6860 6846 6861 6839 6861 6849 6843 6862 6869 6875 6859 6870 6843 6882 6878 6879 6869 6861 6855 6856 6872 6880 6866 6844 6867 6827 6850 6840 6886 6848 6876 6872 6882 6862 6884 6896 6861 6896 6891 6896 6862 6864 6845 6854 6862 6814 6879 6893 6897 6887 6886 6867 6883 6867 6888 6868 6880 6909 6900 6893 6896 6889 6865 6905 6897 6888 6890 6888 6874 6885 6903 6880 6839 6884 6894 6941 6928 6887 6886 6893 6905 6877 6879 6912 6933 6950 6895 6876 6917 6938 6934 6935 6941 6911 6906 6858 6858 6911 6938 6968 6932 6940 6936 6876 6901 6928 6831 6955 6944 6833 6974 6939 6908 6875 6963 6897 6924 6887 6940 6949 6927 6961 6875 6974 6958 6911 6949 6919 6992 6962 6907 6942 6964 6938 6915 6911 6889 6937 6930 6928 6834 6945 6962 6911 6964 6961 6905 6954 6939 6967 6904 6926 6970 6953 6870 6940 6892 6956 6925 6989 6995 6983 6876 6899 6915 6961 6892 6878 6920 6981 6912 6974 6970 6926 6949 6977 6908 6969 6965 6958 6931 6920 6983 6916 6968 6951 7008 6987

Tree=0
num_leaves=63
num_cat=0
split_feature=10 2 11 9 9 9 6 18 7 9 15 18 14 9 2 3 13 1 2 9 6 13 11 7 2 8 14 13 10 13 9 11 6 6 10 14 13 1 9 1 4 10 14 13 18 13 6 2 1 9 4 4 14 18 13 17 2 9 14 6 13 1
split_gain=58384.3 8125.88 6447.46 6456.94 4914.04 2056.35 1293.88 579.213 456.097 421.06 405.586 371.545 366.325 344.588 808.26 314.492 272.356 165.874 608.496 155.748 153.173 141.376 128.045 126.698 163.123 124.899 122.698 1056.48 117.976 117.948 98.0282 97.4999 92.1475 79.1604 78.0391 77.5045 101.71 75.8447 67.7375 62.0277 103.291 61.1831 60.2026 115.027 56.689 55.42 52.6024 51.7093 41.6025 67.7751 64.1769 41.8049 39.3772 55.1666 44.8236 37.5582 34.3277 51.0923 71.9811 33.3087 30.2302 127.71
threshold=5.5000000000000009 0.63500000000000012 1.0000000180025095e-35 12.500000000000002 17.500000000000004 44.500000000000007 0.015000000000000001 1.0000000180025095e-35 0.24500000000000002 1.5000000000000002 0.14500000000000005 0.10500000000000002 199.50000000000003 23.500000000000004 0.99500000000000011 0.03500000000000001 45.500000000000007 244.50000000000003 0.99500000000000011 19.500000000000004 0.55500000000000016 10.500000000000002 1.0000000180025095e-35 0.03500000000000001 0.8650000000000001 0.075000000000000025 4.5000000000000009 3.5000000000000004 3.5000000000000004 2.5000000000000004 19.500000000000004 1.0000000180025095e-35 0.03500000000000001 0.9850000000000001 9.5000000000000018 251.50000000000003 1.5000000000000002 65.500000000000014 53.500000000000007 93.500000000000014 0.90500000000000014 1.5000000000000002 250.50000000000003 6.5000000000000009 0.025000000000000005 6.5000000000000009 0.89500000000000013 0.96500000000000008 65.500000000000014 19.500000000000004 0.015000000000000001 0.20500000000000004 244.50000000000003 0.025000000000000005 11.500000000000002 0.32500000000000007 0.90500000000000014 49.500000000000007 45.500000000000007 0.095000000000000015 1.5000000000000002 2.5000000000000004
decision_type=2 2 2 2 2 2 2 2 2 2 2 2 2 2 2 2 2 2 2 2 2 2 2 2 2 2 2 2 2 2 2 2 2 2 2 2 2 2 2 2 2 2 2 2 2 2 2 2 2 2 2 2 2 2 2 2 2 2 2 2 2 2
left_child=1 9 3 46 8 11 16 13 26 -1 17 34 20 14 35 22 23 18 19 32 21 56 -3 24 42 45 -5 47 -24 30 -16 39 44 55 -6 -4 48 -32 -14 60 -41 -17 -7 -44 -9 -20 -2 -28 50 -50 -37 -52 -19 -54 -55 -21 57 58 -8 -13 61 -11
right_child=2 15 7 4 5 6 12 10 -10 31 -12 59 38 -15 29 41 -18 52 25 33 -22 -23 28 -25 -26 -27 27 -29 -30 -31 37 -33 -34 -35 -36 36 -38 -39 -40 40 -42 -43 43 -45 -46 -47 -48 -49 49 -51 51 -53 53 54 -56 -57 -58 -59 -60 -61 -62 -63
leaf_value=-0.22187560216367586 -0.23203900267803376 -0.23034877007068408 -0.22858446993694972 -0.031898579040197134 -0.22489087716417863 -0.053256655740477971 -0.20758648101005656 -0.052473498015859779 -0.22137603676520434 -0.03679106123103365 -0.057459288704845596 -0.17467640380159624 -0.031132450020013913 -0.23163233462625313 -0.21869654962794816 -0.23209398531422915 -0.042953716802026573 -0.23209398531422915 -0.054154296545365549 -0.23022220132757687 -0.037921691077250907 -0.035974896653609451 -0.22904911356734711 -0.23209398531422915 -0.21570135252587927 -0.20456500787666543 -0.14596761304527978 -0.032058540044411207 -0.044710932134487916 -0.21731740183671333 -0.053608411204235346 -0.17650887980731855 -0.20012283197196765 -0.039869908076284141 -0.031132450020013913 -0.21432187675079517 -0.22556273541716718 -0.21325384138039649 -0.16032200842343799 -0.21239187401087473 -0.031132450020013913 -0.066300718696501587 -0.21123948636860304 -0.034658090990087861 -0.21663540567621259 -0.20232190601138245 -0.076805526223244658 -0.22332930776245652 -0.04452988570629493 -0.19344753621918775 -0.035917248479400005 -0.21199783178480763 -0.2195338893583407 -0.1032164789842433 -0.2235424306208583 -0.10842534821009671 -0.23209398531422915 -0.2254688797550792 -0.085940141463890798 -0.037831167863154422 -0.03123900438655379 -0.14386696981920782
leaf_weight=29.35885301232338 1818.7560637295246 572.99524141848087 598.37323300540447 848.42109128832817 964.86128798127174 27.119618460536003 20.401914805173874 28.114833816885948 37.32057586312294 309.26317198574543 56.976079151034355 5.2248806208372107 349.56939391791821 8014.7180685251951 11.19617275893688 6.4688998162746421 29.607656851410866 248.80383908748627 104.24880857765675 293.83733396232128 36.822968184947968 20.65071864426136 16.421053379774094 163.21531844139099 82.354070737957954 18.162680253386497 29.607656851410866 539.9043308198452 18.411484092473984 16.918661057949066 113.45455062389374 11.693780437111853 32.842106759548187 5.7224882990121833 5.2248806208372107 36.574164345860481 99.521535634994507 7.9617228507995597 10.449761241674421 12.688995793461798 20.65071864426136 39.808614253997803 26.373206943273544 14.181818827986715 6.4688998162746421 6.7177036553621283 5.473684459924697 79.866032347083092 18.66028793156147 12.937799632549288 10.449761241674421 4.9760767817497245 79.617228507995605 22.889953196048737 11.693780437111853 6.4688998162746421 23.885168552398682 22.64114935696125 30.105264529585838 29.856460690498352 8915.6367698609829 30.602872207760811
leaf_count=118 7310 2303 2405 3410 3878 109 82 113 150 1243 229 21 1405 32213 45 26 119 1000 419 1181 148 83 66 656 331 73 119 2170 74 68 456 47 132 23 21 147 400 32 42 51 83 160 106 57 26 27 22 321 75 52 42 20 320 92 47 26 96 91 121 120 35834 123
internal_value=-0.138564 -0.0447643 -0.200623 -0.155695 -0.114955 -0.169545 -0.11266 -0.224398 -0.0487207 -0.0328206 -0.186677 -0.218066 -0.0625205 -0.228288 -0.199495 -0.215124 -0.187906 -0.195183 -0.176581 -0.208932 -0.126921 -0.154768 -0.224691 -0.201607 -0.16844 -0.0830185 -0.0444186 -0.0607762 -0.131613 -0.0929925 -0.0771312 -0.0322238 -0.140141 -0.224088 -0.223847 -0.219874 -0.19141 -0.064077 -0.0348823 -0.0320421 -0.100119 -0.0894761 -0.110926 -0.14949 -0.08318 -0.0631241 -0.231573 -0.202406 -0.150752 -0.105504 -0.178248 -0.0927174 -0.220937 -0.19663 -0.143902 -0.227599 -0.18005 -0.163056 -0.135078 -0.0582124 -0.0317969 -0.0464326
internal_weight=0 9984 15090.2 5221.89 3397.67 1862.55 857.378 9868.31 1535.12 9329.9 922.565 1005.17 514.526 8945.74 931.024 654.105 342.852 865.589 502.584 373.455 154.507 117.684 607.828 313.244 150.029 129.129 1497.8 649.378 34.8325 149.531 132.612 9300.54 67.4258 306.029 970.086 781.493 183.12 121.416 360.019 9288.84 33.3397 46.2775 67.6746 40.555 34.5837 110.967 1824.23 109.474 83.5981 31.5981 52 15.4258 363.005 114.201 34.5837 300.306 97.0335 73.1483 50.5072 35.0813 9255.5 339.866
internal_count=100779 40128 60651 20988 13656 7486 3446 39663 6170 37499 3708 4040 2068 35955 3742 2629 1378 3479 2020 1501 621 473 2443 1259 603 519 6020 2610 140 601 533 37381 271 1230 3899 3141 736 488 1447 37334 134 186 272 163 139 446 7332 440 336 127 209 62 1459 459 139 1207 390 294 203 141 37200 1366
is_linear=0
shrinkage=1


Tree=1
num_leaves=63
num_cat=0
split_feature=10 2 11 9 9 9 6 15 7 9 1 2 14 0 3 13 9 16 9 16 6 13 11 0 2 14 13 13 10 9 16 1 2 14 11 6 9 1 4 2 9 13 1 17 14 1 4 10 14 14 13 6 2 14 16 13 1 9 2 9 14 13
split_gain=52712 7293.17 5897.14 5875.56 4421.47 1870.25 1166.31 428.096 410.138 377.774 341.602 653.955 327.456 310.466 286.75 246.597 245.103 380.745 238.887 176.331 137.662 127.467 117.188 116.2 148.251 108.608 949.262 107.836 106.633 95.011 93.2353 97.767 116.585 214.482 87.2723 73.4669 69.2657 110.775 74.672 61.1835 60.6039 60.1301 58.1947 58.1189 55.5383 55.2345 92.9936 55.2056 54.9529 54.0512 103.875 48.0108 47.3539 38.5788 50.5146 40.8726 35.7968 34.0796 31.4305 46.5643 65.0899 26.962
threshold=5.5000000000000009 0.63500000000000012 1.0000000180025095e-35 12.500000000000002 17.500000000000004 44.500000000000007 0.015000000000000001 0.14500000000000005 0.055000000000000007 1.5000000000000002 100.50000000000001 0.99500000000000011 199.50000000000003 0.19500000000000003 0.03500000000000001 45.500000000000007 23.500000000000004 1.0000000180025095e-35 19.500000000000004 1.0000000180025095e-35 0.55500000000000016 10.500000000000002 1.0000000180025095e-35 0.99500000000000011 0.8650000000000001 4.5000000000000009 3.5000000000000004 2.5000000000000004 3.5000000000000004 19.500000000000004 1.0000000180025095e-35 244.50000000000003 0.99500000000000011 100.50000000000001 1.0000000180025095e-35 0.99500000000000011 19.500000000000004 70.500000000000014 1.0000000180025095e-35 0.17500000000000002 53.500000000000007 9.5000000000000018 65.500000000000014 0.32500000000000007 27.500000000000004 93.500000000000014 0.90500000000000014 1.5000000000000002 254.50000000000003 250.50000000000003 6.5000000000000009 0.89500000000000013 0.96500000000000008 244.50000000000003 0.025000000000000005 13.500000000000002 52.500000000000007 18.500000000000004 0.90500000000000014 49.500000000000007 45.500000000000007 1.5000000000000002
decision_type=2 2 2 2 2 2 2 2 2 2 2 2 2 2 2 2 2 2 2 2 2 2 2 2 2 2 2 2 2 2 2 2 2 2 2 2 2 2 2 2 2 2 2 2 2 2 2 2 2 2 2 2 2 2 2 2 2 2 2 2 2 2
left_child=1 9 3 51 8 13 15 10 25 -1 11 36 20 41 22 23 27 -18 -12 56 21 58 -3 -7 49 -5 52 29 -24 -13 -20 32 -32 -34 45 -15 37 38 -4 57 -14 -6 -31 -38 -19 61 -47 -16 -43 -25 -51 -2 -27 -33 -55 -56 -9 -40 59 60 -8 -11
right_child=2 14 7 4 5 6 12 19 -10 34 18 16 40 35 47 -17 17 44 30 -21 -22 -23 28 24 -26 26 -28 -29 -30 42 31 53 33 -35 -36 -37 43 -39 39 -41 -42 48 -44 -45 -46 46 -48 -49 -50 50 -52 -53 -54 54 55 -57 -58 -59 -60 -61 -62 -63
leaf_value=-0.079755587807587944 -0.089590303311003511 -0.087952819243971261 -0.077328915216931762 0.10085798196850099 -0.057523853673909622 -0.089643576637203043 -0.065973201666668715 0.055120038866675818 -0.078196069466513002 0.087160684234966701 0.1024283986833105 -0.077574343932757653 0.10158110423020697 -0.084191960930810994 -0.089643576637203043 0.090424341966336891 -0.077808397182126704 -0.0095036099126918124 -0.08957152028311316 0.081458082729314027 0.095173306910580596 0.097010649811871019 -0.086694250309727577 0.080701054657414159 -0.073794097847031281 -0.0070376166132164733 0.10079842912770405 -0.075353529525965648 0.088766008707872296 0.08056396592459858 -0.08882458067814146 -0.089651046490832276 -0.091345062106560515 0.071432584016686257 -0.036158423688483536 0.059564542220330766 -0.085691196588961877 0.087573336898653126 -0.080441009099689209 -0.070949283797335408 -0.02070493132592361 -0.066890965143072148 -0.068724428499112561 0.045685680151050782 0.09116547703469699 -0.070602581548259907 0.10158110423020697 0.068388928181697103 0.091878646582357268 -0.069491901836809866 0.098253457433205113 0.058469984324400183 -0.081160611668085941 -0.077531286958019807 0.031754888468182085 -0.085381569003303237 -0.088306575793960576 0.063926521869731578 -0.089643576637203043 -0.083229537685507698 0.049840821597915537 0.10148052729285879
leaf_weight=29.139896094799042 1803.1199584901333 568.17962156236172 201.14264899492264 852.28318110108376 12.343273311853407 161.81110668182373 20.280729681253433 5.1802047193050376 37.544155299663544 341.23630174994469 16.49066823720932 11.616181612014769 351.16489462554455 934.03262317180634 6.4132450819015494 29.736282229423523 168.72666800022125 19.106902286410332 7337.4830532670021 55.700892895460129 36.986701607704163 20.743287906050682 16.285466372966766 27.230686321854591 81.79488779604435 29.592093139886856 541.86076235771179 16.800855219364166 18.490757286548615 114.91740185022354 54.525231152772903 305.37576833367348 34.153279900550842 49.664088368415833 11.658953905105589 8.9728237986564618 1129.5777285844088 12.730120420455931 4.9429625570774105 22.744865149259567 10.432817012071608 6.4215472340583792 6.9210141301155081 8.4814071059226972 48.420794054865837 12.60728497803211 20.744972422719002 39.956073760986328 36.022163853049278 26.206562519073486 14.245721742510794 5.4918968081474295 79.257623970508575 79.290465325117111 23.679558590054512 10.863715708255766 27.156227141618729 23.630024760961533 23.67967414855957 22.463301077485085 30.194213926792145 8956.3150020837784
leaf_count=118 7310 2303 814 3410 50 656 82 21 152 1366 66 47 1405 3783 26 119 684 77 29745 223 148 83 66 109 331 119 2168 68 74 460 221 1238 138 199 47 36 4578 51 20 92 42 26 28 34 194 51 83 160 145 106 57 22 321 321 95 44 110 95 96 91 121 35834
internal_value=0 0.0887653 -0.0593551 -0.0163466 0.0224294 -0.0295709 0.0246058 -0.082218 0.0850363 0.0999931 -0.0832141 -0.0634877 0.0720284 -0.0761015 -0.0732851 -0.0471412 -0.00589945 -0.0376528 -0.0876766 0.0275423 0.0110597 -0.0154489 -0.0824994 -0.0602823 -0.0284985 0.0891138 0.0737315 0.0440279 0.00659918 0.0590571 -0.0880737 -0.0683625 -0.0319155 0.00510516 0.100554 -0.0828241 -0.0793497 -0.0563372 -0.0635937 -0.00975808 0.0980529 0.0396096 0.0720837 -0.0847121 0.0626812 0.100725 0.036495 0.0465318 0.0678575 0.0262414 -0.0104185 -0.0891407 -0.0610094 -0.0803903 -0.0555469 -0.00508404 -0.06533 0.0389518 -0.0395933 -0.0233443 0.00330698 0.100955
internal_weight=0 10021 14993.2 5203.91 3395.3 1854.76 856.971 9789.32 1540.54 9371.7 9701.29 1789.76 515.946 997.792 649.325 341.025 386.51 236.254 7911.53 88.0373 154.348 117.361 602.956 311.289 149.478 1502.99 650.71 150.255 34.7762 133.455 7895.04 557.552 138.343 83.8174 9342.56 943.005 1403.25 265.191 252.461 51.3179 361.598 54.787 121.838 1138.06 67.5277 9330.9 33.3523 46.3693 42.4437 67.683 40.4523 1808.61 108.85 419.21 113.834 34.5433 32.3364 28.573 96.6179 72.9382 50.4749 9297.55
internal_count=100779 40128 60651 20988 13656 7486 3446 39663 6170 37499 39309 7242 2068 4040 2629 1378 1558 955 32067 354 621 473 2443 1259 603 6018 2608 603 140 535 32001 2256 558 337 37381 3819 5684 1072 1021 207 1447 221 488 4612 271 37334 134 186 171 272 163 7332 440 1698 460 139 131 115 390 294 203 37200
is_linear=0
shrinkage=0.05


Tree=2
num_leaves=63
num_cat=0
split_feature=10 2 11 9 9 9 13 18 9 7 2 9 15 18 9 2 3 9 1 2 16 9 16 18 14 2 11 14 13 13 9 10 9 11 14 13 10 9 14 1 17 16 1 4 13 2 1 4 9 14 16 13 2 1 13 1 10 18 10 7 13 5
split_gain=47827.1 6584.81 5410.88 5367.8 3999.49 1706.41 842.596 496.4 484.156 370.699 363.914 340.995 333.117 318.703 294.043 672.38 264.719 175.559 141.488 504.177 163.351 134.668 189.2 106.946 110.491 108.487 99.9912 97.8718 856.416 96.3497 96.255 94.5478 79.7433 78.7485 68.0951 87.2488 68.0471 65.5894 67.5667 61.5071 58.6038 55.8155 49.5924 84.1549 46.2606 43.6218 34.6975 59.8085 55.7568 33.8231 46.2507 37.2136 30.9481 25.6244 24.7217 114.711 84.6437 33.1753 36.7384 23.3498 96.9137 34.9546
threshold=5.5000000000000009 0.63500000000000012 1.0000000180025095e-35 12.500000000000002 17.500000000000004 44.500000000000007 10.500000000000002 1.0000000180025095e-35 60.500000000000007 0.24500000000000002 0.03500000000000001 1.5000000000000002 0.14500000000000005 0.10500000000000002 23.500000000000004 0.99500000000000011 0.19500000000000003 49.500000000000007 244.50000000000003 0.99500000000000011 0.50500000000000012 19.500000000000004 1.0000000180025095e-35 0.055000000000000007 249.50000000000003 0.89500000000000013 1.0000000180025095e-35 4.5000000000000009 3.5000000000000004 2.5000000000000004 48.500000000000007 3.5000000000000004 19.500000000000004 1.0000000180025095e-35 251.50000000000003 1.5000000000000002 9.5000000000000018 53.500000000000007 67.500000000000014 65.500000000000014 0.32500000000000007 0.82500000000000007 93.500000000000014 0.90500000000000014 6.5000000000000009 0.96500000000000008 63.500000000000007 0.015000000000000001 19.500000000000004 244.50000000000003 0.025000000000000005 13.500000000000002 0.26500000000000007 17.500000000000004 1.5000000000000002 2.5000000000000004 2.5000000000000004 0.03500000000000001 2.5000000000000004 1.0000000180025095e-35 7.5000000000000009 0.03500000000000001
decision_type=2 2 2 2 2 2 2 2 2 2 2 2 2 2 2 2 2 2 2 2 2 2 2 2 2 2 2 2 2 2 2 2 2 2 2 2 2 2 2 2 2 2 2 2 2 2 2 2 2 2 2 2 2 2 2 2 2 2 2 2 2 2
left_child=1 11 3 -2 9 13 10 14 -8 27 17 -1 18 36 15 34 26 -7 19 21 44 22 -9 24 25 37 30 -5 45 32 -3 -28 -17 42 -4 46 59 38 52 -34 -23 -32 54 -44 -21 -29 47 -36 -48 -20 -51 -52 -12 -47 55 57 -57 58 -13 -6 -61 -62
right_child=2 16 7 4 5 6 8 12 -10 -11 23 33 -14 -15 -16 29 -18 -19 49 20 -22 40 -24 -25 -26 -27 31 28 -30 -31 41 -33 39 -35 35 -37 -38 -39 -40 -41 -42 -43 43 -45 -46 53 48 -49 -50 50 51 -53 -54 -55 -56 56 -58 -59 -60 60 61 -63
leaf_value=-0.076577980690739456 -0.085756125576315997 -0.085308784564063267 -0.083051549853383227 0.095904861192951329 -0.083628115913458492 0.096768754127383949 0.096515264528312175 0.079840119063853479 -0.087508661328550785 -0.076148988851724456 0.068003964150357449 -0.084389636615251659 0.072880276408574515 0.074803311283365106 -0.085818460917923944 -0.073551230552488286 0.091648265945464283 -0.062875996107327733 -0.086244921048099943 0.08154758133385781 -0.087279405624033191 -0.082561586526275738 -0.088379652494438021 0.078189130444150046 -0.079302808367395158 -0.068316510836635425 -0.083355868057480631 -0.0066893419617889988 0.095764140450518301 -0.072290333735560597 -0.083492439062860468 0.08186475635546045 0.076297739006984652 -0.034474257919818001 -0.071738327249312714 -0.079960203303282462 0.1010976898621518 -0.076656250530019981 0.067625208791553967 -0.068485082048645021 0.047058928216272354 0.098738422436810816 -0.06767315073851364 0.096598777650377166 -0.054185769509116091 0.030080246997706485 0.08380713023946805 0.049176930541137739 -0.047776298101707027 -0.074371969336701912 0.030122363572925193 -0.082057061517018651 -0.053629098241588236 -0.085510496346407741 0.096502259080380792 -0.078050075652211337 0.090907599714049395 0.095357633648171528 0.084632481888427383 -0.080769232332003935 0.032995800789421388 -0.088707309248334976
leaf_weight=28.839056938886642 1786.5409836471081 565.15613496303558 586.88616935908794 851.48729771375656 743.63240291178226 78.879294350743294 349.57353532314301 35.092172667384148 39.812384635210037 36.671081185340881 6.6914952993392971 5.4965129196643812 57.232747957110405 35.140432998538017 7849.8656217455864 11.006696149706839 24.249973982572556 22.030509516596794 243.64084406197071 104.16164712607861 18.459364250302315 291.20350378751755 31.918206930160522 16.688968569040298 175.16404320299625 74.087587058544159 16.095500975847244 29.576561346650124 541.85873344540596 16.641095578670502 6.6379145085811642 18.741026073694229 113.97929584980011 11.618139341473578 35.242437109351158 97.611358731985092 5.2434870004653922 17.133053883910179 48.964373797178268 7.8400980234146109 8.989209830760954 11.450175106525419 12.498095557093619 20.72427587211132 6.6799532175064078 5.1301687359809867 19.464369490742683 14.407742485404013 13.729402020573614 78.260684013366699 23.713806569576263 10.74167478084564 23.938052847981453 73.288124799728394 8947.4591393172741 18.235336661338806 12.489956617355348 297.31138065457344 7.7450863867998123 166.53377388417721 29.590760082006454 7.3691057413816443
leaf_count=118 7332 2318 2405 3410 3046 316 1400 141 163 150 27 22 229 141 32213 45 97 90 1000 417 75 1194 130 67 717 303 66 119 2170 68 27 75 456 47 144 400 21 70 196 32 36 46 51 83 27 21 78 58 56 320 95 44 97 300 35834 73 50 1190 31 682 120 30
internal_value=0 0.084463 -0.056984 -0.0156612 0.0214049 -0.028326 0.0234767 -0.0790403 0.0776999 0.0809158 -0.0220686 0.0950878 -0.0438927 -0.0730706 -0.082689 -0.0558943 -0.070402 0.0619153 -0.051729 -0.0344757 0.0504331 -0.0643741 -0.000285878 -0.0454366 -0.0513999 -0.0227865 -0.07676 0.0847522 0.0701392 0.0411253 -0.0816749 0.00552796 0.0553346 0.0956182 -0.0747923 -0.0479311 -0.0785269 0.012087 0.0311895 0.0669798 -0.0786801 0.0318639 0.0957804 0.0348005 0.0733675 -0.0584327 -0.0101926 -0.0366505 0.0293824 -0.0757676 -0.0531203 -0.00485015 -0.0270565 -0.0779485 0.0959985 0.0827908 -0.00936809 0.0919088 0.0144724 -0.0795213 -0.0645137 0.00873048
internal_weight=0 10004.7 14841.8 5165.03 3378.49 1840.47 852.963 9676.77 389.386 1538.01 463.577 9362.42 910.094 987.51 8766.67 916.809 642.331 100.91 852.861 496.504 129.301 367.203 67.0104 362.668 345.979 170.815 618.081 1501.34 649.854 149.467 583.244 34.8365 132.826 9333.58 767.341 180.455 952.37 96.727 79.5939 121.819 300.193 18.0881 9321.96 33.2224 110.842 107.995 82.844 49.6502 33.1938 356.357 112.716 34.4555 30.6295 78.4183 9288.74 341.278 30.7253 310.553 13.2416 947.126 203.494 36.9599
internal_count=100779 40128 60651 20988 13656 7486 3446 39663 1563 6170 1883 37499 3708 4040 35955 3742 2629 406 3479 2020 519 1501 271 1477 1410 693 2532 6020 2610 601 2391 141 533 37381 3141 736 3899 390 320 488 1230 73 37334 134 444 440 336 202 134 1459 459 139 124 321 37200 1366 123 1243 53 3878 832 150
is_linear=0
shrinkage=0.05


Tree=3
num_leaves=63
num_cat=0
split_feature=10 2 11 9 9 9 6 18 7 9 15 18 9 2 14 3 13 1 2 16 9 16 6 13 7 2 11 9 14 13 13 10 9 11 6 14 13 10 1 16 9 9 1 4 6 13 2 9 1 4 14 16 13 1 14 17 6 2 9 14 1 13
split_gain=43580.8 5975.56 4979.45 4920.52 3634.27 1561.84 963.434 460.865 336.822 309.394 303.62 291.693 273.839 616.086 270.483 242.116 204.718 130.459 460.4 148.121 124.15 171.934 114.532 105.659 100.606 124.405 92.0903 88.6629 88.0896 778.088 87.4862 86.1212 72.2983 71.5494 69.3334 63.2656 80.3799 62.1962 55.6713 50.5273 48.2712 45.1893 44.8445 76.4899 44.8012 41.8138 40.4075 32.5347 63.4021 75.178 31.7426 42.5761 34.0643 30.2074 67.1756 28.5421 28.3242 27.0809 39.4976 55.6907 23.667 22.8579
threshold=5.5000000000000009 0.63500000000000012 1.0000000180025095e-35 12.500000000000002 17.500000000000004 44.500000000000007 0.015000000000000001 1.0000000180025095e-35 0.055000000000000007 1.5000000000000002 0.14500000000000005 0.10500000000000002 23.500000000000004 0.99500000000000011 199.50000000000003 0.19500000000000003 45.500000000000007 244.50000000000003 0.99500000000000011 0.50500000000000012 19.500000000000004 1.0000000180025095e-35 0.55500000000000016 10.500000000000002 0.03500000000000001 0.8650000000000001 1.0000000180025095e-35 48.500000000000007 4.5000000000000009 3.5000000000000004 2.5000000000000004 3.5000000000000004 19.500000000000004 1.0000000180025095e-35 0.9850000000000001 251.50000000000003 1.5000000000000002 9.5000000000000018 65.500000000000014 0.82500000000000007 53.500000000000007 59.500000000000007 93.500000000000014 0.90500000000000014 0.89500000000000013 6.5000000000000009 0.96500000000000008 19.500000000000004 70.500000000000014 0.025000000000000005 244.50000000000003 0.025000000000000005 11.500000000000002 85.500000000000014 251.50000000000003 0.32500000000000007 0.095000000000000015 0.90500000000000014 49.500000000000007 45.500000000000007 17.500000000000004 1.5000000000000002
decision_type=2 2 2 2 2 2 2 2 2 2 2 2 2 2 2 2 2 2 2 2 2 2 2 2 2 2 2 2 2 2 2 2 2 2 2 2 2 2 2 2 2 2 2 2 2 2 2 2 2 2 2 2 2 2 2 2 2 2 2 2 2 2
left_child=1 9 3 44 8 11 16 12 28 -1 17 37 13 35 22 26 24 18 20 45 21 -9 23 57 25 41 27 -3 -5 46 32 -28 -15 42 55 -4 47 -6 -34 -29 -16 53 61 -44 -2 -20 -30 48 49 -37 -19 -52 -53 -7 -55 -22 -13 58 59 -8 -48 -11
right_child=2 15 7 4 5 6 14 10 -10 33 -12 56 -14 30 40 -17 -18 50 19 -21 34 -23 -24 -25 -26 -27 31 39 29 -31 -32 -33 38 -35 -36 36 -38 -39 -40 -41 -42 -43 43 -45 -46 -47 60 -49 -50 -51 51 52 -54 54 -56 -57 -58 -59 -60 -61 -62 -63
leaf_value=-0.073716848125524106 -0.083212358148422594 -0.082311076081081874 -0.08008035872246122 0.091632783960503117 -0.07662535969389328 0.092289193765317135 -0.061898756025071389 0.075748389725158613 -0.072283976258665408 0.079000647537772875 0.069378635195950708 -0.036406871222933727 -0.082826734137231434 -0.070748411509874209 0.092443280594913996 0.087260580433791549 0.081989416764926909 -0.083249981765995199 0.077620670703099248 -0.083922409972493617 -0.081601167949705802 -0.085136410431524479 0.086699407685376775 0.088072288839166735 -0.083494900225248886 -0.068058644901929741 -0.080393627621930086 -0.080165231919937199 -0.0063582780564378945 0.091579827556412252 -0.069510136690422913 0.078046487764259959 0.072666830355635148 -0.032883340785421676 0.096660654425173381 -0.059554004266040739 -0.077052973821889248 0.096195341715127586 -0.065786913353863274 0.093784302756493312 -0.017134571022176383 -0.085402605785727143 -0.064994058164171892 0.092307972099880231 0.059907324990356448 -0.051781593063352706 0.028449660831389102 -0.058964750148689599 0.093630141257509458 0.097566962141386979 -0.071550995639109466 0.030340498518126841 -0.075570579912188351 0.069875829746946796 -0.06120742259045691 0.024392092502218458 0.089833486273811769 -0.083851011378882914 -0.077589525776008375 0.045626654636793558 -0.082468150710716115 0.092214041313894934
leaf_weight=28.469712972640991 1753.7248282134533 556.66384987533092 578.43925942480564 846.73333883285522 934.11904622614384 18.604738473892212 20.017076954245567 35.136710673570633 36.707066297531128 339.80305671691895 57.117657989263535 5.2183921337127677 7729.7346761524677 10.873940214514731 348.86165711283684 24.196810260415077 29.60467603802681 239.8794981688261 103.96342734992504 18.243208438158035 283.78651455044746 31.488080903887749 36.804929286241531 20.624767646193504 157.58033773303032 80.123683571815491 15.860025197267531 6.5694355666637447 29.561128854751587 538.34964776039124 16.446248114109039 18.676419958472252 113.69669473171234 11.572391480207441 5.7130307108163825 32.044344216585159 96.263300910592079 5.2352715879678717 7.7556908130645743 11.451985090970991 10.348513305187224 8.2417722940444929 12.36593560874462 20.605914458632469 5.4851285219192496 6.6415564566850653 5.1523951292037955 23.854048550128937 16.423392444849014 9.9854642897844297 77.302918434143066 22.99017608165741 11.335221543908117 23.446980357170105 16.759861394762993 6.4967942833900443 29.912699803709984 23.109805583953857 21.967110574245453 30.225175201892853 72.218884527683258 8896.5180380940437
leaf_count=118 7310 2318 2405 3410 3878 75 82 141 152 1366 229 21 32213 45 1405 97 119 1000 417 75 1181 130 148 83 656 331 66 27 119 2168 68 75 456 47 23 132 400 21 32 46 42 34 51 83 22 27 21 98 66 40 320 92 47 94 69 26 120 96 91 121 300 35834
internal_value=0 0.0807492 -0.0548893 -0.0150563 0.0205056 -0.0272164 0.0224744 -0.07623 0.0773457 0.0908602 -0.0421827 -0.0703719 -0.0797788 -0.0537686 0.065587 -0.0678512 -0.0435375 -0.0497418 -0.033107 0.0480782 -0.0619541 -0.000288675 0.0098546 -0.0145388 -0.0557314 -0.0260055 -0.0740119 -0.0787774 0.0810269 0.0671099 0.0392496 0.00528671 0.0527668 0.091365 -0.0758341 -0.0720492 -0.046034 -0.0756622 0.0638255 0.0303736 0.0892864 0.0242448 0.0915201 0.0333126 -0.0827661 0.0698504 -0.0560834 -0.00975541 0.0103263 -0.0222251 -0.0730002 -0.0509743 -0.00463435 0.0396107 0.015235 -0.0792289 0.0710817 -0.0367414 -0.0216645 0.00278732 -0.0750818 0.0917279
internal_weight=0 9942.75 14644.4 5108.74 3349.53 1820.81 846.321 9535.61 1528.72 9309.34 900.095 974.485 8635.52 905.782 511.959 633.419 334.362 842.977 491.469 128.848 362.621 66.6248 152.749 115.944 304.757 147.177 609.222 574.685 1492.02 645.282 148.773 34.5364 132.326 9280.87 295.996 757.01 178.571 939.354 121.452 18.0214 359.21 67.0534 9269.29 32.9719 1759.21 110.605 106.932 82.3072 58.4532 42.0298 351.508 111.628 34.3254 58.8116 40.2068 290.283 35.1311 95.3192 72.2094 50.2423 77.3713 9236.32
internal_count=100779 40128 60651 20988 13656 7486 3446 39663 6170 37499 3708 4040 35955 3742 2068 2629 1378 3479 2020 519 1501 271 621 473 1259 603 2532 2391 6018 2608 601 141 533 37381 1230 3141 736 3899 488 73 1447 272 37334 134 7332 444 440 336 238 172 1459 459 139 238 163 1207 141 390 294 203 321 37200
is_linear=0
shrinkage=0.05


Tree=4
num_leaves=63
num_cat=0
split_feature=0 11 9 9 9 13 3 2 9 11 18 4 6 6 18 4 9 2 15 18 18 2 2 1 2 9 2 8 2 1 1 13 6 7 14 9 1 4 14 13 9 6 9 6 1 2 18 13 14 9 18 13 12 14 14 18 13 14 1 14 18 1
split_gain=38358.7 6189.55 4902.52 2888.64 2880.44 1869.95 903.464 544.607 470.289 468.322 453.694 421.062 409.483 401.09 633.383 299.607 261.944 562.432 217.754 206.742 167.471 146.572 112.131 111.974 439.974 122.902 110.207 91.0112 89.6189 104.048 84.419 79.8262 72.1113 67.5978 65.0489 84.0825 66.6404 73.1746 64.173 723.823 63.9978 59.5399 59.4562 55.2685 53.2522 51.942 264.776 48.0825 71.4317 42.8907 41.1575 37.8996 34.0847 32.0605 30.0517 39.3109 31.2109 28.432 43.2875 26.1678 22.8745 45.0774
threshold=0.49500000000000005 1.0000000180025095e-35 12.500000000000002 17.500000000000004 44.500000000000007 10.500000000000002 0.33500000000000008 0.8650000000000001 53.500000000000007 1.0000000180025095e-35 1.0000000180025095e-35 0.025000000000000005 0.015000000000000001 0.66500000000000015 0.62500000000000011 0.91500000000000015 23.500000000000004 0.99500000000000011 0.14500000000000005 0.075000000000000025 1.0000000180025095e-35 0.99500000000000011 0.03500000000000001 244.50000000000003 0.99500000000000011 19.500000000000004 0.03500000000000001 0.075000000000000025 0.39500000000000007 37.500000000000007 66.500000000000014 3.5000000000000004 0.03500000000000001 0.99500000000000011 251.50000000000003 19.500000000000004 70.500000000000014 0.025000000000000005 4.5000000000000009 2.5000000000000004 19.500000000000004 0.075000000000000025 62.500000000000007 0.015000000000000001 52.500000000000007 0.03500000000000001 0.055000000000000007 3.5000000000000004 251.50000000000003 59.500000000000007 0.025000000000000005 6.5000000000000009 0.66000000000000014 210.50000000000003 244.50000000000003 0.025000000000000005 13.500000000000002 54.500000000000007 178.50000000000003 15.500000000000002 0.085000000000000006 111.50000000000001
decision_type=2 2 2 2 2 2 2 2 2 2 2 2 2 2 2 2 2 2 2 2 2 2 2 2 2 2 2 2 2 2 2 2 2 2 2 2 2 2 2 2 2 2 2 2 2 2 2 2 2 2 2 2 2 2 2 2 2 2 2 2 2 2
left_child=5 2 26 22 6 11 13 8 28 12 16 20 -7 45 -15 19 17 34 23 -10 -1 -20 43 24 25 32 41 51 -6 -30 42 40 50 -11 -3 36 37 -36 -24 59 -19 -2 49 -4 -42 46 -5 48 -31 -9 -12 60 -8 -45 -25 -56 -57 58 -23 -40 -26 -62
right_child=1 10 3 4 7 9 52 30 15 33 18 -13 -14 14 -16 -17 -18 31 21 -21 -22 57 38 54 27 -27 -28 -29 29 47 -32 -33 -34 -35 35 -37 -38 -39 39 -41 44 -43 -44 53 -46 -47 -48 -49 -50 -51 -52 -53 -54 -55 55 56 -58 -59 -60 -61 61 -63
leaf_value=-0.075366360247396152 -0.07286233615264158 -0.07739938551184973 -0.08646260667969824 -0.075305569539100392 0.08798138557406826 -0.069494573494044212 -0.039244728894142537 -0.013091898937331323 -0.080450999430979553 -0.077408735219876942 0.074851259004568058 0.082770844982405709 0.088429514675715859 -0.081555329007292746 0.087240743841001736 0.087075714755716974 -0.080173855259438487 -0.068192578910726373 -0.074638661090174752 0.080554854846796614 0.060943637382663562 0.072397457728337986 0.087980922947648699 -0.080595811030484743 0.083037575307435954 -0.077241176633112085 -0.080555676945473095 -0.05941230082310478 -0.078401280005389429 0.059907234747122701 -0.077907804190902916 -0.082380345458560059 -0.055940045543909515 0.10084809959501571 -0.060124851614043996 -0.069387018967458067 0.090122535175827412 0.093152220624722726 0.0024868709290994432 0.088572355756939919 0.070714656190401057 0.0738872760232442 -0.084449177537917267 -0.023039482264889125 -0.03348598294383788 -0.078976074092423409 0.072256324755839568 0.088889484655246015 -0.073499741262227733 0.087520720206085034 -0.067447523368282067 -0.05419908239561444 0.088552992806353273 0.070559464752975878 -0.068982397915236124 0.027233978057787406 -0.076560735445983644 0.076166707586619392 -0.091853454605684198 -0.079592221625477327 0.066479596882912828 -0.0926486587669344
leaf_weight=239.9928240031004 11.235945433378221 564.14230307936668 12.76649387180805 201.34532821178436 678.46512326598167 41.245605528354645 5.4794725328683844 23.554330319166183 104.35659727454185 49.406441494822502 28.027640342712402 61.382855832576752 8513.0264970809221 117.0323715955019 105.83170568943024 58.069946005940437 7536.3285962194204 10.721273571252821 26.565521776676178 24.647228091955185 24.868256285786629 9.3980267494916934 839.56597030162811 236.68622969090939 79.84333199262619 276.97206617891788 1714.1308343857527 17.66189569234848 15.674484089016913 36.076678708195686 76.092617824673653 12.643873021006582 31.312399908900261 5.9599560350179663 35.983245566487312 103.84463350474834 16.528783038258553 9.9368363469839078 11.183695778250692 525.09129363298416 110.32709939777851 17.960115358233452 14.6825083643198 15.102684482932089 13.794358506798742 1031.9575029909611 35.805859327316284 61.260731726884842 13.899999320507048 19.248717933893204 6.2067213505506507 6.509678214788436 109.08223147690296 23.207461670041084 76.200118064880371 23.738850504159927 10.422471046447752 63.320176094770432 6.9984336197376242 73.717560976743698 18.112792462110523 5.900178298354148
leaf_count=1013 47 2386 53 850 2754 174 23 98 437 209 113 250 34626 494 430 236 31985 45 110 100 102 38 3414 1005 322 1172 7276 73 65 145 319 53 130 24 150 437 67 40 46 2135 445 73 61 61 57 4364 145 249 58 78 26 27 443 94 320 95 44 256 29 311 73 24
internal_value=0 -0.0480813 -0.00834826 0.0207127 -0.00989528 0.0822775 -0.0528731 0.0514223 0.0641793 0.0867299 -0.0735109 -0.0352225 0.0876681 -0.0632632 -0.00139896 -0.00723595 -0.0771628 -0.0513153 -0.0402509 -0.0496895 -0.062568 0.0270755 0.076448 -0.0490029 -0.0331118 -0.062671 -0.078915 0.0459691 0.0807677 0.0422036 -0.0433592 0.0377465 -0.00110365 -0.0582201 -0.0692983 -0.0418158 0.00403157 -0.0269566 0.0790136 0.0666714 0.0490105 0.0174115 0.00237216 0.00363618 0.0591342 -0.074127 -0.0530262 0.0591981 0.0228028 0.032154 0.0490524 0.0628334 0.0824404 0.0336607 -0.0705489 -0.0490019 -0.00443334 0.0609716 0.00229092 -0.0687803 0.0701689 0.0273805
internal_weight=0 15314.7 5976.53 4233.2 2732.56 8935.88 1606.53 1126.03 992.451 8609.64 9338.13 326.244 8554.27 1491.97 222.864 187.074 8414.25 877.922 923.877 129.004 264.861 106.282 1500.64 817.594 470.547 342.519 1743.33 128.028 805.377 126.912 133.578 147.487 65.5468 55.3664 730.436 166.293 62.4489 45.9201 1449.56 609.993 134.843 29.1961 57.4856 51.0766 124.121 1269.11 237.151 111.237 49.9767 42.803 34.2344 110.366 114.562 38.3101 347.048 110.361 34.1613 79.7166 16.3965 84.9013 103.856 24.013
internal_count=100779 64381 24859 17463 11349 36398 6749 4600 4044 35033 39522 1365 34800 6283 924 773 35665 3680 3857 537 1115 433 6114 3424 1960 1441 7396 519 3271 517 556 600 269 233 3080 694 257 190 5906 2492 547 120 237 208 502 5359 995 452 203 176 139 446 466 155 1464 459 139 323 67 357 419 97
is_linear=0
shrinkage=0.05


Tree=5
num_leaves=63
num_cat=0
split_feature=10 2 14 9 13 18 14 10 1 13 9 9 6 2 3 9 9 1 13 13 9 9 13 9 14 13 6 18 9 9 18 9 15 13 9 9 9 1 2 14 6 9 1 14 2 13 16 9 5 10 1 9 9 9 9 1 4 16 9 1 18 16
split_gain=36586.5 4987.81 3673.36 2911 2744.82 1470.8 562.772 472.402 317.193 652.223 259.73 247.074 214.715 214.256 204.529 188.815 178.843 153.747 246.607 133.322 124.779 116.487 116.393 892.22 196.603 99.7171 82.0761 73.4821 97.2874 83.8872 72.9246 71.4083 67.2997 59.0988 116.125 149.881 67.5009 56.7509 80.4455 51.5525 46.7062 46.2427 53.1595 44.896 43.3734 109.695 39.3916 38.5495 38.408 36.7643 36.4051 36.1572 98.1181 45.0637 64.6837 57.1357 38.41 35.7111 39.2754 40.8109 32.3256 31.9767
threshold=5.5000000000000009 0.63500000000000012 4.5000000000000009 23.500000000000004 327.50000000000006 0.03500000000000001 251.50000000000003 9.5000000000000018 100.50000000000001 24.500000000000004 1.5000000000000002 43.500000000000007 0.075000000000000025 0.99500000000000011 0.19500000000000003 14.500000000000002 53.500000000000007 195.50000000000003 2.5000000000000004 4.5000000000000009 13.500000000000002 17.500000000000004 81.500000000000014 14.500000000000002 254.50000000000003 1.5000000000000002 0.99500000000000011 1.0000000180025095e-35 23.500000000000004 19.500000000000004 1.0000000180025095e-35 48.500000000000007 0.23500000000000001 9.5000000000000018 48.500000000000007 53.500000000000007 18.500000000000004 230.50000000000003 0.99500000000000011 197.50000000000003 0.025000000000000005 19.500000000000004 51.500000000000007 254.50000000000003 0.28500000000000009 2.5000000000000004 0.16500000000000004 19.500000000000004 0.015000000000000001 2.5000000000000004 53.500000000000007 53.500000000000007 43.500000000000007 19.500000000000004 14.500000000000002 63.500000000000007 0.025000000000000005 0.065000000000000016 23.500000000000004 157.50000000000003 0.065000000000000016 0.58500000000000008
decision_type=2 2 2 2 2 2 2 2 2 2 2 2 2 2 2 2 2 2 2 2 2 2 2 2 2 2 2 2 2 2 2 2 2 2 2 2 2 2 2 2 2 2 2 2 2 2 2 2 2 2 2 2 2 2 2 2 2 2 2 2 2 2
left_child=1 10 3 20 5 7 17 8 9 13 -1 -6 25 33 31 -11 48 18 26 27 -2 -22 30 -24 -25 -8 -7 28 29 -15 -10 43 37 40 36 -36 -35 38 47 -19 51 -23 -43 -3 -12 -46 -33 -32 -17 -45 -31 52 53 54 -4 56 -56 58 59 -27 -41 -20
right_child=2 14 4 -5 11 6 12 -9 22 15 44 -13 -14 19 -16 16 -18 39 61 -21 21 41 23 24 -26 57 -28 -29 -30 50 32 46 -34 34 35 -37 -38 -39 -40 60 -42 42 -44 49 45 -47 -48 -49 -50 -51 -52 -53 -54 -55 55 -57 -58 -59 -60 -61 -62 -63
leaf_value=-0.069113033217768502 -0.072863043302780831 -0.075569270798165736 -0.077599328775985493 -0.074332870935476511 0.085350333158777214 -0.062320060248013009 -0.067970654749870449 0.087031036238758352 -0.076685029262269541 -0.078417758529271409 0.084797400199761577 -0.057479672555461783 0.085926251662453004 -0.054009016536041093 0.080023219671409213 0.082122480453960048 -0.079990464757120183 -0.077644518472877969 0.069232567379174728 -0.072296206716547837 0.084712753693248599 -0.063869403511264133 -0.078243674652661216 -0.078890653526627177 0.071327385026695347 -0.078637172186215049 0.089996383631221769 0.08443425551192571 -0.046599239385473223 0.071368257166653598 0.031710219849652062 -0.074600256977838328 0.054749693966086192 0.038885310602560945 0.08618752697174735 -0.078508130284722963 -0.070749739446318544 -0.070391573967749671 0.048492602491846601 0.042884832862736533 -0.072197001031022959 0.060339210508230635 -0.042147447428102607 -0.078755068014819393 -0.031219625759342496 0.084406695899112788 0.080861094583886739 -0.076520038103956994 -0.051138810326044962 0.042797558408690387 -0.068969121436631739 -0.076035829630713647 0.04095740964786318 -0.076346200848228518 -0.042360803658250318 0.072835395708913162 0.051802806123118855 -0.08462291659879756 0.059135908525844022 0.085423193181229373 -0.078933355969827243 -0.060481892803652459
leaf_weight=27.626455083489418 13.757405057549475 543.66591100394726 60.994042694568634 485.70297926664352 344.93710774183273 111.78426866233349 36.019810631871223 48.788552358746529 7412.2379646003246 30.960473328828812 8970.097481533885 33.191623508930206 202.57007303833961 21.889710858464241 23.827897176146507 134.48050165176392 20.911320939660072 162.41886988282204 78.422123998403549 81.413185402750969 829.16415251791477 12.62034174799919 862.93966649472713 25.76312455534935 140.93523889780045 11.809039011597635 9.6041705608367902 24.794158563017845 81.888866409659386 56.657759562134743 10.083783224225042 6.1657160818576839 14.06771796941757 15.318252533674238 34.306637406349182 23.126320123672485 168.1744137853384 219.56779031455517 27.281861871480942 15.74850155413151 1662.2448484897614 61.714524403214455 15.915878936648367 10.658452183008196 28.520762860774994 73.050767630338669 12.015171006321905 44.690097019076347 5.6334704309701911 14.94053742289543 5.0315995812416068 133.12074874341488 30.060400992631912 126.69531063735485 75.103370949625969 16.42100216448307 12.65450283885002 6.1622424125671378 61.438898786902428 5.5825670361518851 8.3243511468172056 5.0575438588857642
leaf_count=118 59 2349 261 2101 1421 477 154 200 32094 134 36962 142 833 93 97 553 89 702 321 350 3416 54 3741 111 583 51 39 101 351 231 42 26 57 64 141 100 721 943 111 65 7149 252 67 46 118 301 49 193 24 62 21 575 124 545 318 67 52 26 252 23 36 21
internal_value=0 0.0746754 -0.0513712 0.0249364 -0.0598822 -0.0639473 0.00566005 -0.068227 -0.0688811 -0.0543027 0.0839633 0.0728129 0.0544461 -0.0607975 -0.0635821 0.0346652 0.0564078 -0.0346771 -0.00477667 -0.0187505 0.0766046 0.0788411 -0.0735786 -0.0577868 0.0481113 0.00174973 -0.0502689 0.00416171 -0.00786654 0.0300829 -0.0756827 -0.069407 -0.0521474 -0.0656414 -0.0421767 0.0198701 -0.0615972 -0.0571331 -0.0216555 -0.0675238 -0.0683115 0.0248966 0.0393273 -0.0725223 0.0844295 0.0519394 0.0281392 -0.056595 0.0767645 -0.00781236 0.0599219 -0.0541181 -0.0450549 -0.0539136 -0.0367068 -0.0127653 -0.0287826 0.0312971 0.0403587 -0.0259751 0.000760312 0.0613739
internal_weight=0 9710.57 14140.2 1418.88 12721.3 12343.2 714.942 11628.2 11579.4 2821.88 9099.3 378.129 323.583 2629.9 611.274 191.986 161.025 391.36 204.868 271.675 933.172 919.415 8757.57 1029.64 166.698 121.013 121.388 190.262 165.468 83.5791 7727.93 587.446 315.691 2358.22 240.926 57.433 183.493 301.624 82.0557 186.492 2117.29 90.2507 77.6304 569.265 9071.67 101.572 18.1809 54.7739 140.114 25.599 61.6894 455.049 321.929 291.868 165.173 104.179 87.7579 84.9927 78.8305 17.3916 24.0729 83.4797
internal_count=100779 40128 60651 5949 54702 53139 3000 50139 49939 12064 37499 1563 1339 11264 2629 800 666 1661 858 1147 3848 3789 37875 4435 694 506 516 797 696 345 33440 2532 1346 10117 1026 241 785 1289 346 803 9091 373 319 2457 37381 419 75 235 577 108 252 1942 1367 1243 698 437 370 352 326 74 101 342
is_linear=0
shrinkage=0.05


Tree=6
num_leaves=63
num_cat=0
split_feature=10 2 11 9 9 9 6 18 7 15 9 9 2 18 3 13 7 2 6 1 2 16 9 16 11 13 10 9 6 11 9 2 12 13 2 1 8 13 13 6 2 3 18 10 13 6 9 1 4 9 2 1 6 17 2 6 1 9 1 7 13 6
split_gain=33650.4 4577.75 3954.66 3876.06 2798.35 1238.42 741.393 382.526 259.304 238.659 238.376 228.986 481.698 225.488 189.007 188.861 162.894 175.643 144.733 105.974 359.617 116.473 105.657 146.313 83.2877 73.9211 73.5253 70.8554 59.5809 58.5627 55.2 54.179 51.191 51.1183 44.1231 43.8256 39.6578 215.472 75.1161 35.9942 34.9702 85.2305 43.462 34.8073 34.7234 27.3774 68.7472 81.7504 67.3257 27.0624 32.8089 25.7505 24.2558 24.0396 24.0177 44.3189 23.9358 23.3611 22.2711 21.866 81.0001 35.1487
threshold=5.5000000000000009 0.63500000000000012 1.0000000180025095e-35 12.500000000000002 17.500000000000004 44.500000000000007 0.015000000000000001 1.0000000180025095e-35 0.055000000000000007 0.14500000000000005 1.5000000000000002 23.500000000000004 0.93500000000000016 0.10500000000000002 0.03500000000000001 2.5000000000000004 0.03500000000000001 0.8650000000000001 0.41500000000000004 244.50000000000003 0.99500000000000011 0.49500000000000005 19.500000000000004 1.0000000180025095e-35 1.0000000180025095e-35 2.5000000000000004 3.5000000000000004 60.500000000000007 0.9850000000000001 1.0000000180025095e-35 19.500000000000004 0.03500000000000001 0.56500000000000006 7.5000000000000009 0.81500000000000006 65.500000000000014 0.48500000000000004 2.5000000000000004 1.5000000000000002 0.89500000000000013 0.31500000000000006 0.075000000000000025 0.99500000000000011 1.5000000000000002 6.5000000000000009 0.025000000000000005 19.500000000000004 70.500000000000014 0.025000000000000005 14.500000000000002 0.99500000000000011 205.50000000000003 0.095000000000000015 0.32500000000000007 0.90500000000000014 0.03500000000000001 20.500000000000004 49.500000000000007 8.5000000000000018 1.0000000180025095e-35 7.5000000000000009 0.50500000000000012
decision_type=2 2 2 2 2 2 2 2 2 2 2 2 2 2 2 2 2 2 2 2 2 2 2 2 2 2 2 2 2 2 2 2 2 2 2 2 2 2 2 2 2 2 2 2 2 2 2 2 2 2 2 2 2 2 2 2 2 2 2 2 2 2
left_child=1 10 3 39 8 13 16 11 31 19 -1 12 45 32 24 18 17 33 54 20 22 44 23 -9 -3 30 -26 -17 53 40 -14 -5 59 34 -7 58 37 38 49 -2 -12 42 -42 -16 -22 46 47 48 -4 50 -33 -36 -15 -24 55 57 -51 -8 -32 -6 -61 -62
right_child=2 14 7 4 5 6 15 9 -10 -11 29 -13 25 52 43 27 -18 -19 -20 -21 21 -23 28 -25 26 -27 -28 -29 -30 -31 35 36 -34 -35 51 -37 -38 -39 -40 -41 41 -43 -44 -45 -46 -47 -48 -49 -50 56 -52 -53 -54 -55 -56 -57 -58 -59 -60 60 61 -63
leaf_value=-0.06691143208673242 -0.076113895219549588 -0.074557132442561153 -0.062694733197510982 0.010976098671230573 -0.074059985729501454 -0.036272171258496612 0.061795366863924721 0.071462872228374427 -0.065337659175551011 0.061905269321548821 0.081985951634385157 -0.075719170420536788 -0.06371821262806579 -0.037731715461236354 -0.076261927303794941 0.081449776931201368 -0.076689207627906653 -0.061103318581525949 0.075865026407400268 -0.066311397006447281 0.069713996470450471 -0.07510481568427102 -0.0747619577779782 -0.079034143855505251 -0.074436798842627702 -0.064239960892426354 0.074836916774117343 -0.075978515804772384 0.090936513595691881 -0.031244127734554313 0.00063503058218281072 -0.047530363553423868 0.062168001349358661 0.083898958044790597 0.07891905478152067 -0.060333234628050347 0.082586845331098752 0.082904226671654646 -0.055769322297519887 0.052335455692170608 -0.070238919091969457 0.082905923014644181 0.085137785937759683 0.054368806119752255 -0.04883763350645054 -0.071367952923302877 -0.073641747629307738 0.087225521211627743 0.076396157388158414 0.03536227487966135 0.047250895558854977 -0.050850108470233885 0.079492090003022542 0.022788811027027536 -0.077501542876929286 -0.04759924496816359 -0.073120180651868705 -0.053684948222648105 0.072196811675588696 -0.070699946302021879 0.03748395154904232 -0.083200562076057485
leaf_weight=27.12149952352047 1648.6457781791687 520.96907493472099 51.443273603916168 34.855583503842354 691.76316997408867 26.665074601769447 19.872127234935764 34.805390238761902 34.923294350504875 56.132087215781212 8836.9256971776485 7269.8343442082405 10.373341888189314 5.2003342956304541 5.8702202141284934 348.63398931920528 150.20225094258785 76.626905396580696 51.410924166440964 333.2068477421999 101.35552018880844 17.936159640550613 268.25669415295124 30.130249693989754 15.114439383149145 16.907187819480896 18.161168798804283 7.2969887703657141 5.6943366527557364 11.493621930480002 12.204247027635573 9.7669398039579374 7.3967858254909506 39.944107979536057 21.133797168731693 7.5171604901552191 693.11885640025139 510.96089793741703 27.192632228136063 5.4720188379287711 17.685800269246105 54.299719780683517 6.0369639992713919 38.835127949714661 6.5773895978927603 520.6626550257206 117.05410361289978 16.123960375785828 10.470927536487578 9.8972525447607058 140.08174324035645 4.6670055985450736 29.143419623374939 6.467736989259719 20.356556728482246 41.036059647798538 10.457156389951704 5.6173775494098654 99.616657882928848 155.48892684280872 28.757861942052841 7.6349368691444388
leaf_count=118 7310 2303 222 142 3036 113 80 141 152 229 37008 32213 45 21 26 1456 663 331 214 1459 415 77 1181 130 66 73 74 31 23 47 50 42 31 166 85 32 2902 2134 119 22 74 227 25 160 27 2289 514 66 43 41 592 20 120 26 89 174 46 24 408 682 118 32
internal_value=0 0.0721443 -0.0498299 -0.0135112 0.018528 -0.0244132 0.0205923 -0.0694749 0.0692795 -0.0377743 0.0810966 -0.0728295 -0.0484691 -0.0639755 -0.0616815 0.0589561 -0.0387999 -0.0051323 0.0093698 -0.0447298 -0.0294693 0.0428825 -0.0558389 0.001632 -0.0696586 0.0340962 0.00703384 0.0782223 -0.0691472 0.0815463 0.0469138 0.0725526 -0.0688211 0.0412792 0.00883129 0.0565303 0.074084 0.0657641 0.0213966 -0.075689 0.0816917 0.0483644 -0.0306987 0.0372158 0.0624895 -0.0653821 -0.049407 -0.013056 -0.0391717 0.0337251 0.0410732 0.0554456 0.0617421 -0.0724654 -0.0299776 -0.0154354 -0.020371 0.0363458 0.0643865 -0.0699176 -0.0549835 0.0121652
internal_weight=0 9552.51 13857 4864.22 3210.1 1738.85 813.463 8992.77 1471.25 860.562 8953.56 8132.21 862.374 925.385 598.95 494.224 319.239 169.037 138.293 804.43 471.223 125.869 345.354 64.9356 554.245 146.619 33.2756 355.931 280.419 8926.44 129.711 1436.33 891.042 92.41 52.4659 119.338 1401.48 708.357 197.396 1654.12 8914.95 78.0225 23.7228 44.7053 107.933 715.755 195.092 78.0382 61.9142 170.203 149.849 25.8008 34.3438 274.724 86.8821 66.5256 20.3544 25.4895 111.821 883.645 191.882 36.3928
internal_count=100779 40128 60651 20988 13656 7486 3446 39663 6170 3708 37499 35955 3742 4040 2629 2068 1378 715 581 3479 2020 519 1501 271 2443 608 140 1487 1230 37381 535 6018 3899 384 218 490 5876 2974 840 7332 37334 326 99 186 442 3134 845 331 265 721 634 105 141 1207 367 278 87 104 458 3868 832 150
is_linear=0
shrinkage=0.05


Tree=7
num_leaves=63
num_cat=0
split_feature=10 2 14 9 13 18 14 10 1 13 9 9 2 6 3 9 9 1 13 13 9 13 9 14 9 13 6 18 9 18 1 9 15 13 9 9 9 1 9 14 8 6 14 9 9 1 2 5 18 18 9 9 9 9 1 4 5 10 16 9 1 1
split_gain=31036 4213.79 3155.86 2471.24 2340.4 1273.82 480.124 405.822 285.69 556.455 219.433 209.02 188.363 179.518 176.931 160.728 151.278 133.808 208.952 115.902 106.288 100.667 764.838 166.084 100.211 85.8004 69.6115 64.8459 62.7705 61.618 80.6051 75.0041 56.6904 50.2284 99.0907 127.276 57.8514 48.9326 67.1757 46.2677 44.297 42.0076 39.622 39.4419 38.83 44.706 37.752 95.0185 55.1473 35.1402 32.5724 87.394 39.8389 57.6297 48.659 32.6786 32.5543 31.5727 31.0552 33.764 34.8004 29.1501
threshold=5.5000000000000009 0.63500000000000012 4.5000000000000009 23.500000000000004 327.50000000000006 0.03500000000000001 251.50000000000003 9.5000000000000018 100.50000000000001 24.500000000000004 1.5000000000000002 43.500000000000007 0.99500000000000011 0.075000000000000025 0.19500000000000003 14.500000000000002 53.500000000000007 195.50000000000003 2.5000000000000004 4.5000000000000009 13.500000000000002 81.500000000000014 14.500000000000002 254.50000000000003 17.500000000000004 1.5000000000000002 0.99500000000000011 1.0000000180025095e-35 48.500000000000007 1.0000000180025095e-35 51.500000000000007 23.500000000000004 0.23500000000000001 9.5000000000000018 48.500000000000007 53.500000000000007 18.500000000000004 230.50000000000003 53.500000000000007 197.50000000000003 0.075000000000000025 0.025000000000000005 254.50000000000003 19.500000000000004 19.500000000000004 51.500000000000007 0.28500000000000009 0.99500000000000011 0.99500000000000011 0.82500000000000007 53.500000000000007 43.500000000000007 19.500000000000004 14.500000000000002 61.500000000000007 0.025000000000000005 0.015000000000000001 2.5000000000000004 0.065000000000000016 23.500000000000004 157.50000000000003 252.50000000000003
decision_type=2 2 2 2 2 2 2 2 2 2 2 2 2 2 2 2 2 2 2 2 2 2 2 2 2 2 2 2 2 2 2 2 2 2 2 2 2 2 2 2 2 2 2 2 2 2 2 2 2 2 2 2 2 2 2 2 2 2 2 2 2 2
left_child=1 10 3 20 5 7 17 8 9 12 -1 -6 33 25 28 -11 56 18 26 29 -2 27 -23 -24 -22 -8 -7 -10 42 30 31 43 37 41 36 -36 -35 38 40 -19 -29 50 -3 -14 -26 -46 -12 48 -48 -30 51 52 53 -4 55 -55 -17 -44 59 60 -27 -41
right_child=2 14 4 -5 11 6 13 -9 21 15 46 -13 19 -15 -16 16 -18 39 -20 -21 24 22 23 -25 44 58 -28 32 49 -31 -32 -33 -34 34 35 -37 -38 -39 -40 61 -42 -43 57 -45 45 -47 47 -49 -50 -51 -52 -53 -54 54 -56 -57 -58 -59 -60 -61 -62 -63
leaf_value=-0.064879959152052316 -0.069011860781662493 -0.071547538154842688 -0.073699076273074537 -0.070222658430556653 0.079884084703834665 -0.058466292878488861 -0.063670763169713471 0.081511007110104061 -0.072666913562807897 -0.07441087594541182 0.07933510914671435 -0.053789294917210143 -0.032692917446208357 0.080482325123092419 0.075007051462208874 0.076719135314717871 -0.075304235417810658 -0.073786676636202142 0.05703310090441073 -0.068234131944796703 0.079413720887775902 -0.074203857001827106 -0.074792807021378943 0.066322606440909634 -0.059657314054907588 -0.074564599867359027 0.083101126305730744 0.048321534768993729 -0.066049400557387103 0.078866746539555457 -0.072478178039506333 -0.029672746883194101 0.049749428003756646 0.035830446839064417 0.080600073182431065 -0.074411370168648877 -0.066757401783560641 -0.066395599933847249 -0.07196819139951606 0.040990698622744438 -0.069526453394872678 -0.068095547702037559 -0.074671378133802369 0.066182182070396015 0.055933223316937064 -0.039113632451789483 -0.067346690079395588 0.080234878616655611 0.089004713826804971 0.08002257448145976 -0.071943831346928763 0.039468752608076814 -0.072176436794425661 -0.039818161130531556 0.065686365294779031 0.047884178054574206 -0.047806421127374286 0.039910219228066854 -0.080060887726718377 0.05582296427512648 0.079935330088366272 -0.076950157878256598
leaf_weight=26.585795164108276 13.214002773165701 519.55938294529915 58.58796252310276 463.93543779850006 332.99446445703506 107.90566556155682 34.692862659692764 47.39119416475296 7073.4212261587381 29.534066677093506 8660.6754695028067 32.059537589550018 12.348752543330191 195.96675902605057 23.308560773730278 130.49813790619373 20.082648932933807 155.38090500235558 81.790672957897186 78.046441897749901 801.60078163444996 822.22244833409786 24.597902372479439 136.8657418191433 12.16129684448242 11.266383290290834 9.4434341937303525 33.879601031541824 6.4733485281467464 24.161072000861168 36.17955157160759 57.500713869929314 13.84452663362026 15.019447848200796 33.165608778595924 22.043483704328537 161.62427142262459 211.17727354168892 35.164699256420135 15.634777307510378 10.428283393383024 1593.6741447001696 10.17180420458317 55.046868175268173 60.669171571731567 15.540830940008162 21.849459514021877 69.228087648749352 7.6019799262285224 11.312310516834257 127.16832494735718 29.82876218855381 121.15026816725731 72.353652611374855 17.023567587137222 12.448831826448439 5.4683814346790305 14.70110562443733 5.9545638263225547 60.436867833137512 5.3877114802598944 7.8792930692434302
leaf_count=118 59 2349 261 2101 1421 477 154 200 32094 134 36962 142 53 833 97 553 89 702 342 350 3416 3741 111 583 54 51 39 142 28 101 160 254 57 64 141 100 721 943 159 66 45 7149 46 229 252 67 92 295 32 47 575 124 545 314 71 52 24 62 26 252 23 35
internal_value=0 0.0698941 -0.0484584 0.0235732 -0.0565443 -0.0603974 0.00543671 -0.064492 -0.0651167 -0.0510181 0.0785494 0.0681447 -0.0571543 0.0511645 -0.0599803 0.0325477 0.0527909 -0.0325097 -0.0043151 -0.0171259 0.0717529 -0.0696911 -0.0546664 0.0448246 0.0738429 0.00236721 -0.0470739 -0.0716943 -0.0655766 0.00440775 -0.00676096 0.0122758 -0.0491016 -0.061809 -0.0397606 0.0187082 -0.0580347 -0.0538101 -0.0203676 -0.0638949 0.0205849 -0.0643245 -0.0685962 0.0480655 0.0233113 0.0365512 0.0789847 0.0482332 -0.0269894 0.0268576 -0.050621 -0.0419131 -0.0505346 -0.03419 -0.0114575 -0.0269436 0.0717109 -0.00694805 0.029955 0.0384528 -0.0245828 0.00147008
internal_weight=0 9371.47 13545.9 1367.12 12178.7 11813.7 691.74 11121.9 11074.6 2712.95 8785.94 365.054 2527.37 313.705 585.527 185.583 156.049 378.035 199.14 263.283 903.186 8361.6 983.686 161.464 889.972 117.738 117.349 7377.92 562.218 185.237 161.076 124.896 304.494 2264.09 231.853 55.2091 176.644 290.65 79.4726 178.895 44.3079 2032.24 544.432 67.3956 88.3713 76.21 8759.35 98.6795 29.4514 17.7857 438.561 311.393 281.564 160.414 101.826 84.8025 135.967 24.8729 83.0455 77.091 16.6541 23.5141
internal_count=100779 40128 60651 5949 54702 53139 3000 50139 49939 12064 37499 1563 11264 1339 2629 800 666 1661 858 1147 3848 37875 4435 694 3789 506 516 33440 2532 797 696 536 1346 10117 1026 241 785 1289 346 803 187 9091 2457 282 373 319 37381 419 124 75 1942 1367 1243 698 437 366 577 108 352 326 74 101
is_linear=0
shrinkage=0.05


Tree=8
num_leaves=63
num_cat=0
split_feature=10 2 11 9 9 9 9 2 18 7 9 2 15 0 9 3 1 2 16 9 16 14 11 10 13 9 18 14 13 11 14 13 12 9 2 2 5 18 1 16 13 1 2 13 2 3 18 1 14 16 13 1 4 9 1 4 13 18 10 14 18 1
split_gain=28678.5 3888.65 3433.8 3351.44 2381.18 1080 488.791 702.664 345.755 220.755 207.666 413.039 205.27 204.739 202.516 163.606 92.8904 309.584 101.292 97.7078 131.207 77.314 71.4465 63.5723 63.5191 63.3117 55.8432 54.964 535.836 54.239 52.6576 62.1036 47.4093 45.1236 41.7354 41.1266 38.8694 36.7181 36.4826 35.6758 33.6994 31.462 31.2686 30.8749 30.1628 72.6303 36.4001 29.9056 28.1061 31.7129 28.2073 27.6918 38.7518 32.9343 19.6146 17.5596 16.2787 89.6516 108.027 15.5901 14.9638 14.3947
threshold=5.5000000000000009 0.63500000000000012 1.0000000180025095e-35 12.500000000000002 17.500000000000004 44.500000000000007 49.500000000000007 0.8650000000000001 1.0000000180025095e-35 0.24500000000000002 23.500000000000004 0.93500000000000016 0.14500000000000005 0.19500000000000003 1.5000000000000002 0.19500000000000003 244.50000000000003 0.99500000000000011 0.50500000000000012 19.500000000000004 1.0000000180025095e-35 67.500000000000014 1.0000000180025095e-35 3.5000000000000004 3.5000000000000004 48.500000000000007 0.115 5.5000000000000009 3.5000000000000004 1.0000000180025095e-35 251.50000000000003 1.5000000000000002 0.56500000000000006 19.500000000000004 1.0000000180025095e-35 0.26500000000000007 0.03500000000000001 0.30500000000000005 65.500000000000014 0.82500000000000007 9.5000000000000018 71.500000000000014 0.96500000000000008 6.5000000000000009 0.31500000000000006 0.075000000000000025 0.99500000000000011 210.50000000000003 244.50000000000003 0.025000000000000005 13.500000000000002 61.500000000000007 0.015000000000000001 19.500000000000004 8.5000000000000018 0.025000000000000005 1.5000000000000002 0.075000000000000025 2.5000000000000004 17.500000000000004 0.29500000000000004 100.50000000000001
decision_type=2 2 2 2 2 2 2 2 2 2 2 2 2 2 2 2 2 2 2 2 2 2 2 2 2 2 2 2 2 2 2 2 2 2 2 2 2 2 2 2 2 2 2 2 2 2 2 2 2 2 2 2 2 2 2 2 2 2 2 2 2 2
left_child=1 14 3 55 9 13 7 21 10 27 11 30 16 36 -1 22 17 19 43 20 -10 35 25 -24 33 -3 32 -5 42 44 -4 51 -15 -13 -21 -7 40 -8 54 -27 -6 -9 -29 -19 56 46 -46 61 -18 -50 -51 52 -32 -53 -35 -2 57 58 -16 -36 -31 -23
right_child=2 15 8 4 5 6 37 41 12 -11 -12 24 -14 26 29 -17 48 18 -20 34 -22 47 23 -25 -26 39 -28 28 -30 60 31 -33 -34 38 59 -37 -38 -39 -40 -41 -42 -43 -44 -45 45 -47 -48 -49 49 50 -52 53 -54 -55 -56 -57 -58 -59 -60 -61 -62 -63
leaf_value=-0.062995413746200282 -0.072414850120638349 -0.07162916107419437 -0.069525772131041913 0.076981354579429867 -0.030175997637285703 0.065369655189743553 -0.067507014373709789 -0.010906509214479068 0.069135640178201743 -0.062550110478488644 -0.072092596517838128 -0.059944783079080112 0.057905361353215085 -0.069536898129979777 -0.095754203835792667 0.072441732550591817 -0.072898241816155521 0.065242105832755123 -0.073676081163364521 0.060477917234089289 -0.075285304594222294 0.077405904423997751 -0.070496318992392837 0.070067060592523878 -0.074587262701874518 -0.070244593826524149 0.029091007285238127 -0.0055419360555363766 0.077751701849048283 -0.080892021697395608 -0.060016555424608348 -0.066053048015831908 0.05880413358890723 0.0013150128600493997 0.026055836759730451 -0.051380666874172191 -0.053990068585072992 0.054507596275187781 -0.048231233975044897 0.080474769256728085 0.07938189814570977 -0.071853341516938993 -0.068197325807022757 -0.047074617727415925 -0.065164463745981061 0.077957207394054678 0.079551336933055827 -0.040485462599896833 -0.060290765468207747 0.028454364786207578 -0.071947057150958602 0.07221454333587439 0.04181092487382107 -0.030221189504039788 0.066021567681132307 0.013325975568612619 0.077542079543824194 0.076193242454301272 0.069668861293315149 -0.07037805206662516 0.034552071845155741 0.054463008422847216
leaf_weight=26.026313275098801 1565.5225801169872 499.17232131958008 520.33273629844189 786.56296691298485 8.8880439102649671 11.981111556291578 140.95098994672298 26.049809262156487 34.491784885525703 33.005080372095108 6908.9295697063208 9.9927383512258512 55.154844835400581 812.33741982281208 17.80044424533844 22.936654180288315 215.42511916160583 99.752236440777779 16.827273353934288 6.3944547772407523 28.906909763813019 376.36888290941715 14.41944660246372 18.192406088113785 12.798907354474066 6.1273153573274639 14.956652402877806 27.872534111142159 501.12071430683136 6.6109348088502866 31.64318810403347 87.021102026104927 7.2600010484457007 13.296836733818052 4.2603894025087348 20.363325729966164 9.8410023003816587 6.447968289256095 8.659109950065611 10.929710164666174 33.378026977181435 113.15593181550503 69.728411123156548 6.5185006111860266 17.219368278980259 52.171313926577568 5.8117711693048468 5.854404851794242 70.585856437683105 23.637306898832321 9.9362024366855604 19.327368751168251 13.258086279034613 13.209632471203802 98.249274224042892 5.9943143874406806 8177.3202368468046 271.07156094908714 22.149882331490517 257.70899522304535 4.878275141119957 83.542562514543533
leaf_count=118 7306 2318 2398 3423 40 51 643 113 141 150 32213 45 229 3726 72 97 1000 417 75 27 130 1626 66 75 58 27 62 114 2169 27 141 400 31 55 18 88 42 27 38 46 139 517 314 27 74 227 25 26 320 95 44 80 56 59 412 26 35673 1169 94 1185 20 355
internal_value=0 0.0678737 -0.0471759 -0.0126402 0.017597 -0.0228379 0.0198857 0.0388635 -0.0659677 0.0652472 -0.0692571 -0.0455914 -0.0352916 -0.0606492 0.0762674 -0.0583905 -0.0419289 -0.027414 0.0403047 -0.0525405 0.00328628 0.0666179 -0.0638581 0.00791646 0.0316984 -0.0683924 -0.0666528 0.068292 0.0568766 0.0766901 -0.0617309 -0.0370686 -0.0684001 0.0421466 -0.0657291 -0.00813371 0.0355055 -0.0621695 0.0506335 0.0263326 0.0563432 -0.0604483 -0.0503044 0.0583528 0.0768357 0.0453093 -0.0286463 0.0718089 -0.0625878 -0.0412634 -0.0012598 -0.00449747 -0.0299498 0.0306269 0.0583082 -0.0720878 0.077115 0.0658877 -0.00403777 -0.0688098 -0.0318749 0.0732383
internal_weight=0 9172.84 13227.5 4661.18 3089.67 1671.38 784.715 637.316 8566.32 1418.29 7736.72 827.789 829.6 886.661 8601.06 571.778 774.445 454.861 123.098 331.763 63.3987 498.11 548.841 32.6119 142.997 516.229 834.554 1385.28 598.722 8575.03 684.792 164.459 819.597 130.198 268.364 32.3444 52.1071 147.399 120.205 17.057 42.2661 139.206 97.6009 106.271 8563.54 75.2025 23.0311 465.766 319.584 104.159 33.5735 77.4383 44.9013 32.537 111.546 1571.52 8488.34 311.022 39.9503 261.969 11.4892 459.911
internal_count=100779 40128 60651 20988 13656 7486 3446 2776 39663 6170 35955 3742 3708 4040 37499 2629 3479 2020 519 1501 271 2146 2532 141 608 2391 3819 6020 2597 37381 3134 736 3757 550 1230 139 221 670 505 73 179 630 428 444 37334 326 99 2007 1459 459 139 336 197 139 467 7332 37008 1335 166 1203 47 1981
is_linear=0
shrinkage=0.05


Tree=9
num_leaves=63
num_cat=0
split_feature=0 11 9 9 9 13 3 6 18 11 4 6 18 6 9 6 13 15 18 9 6 14 4 18 8 6 1 9 16 1 7 14 9 16 13 1 4 7 14 13 9 14 1 13 14 1 1 9 1 18 14 16 16 1 1 13 13 12 18 6 6 6
split_gain=25601.9 4260.67 3353.25 1935.92 1972.94 1236.81 615.103 347.34 344.414 308.981 280.696 275.29 429.352 270.412 202.394 379.522 168.657 149.86 122.01 115.716 114.643 109.053 102.398 121.172 81.5212 77.0771 300.81 94.9424 120.25 73.9656 65.7018 54.6679 61.9096 54.5924 53.8696 51.3751 52.046 51.218 50.1757 462.225 48.3804 46.5617 104.46 60.7482 44.5217 43.637 42.2043 41.2625 38.2789 125.135 56.8092 37.2145 35.5581 34.015 33.327 27.9341 27.7079 23.4061 23.3143 22.295 21.457 19.7554
threshold=0.49500000000000005 1.0000000180025095e-35 12.500000000000002 17.500000000000004 44.500000000000007 10.500000000000002 0.33500000000000008 0.015000000000000001 1.0000000180025095e-35 1.0000000180025095e-35 0.025000000000000005 0.66500000000000015 0.62500000000000011 0.015000000000000001 23.500000000000004 1.0000000180025095e-35 7.5000000000000009 0.14500000000000005 1.0000000180025095e-35 53.500000000000007 1.0000000180025095e-35 250.50000000000003 0.91500000000000015 0.075000000000000025 0.025000000000000005 1.0000000180025095e-35 244.50000000000003 19.500000000000004 1.0000000180025095e-35 2.5000000000000004 0.99500000000000011 251.50000000000003 19.500000000000004 0.49500000000000005 3.5000000000000004 70.500000000000014 0.025000000000000005 0.99500000000000011 4.5000000000000009 2.5000000000000004 62.500000000000007 195.50000000000003 2.5000000000000004 2.5000000000000004 244.50000000000003 15.500000000000002 254.50000000000003 19.500000000000004 8.5000000000000018 0.075000000000000025 62.500000000000007 0.015000000000000001 0.025000000000000005 52.500000000000007 253.50000000000003 1.5000000000000002 7.5000000000000009 0.66000000000000014 0.03500000000000001 0.025000000000000005 0.89500000000000013 0.065000000000000016
decision_type=2 2 2 2 2 2 2 2 2 2 2 2 2 2 2 2 2 2 2 2 2 2 2 2 2 2 2 2 2 2 2 2 2 2 2 2 2 2 2 2 2 2 2 2 2 2 2 2 2 2 2 2 2 2 2 2 2 2 2 2 2 2
left_child=5 2 29 30 6 10 11 16 14 13 18 48 -13 -7 15 34 21 24 -1 41 51 40 23 -21 25 26 33 28 -27 58 38 -17 35 -10 47 36 -33 -11 -4 45 55 42 -9 61 -28 -40 -46 -3 49 59 -51 54 -48 -49 -19 -6 -54 -8 -2 -5 -29 -44
right_child=1 8 3 4 7 9 57 19 17 37 -12 12 -14 -15 -16 31 -18 20 -20 22 -22 -23 -24 -25 -26 27 44 60 -30 -31 -32 32 -34 -35 -36 -37 -38 -39 39 -41 -42 -43 43 -45 46 -47 52 53 -50 50 -52 -53 56 -55 -56 -57 -58 -59 -60 -61 -62 -63
leaf_value=-0.0657710949923348 -0.039637788552418125 -0.058177099036497849 0.074934055585225187 -0.015105582890168315 -0.00066458859554185403 -0.059806692843424991 -0.033256217027002384 0.074709288049301104 0.064280966046905294 -0.068163156303657213 0.070300308345781853 -0.071963356519240379 0.074201384041592558 0.075416462904649165 -0.070505215002359858 -0.067651334795127485 0.071923830244339168 0.081136372751581837 0.054714145196910327 -0.073609141715679019 -0.069681156585483142 -0.067028431736382468 0.073630023153408081 0.067674911069593641 -0.069956718443864349 0.066975612984573676 -0.071294296431491197 -0.070131130966832975 -0.073465724387234158 -0.07092817543081191 -0.040441595565218688 -0.051086989916876407 -0.058749412952210339 -0.067251566638546964 -0.07292683463666641 0.083396914061682689 0.081633030639103099 0.089254496200276645 0.0073974432409439602 0.075174563018926555 -0.076108210048272965 0.076361928052774655 -0.0070970952498441656 0.073044617229605105 0.1253104338711972 -0.065238162395582763 -0.060015910346887774 0.058202955251629954 -0.070217533167035426 -0.081096478197969529 0.060612591536218452 0.069853456512791942 0.065581634645614201 -0.026909890481906801 -0.081950189812412463 0.06083028638962415 -0.048119147386702241 0.075418489050997115 0.054449129593238832 -0.068611014620721708 0.040203188466752554 -0.075136272727989548
leaf_weight=215.34931586682796 11.769057184457781 9.7868010401725751 764.92602603137493 21.54796339571476 44.540173679590225 37.148311078548431 5.2132601737976065 140.08341632783413 96.109830155968666 44.259493172168732 56.077941954135895 104.52454337477684 96.74463015794754 7753.9698770940304 6668.4876010268927 504.3620563596487 50.888534486293793 4.9633433371782276 23.283809810876846 44.893219247460365 25.043793842196465 98.460181936621666 41.820096164941788 22.925904795527458 190.59168282151222 33.522330522537231 117.07561005651951 200.84827767312527 27.949769660830498 1516.1806788444519 14.526240527629851 33.425792902708054 93.566629394888878 8.5941183865070325 11.406900271773337 15.927185475826262 9.4822633415460569 5.8502100408077231 29.551193982362747 497.24286350607872 14.06518669426441 466.76738005876541 44.796286210417747 22.668293431401253 4.6556103825569144 68.858902499079704 38.429060161113739 104.73381848633289 870.74948480725288 8.9859501421451551 33.210558578372002 62.646724790334702 13.204154133796694 13.220467731356619 8.4925451427698135 31.546879813075066 9.0173465162515622 99.872926235198975 14.945469528436659 201.82810492813587 4.5052888691425315 14.003700166940687
leaf_count=1013 53 45 3408 98 194 174 23 618 408 209 250 494 430 34626 31985 2386 225 21 102 199 110 458 185 100 896 138 559 946 129 7277 67 150 437 38 53 67 40 24 122 2200 63 2068 194 99 20 317 178 445 4125 40 144 264 53 57 38 134 40 443 66 952 19 63
internal_value=0 -0.041768 -0.00718209 0.017748 -0.00863467 0.0701963 -0.046452 0.0439536 -0.0642347 0.0739757 -0.0303603 -0.055603 -0.00170593 0.0747717 -0.0676608 -0.0438292 -0.00885426 -0.0339926 -0.0540152 0.0598034 0.0231126 -0.0306486 0.0120958 -0.0258488 -0.0417508 -0.0320456 -0.0140643 -0.0513922 0.00312058 -0.069475 0.0653317 -0.0597217 -0.033479 0.0534848 0.0311813 0.00670892 -0.0217572 -0.049785 0.066461 0.05558 0.00908384 0.0674026 0.0485269 0.00350673 -0.0528438 -0.0434267 -0.0197671 0.0404779 -0.0651494 -0.0485324 0.030435 0.053649 -0.0309035 0.0486634 -0.021794 0.0248321 0.0194426 0.0700272 0.0129992 -0.0634496 -0.0677105 -0.0233012
internal_weight=0 13708.2 5398.14 3855.24 2480.14 8135.94 1442.68 1037.46 8310.05 7841.23 294.711 1337.59 201.269 7791.12 7464.4 795.912 239.501 845.649 238.633 797.958 101.146 188.612 109.639 67.8191 744.503 553.911 287.086 266.826 61.4721 1542.9 1375.11 656.764 152.402 104.704 139.148 58.8352 42.9081 50.1097 1360.58 595.653 90.1522 688.319 221.552 81.4683 182.382 98.4101 65.3062 127.741 1136.32 265.573 42.1965 76.1026 60.6506 117.954 13.4559 76.0871 22.2215 105.086 26.7145 223.376 205.354 58.8
internal_count=100779 64381 24859 17463 11349 36398 6749 4600 39522 35033 1365 6283 924 34800 35665 3680 1074 3857 1115 3526 433 849 484 299 3424 2528 1296 1232 267 7396 6114 3080 694 446 600 257 190 233 6047 2639 391 3042 974 356 850 439 291 547 5359 1234 184 323 271 502 59 328 93 466 119 1050 965 257
is_linear=0
shrinkage=0.05


Tree=10
num_leaves=63
num_cat=0
split_feature=10 6 11 9 9 9 6 18 9 7 9 6 0 15 9 14 0 13 8 6 13 6 4 6 13 9 16 11 13 16 16 10 13 14 13 6 18 14 13 14 12 9 5 6 3 18 4 13 16 6 9 18 17 9 0 13 14 9 6 14 6 4
split_gain=24664.8 3188.77 2980.27 2896.68 2039.78 926.936 544.958 309.521 193.205 189.947 188.408 355.119 176.138 174.847 160.366 156.885 129.278 119.528 81.3297 63.3684 63.1814 171.846 126.043 61.7745 142.268 79.4207 111.255 59.8439 57.331 53.2456 52.3481 49.7428 49.4356 48.2453 462.39 47.5162 47.2967 46.7259 54.7613 43.8921 41.7135 37.6526 35.6685 38.1811 32.9342 32.5135 37.9392 31.7973 30.3071 30.0652 28.2035 25.2313 24.7622 23.8487 22.5784 21.1433 19.5093 18.1388 30.532 17.8407 60.2353 14.3284
threshold=5.5000000000000009 0.015000000000000001 1.0000000180025095e-35 12.500000000000002 17.500000000000004 44.500000000000007 0.015000000000000001 1.0000000180025095e-35 48.500000000000007 0.055000000000000007 23.500000000000004 1.0000000180025095e-35 0.19500000000000003 0.14500000000000005 1.0000000180025095e-35 199.50000000000003 0.97500000000000009 6.5000000000000009 0.025000000000000005 0.68500000000000016 4.5000000000000009 0.065000000000000016 0.94500000000000006 1.0000000180025095e-35 6.5000000000000009 19.500000000000004 1.0000000180025095e-35 1.0000000180025095e-35 1.5000000000000002 0.46500000000000002 1.0000000180025095e-35 3.5000000000000004 3.5000000000000004 5.5000000000000009 3.5000000000000004 0.9850000000000001 0.115 251.50000000000003 1.5000000000000002 250.50000000000003 0.56500000000000006 19.500000000000004 0.03500000000000001 0.42500000000000004 0.49500000000000005 0.085000000000000006 0.115 1.5000000000000002 0.99500000000000011 0.89500000000000013 53.500000000000007 1.0000000180025095e-35 0.32500000000000007 23.500000000000004 0.66500000000000015 1.5000000000000002 65.500000000000014 19.500000000000004 0.025000000000000005 25.500000000000004 0.99500000000000011 1.0000000180025095e-35
decision_type=2 2 2 2 2 2 2 2 2 2 2 2 2 2 2 2 2 2 2 2 2 2 2 2 2 2 2 2 2 2 2 2 2 2 2 2 2 2 2 2 2 2 2 2 2 2 2 2 2 2 2 2 2 2 2 2 2 2 2 2 2 2
left_child=1 8 3 49 9 12 16 10 27 33 11 32 42 18 -3 19 -7 39 23 28 21 22 -16 24 29 26 -25 44 -8 30 -9 -29 41 -5 51 52 40 -13 57 47 -14 -4 43 -6 53 46 48 -18 -23 -2 -17 -35 -27 -1 -30 -32 -56 58 61 60 -47 -39
right_child=2 14 7 4 5 6 15 13 -10 -11 -12 37 36 -15 20 50 17 -19 -20 -21 -22 45 -24 25 -26 35 -28 31 54 -31 55 -33 -34 34 -36 -37 -38 38 -40 -41 -42 -43 -44 -45 -46 59 -48 -49 -50 -51 -52 -53 -54 -55 56 -57 -58 -59 -60 -61 -62 -63
leaf_value=0.041779755709208798 -0.069493299757241001 -0.070345230476214729 -0.05651260027337917 0.073018073625541441 0.070629945094070307 -0.070254926029948248 -0.046502881207482527 -0.070544678755018478 0.062378778020944339 -0.058398770097411928 -0.069054971530397441 -0.066136611739358989 -0.066282435157085928 0.05370121038894049 -0.056105607464035534 0.074681694760629747 -0.024524593277932105 0.074156261633624695 -0.068087944694225924 0.071002082350984361 0.073701987955005988 -0.08328887084028426 0.074877788689506772 0.064354148750452256 -0.064433576094093295 -0.06834144958450751 -0.071809249824885138 -0.071122803216513514 -0.039408319008369275 -0.067429632299345857 -0.015672563307316607 0.055971678514227165 -0.071316827157196089 -0.054485760497840742 0.073718949626911265 0.08214958724350932 0.025143182159905506 0.013362729607863544 -0.062909581462705352 -0.0632314540110685 0.055415117853144492 0.046620579720499634 -0.053638000167225336 -0.076277495339478446 0.05755850407706016 -0.09163451384293439 0.068038725041982925 0.048376068234818964 0.041209204235219059 0.048867171825642659 -0.011152869513829117 0.046746567428023113 0.043072570421899548 -0.069929482340812546 -0.014921292541906772 0.036506346430374967 0.061818752598695896 -0.043023749745188029 -0.073365164302207783 0.073351278300229583 0.071683853469593675 0.081849177294984088
leaf_weight=4.8289304524660102 1477.3136269897223 19.712832167744637 9.5766715407371503 749.53560094535351 36.223255947232246 135.67044012248516 53.536345049738884 14.496613904833792 32.912188872694969 32.113649174571037 6519.5831529945135 494.55986171960831 770.38465164601803 53.741287589073181 53.008528351783752 309.58756525814533 49.273008897900581 37.544061720371246 188.1771651506424 31.309447675943375 7559.7942345887423 10.551112979650497 28.104183614253998 33.474726840853691 92.316103905439377 199.29399901628494 27.184183955192566 13.091172620654108 10.488250657916067 19.262888491153717 22.766500532627106 18.689901635050774 11.08924590051174 87.771544218063354 477.69806960225105 5.5940750986337653 14.772085666656492 35.149065658450127 82.898132920265198 51.031802222132683 7.1062474995851508 116.61277763545513 9.7507621794939023 5.0379712134599677 5.2202452719211569 7.2812582403421393 24.04078283905983 21.477778136730194 9.108085498213768 5.3848100304603568 9.875437989830969 6.619393289089202 5.1151093393564215 451.13454174995422 11.108855426311491 131.85435549914837 32.5471001714468 21.280890330672264 8.8503618240356428 469.71565993130207 25.134614706039429 9.7571264952421171
leaf_count=23 7310 93 45 3423 156 663 242 71 145 152 32213 2405 3726 229 238 1405 218 169 908 141 34646 46 127 139 442 965 129 63 47 92 104 80 53 401 2167 23 62 155 400 238 31 503 42 23 23 31 108 90 40 22 42 27 21 2218 48 585 143 98 41 2135 112 42
internal_value=0 0.0644455 -0.0450087 -0.0120494 0.0166019 -0.0216778 0.0186252 -0.0630416 -0.0549127 0.0617525 -0.066261 -0.0431968 -0.0576877 -0.0333777 0.0720941 0.0527355 -0.0343854 -0.00384165 -0.0397056 0.00839183 0.0724371 0.0571842 -0.0107221 -0.0300188 -0.0135844 -0.0470624 0.00333276 -0.0627435 -0.00981288 0.0113343 0.0203057 0.00361927 0.0298991 0.0646721 0.0537373 -0.0616189 -0.0634862 -0.0585754 -0.0348983 -0.0278874 -0.0651701 0.0387937 0.0323679 0.0526926 -0.0673167 0.0672754 0.0259096 -0.00239418 -0.025609 -0.0690634 0.0720283 -0.0473866 -0.0655534 -0.0687464 0.0264652 0.0288235 0.0422912 -0.00395258 0.0115147 0.0708754 0.0349993 0.0282433
internal_weight=0 8732.33 12535.8 4433.16 2950.46 1596.73 753.45 8102.63 525.877 1353.74 7309.36 789.774 843.275 793.277 8206.45 458.453 294.997 159.327 739.536 138.99 8186.74 626.944 81.1127 551.359 280.696 270.662 60.6589 492.965 107.681 188.38 169.117 31.7811 137.279 1321.62 572.089 210.003 792.263 652.495 157.936 121.783 777.491 126.189 51.012 41.2612 461.184 545.832 43.7 70.7508 19.6592 1482.7 319.463 94.3909 204.409 455.963 54.1442 154.621 43.656 75.0374 53.7566 502.132 32.4159 44.9062
internal_count=100779 40128 60651 20988 13656 7486 3446 39663 2552 6170 35955 3742 4040 3708 37576 2068 1378 715 3479 621 37483 2837 365 2571 1294 1277 268 2407 480 852 760 143 601 6018 2595 1009 3819 3141 736 546 3757 548 221 179 2264 2472 194 308 86 7332 1447 428 986 2241 238 689 191 336 238 2278 143 197
is_linear=0
shrinkage=0.05


Tree=11
num_leaves=63
num_cat=0
split_feature=10 2 11 9 9 9 6 18 9 2 0 9 0 15 14 9 0 2 1 2 16 9 16 2 11 9 3 10 13 14 14 13 14 13 11 6 18 1 12 1 9 5 6 2 2 6 9 14 18 13 2 13 1 9 13 1 5 18 13 14 18 10
split_gain=22922.4 3095.51 2781 2700.61 1891.64 860.551 503.719 296.179 181.035 331.348 172.736 166.394 164.347 161.142 147.078 132.409 121.594 128.654 79.283 254.399 81.0915 79.7895 102.235 61.7841 57.0831 54.951 51.3149 51.0996 50.163 47.2163 45.4088 417.375 45.2797 51.3922 45.2284 44.4662 44.4154 40.5208 38.8389 36.1353 35.5021 32.5476 34.8942 29.0274 28.4797 28.1649 26.637 25.9284 28.5219 34.7973 27.4541 25.2013 25.0766 25.5993 24.9069 81.5164 147.624 28.7369 24.3519 60.683 21.534 26.5077
threshold=5.5000000000000009 0.63500000000000012 1.0000000180025095e-35 12.500000000000002 17.500000000000004 44.500000000000007 0.015000000000000001 1.0000000180025095e-35 23.500000000000004 0.93500000000000016 0.99500000000000011 1.0000000180025095e-35 0.19500000000000003 0.14500000000000005 199.50000000000003 48.500000000000007 0.97500000000000009 0.8650000000000001 244.50000000000003 0.99500000000000011 0.50500000000000012 19.500000000000004 1.0000000180025095e-35 0.89500000000000013 1.0000000180025095e-35 49.500000000000007 0.49500000000000005 3.5000000000000004 2.5000000000000004 42.500000000000007 4.5000000000000009 2.5000000000000004 251.50000000000003 1.5000000000000002 1.0000000180025095e-35 0.9850000000000001 0.115 8.5000000000000018 0.56500000000000006 65.500000000000014 59.500000000000007 0.03500000000000001 0.42500000000000004 0.96500000000000008 0.26500000000000007 0.89500000000000013 53.500000000000007 244.50000000000003 0.015000000000000001 8.5000000000000018 0.99500000000000011 6.5000000000000009 61.500000000000007 19.500000000000004 5.5000000000000009 2.5000000000000004 0.59500000000000008 0.095000000000000015 2.5000000000000004 250.50000000000003 0.03500000000000001 2.5000000000000004
decision_type=2 2 2 2 2 2 2 2 2 2 2 2 2 2 2 2 2 2 2 2 2 2 2 2 2 2 2 2 2 2 2 2 2 2 2 2 2 2 2 2 2 2 2 2 2 2 2 2 2 2 2 2 2 2 2 2 2 2 2 2 2 2
left_child=1 11 3 45 10 12 16 8 9 32 -5 -1 41 18 23 24 -7 40 19 21 51 22 -9 25 26 29 -3 -26 37 44 -12 43 -4 52 54 -23 38 -11 -14 -39 58 42 -6 -32 -8 -2 -16 -20 -49 50 -50 -21 -34 -54 55 60 57 -57 59 -18 61 -13
right_child=2 15 7 4 5 6 14 13 -10 28 30 34 36 -15 46 -17 17 -19 47 20 -22 35 -24 -25 27 -27 -28 -29 -30 -31 31 -33 33 -35 -36 -37 -38 39 -40 -41 -42 -43 -44 -45 -46 -47 -48 48 49 -51 -52 -53 53 -55 -56 56 -58 -59 -60 -61 -62 -63
leaf_value=-0.068361339867724732 -0.068178131754860136 -0.067201032867140506 -0.064899156412974779 -0.054792305581012259 0.067709955060614904 -0.068884611602985632 0.052356673635210627 0.060893623155395843 -0.067727842597050017 -0.025991882575546622 0.071342964324022956 -0.042117424474552856 -0.06482600885385055 0.051707704346476785 0.07291448962457836 0.047129208473423168 0.065570512192013528 -0.053772060226922852 -0.068808492337326846 0.060199204841901721 -0.06847154890421113 -0.064432606284873864 -0.070297300519236439 -0.068344697788145406 -0.06964177005190203 -0.044597835777745232 0.062243766039313919 0.060608283107593877 -0.056842169146050538 0.060370631518072787 0.00040432168046317785 0.071448058162295949 -0.028630393081684469 -0.061431359336520101 -0.028906636677472921 0.078901318641805648 0.023978063197431822 0.060205117661430711 0.052980705677138376 -0.055715337158500161 -0.070652553964209094 -0.05145316125848886 -0.074419344385076566 -0.062580771756121686 -0.068734376204176023 0.04660744057358527 -0.010616638050000113 -0.070739827600512117 -0.077479361648143563 -0.06279353003158894 0.035415862559305421 -0.042636588159317076 0.067232943343356374 -0.024896608946528717 0.072030863845036111 -0.08224857199683093 0.072237120418127937 0.017493743340269818 0.074905523631305829 -0.062257463398090754 0.071448501280788196 0.067120542389498425
leaf_weight=21.449180692434311 1431.6777808815241 457.52635145187378 479.11164264380932 31.846605494618416 35.904129579663277 131.55519293248653 7.5963402837514904 33.618315324187279 6320.0287601202726 19.939189344644547 726.08287419378757 9.4897041767835617 748.85515120625496 53.04046493768692 301.4427265971899 30.220443710684776 25.753872483968735 70.59219092130661 198.48627527058125 96.115834131836891 15.620974108576773 242.09275656938553 26.600201338529587 22.157774105668068 13.098276078701021 23.910733535885811 7.7865207344293585 17.713459342718124 15.311265125870703 69.854717195034027 25.253898903727531 469.69441837072372 42.922953575849533 80.704119294881821 11.292101100087164 5.5346306562423697 14.716814592480658 94.500806987285614 7.0622490942478171 7.2377061992883673 7.0062253922224036 9.6589124053716642 4.9088457971811286 66.359691843390465 13.458699092268942 5.3641110360622397 9.8560290038585645 39.123626619577408 6.5775866210460654 23.858843341469765 29.704181089997292 6.3513122648000708 18.751267671585083 12.610870942473413 7339.5741646438837 28.537452563643456 52.389453127980232 9.6678416281938535 39.039794579148293 14.518386512994764 485.4059719145298 13.38869321346283
leaf_count=104 7310 2318 2398 154 156 663 33 141 32213 89 3408 40 3726 229 1405 135 105 331 1000 417 75 1207 130 104 65 112 35 76 73 309 104 2185 197 400 47 23 62 414 31 32 34 42 23 319 63 22 42 189 30 113 127 27 80 59 34576 124 243 41 179 66 2263 61
internal_value=0 0.0629587 -0.0440366 -0.0117744 0.016184 -0.0211249 0.0181068 -0.0617266 -0.0649373 -0.0420655 0.0602409 0.0707134 -0.0563258 -0.0324148 0.0512718 -0.0544812 -0.0334317 -0.00370773 -0.0385803 -0.0247434 0.0376474 -0.0486762 0.00294293 0.00809679 -0.0606706 0.0228483 -0.0650349 0.00523811 0.0284519 0.0405877 0.0630865 0.0524064 -0.0572998 -0.0338084 0.0710886 -0.061229 -0.0620505 0.0391849 -0.0637254 0.0519585 0.0372355 0.0310821 0.0506151 -0.0452185 -0.0250466 -0.0677497 0.0702698 -0.0583742 -0.0375101 -0.0158929 0.0149489 0.053825 -0.00379842 0.0301872 0.0712309 0.0614263 0.017732 -0.0570088 0.0467661 0.0194878 0.0692142 0.0218099
internal_weight=0 8497.54 12182 4314.13 2877.09 1557.85 736.743 7867.84 7091.12 771.09 1319.24 7971.19 821.106 776.725 448.277 526.345 288.466 156.91 723.685 425.934 118.088 307.846 60.2185 136.978 496.125 114.82 465.313 30.8117 136.989 90.9098 1287.39 561.308 634.101 154.989 7949.75 247.627 770.634 121.678 755.917 101.739 86.3183 50.4719 40.813 91.6136 21.055 1437.04 311.299 297.751 99.2642 60.1406 36.2818 102.467 74.2851 31.3621 7938.45 598.879 90.5947 38.2053 79.3121 40.2723 508.284 22.8784
internal_count=100779 40128 60651 20988 13656 7486 3446 39663 35955 3742 6170 37499 4040 3708 2068 2629 1378 715 3479 2020 519 1501 271 621 2494 517 2353 141 608 405 6016 2608 3134 736 37395 1230 3819 535 3757 446 384 221 179 423 96 7332 1447 1459 459 270 157 444 336 139 37348 2772 408 165 350 171 2364 101
is_linear=0
shrinkage=0.05


Tree=12
num_leaves=63
num_cat=0
split_feature=10 6 11 9 9 9 6 18 9 6 9 7 0 15 9 14 0 13 1 1 6 16 9 16 6 11 13 4 14 13 11 14 13 10 13 18 6 14 12 1 1 14 9 13 13 6 14 18 13 9 13 1 10 6 1 13 1 4 9 17 18 10
split_gain=21337.6 2754.12 2598.82 2521.14 1757.02 799.721 466.608 281.646 174.188 306.952 168.259 164.147 153.521 149.011 138.927 138.044 114.231 102.077 101.95 74.0914 235.815 74.6916 74.6243 94.3684 56.3545 53.0743 49.7547 49.3352 43.1705 400.602 43.1697 43.0671 48.3479 42.6505 42.4534 41.7844 41.2725 38.974 36.2134 33.411 34.3015 30.004 28.6319 27.4597 27.1766 26.4312 25.2419 27.0803 32.2117 25.2357 25.2236 104.928 55.4211 25.1036 24.8244 23.1548 22.8514 31.2452 23.4465 20.3947 19.6768 22.0754
threshold=5.5000000000000009 0.015000000000000001 1.0000000180025095e-35 12.500000000000002 17.500000000000004 44.500000000000007 0.015000000000000001 1.0000000180025095e-35 23.500000000000004 1.0000000180025095e-35 48.500000000000007 0.24500000000000002 0.19500000000000003 0.14500000000000005 1.0000000180025095e-35 199.50000000000003 0.97500000000000009 6.5000000000000009 88.500000000000014 244.50000000000003 1.0000000180025095e-35 0.50500000000000012 19.500000000000004 1.0000000180025095e-35 0.55500000000000016 1.0000000180025095e-35 10.500000000000002 0.15500000000000003 5.5000000000000009 3.5000000000000004 1.0000000180025095e-35 251.50000000000003 1.5000000000000002 3.5000000000000004 3.5000000000000004 0.115 0.9850000000000001 250.50000000000003 0.56500000000000006 8.5000000000000018 51.500000000000007 254.50000000000003 23.500000000000004 1.5000000000000002 9.5000000000000018 0.89500000000000013 244.50000000000003 0.015000000000000001 8.5000000000000018 53.500000000000007 1.5000000000000002 2.5000000000000004 2.5000000000000004 1.0000000180025095e-35 78.500000000000014 6.5000000000000009 61.500000000000007 0.015000000000000001 19.500000000000004 0.32500000000000007 0.03500000000000001 2.5000000000000004
decision_type=2 2 2 2 2 2 2 2 2 2 2 2 2 2 2 2 2 2 2 2 2 2 2 2 2 2 2 2 2 2 2 2 2 2 2 2 2 2 2 2 2 2 2 2 2 2 2 2 2 2 2 2 2 2 2 2 2 2 2 2 2 2
left_child=1 10 3 45 11 12 16 8 9 34 25 28 41 19 -3 24 -7 37 30 20 21 55 23 -22 26 42 -8 -20 -5 54 50 -11 56 -27 39 38 59 43 -14 -4 -41 -6 -1 -18 -43 -2 -21 -48 53 -17 51 60 -53 -49 -30 -9 57 -33 -58 -24 61 -16
right_child=2 14 7 4 5 6 15 13 -10 31 -12 -13 35 -15 18 49 17 -19 27 46 22 -23 36 -25 -26 33 -28 -29 29 -31 -32 32 -34 -35 -36 -37 -38 -39 -40 40 -42 44 -44 -45 -46 -47 47 48 -50 -51 -52 52 -54 -55 -56 -57 58 -59 -60 -61 -62 -63
leaf_value=0.037466020908751549 -0.066973334657889946 -0.067480087563966659 -0.02119622222136975 0.069755367129154505 -0.050673349126207738 -0.067631037039679376 -0.025811863828314185 0.058163749524813346 -0.066509452515369452 -0.063381719105122344 0.05848089694143075 -0.056404811255914344 -0.063472062135562501 0.049826944260031113 -0.080752470424848025 0.071311197270825022 -0.02276087438111599 0.070652581827903113 -0.054371226534221176 -0.06755851091706333 0.058529831222835671 -0.066963061156568568 -0.065503647336959347 -0.068923930417579174 0.066199538581055692 -0.06836056488664892 0.066729778007098464 0.073431125632913916 -0.0093277968147383698 0.070277681261151734 -0.032704850821772262 -0.055350605681281043 -0.060043989526874064 0.0521661637861634 -0.068756409038768063 0.022869077995005316 0.075980423839045422 -0.060252152863832259 0.050696493174341717 0.059365701368257168 -0.025460890424302021 -0.038380915850750451 -0.066373641723499979 0.045524006719530413 0.06786218162924107 0.044491948950696109 -0.06932463805286268 0.033508463693533684 -0.061163411302315875 -0.010105736952743138 0.070334918294465684 -0.072425421038030943 0.064323717623285676 -0.075525015296172171 -0.063896020371438933 -0.040923008648989234 0.064784704386660105 0.038120326584952534 -0.02388578674374886 0.02536221756506149 0.069049325668197964 0.059929248210027077
leaf_weight=6.7432956397533408 1385.7260341644287 18.626492619514465 21.138992518186569 709.3254346549511 9.3826261907815915 127.39932146668434 85.543703973293304 94.545536458492279 6119.1109621077776 466.42431712150574 31.877071917057037 30.16456013917923 727.13978570699692 52.309137895703316 4.7269830256700498 293.02248825132847 48.197731584310532 35.571519747376442 24.665056318044662 192.20990972220898 33.236918643116951 15.185291171073912 228.85364116728306 25.794158771634102 31.630100876092911 12.312146857380869 17.494928061962128 10.883164763450621 32.249648720026016 453.07770337164402 10.292680844664572 29.882042199373245 78.496631756424904 18.175607591867447 10.496039286255835 14.660411536693571 5.4618518054485312 48.701540485024452 7.0126910358667365 88.028968080878258 13.783666491508482 7.3554567247629157 426.72835025191307 21.197833150625229 33.130844175815582 5.33884273469448 37.955788090825081 29.822094663977623 23.284625425934792 9.8370848000049573 7399.5737445950508 22.638352781534195 11.013679713010786 6.4145338088273993 58.920738041400909 6.2880273610353461 18.493435904383659 12.7578067779541 12.490450859069826 6.3465244323015204 250.75028219819069 6.7998586148023605
leaf_count=32 7310 93 94 3423 41 663 390 417 32213 2405 145 150 3726 229 19 1405 218 169 123 1000 141 75 1181 130 148 63 83 52 135 2169 43 141 400 80 53 62 23 238 31 394 60 35 2232 90 145 22 189 127 113 42 35876 98 49 30 293 27 80 56 59 26 1192 31
internal_value=0 0.0616077 -0.0431496 -0.0115234 0.0158022 -0.0206233 0.017646 -0.0605284 -0.0637187 -0.0410093 -0.0526387 0.0588543 -0.0550553 -0.0315979 0.0689077 0.0499389 -0.0326231 -0.00359973 0.0692359 -0.0376359 -0.0241088 0.036416 -0.0475396 0.00283777 0.00782133 -0.0602733 -0.0100992 -0.0152443 0.0616277 0.0510349 0.0696256 -0.0558471 -0.0327449 0.00349276 0.0277653 -0.0607125 -0.0598964 -0.0259649 -0.0623815 0.0360051 0.0478817 0.0298898 -0.0647583 -0.00190231 0.0485602 -0.0665455 -0.0570479 -0.0363224 -0.0152774 0.0686667 0.0697625 0.0554483 -0.02767 0.0142076 -0.0445936 0.0519847 -0.00363891 -0.0273842 0.0290392 -0.0630518 0.066113 0.00223781
internal_weight=0 8255.81 11820.9 4192.08 2801.02 1517.28 718.596 7628.81 6871.1 751.992 495.836 1283.74 798.682 757.708 7759.97 437.528 281.068 153.669 7741.34 705.399 415.712 116.019 299.693 59.0311 134.669 463.959 103.039 35.5482 1253.57 544.248 7705.8 618.545 152.12 30.4878 133.448 748.813 240.662 118.097 734.152 122.952 101.813 49.8689 433.472 69.3956 40.4863 1391.06 289.687 97.477 59.5213 302.86 7695.5 295.929 33.652 36.2366 91.1704 100.834 73.6237 42.6398 30.9839 235.2 262.277 11.5268
internal_count=100779 40128 60651 20988 13656 7486 3446 39663 35955 3742 2552 6170 4040 3708 37576 2068 1378 715 37483 3479 2020 519 1501 271 621 2407 473 175 6020 2597 37308 3141 736 143 601 3819 1230 546 3757 548 454 221 2264 308 180 7332 1459 459 270 1447 37265 1389 147 157 428 444 336 197 139 1207 1242 50
is_linear=0
shrinkage=0.05


Tree=13
num_leaves=63
num_cat=0
split_feature=10 6 11 9 9 9 6 18 9 6 9 7 15 18 14 9 7 1 13 8 10 6 1 9 16 11 4 13 14 13 14 13 11 16 10 13 14 6 14 1 10 9 16 3 1 13 6 13 1 16 9 6 17 6 16 9 1 4 9 18 10 7
split_gain=19887.6 2565.98 2432.34 2356.44 1634.22 744.133 432.085 267.952 167.621 286.057 156.776 152.7 137.978 136.043 130.328 129.424 107.782 95.2561 94.4912 70.5873 52.5655 51.5622 228.819 64.9453 87.6085 49.9888 45.7702 43.5884 41.1611 45.3437 40.8062 362.48 40.5627 40.268 39.4511 39.2028 39.0284 37.976 36.4842 33.7117 32.4281 31.8005 30.582 28.6216 27.5771 24.8575 24.8455 24.3435 97.8063 51.0906 23.9764 23.5661 22.8819 22.1458 22.0784 22.0691 20.9621 28.796 21.5073 18.5762 20.128 17.7361
threshold=5.5000000000000009 0.015000000000000001 1.0000000180025095e-35 12.500000000000002 17.500000000000004 44.500000000000007 0.015000000000000001 1.0000000180025095e-35 23.500000000000004 1.0000000180025095e-35 48.500000000000007 0.24500000000000002 0.14500000000000005 0.10500000000000002 199.50000000000003 1.0000000180025095e-35 0.03500000000000001 88.500000000000014 6.5000000000000009 0.025000000000000005 9.5000000000000018 1.0000000180025095e-35 244.50000000000003 19.500000000000004 1.0000000180025095e-35 1.0000000180025095e-35 0.15500000000000003 10.500000000000002 251.50000000000003 1.5000000000000002 4.5000000000000009 4.5000000000000009 1.0000000180025095e-35 0.49500000000000005 3.5000000000000004 3.5000000000000004 244.50000000000003 0.9850000000000001 250.50000000000003 254.50000000000003 9.5000000000000018 19.500000000000004 0.025000000000000005 0.49500000000000005 51.500000000000007 1.5000000000000002 0.89500000000000013 1.5000000000000002 2.5000000000000004 0.025000000000000005 53.500000000000007 0.015000000000000001 0.32500000000000007 0.095000000000000015 0.065000000000000016 23.500000000000004 61.500000000000007 0.015000000000000001 19.500000000000004 0.03500000000000001 2.5000000000000004 1.0000000180025095e-35
decision_type=2 2 2 2 2 2 2 2 2 2 2 2 2 2 2 2 2 2 2 2 2 2 2 2 2 2 2 2 2 2 2 2 2 2 2 2 2 2 2 2 2 2 2 2 2 2 2 2 2 2 2 2 2 2 2 2 2 2 2 2 2 2
left_child=1 10 3 46 11 13 16 8 9 35 25 30 19 40 20 -3 18 32 38 21 27 22 33 24 -23 43 -19 -8 -11 56 -5 51 47 -9 -27 41 -24 52 45 -38 61 -4 -41 55 -43 -7 -2 48 59 -50 -16 -32 -25 -15 -44 -1 57 -30 -58 60 -17 -6
right_child=2 15 7 4 5 6 14 12 -10 28 -12 -13 -14 53 50 17 -18 26 -20 -21 -22 23 36 37 -26 34 -28 -29 29 -31 31 -33 -34 -35 -36 -37 39 -39 -40 42 -42 44 54 -45 -46 -47 -48 -49 49 -51 -52 -53 -54 -55 -56 -57 58 -59 -60 -61 -62 -63
leaf_value=0.041007339065723583 -0.065866802812481404 -0.06612136774525533 -0.054303411463394874 0.068370820879661273 -0.063100265184164242 -0.02174786085254566 -0.022117578069604717 0.057735730661156365 -0.065387754430125219 -0.062143181848623941 0.056552898204602978 -0.05499437067079687 0.0480458929747479 -0.046607944916652828 0.069851653698228378 -0.076753768909931339 -0.066481221726088974 -0.052930352556762185 0.069127794257599795 -0.064447712763851792 0.07056737029726716 0.057260723101564083 -0.066598864518441311 -0.064354709057886039 -0.067672652902903363 -0.06715213885394615 0.071868349630598349 0.065156841559693285 -0.053789941717747841 -0.058736471709949813 -0.056156688018542213 0.069101305035927763 -0.031257437747247589 -0.060340711841762186 0.050196602039186647 -0.067511926746572276 0.11136670569214968 0.073335565031562064 -0.058745703020021404 -0.055494191063044145 0.074796654350554978 0.051369910279724096 0.047264970381576538 0.05461073422743401 -0.02428965610740361 0.043307166417527673 0.042504582552582069 0.068933787050487125 0.065153069154620324 -0.068673323891082924 -0.009618965922242307 -0.002967613838302323 0.042873899073443612 0.06716923937620406 -0.074138050171963579 -0.066269715188693096 0.062513657315492174 0.036393784556841925 -0.022912645566799911 0.067525108632192299 0.058191712563575596 -0.044466460857259207
leaf_weight=4.8508763909339896 1339.7216875553131 18.072842925786972 9.2642554938793165 685.36715778708458 576.28345277905464 47.92766734957695 89.375910997390747 90.556959018111229 5917.9787081629038 452.29347734153271 31.329638823866844 29.410535544157028 51.555161520838737 5.1171698272228268 284.40634340047836 4.7245825976133329 123.22835034132004 24.084515020251274 34.563893973827362 172.45940369367599 26.489240422844887 32.334847703576088 104.10085107386112 182.11099933087826 24.790707841515541 11.917041033506395 10.571723595261572 17.033147126436234 29.228306144475937 76.288075730204582 63.764025986194611 437.93338367342949 10.232387408614157 7.8462361544370642 17.95010806620121 10.163474425673483 4.7603450119495383 5.378007858991622 47.483957380056381 35.693455070257187 4.5585210174322119 98.199227213859558 16.669863462448124 5.0611755847930899 13.72735311090946 21.169445350766182 5.3097845464944831 7178.0924560129642 10.390126392245291 22.741495847702026 9.8186311125755292 30.924685627222061 5.1149380803108206 26.042800202965736 4.8300646841526023 409.92063526809216 18.214126601815224 12.69646932184696 12.372949659824373 243.76712770760059 6.6564111858606339 164.05482132732868
leaf_count=23 7310 93 45 3410 3046 218 409 408 32213 2405 145 150 229 21 1405 19 663 123 169 908 129 139 557 965 129 63 52 83 141 400 317 2160 43 38 80 53 20 23 238 178 21 443 69 23 60 90 22 35876 47 100 42 133 21 120 24 2218 80 56 59 1192 31 832
internal_value=0 0.0603676 -0.0423254 -0.0112869 0.0154425 -0.0201352 0.0171862 -0.0594228 -0.0625951 -0.0400315 -0.0515924 0.0575845 -0.0308434 -0.0538709 0.0486373 0.0675204 -0.0317744 0.0678419 -0.00347804 -0.0367666 0.00754203 -0.0274823 -0.0120961 -0.0437759 0.00304354 -0.0591266 -0.0148611 -0.00814736 -0.0546385 -0.0318271 0.0603029 0.0499214 0.0682253 0.0483208 0.00337426 0.0268116 -0.0478989 -0.0576624 -0.0250042 -0.0164772 -0.0581525 0.0347219 -0.027118 -0.063573 0.0420906 -0.0018168 -0.065439 0.0683616 0.0541153 -0.0267052 0.0671996 -0.0387855 -0.0614253 0.0484845 0.0199912 -0.0650151 -0.00351641 -0.0264788 0.0279574 0.06461 0.00217191 -0.0589711
internal_weight=0 8010.36 11458.6 4069.98 2724.95 1477.55 701.497 7388.63 6650.43 732.448 481.029 1247.4 738.202 776.057 427.123 7529.33 274.373 7511.26 151.145 686.647 132.898 514.187 264.458 249.73 57.1256 449.7 34.6562 106.409 601.093 148.8 1217.99 532.622 7476.6 98.4032 29.8671 131.354 166.055 192.604 116.581 61.9537 744.897 121.191 57.1934 419.833 111.927 69.0971 1345.03 7466.37 288.28 33.1316 294.225 94.6887 187.226 31.16 21.4999 414.772 72.5119 41.9248 30.5871 255.148 11.381 740.338
internal_count=100779 40128 60651 20988 13656 7486 3446 39663 35955 3742 2552 6170 3708 4040 2068 37576 1378 37483 715 3479 621 2571 1294 1277 268 2407 175 492 3141 736 6020 2610 37308 446 143 601 848 1009 546 291 3899 548 271 2264 503 308 7332 37265 1389 147 1447 450 986 141 93 2241 336 197 139 1242 50 3878
is_linear=0
shrinkage=0.05


Tree=14
num_leaves=63
num_cat=0
split_feature=10 2 11 9 9 9 6 18 9 2 7 0 9 15 14 9 0 2 8 2 11 1 2 9 16 9 13 10 14 14 13 14 13 16 11 18 2 1 12 9 14 1 9 5 6 2 2 6 5 18 13 2 9 2 5 18 13 1 4 9 13 14
split_gain=18558.3 2503.68 2279.63 2204.98 1521.59 692.172 400.447 255.267 161.456 268.837 142.327 140.961 138.162 128.098 123.368 106.559 101.839 110.526 67.4931 53.7133 48.2941 48.2179 210.357 57.7621 81.0881 48.1711 43.3996 41.2012 41.1887 40.4251 42.5608 38.5718 349.959 37.7193 37.3383 36.2864 35.5915 34.0174 32.2292 30.5959 30.4654 30.1336 29.8535 28.4939 30.4585 24.8465 24.0582 23.4875 23.1473 22.9073 24.1929 39.2601 22.84 21.7268 66.7198 28.0888 20.7755 19.2404 26.5567 19.7546 18.8501 50.5178
threshold=5.5000000000000009 0.63500000000000012 1.0000000180025095e-35 12.500000000000002 17.500000000000004 44.500000000000007 0.015000000000000001 1.0000000180025095e-35 23.500000000000004 0.92500000000000016 0.055000000000000007 0.19500000000000003 1.5000000000000002 0.12500000000000003 199.50000000000003 48.500000000000007 0.97500000000000009 0.8650000000000001 0.025000000000000005 0.90500000000000014 1.0000000180025095e-35 238.50000000000003 0.99500000000000011 19.500000000000004 1.0000000180025095e-35 49.500000000000007 2.5000000000000004 3.5000000000000004 42.500000000000007 251.50000000000003 1.5000000000000002 5.5000000000000009 4.5000000000000009 0.49500000000000005 1.0000000180025095e-35 0.115 1.0000000180025095e-35 8.5000000000000018 0.56500000000000006 23.500000000000004 238.50000000000003 65.500000000000014 59.500000000000007 0.03500000000000001 0.35500000000000004 0.26500000000000007 0.96500000000000008 0.66500000000000015 0.79500000000000015 0.015000000000000001 6.5000000000000009 0.99500000000000011 53.500000000000007 0.27500000000000008 0.99500000000000011 0.99500000000000011 3.5000000000000004 61.500000000000007 0.015000000000000001 19.500000000000004 2.5000000000000004 250.50000000000003
decision_type=2 2 2 2 2 2 2 2 2 2 2 2 2 2 2 2 2 2 2 2 2 2 2 2 2 2 2 2 2 2 2 2 2 2 2 2 2 2 2 2 2 2 2 2 2 2 2 2 2 2 2 2 2 2 2 2 2 2 2 2 2 2
left_child=1 12 3 47 10 11 16 8 9 29 31 43 -1 18 19 20 -7 42 21 25 39 22 23 24 -9 28 37 -22 45 -4 57 -5 46 -24 53 38 -25 -11 -13 -3 -23 -39 60 44 -6 -8 -33 -2 -41 -42 51 -51 -16 -14 55 -55 -50 58 -31 -59 61 -18
right_child=2 15 7 4 5 6 14 13 -10 26 -12 35 34 -15 52 -17 17 -19 -20 -21 27 40 33 36 -26 -27 -28 -29 -30 30 -32 32 -34 -35 -36 -37 -38 41 -40 48 49 -43 -44 -45 -46 -47 -48 -49 56 50 -52 -53 -54 54 -56 -57 -58 59 -60 -61 -62 -63
